tree
version=v4
num_class=1
num_tree_per_iteration=1
label_index=0
max_feature_idx=62
objective=binary sigmoid:1
feature_names=Column_0 Column_1 Column_2 Column_3 Column_4 Column_5 Column_6 Column_7 Column_8 Column_9 Column_10 Column_11 Column_12 Column_13 Column_14 Column_15 Column_16 Column_17 Column_18 Column_19 Column_20 Column_21 Column_22 Column_23 Column_24 Column_25 Column_26 Column_27 Column_28 Column_29 Column_30 Column_31 Column_32 Column_33 Column_34 Column_35 Column_36 Column_37 Column_38 Column_39 Column_40 Column_41 Column_42 Column_43 Column_44 Column_45 Column_46 Column_47 Column_48 Column_49 Column_50 Column_51 Column_52 Column_53 Column_54 Column_55 Column_56 Column_57 Column_58 Column_59 Column_60 Column_61 Column_62
feature_infos=[1:3442] [1:404] [1:165] [1:402] [0:8441] [0:80843.080000000002] [0:1] [0:418.19999999999999] [0:569.77999999999997] [0:16846621.120000001] [0:26.949999999999999] [0:935923.39000000001] [0:2824] [0:344] [0:219] [0:43] [0:410] [0:1026] [0:5420] [0:3021] [1:503] [0.036719475603552286:0.87217636132600929] [0.027379613369703293:0.90592801570892334] [0.029783282428979874:0.89940571784973145] [0.029209049418568611:0.89842617511749268] [0.021783693469912654:0.91363476659526177] [0.021783693469912654:0.91363476659526177] [0.031431995332241058:0.88954728841781616] [0.039454370737075806:0.90156584978103638] [0.024367552038404964:0.94445441953658027] [0.02870455167993767:0.93720958682867139] [0.0220658317284354:0.94975648225261] [0.027018280699849129:0.91392701864242554] [0.029736874041114674:0.94882848751084448] [0.02510689945363968:0.88410888336031823] [0.026857178658246994:0.90622502565383911] [0.025738470856998371:0.94414096161184768] [0.02486341805281057:0.93785968917016804] [0.020004729661547063:0.94331686226487532] [0.037887419207594392:0.84678211513899881] [0.03076816163957119:0.90065193176269531] [0.030476771295070648:0.89301407337188721] [0.031440976117471903:0.92135884673562307] [0.05290026615690438:0.88106004241889901] [0.029335361866243907:0.90598578875644209] [0.029335361866243907:0.90598578875644209] [0.032377496361732483:0.8967168927192688] [0.027750163147186955:0.8931880517696601] [0.028169386071213096:0.86850141005226755] [0.0378012370242546:0.86693083576704755] [0.061528257874265607:0.79130426322188208] [0.071459820937190263:0.75766213832503782] [2.0034991554792348e-19:0.99999999999931122] [0.072693602900915089:0.73777719604290726] [8.6101390577007466e-09:0.70850941980265925] [0.061978388825441447:0.80864197530864201] [0.061978388825441447:0.80864197530864201] [0.069494031993034777:0.86057096829326318] [1.7799136857013159e-10:0.77928964071519014] [0.065004525631531307:0.7276785714285714] [0.095037316846062106:0.78081391858368032] [0.11810209533529083:0.80559574118744048] [0.11242036684775453:0.78133214355100722]
tree_sizes=1715 1746 1754 1748 1749 1756 1756 1758 1746 1756 1761 1754 1745 1757 1759 1754 1754 1751 1746 1755 1749 1743 1755 1763 1744 1746 1748 1751 1754 1762

Tree=0
num_leaves=15
num_cat=0
split_feature=37 32 35 28 24 43 23 23 22 29 33 36 43 36
split_gain=16582.1 1882.72 1492.83 248.909 244.062 227.486 191.786 50.6451 42.1919 41.7886 31.8397 28.1257 27.1254 21.0084
threshold=0.32153311264294054 0.56700170040130626 0.1480139642953873 0.22432683408260348 0.4438540935516358 0.70190306501280164 0.078175932168960585 0.11889610439538957 0.65140900015831005 0.27910850997577746 0.52673494163510748 0.38536016246325416 0.80939509805381515 0.13108618057853028
decision_type=2 2 2 2 2 2 2 2 2 2 2 2 2 2
left_child=2 4 6 13 11 8 -1 -8 -3 -5 -6 -2 -7 -4
right_child=1 5 3 9 10 12 7 -9 -10 -11 -12 -13 -14 -15
leaf_value=-1.2764537417221928 -1.1885558337051709 -1.1191445078905535 -1.2586214729432585 -1.2220443261810334 -1.1548441160328979 -1.0768577479082451 -1.2645645407405171 -1.2535133120459721 -1.0982120192173397 -1.2058091066765442 -1.1349532769721362 -1.173124092247456 -1.042186356376118 -1.2403131978799737
leaf_weight=3482.0850436985493 674.82268288731575 621.3627041131258 169.31914588809013 1250.9635033160448 478.68590830266476 621.01214687526226 3217.7648863494396 1529.4812287986279 392.97466364502907 580.17222866415977 347.05166548490524 524.95946370065212 62.048631101846695 2100.5389692783356
leaf_count=19866 3850 3545 966 7137 2731 3543 18358 8726 2242 3310 1980 2995 354 11984
internal_value=-1.22734 -1.13486 -1.25526 -1.23062 -1.16741 -1.09601 -1.26754 -1.261 -1.11103 -1.2169 -1.14648 -1.1818 -1.07371 -1.24168
internal_weight=0 3722.92 12330.3 4100.99 2025.52 1697.4 8229.33 4747.25 1014.34 1831.14 825.738 1199.78 683.061 2269.86
internal_count=91587 21240 70347 23397 11556 9684 46950 27084 5787 10447 4711 6845 3897 12950
is_linear=0
shrinkage=1


Tree=1
num_leaves=15
num_cat=0
split_feature=37 21 23 21 27 23 37 23 41 21 21 43 38 49
split_gain=14439.9 1467.1 1404.99 275.841 266.884 148.133 102.039 42.0691 35.5905 30.6745 29.0691 28.9429 19.3265 17.9976
threshold=0.32153311264294054 0.52082618458584318 0.13640814274549487 0.22428530893504603 0.67334818840026867 0.078175932168960585 0.42207820835400556 0.58775553107261669 0.17522887885570529 0.29328765885556879 0.10438932546544433 0.7608272207434249 0.51680205886858044 0.5243390809890518
decision_type=2 2 2 2 2 2 2 2 2 2 2 2 2 2
left_child=2 6 5 8 7 -1 -2 -3 -4 -5 -7 -6 -8 -14
right_child=1 4 3 9 11 10 12 -9 -10 -11 -12 -13 13 -15
leaf_value=-0.04798504461903607 0.039508250807042941 0.084990662918245696 -0.01904951040810211 0.0076588331294896511 0.12449929457187635 -0.03802938808541477 0.060305054415470495 0.10383306033365135 -0.008127590443004741 0.023642917532644556 -0.029669048780732517 0.1427299503268514 0.091026001968981807 0.041075904183604774
leaf_weight=3388.4065797328949 1031.9851699322462 530.94635462760925 1632.2761709094048 1186.0669837445021 616.32795003056526 2106.2096320092678 601.02220006287098 670.10214227437973 1373.5582857131958 401.84654827415943 2053.4107937961817 336.61295163631439 100.71231669187546 21.966937586665154
leaf_count=19866 5745 2877 9408 6739 3267 12266 3311 3599 7878 2268 11922 1770 551 120
internal_value=0 0.0835281 -0.0269554 -0.00515332 0.11118 -0.0402242 0.0496024 0.0955034 -0.0140586 0.0117039 -0.0339023 0.130939 0.0639966 0.0820819
internal_weight=0 3909.68 12141.8 4593.75 2153.99 7548.03 1755.69 1201.05 3005.83 1587.91 4159.62 952.941 723.701 122.679
internal_count=91587 21240 70347 26293 11513 44054 9727 6476 17286 9007 24188 5037 3982 671
is_linear=0
shrinkage=0.05


Tree=2
num_leaves=15
num_cat=0
split_feature=37 35 25 24 27 31 37 21 37 21 24 41 43 21
split_gain=12665.9 1321.33 1179.7 205.725 190.454 177.257 103.043 39.9799 35.1568 30.7704 30.1473 20.5224 19.2928 17.392
threshold=0.32153311264294054 0.1480139642953873 0.5332246350278379 0.21958357840776446 0.68223285675048839 0.080709260684674433 0.42207820835400556 0.11928933194689853 0.60827910034591548 0.29328765885556879 0.52505919337272655 0.17522887885570529 0.80939509805381515 0.062923544312917842
decision_type=2 2 2 2 2 2 2 2 2 2 2 2 2 2
left_child=1 5 6 11 8 13 -2 -7 -4 -5 -8 -3 -6 -1
right_child=2 3 4 9 12 7 10 -9 -10 -11 -12 -13 -14 -15
leaf_value=-0.049420933111196802 0.03659770750402988 -0.017358613747369755 0.079669538148112728 0.0064766727367374368 0.11587514891398348 -0.034517954740985873 0.056038529573445219 -0.024253172572526235 0.096401358141208565 0.022209390645647503 0.082159630469963774 -0.0080299520753228555 0.1426784990546171 -0.042454725532687268
leaf_weight=1916.8644028753042 1053.5792262554169 1139.105259925127 615.95243898034096 1316.9571195095778 868.06703460216522 2852.6210094988346 690.73703128099442 1421.1949906945229 640.32920087873936 406.78684714436531 131.48712377250195 1222.0577758252621 72.763792723417282 1682.3270969241858
leaf_count=11551 5745 6626 3187 7467 4320 16947 3678 8349 3267 2267 689 7037 354 10103
internal_value=0 -0.0260174 0.0760732 -0.00294312 0.100937 -0.0379894 0.0469502 -0.0311046 0.0881978 0.0101894 0.0602157 -0.0125304 0.117948 -0.0461648
internal_weight=0 11957.9 4072.92 4084.91 2197.11 7873.01 1875.8 4273.82 1256.28 1723.74 822.224 2361.16 940.831 3599.19
internal_count=91587 70347 21240 23397 11128 46950 10112 25296 6454 9734 4367 13663 4674 21654
is_linear=0
shrinkage=0.05


Tree=3
num_leaves=15
num_cat=0
split_feature=21 21 23 22 21 23 21 23 21 24 36 45 20 52
split_gain=11189.8 1157.74 1088.49 182.892 172.731 140.101 91.4014 32.0496 26.9907 20.6564 18.6116 15.9522 14.5032 13.4863
threshold=0.30191716652085659 0.51131092202819395 0.13640814274549487 0.67699041962623607 0.20115564166262651 0.078175932168960585 0.39234245988008659 0.58775553107261669 0.10438932546544433 0.21958357840776446 0.7452827369474414 0.67618939123677324 38.500000000000007 0.32320488551499854
decision_type=2 2 2 2 2 2 2 2 2 2 2 2 2 2
left_child=2 6 5 7 -4 -1 13 12 -7 -6 -5 -9 -3 -2
right_child=1 3 4 10 9 8 -8 11 -10 -11 -12 -13 -14 -15
leaf_value=-0.045837211565554391 0.02116174849641253 0.068392640034405539 -0.015213111758886795 0.098349962163119281 -0.0041834029052530159 -0.035886028322877205 0.050240168569015226 0.082709624954716621 -0.027675600712657334 0.0079132758568091609 0.11166960863096786 0.10617497755338895 0.10397514577378442 0.033033195261719023
leaf_weight=3208.5625369399786 362.2126961350441 616.18502680957317 2398.593954756856 471.40031307935715 467.51974944770336 2018.5675482302904 964.773537799716 654.26111599802971 1985.5976881235838 1439.589557826519 591.15105275809765 81.444020658731461 30.032969668507576 704.62847250699997
leaf_count=19866 1968 3090 14054 2253 2694 12266 5040 3208 11922 8105 2785 394 150 3792
internal_value=0 0.0669811 -0.0261769 0.0901634 -0.0062833 -0.0380525 0.0390879 0.0781709 -0.0318146 0.00494783 0.10576 0.0853073 0.0700463 0.0290026
internal_weight=0 4476.09 11518.4 2444.47 4305.7 7212.73 2031.61 1381.92 4004.17 1907.11 1062.55 735.705 646.218 1066.84
internal_count=91587 22680 68907 11880 24853 44054 10800 6842 24188 10799 5038 3602 3240 5760
is_linear=0
shrinkage=0.05


Tree=4
num_leaves=15
num_cat=0
split_feature=21 23 21 21 22 23 21 23 35 23 43 21 20 44
split_gain=9933.27 1026.99 971.416 201.503 162.864 102.345 67.4118 30.1553 19.7331 19.5937 17.4692 14.51 13.5449 13.0185
threshold=0.30191716652085659 0.12479248270392419 0.50164070096103586 0.20115564166262651 0.67699041962623607 0.074687089771032347 0.39234245988008659 0.58775553107261669 0.15769943594932559 0.26191814243793493 0.7608272207434249 0.10169607164779823 72.500000000000014 0.67618939123677324
decision_type=2 2 2 2 2 2 2 2 2 2 2 2 2 2
left_child=1 5 6 8 7 -1 -2 -4 -3 -5 -6 -7 -12 -9
right_child=2 3 4 9 10 11 -8 13 -10 -11 12 -13 -14 -15
leaf_value=-0.045344920856745546 0.02714278246905823 -0.020131593911369625 0.063993600702795847 0.0010627305953414634 0.091822146653970926 -0.035555612515040601 0.045572819261429885 0.075860080488300397 -0.011984219738210157 0.01175493061291937 0.10860944215811888 -0.029137549437703636 0.081405716814754003 0.096628056663589507
leaf_weight=2893.5150684416294 1082.510053396225 1508.7176854461432 737.83198134601116 1263.9403179734945 711.93073025345802 1969.5700087100267 916.01032772660255 677.33834816515446 1464.6964963078499 648.21237549185753 340.3762344121933 1592.8344073444605 52.863503277301788 84.91958948969841
leaf_count=18422 5760 9048 3598 7185 3267 12257 4680 3210 8616 3614 1532 9765 239 394
internal_value=0 -0.0252709 0.0618133 -0.00797517 0.0819295 -0.0383596 0.0355901 0.0711991 -0.0161182 0.00468735 0.0964941 -0.0326859 0.104952 0.0781737
internal_weight=0 11341.5 4603.78 4885.57 2605.26 6455.92 1998.52 1500.09 2973.41 1912.15 1105.17 3562.4 393.24 762.258
internal_count=91587 68907 22680 28463 12240 40444 10440 7202 17664 10799 5038 22022 1771 3604
is_linear=0
shrinkage=0.05


Tree=5
num_leaves=15
num_cat=0
split_feature=33 24 33 28 31 42 24 21 46 42 21 0 62 52
split_gain=8865.52 1019.73 752.36 148.226 145.804 96.9865 93.4834 28.598 20.3033 18.282 17.3366 16.7953 16.0314 15.8901
threshold=0.30996657160088886 0.14267668873071673 0.55449093260174143 0.22432683408260348 0.080709260684674433 0.70604135184461658 0.4438540935516358 0.11928933194689853 0.60115391016006481 0.21138094699326937 0.062923544312917842 69.500000000000014 0.31663575333509514 0.23840694784863806
decision_type=2 2 2 2 2 2 2 2 2 2 2 2 2 2
left_child=1 4 6 9 10 8 13 -6 -4 -3 -1 -10 -5 -2
right_child=2 3 5 12 7 -7 -8 -9 11 -11 -12 -13 -14 -15
leaf_value=-0.046450179496140553 -0.011801879448881442 -0.013864844818413023 0.063595220242564046 0.0053074602199270774 -0.031526217785834067 0.091529104003923639 0.05168613104641491 -0.022040728580376562 0.11504776072262296 -0.00052811273290702713 -0.039211241664932395 0.074389273647463686 0.021708507575166236 0.031199551631854196
leaf_weight=1761.1758083105087 21.80988672375679 2133.3900290727615 606.57203540205956 1578.8652856498957 2689.3930885344744 897.6310663819313 817.02247171103954 1127.8514109402895 26.2610023021698 292.14848443865776 1559.4568376690149 774.31305442750454 164.51899985969067 1434.8016124218702
leaf_count=11551 116 12696 2841 8824 16949 3954 3977 6901 121 1697 10106 3524 903 7427
internal_value=0 -0.0239133 0.0585559 -0.00426541 -0.0353887 0.0786871 0.0381488 -0.0287236 0.0704951 -0.0122585 -0.0430506 0.075723 0.00685519 0.0305557
internal_weight=0 11306.8 4578.41 4168.92 7137.88 2304.78 2273.63 3817.24 1407.15 2425.54 3320.63 800.574 1743.38 1456.61
internal_count=91587 69627 21960 24120 45507 10440 11520 23850 6486 14393 21657 3645 9727 7543
is_linear=0
shrinkage=0.05


Tree=6
num_leaves=15
num_cat=0
split_feature=21 21 24 21 41 21 42 42 36 24 42 21 31 30
split_gain=7913.62 852.224 779.495 151.887 140.346 96.8498 44.5791 26.2455 21.4868 17.4246 17.0608 15.5219 12.9627 12.54
threshold=0.29328765885556879 0.12439435485898194 0.47955937683582311 0.19652816533720527 0.63846540451049816 0.074630785185385587 0.35538745404924782 0.70604135184461658 0.58655348827171838 0.21958357840776446 0.15175331892829072 0.10169607164779823 0.1196183754542582 0.43571775340854235
decision_type=2 2 2 2 2 2 2 2 2 2 2 2 2 2
left_child=1 5 6 10 8 -1 -2 -6 -4 -5 -3 -7 -12 -8
right_child=2 3 4 9 7 11 13 -9 -10 -11 12 -13 -14 -15
leaf_value=-0.043258848164143777 0.019698750823357307 -0.019275899060631929 0.05237478236838379 -0.0043910711975560165 0.071437441118342854 -0.033679048896297838 0.031173433213523484 0.08502511314490796 0.064883653486875498 0.0060110842431946301 0.046519761372105728 -0.026911325260793546 -0.011870760943734349 0.041926717831041911
leaf_weight=2737.4687500298023 825.23840780556202 1414.9729756712914 813.17224809527397 576.57714579999447 586.03802378475666 1889.1648280769587 818.35986694693565 902.98147378861904 594.12915195524693 1334.0849111378193 9.5712071359157544 1536.1293885111809 1373.3851337432861 405.4350026845932
leaf_count=18411 4325 8663 3806 3345 2591 12274 4139 3874 2689 7455 58 9747 8234 1976
internal_value=0 -0.0240108 0.0522806 -0.00799501 0.0689772 -0.0362474 0.0286798 0.0796774 0.0576557 0.00287204 -0.015416 -0.030644 -0.0114667 0.0347359
internal_weight=0 10871.4 4945.35 4708.59 2896.32 6162.76 2049.03 1489.02 1407.3 1910.66 2797.93 3425.29 1382.96 1223.79
internal_count=91587 68187 23400 27755 12960 40432 10440 6465 6495 10800 16955 22021 8292 6115
is_linear=0
shrinkage=0.05


Tree=7
num_leaves=15
num_cat=0
split_feature=21 23 21 21 22 23 38 23 33 43 41 21 52 38
split_gain=7090.62 816.22 679.523 135.054 108.854 95.2114 55.795 19.6316 17.557 13.898 12.9122 12.7755 12.0552 12.0074
threshold=0.29328765885556879 0.12479248270392419 0.50164070096103586 0.19652816533720527 0.67699041962623607 0.074687089771032347 0.37192379768852551 0.58775553107261669 0.23212494921227397 0.80939509805381515 0.17026579380035403 0.10169607164779823 0.27002228057953176 0.47491462933721523
decision_type=2 2 2 2 2 2 2 2 2 2 2 2 2 2
left_child=1 5 6 10 7 -1 12 13 -5 -6 -3 -7 -2 -4
right_child=2 3 4 8 9 11 -8 -9 -10 -11 -12 -13 -14 -15
leaf_value=-0.04240072196937783 0.0031977897496479587 -0.016835745269933752 0.08653922159642026 -0.0024813469238409332 0.075114229736016558 -0.032534721750177693 0.035609882130627386 0.062105542946001062 0.0071279921010283165 0.096015422905786879 -0.0094306114065448032 -0.026339658257097331 0.021493175744549453 0.049996551951135337
leaf_weight=2663.3576683700085 99.522287636995316 1922.3195027112961 23.158001750707626 880.93307346105576 1107.2310095280409 1847.9002655148506 1182.2203149050474 821.21345382928848 1032.4205145984888 85.688335448503494 848.51905480027199 1514.0399521291256 944.91372054815292 767.36197613179684
leaf_count=18422 524 11854 107 5046 4684 12257 5767 3604 5753 354 5090 9765 4869 3491
internal_value=0 -0.0231683 0.0487932 -0.00751305 0.0651659 -0.0353391 0.0281706 0.0566914 0.00270373 0.0766156 -0.0145681 -0.0297448 0.0197498 0.0510671
internal_weight=0 10709.5 5031.31 4684.19 2804.65 6025.3 2226.66 1611.73 1913.35 1192.92 2770.84 3361.94 1044.44 790.52
internal_count=91587 68187 23400 27743 12240 40444 11160 7202 10799 5038 16944 22022 5393 3598
is_linear=0
shrinkage=0.05


Tree=8
num_leaves=15
num_cat=0
split_feature=21 23 29 41 23 27 35 35 29 28 41 54 51 25
split_gain=6365.4 769.795 598.124 123.542 92.7447 79.8053 69.8994 18.5785 14.9438 18.2617 12.9434 13.6419 12.8112 16.3261
threshold=0.29328765885556879 0.12479248270392419 0.53502885841351655 0.20650967955589297 0.074687089771032347 0.68223285675048839 0.40736041963100439 0.15769943594932559 0.39820086166197805 0.3850442916154862 0.58686736226081859 0.65756306216695803 0.36907766850635432 0.39313063704378426
decision_type=2 2 2 2 2 2 2 2 2 2 2 2 2 2
left_child=1 4 6 7 -1 10 8 -3 -2 -10 11 -4 13 -11
right_child=2 3 5 -5 -6 -7 -8 -9 9 12 -12 -13 -14 -15
leaf_value=-0.041445747156508249 0.018660801393369529 -0.017326667410696515 0.044819641467333644 0.0037658106386717766 -0.028805394101650818 0.072425019487160791 0.037782369553570984 -0.009452365369396018 0.053736062110340738 0.0085138739418628134 0.058629905108025016 0.062257451243910439 0.016783027571955742 0.09189813322468858
leaf_weight=2590.3592436760664 1198.1019245237112 1438.8985402286053 454.02898934483528 1661.7198736071587 3299.6291374564171 1125.3020229637623 1072.6261495798826 1562.4931958019733 70.78066574037075 10.191935390233995 883.2374267578125 148.95393386483192 129.06914630532265 13.843867108225821
leaf_count=18422 6103 9012 2023 9348 22022 4671 5049 9383 348 50 3809 657 623 67
internal_value=0 -0.0223488 0.0456548 -0.00717179 -0.0343645 0.0623801 0.0281457 -0.0132274 0.0208765 0.0327339 0.0547745 0.0491273 0.0230245 0.0565406
internal_weight=0 10553.1 5106.14 4663.11 5889.99 2611.52 2494.61 3001.39 1421.99 223.886 1486.22 602.983 153.105 24.0358
internal_count=91587 68187 23400 27743 40444 11160 12240 18395 7191 1088 6489 2680 740 117
is_linear=0
shrinkage=0.05


Tree=9
num_leaves=15
num_cat=0
split_feature=21 24 24 21 32 21 38 46 42 52 33 21 31 52
split_gain=5723.4 719.025 534.311 124.317 100.893 83.3458 33.5214 16.6407 16.5626 15.8953 15.3119 14.8853 11.3205 11.2461
threshold=0.29328765885556879 0.12275658175349237 0.47955937683582311 0.19652816533720527 0.66935873031616222 0.069118718855517416 0.37192379768852551 0.60918426513671886 0.15175331892829072 0.65047307167590029 0.23212494921227397 0.10169607164779823 0.1196183754542582 0.27002228057953176
decision_type=2 2 2 2 2 2 2 2 2 2 2 2 2 2
left_child=1 5 6 8 7 -1 13 -4 -3 -6 -5 -7 -10 -2
right_child=2 3 4 10 9 11 -8 -9 12 -11 -12 -13 -14 -15
leaf_value=-0.041390413106937168 0.0013384696386999247 -0.017451055580049599 0.045108076200237678 -0.0023389380850677298 0.05625008512759469 -0.031452029574003892 0.029838590871370786 0.055739661994064355 0.045481442004434117 0.069627111823395163 0.0066277690857402044 -0.024670155552685341 -0.010234454756943694 0.018940608184725153
leaf_weight=2169.8036631792784 100.20644009113312 1540.3705476969481 1209.7606157213449 879.48176153004169 283.5597979426384 2125.8011276572943 1063.7607086151838 529.00236298143864 9.1796430200338346 1024.061386525631 1038.0579500496387 1306.2590514719486 1333.357612580061 960.8325781673193
leaf_count=15884 522 9790 5337 5046 1179 14788 5061 2243 55 4201 5754 8709 8161 4857
internal_value=0 -0.0215512 0.0428109 -0.00735074 0.0562336 -0.0337201 0.0235665 0.0483426 -0.013913 0.0667263 0.00251518 -0.0288708 -0.0098535 0.0172782
internal_weight=0 10402.3 5171.18 4800.45 3046.38 5601.86 2124.8 1738.76 2882.91 1307.62 1917.54 3432.06 1342.54 1061.04
internal_count=91587 68187 23400 28806 12960 39381 10440 7580 18006 5380 10800 23497 8216 5379
is_linear=0
shrinkage=0.05


Tree=10
num_leaves=15
num_cat=0
split_feature=29 24 24 21 27 21 41 36 42 59 44 21 61 61
split_gain=5154.1 626.925 536.053 95.8295 92.4232 81.2176 38.8267 17.6684 15.3524 15.4277 15.3373 14.2827 12.484 11.4463
threshold=0.27910850997577746 0.12275658175349237 0.47955937683582311 0.19652816533720527 0.67334818840026867 0.069118718855517416 0.37860524654388433 0.58655348827171838 0.15024176955931295 0.067327412806379688 0.33094370177047405 0.10169607164779823 0.25827077671524629 0.20359183518370269
decision_type=2 2 2 2 2 2 2 2 2 2 2 2 2 2
left_child=1 5 6 8 7 -1 -2 -4 -3 -10 -8 -7 13 -11
right_child=2 3 4 -5 -6 11 10 -9 9 12 -12 -13 -14 -15
leaf_value=-0.040471322508567817 0.015561421826845744 -0.016893150076781282 0.040700204042589408 0.0015921075858898893 0.063373668049117385 -0.030518881210361826 -0.007303331540861953 0.050495434456092059 0.037962792739998481 -0.011798450686893025 0.0296703709091585 -0.023817042656767137 -0.023507792912199458 -0.0014330068276949305
leaf_weight=2109.6658315956593 1350.6781708151102 1470.1832744330168 899.70085996389389 1724.4058857411146 1238.8045705109835 2082.37992875278 28.890314415097237 942.78668358922005 16.869104355573654 822.8831841647625 962.14694465696812 1285.9229810088873 155.05795003473759 393.78803940117359
leaf_count=15884 6856 9451 3943 9720 5039 14788 143 3976 104 5079 4523 8709 954 2418
internal_value=0 -0.0213622 0.0391087 -0.00771697 0.0528129 -0.0327785 0.0210763 0.0457123 -0.0133322 -0.00956196 0.0285925 -0.0279603 -0.0101464 -0.00844357
internal_weight=0 10061.2 5423.01 4583.19 3081.29 5477.97 2341.72 1842.49 2858.78 1388.6 991.037 3368.3 1371.73 1216.67
internal_count=91587 67107 24480 27726 12958 39381 11522 7919 18006 8555 4666 23497 8451 7497
is_linear=0
shrinkage=0.05


Tree=11
num_leaves=15
num_cat=0
split_feature=23 28 23 23 43 41 41 47 37 22 27 7 15 52
split_gain=4658.07 559.536 518.331 83.4396 76.1497 58.8318 57.6769 18.7969 16.3152 13.6089 12.485 18.9978 12.0616 11.1889
threshold=0.26191814243793493 0.49860975146293646 0.12381491437554361 0.074687089771032347 0.70190306501280164 0.17522887885570529 0.38552890717983251 0.50754928117209297 0.32153311264294054 0.19876878708601001 0.31221380829811102 9.7650000000000023 1.0000000180025095e-35 0.29005654486593235
decision_type=2 2 2 2 2 2 2 2 2 2 2 2 2 2
left_child=2 6 3 -1 7 -4 8 -3 12 -7 11 -10 -2 -13
right_child=1 4 5 -5 -6 9 -8 -9 10 -11 -12 13 -14 -15
leaf_value=-0.038698938810613204 0.0072328694503320358 0.032327459056348394 -0.014109082473013415 -0.026238860214440742 0.061955017155238372 -0.0075470671864036531 0.02843320827409947 0.04673885567565074 -0.011660806872901313 0.00092870337378606895 0.016302561931899186 0.0068053050098711119 0.024579510819043929 0.048853198286426695
leaf_weight=2387.4372733682394 829.93421916663647 260.56496758759022 2090.2782305777073 3073.0606279522181 967.91509860754013 747.12721683084965 1091.4998364597559 1718.7766366899014 19.910877093672752 1293.5689307302237 689.5008153617382 19.201646089553833 113.97248110175133 89.865495771169662
leaf_count=18422 4413 1138 13361 21661 3902 4534 5032 7200 99 7329 3353 97 602 444
internal_value=0 0.0351815 -0.0215769 -0.0316867 0.0504619 -0.00821336 0.0194011 0.0448417 0.0138072 -0.00217439 0.0189734 0.0332515 0.0093274 0.0414505
internal_weight=0 5801.14 9591.47 5460.5 2947.26 4130.97 2853.89 1979.34 1762.39 2040.7 818.479 128.978 943.907 109.067
internal_count=91587 26280 65307 40083 12240 25224 14040 8338 9008 11863 3993 640 5015 541
is_linear=0
shrinkage=0.05


Tree=12
num_leaves=15
num_cat=0
split_feature=23 21 23 23 34 36 38 23 47 36 50 43 4 35
split_gain=4208.37 502.342 488.768 81.0856 71.4708 54.1814 52.6302 13.6418 12.7159 12.405 14.5854 12.0242 11.9013 12.7871
threshold=0.26191814243793493 0.50164070096103586 0.12381491437554361 0.074687089771032347 0.6854468857648327 0.17652929302673445 0.37192379768852551 0.58775553107261669 0.7118788834817803 0.31011292372517391 0.35868699263745446 0.80939509805381515 151.50000000000003 0.30732044577598577
decision_type=2 2 2 2 2 2 2 2 2 2 2 2 2 2
left_child=2 6 3 -1 7 -4 9 -3 -9 -2 12 -6 -11 -14
right_child=1 4 5 -5 11 -7 -8 8 -10 10 -12 -13 13 -15
leaf_value=-0.037798491357445917 0.0079923778387073537 0.036738552558981077 -0.013218706458503177 -0.025374510229641531 0.055815739828554381 -0.0017126557922858871 0.025934741739562381 0.044453889079564289 0.079064508957614577 0.018005624320535971 0.0078434608820583413 0.074993645543436377 0.069171569061030405 0.027394982300037542
leaf_weight=2323.7300968617201 823.7413944453001 845.20829118788242 2190.1652876734734 3020.2210922092199 1068.8864437788725 1920.156993791461 1255.3292850852013 942.65300390124321 27.306759297847748 399.68344579637051 290.99290333688259 88.49959671497345 23.839613243937492 79.062235206365585
leaf_count=18422 4370 3597 14054 21661 4300 11170 5764 3878 111 1981 1418 354 119 388
internal_value=0 0.0331634 -0.0208064 -0.0307769 0.0475729 -0.0078436 0.0182529 0.041382 0.0454283 0.0122904 0.0167518 0.0572822 0.0219097 0.0370735
internal_weight=0 5845.2 9454.27 5343.95 2972.55 4110.32 2872.65 1815.17 969.96 1617.32 793.578 1157.39 502.585 102.902
internal_count=91587 26280 65307 40083 12240 25224 14040 7586 3989 8276 3906 4654 2488 507
is_linear=0
shrinkage=0.05


Tree=13
num_leaves=15
num_cat=0
split_feature=23 23 24 22 22 36 33 42 33 34 54 16 54 2
split_gain=3804.88 461.389 457.339 74.0274 66.7941 61.9615 39.493 15.8666 12.1458 12.0479 11.2494 14.1108 11.1757 10.8961
threshold=0.26191814243793493 0.11688476055860521 0.47955937683582311 0.65140900015831005 0.067561507225036635 0.17652929302673445 0.30996657160088886 0.71596281784320037 0.23212494921227397 0.14996286814292428 0.20531440603988363 13.500000000000002 0.66220630407008862 11.500000000000002
decision_type=2 2 2 2 2 2 2 2 2 2 2 2 2 2
left_child=1 4 6 12 -1 10 -2 -5 9 -7 13 -12 -4 -3
right_child=2 5 3 7 -6 8 -8 -9 -10 -11 11 -13 -14 -15
leaf_value=-0.037997745115781363 0.0072467469936337327 -0.014657408571141079 0.034616488822688238 0.046181981312347846 -0.025998815692313017 0.042075218744342585 0.020304679674518253 0.056532159405412952 0.0043504258954423034 -0.0047700364805343832 -0.012882407902650881 0.016240216891185474 0.044470675164483539 0.044089603775410942
leaf_weight=1903.6762035042048 833.5100534260273 2349.5415022373199 1257.6347483545542 636.42658384144306 2968.251528814435 13.86954891681671 1896.6686132848263 885.4276011288166 586.78362056612968 1319.0025472640991 104.29064182937145 69.188365906476974 373.07412149012089 7.9195862412452689
leaf_count=15525 4407 15430 5302 2572 22031 87 8913 3546 3259 7833 661 433 1540 48
internal_value=0 -0.0200558 0.031299 0.0442727 -0.0306873 -0.00841781 0.0163182 0.0522038 -0.00164372 -0.00428258 -0.0135558 -0.00126748 0.0368709 -0.0144601
internal_weight=0 9322.52 5882.74 3152.56 4871.93 4450.6 2730.18 1521.85 1919.66 1332.87 2530.94 173.479 1630.71 2357.46
internal_count=91587 65307 26280 12960 37556 27751 13320 6118 11179 7920 16572 1094 6842 15478
is_linear=0
shrinkage=0.05


Tree=14
num_leaves=15
num_cat=0
split_feature=49 24 31 32 42 29 35 41 0 8 6 36 35 50
split_gain=3435.61 468.418 379.173 73.9648 60.9029 60.2833 38.1681 17.0086 14.9667 15.4514 13.9545 13.1681 12.4752 12.4021
threshold=0.26824638869093781 0.12275658175349237 0.50670165584338289 0.068196885287761702 0.70604135184461658 0.19082237350588174 0.40736041963100439 0.58686736226081859 44.500000000000007 29.685000000000006 0.20500000000000004 0.31011292372517391 0.15914040058851245 0.27965050947896297
decision_type=2 2 2 2 2 2 2 2 2 2 2 2 2 2
left_child=1 3 6 -1 7 12 11 -4 10 -10 -7 13 -3 -2
right_child=2 5 4 -5 -6 8 -8 -9 9 -11 -12 -13 -14 -15
leaf_value=-0.036657593242254143 0.015339942436571691 -0.01442177976290332 0.032408003444095432 -0.024273341115179044 0.052767159959133884 -0.00077237013902468985 0.02527250522276267 0.041679167391888025 0.054478152207314695 -0.0049217804873582889 0.037628022520932072 0.015888336257561551 -0.0074773945356305903 0.0013844936410102795
leaf_weight=2003.9423470199108 268.18813186883926 1541.0885359197855 882.30477103590965 3026.6003519296646 988.40999422967434 1627.6360582262278 901.50255151093006 1126.075560182333 25.619738340377808 19.11740879714489 24.007214710116386 1170.2204608172178 1114.3769010603428 391.75569009780884
leaf_count=16728 1435 10284 3709 22653 3958 9280 4009 4573 138 100 139 5586 6968 2027
internal_value=0 -0.0188156 0.030325 -0.0292067 0.0426067 -0.00680402 0.0168514 0.0376062 0.000558737 0.0290949 -0.000214207 0.0127034 -0.0115075 0.00705571
internal_weight=0 9382.39 5728.46 5030.54 2996.79 4351.85 2731.67 2008.38 1696.38 44.7371 1651.64 1830.16 2655.47 659.944
internal_count=91587 66290 25297 39381 12240 26909 13057 8282 9657 238 9419 9048 17252 3462
is_linear=0
shrinkage=0.05


Tree=15
num_leaves=15
num_cat=0
split_feature=23 23 31 21 34 41 42 47 33 52 43 47 53 21
split_gain=3119.17 410.313 372.357 62.9972 56.8872 54.6626 39.5639 13.0635 12.6185 12.137 10.5985 10.4258 13.4489 10.3726
threshold=0.26191814243793493 0.11688476055860521 0.50670165584338289 0.069118718855517416 0.6854468857648327 0.17522887885570529 0.35538745404924782 0.7118788834817803 0.23212494921227397 0.511937140168372 0.80939509805381515 0.55801835960091795 0.48958219408931208 0.25730560848395762
decision_type=2 2 2 2 2 2 2 2 2 2 2 2 2 2
left_child=1 3 6 -1 7 -3 -2 11 -7 -6 -11 -4 -13 -10
right_child=2 5 4 -5 9 8 -8 -9 13 10 -12 12 -14 -15
leaf_value=-0.036136296944501559 0.0093077766254345846 -0.012822006889727981 0.029602437728758143 -0.024257042571661721 0.001833942714617647 -0.0041567523843050493 0.020925103389670227 0.068262767431361129 0.0087360556823788925 0.048201467446535057 0.066310292182326744 0.07017426528845265 0.036456175263166538 -0.0060410292313697383
leaf_weight=1844.2559479027987 1418.7468282282352 2375.9279665797949 703.53107209503651 2826.5028484985232 13.463786244392393 1443.6691415160894 1515.9474241733551 28.879953965544701 419.12357385456562 1057.8948969841003 87.480147287249565 30.402054384350777 1084.9727917164564 165.70448517799377
leaf_count=15884 7205 15881 2944 21672 54 8635 6836 116 2334 4237 353 125 4410 901
internal_value=0 -0.0186235 0.0279785 -0.0289476 0.0403451 -0.00767516 0.0153088 0.0348986 -0.00164679 0.0490298 0.0495846 0.0343688 0.0373752 0.00454913
internal_weight=0 9075.18 5941.32 4670.76 3006.62 4404.43 2934.69 1847.79 2028.5 1158.84 1145.38 1818.91 1115.37 584.828
internal_count=91587 65307 26280 37556 12239 27751 14041 7595 11870 4644 4590 7479 4535 3235
is_linear=0
shrinkage=0.05


Tree=16
num_leaves=15
num_cat=0
split_feature=23 23 24 22 27 29 33 37 61 35 53 33 8 17
split_gain=2824.22 385.99 339.37 61.8997 61.0088 48.6548 28.7783 12.8012 10.8363 10.3112 9.93601 9.70664 9.9516 12.2743
threshold=0.26191814243793493 0.11688476055860521 0.47955937683582311 0.067561507225036635 0.68223285675048839 0.17620334279964023 0.30996657160088886 0.60827910034591548 0.38074948280565613 0.1480139642953873 0.48958219408931208 0.23212494921227397 66.710000000000022 20.500000000000004
decision_type=2 2 2 2 2 2 2 2 2 2 2 2 2 2
left_child=1 3 6 -1 7 9 -2 -4 -6 -3 -9 -7 13 -13
right_child=2 5 4 -5 8 11 -8 10 -10 -11 -12 12 -14 -15
leaf_value=-0.035451730404607147 0.005994888272223769 -0.014920936921245638 0.029083663510153908 -0.023495704884510443 0.056619517308914236 -0.0037213053026649147 0.017063010698229242 0.080757730413643244 0.044373391426900097 -0.0084392829007395569 0.036498888220871613 0.0096990627264682775 0.046715240387017555 -0.0049261648361848681
leaf_weight=1758.3240857869387 843.01559630036354 1342.6870122998953 1205.0505018383265 2816.8416365906596 223.46885822713375 1319.2221764475107 1936.1043327897787 12.884854957461355 942.64892262220383 1129.9769485741854 801.3134061396122 313.35599412024021 13.320799797773359 264.59710420668125
leaf_count=15525 4407 9292 4996 22031 901 7901 8913 52 3779 7293 3232 1730 73 1462
internal_value=0 -0.017932 0.0264743 -0.0280906 0.0376145 -0.00732838 0.0137056 0.032356 0.0467202 -0.0119589 0.0371993 -0.00133533 0.00398816 0.00300338
internal_weight=0 8958.33 5964.49 4575.17 3185.37 4383.16 2779.12 2019.25 1166.12 2472.66 814.198 1910.5 591.274 577.953
internal_count=91587 65307 26280 37556 12960 27751 13320 8280 4680 16585 3284 11166 3265 3192
is_linear=0
shrinkage=0.05


Tree=17
num_leaves=15
num_cat=0
split_feature=24 24 21 43 48 35 22 36 23 37 60 11 10 46
split_gain=2558.76 391.699 294.297 57.1111 42.3254 42.1608 39.7161 15.8572 14.448 11.5927 11.7188 10.9156 10.4354 11.4402
threshold=0.23125447332859042 0.47955937683582311 0.10438932546544433 0.70190306501280164 0.33379379926798253 0.1480139642953873 0.06199267320334912 0.13108618057853028 0.58775553107261669 0.2743195911343026 0.27132097937113059 659.20500000000004 0.39500000000000007 0.20152654498815539
decision_type=2 2 2 2 2 2 2 2 2 2 2 2 2 2
left_child=2 4 6 8 12 11 -1 -7 -3 -9 -11 -4 13 -2
right_child=1 3 5 -5 -6 7 -8 9 -10 10 -12 -13 -14 -15
leaf_value=-0.035874951278537563 0.055928841388917405 0.026967692134427131 -0.015656260893478709 0.04580606215068659 0.017318467437768641 -0.021723639396158345 -0.025169236890642134 -0.0049451070827490071 0.035047230054700694 0.06562514550592366 -0.0053104032614508514 0.02379004182029441 0.031968629642214523 0.0052180681791123614
leaf_weight=1348.9073893725872 11.191812619566916 1042.0456070005894 2041.6888626515865 968.72014498710632 1551.2425750046968 143.40801283717155 2421.4563133493066 2265.0475307703018 1179.7620124220848 11.761709213256838 11.52980090677738 17.689730897545815 38.133861526846886 1777.2968599051237
leaf_count=12276 64 4315 14704 3902 7037 965 19853 14022 4743 64 63 120 188 9271
internal_value=0 0.0231117 -0.0186998 0.035675 0.011245 -0.0100532 -0.0289994 -0.00559499 0.0312579 -0.00458423 0.0305105 -0.0153174 0.00608724 0.0055354
internal_weight=0 6568.39 8261.49 3190.53 3377.87 4491.13 3770.36 2431.75 2221.81 2288.34 23.2915 2059.38 1826.62 1788.49
internal_count=91587 29520 62067 12960 16560 29938 32129 15114 9058 14149 127 14824 9523 9335
is_linear=0
shrinkage=0.05


Tree=18
num_leaves=15
num_cat=0
split_feature=33 31 21 42 37 42 27 43 41 6 31 33 40 20
split_gain=2323.11 345.407 284.166 48.3233 42.5715 41.3081 38.3171 14.0576 13.328 12.4023 15.627 13.7197 12.0164 10.1213
threshold=0.23212494921227397 0.50670165584338289 0.10438932546544433 0.71596281784320037 0.32153311264294054 0.15175331892829072 0.066592313349246993 0.31521922490513427 0.58686736226081859 0.10500000000000002 0.28375117336502337 0.4402416291555426 0.34241782128810888 43.500000000000007
decision_type=2 2 2 2 2 2 2 2 2 2 2 2 2 2
left_child=2 4 6 8 -2 -4 -1 -7 13 10 12 -12 -6 -3
right_child=1 3 5 -5 9 7 -8 -9 -10 -11 11 -13 -14 -15
leaf_value=-0.034270191414960204 0.0050566851190894145 0.025000774863467985 -0.014030853151284536 0.044289945831978955 0.075925786652736416 -0.0047411849776348167 -0.023911754282474912 0.055157294672963042 0.033807052278604553 -0.019404366968601927 0.013264317817167776 0.022362596236714476 0.012677916171103476 0.060691597323577276
leaf_weight=1512.812355838716 1501.0143817812204 882.9580220580101 2365.2263920307159 889.24925935268402 19.424455091357235 2151.675174176693 2178.2817728817463 9.8401340991258603 1226.5383787602186 24.167535543441772 1346.1148367375135 598.60784584283829 12.242877691984175 20.320984780788422
leaf_count=14085 7925 3632 16972 3598 94 13273 18044 53 4927 113 6164 2567 57 83
internal_value=0 0.0221069 -0.0178606 0.0345002 0.0114214 -0.00946484 -0.0281572 -0.0044685 0.0304127 0.0161969 0.0166322 0.0160649 0.0514736 0.0258037
internal_weight=0 6520.64 8217.84 3019.07 3501.57 4526.74 3691.09 2161.52 2129.82 2000.56 1976.39 1944.72 31.6673 903.279
internal_count=91587 29160 62427 12240 16920 30298 32129 13326 8642 8995 8882 8731 151 3715
is_linear=0
shrinkage=0.05


Tree=19
num_leaves=15
num_cat=0
split_feature=24 24 21 27 22 35 29 36 34 14 2 37 61 37
split_gain=2108.39 321.731 261.378 51.1186 37.902 36.5165 34.8458 14.0926 13.8922 11.1194 10.5723 10.3035 10.2076 9.89395
threshold=0.23125447332859042 0.47955937683582311 0.10438932546544433 0.68223285675048839 0.06199267320334912 0.1480139642953873 0.32138026115832813 0.13108618057853028 0.14451756699685023 9.5000000000000018 2.5000000000000004 0.60827910034591548 0.38074948280565613 0.2743195911343026
decision_type=2 2 2 2 2 2 2 2 2 2 2 2 2 2
left_child=2 6 4 11 -1 -4 10 -7 -9 13 -2 -3 -5 -10
right_child=1 3 5 12 -6 7 -8 8 9 -11 -12 -13 -14 -15
leaf_value=-0.034243055222335755 0.0013052248758875478 0.024508312753907968 -0.014174401080253024 0.05027936398405445 -0.02353733801842996 -0.020448400372045317 0.01476755070089787 0.010536802705089929 -0.0058383029529836929 0.035646377815597909 0.0096942324237384355 0.031758171676437505 0.038304969425482352 0.027196691331112806
leaf_weight=1279.8698007315397 950.38642498850822 1220.9010455608368 2020.4143561050296 219.8507336974144 2335.1563195511699 140.22429944574833 1832.9792294800282 151.01561395823956 2084.12809497118 16.565359875559807 620.95277892053127 818.72219605743885 934.35739895701408 22.91447688639164
leaf_count=12276 5027 4996 14824 901 19853 965 8276 1005 12923 98 3257 3284 3779 123
internal_value=0 0.020778 -0.0173482 0.032177 -0.0273276 -0.00921442 0.0100839 -0.00506459 -0.00411622 -0.00515824 0.00462034 0.0274185 0.0405858 -0.00547904
internal_weight=0 6598.15 8050.29 3193.83 3615.03 4435.26 3404.32 2414.85 2274.62 2123.61 1571.34 2039.62 1154.21 2107.04
internal_count=91587 29520 62067 12960 32129 29938 16560 15114 14149 13144 8284 8280 4680 13046
is_linear=0
shrinkage=0.05


Tree=20
num_leaves=15
num_cat=0
split_feature=44 31 21 42 22 48 42 6 54 13 46 53 58 41
split_gain=1913.63 292.272 246.441 42.944 37.0447 36.8903 34.5778 14.9592 12.1359 12.0739 11.5281 12.3269 10.7898 11.869
threshold=0.23132977232257615 0.50670165584338289 0.10438932546544433 0.71596281784320037 0.067561507225036635 0.33379379926798253 0.15175331892829072 0.095000000000000015 0.34743450016916544 1.5000000000000002 0.60115391016006481 0.48958219408931208 0.24018453868372477 0.3720762580633164
decision_type=2 2 2 2 2 2 2 2 2 2 2 2 2 2
left_child=2 5 4 10 -1 -2 -4 12 -8 -9 -3 -12 -7 -14
right_child=1 3 6 -5 -6 7 8 9 -10 -11 11 -13 13 -15
leaf_value=-0.032177391162905959 0.0051269044024046303 0.023876578180991145 -0.013003242140475078 0.040489143058279269 -0.021896664116352733 0.051230026089323449 -0.0044102896312703775 -0.060398939177044225 0.04950987433055367 0.011643712158497636 0.069958244481463802 0.030446227785859099 0.0086068440686677943 0.017937985989986006
leaf_weight=1589.5893038958311 1836.4866055250168 1123.2782841175795 2322.3327466323972 880.01899974048138 1952.5159513503313 21.232249364256859 2080.7620673179626 11.689814746379854 10.487972453236578 11.57380774617195 20.139728263020515 993.39607653021812 470.4922064691782 1236.1793145537376
leaf_count=15525 9504 4574 16964 3598 16604 103 12931 55 60 53 81 3986 2180 5369
internal_value=0 0.0197232 -0.0166872 0.0311934 -0.0265103 0.0100779 -0.00880359 0.0152701 -0.00413987 -0.0245572 0.0273651 0.0312314 0.0158063 0.0153656
internal_weight=0 6604.49 7955.69 3016.83 3542.11 3587.65 4413.58 1751.17 2091.25 23.2636 2136.81 1013.54 1727.9 1706.67
internal_count=91587 29503 62084 12239 32129 17264 29955 7760 12991 108 8641 4067 7652 7549
is_linear=0
shrinkage=0.05


Tree=21
num_leaves=15
num_cat=0
split_feature=33 33 21 24 42 34 22 43 55 58 34 40 7 3
split_gain=1738.42 260.79 236.768 37.3214 37.1438 36.7499 32.2351 12.3245 11.5507 12.1797 10.1327 9.28212 12.8106 9.21843
threshold=0.23212494921227397 0.52673494163510748 0.10169607164779823 0.14668868482112887 0.35538745404924782 0.71699918529967543 0.06199267320334912 0.31521922490513427 0.43466376769252191 0.49327967824194813 0.4093358046352969 0.6075614094734193 38.610000000000007 5.5000000000000009
decision_type=2 2 2 2 2 2 2 2 2 2 2 2 2 2
left_child=2 4 6 -4 10 8 -1 -5 -3 11 -2 12 -10 -6
right_child=1 5 3 7 13 -7 -8 -9 9 -11 -12 -13 -14 -15
leaf_value=-0.032632920631967773 0.0057820725644143851 0.07410397776228575 -0.013534535900176775 -0.0047380905296543182 0.012806154392377209 0.039516789214013325 -0.022386344428062619 0.050498108462113847 0.01510778121101211 0.027671847092917076 -0.035421150772365177 0.053071668259713205 -0.032846223776484558 0.02043033898960742
leaf_weight=1216.0347845181823 1959.860101133585 12.815366998314856 2108.6884462535381 2504.9463384449482 1125.8243710696697 781.83892637491226 2081.2278219610453 10.139530941843985 147.05869829654694 1869.0617229640484 15.035631150007246 13.946739599108694 15.383975952863691 611.98695529997349
leaf_count=12276 10017 53 15899 15790 4915 3219 18409 53 599 7530 68 56 63 2640
internal_value=0 0.0188839 -0.0159285 -0.00862861 0.0101597 0.0302885 -0.0261653 -0.00451541 0.0267831 0.0264866 0.00546838 0.0139272 0.0105663 0.0154911
internal_weight=0 6552.81 7921.04 4623.77 3712.71 2840.11 3297.26 2515.09 2058.27 2045.45 1974.9 176.389 162.443 1737.81
internal_count=91587 29160 62427 31742 17640 11520 30685 15843 8301 8248 10085 718 662 7555
is_linear=0
shrinkage=0.05


Tree=22
num_leaves=15
num_cat=0
split_feature=28 33 21 41 21 23 33 43 50 20 38 0 55 50
split_gain=1579.49 275.957 189.547 54.6049 31.3995 25.6121 21.3892 13.1406 10.8533 10.6649 9.51245 9.10525 12.7022 9.05643
threshold=0.22432683408260348 0.4402416291555426 0.10169607164779823 0.63846540451049816 0.062923544312917842 0.13640814274549487 0.30996657160088886 0.7608272207434249 0.35644337441557422 72.500000000000014 0.37192379768852551 200.50000000000003 0.78770864408796004 0.35868699263745446
decision_type=2 2 2 2 2 2 2 2 2 2 2 2 2 2
left_child=2 6 4 -3 -1 -4 -2 11 -8 -9 -10 12 -5 -12
right_child=1 3 5 7 -6 -7 8 9 10 -11 13 -13 -14 -15
leaf_value=-0.032161350871800901 0.0029045144398124998 0.021055114704503993 -0.013879326266142945 0.029977298822896438 -0.021793811760194556 -0.0059157004670078147 0.015941575368800209 0.04413892021042333 0.00098813546963289422 0.021040597027910266 -0.024287700067817712 0.041804541035778367 -0.0012060032333983946 0.012387157169157365
leaf_weight=1114.7674818336964 1808.5897246152163 2027.9019695520401 1727.9353878796101 962.39199244976044 2117.6632770523429 2428.7563848942518 631.97967772185802 366.0086772441864 353.64711572229862 57.874870032072067 17.33391809463501 158.97903667390347 33.804057210683823 582.42780338227749
leaf_count=11552 9727 8301 13368 3896 19133 15854 2930 1532 1638 239 77 651 139 2550
internal_value=0 0.0168544 -0.0162881 0.0264838 -0.0253693 -0.00922618 0.00662081 0.0334555 0.0108603 0.0409852 0.00749214 0.0306925 0.0289192 0.0113272
internal_weight=0 7000.94 7389.12 3606.96 3232.43 4156.69 3393.98 1579.06 1585.39 423.884 953.409 1155.18 996.196 599.762
internal_count=91587 31680 59907 14758 30685 29222 16922 6457 7195 1771 4265 4686 4035 2627
is_linear=0
shrinkage=0.05


Tree=23
num_leaves=15
num_cat=0
split_feature=24 39 21 42 36 36 22 40 48 47 49 39 34 42
split_gain=1434.64 223.894 203.901 33.064 31.7225 30.9453 30.3978 11.5484 9.46093 9.25928 12.1843 15.0877 9.19838 9.10534
threshold=0.23125447332859042 0.52901351946386066 0.10169607164779823 0.35538745404924782 0.7452827369474414 0.13108618057853028 0.06199267320334912 0.22973743826150897 0.68442884356290989 0.13799408361781698 0.16956482056177122 0.13191174225899036 0.4093358046352969 0.27534316012515697
decision_type=2 2 2 2 2 2 2 2 2 2 2 2 2 2
left_child=2 3 6 12 8 9 -1 13 -3 10 -4 -12 -2 -7
right_child=1 4 5 -5 -6 7 -8 -9 -10 -11 11 -13 -14 -15
leaf_value=-0.031043682796823197 0.0050859662225780722 0.023228975649174539 -0.012374790602573967 0.014029998388447399 0.037131735096987202 -0.0059753324423539207 -0.020873941948139962 0.0061257463882342274 0.032457921393966471 -0.022166411018850026 -0.013308039026754474 0.078610188816551935 -0.035328855264400674 0.039866743636477145
leaf_weight=1157.104873880744 2031.944403514266 1712.1787406057119 1396.6632808744907 1849.8438366353512 689.01621015369892 2605.9959267154336 2013.2516303956509 220.67940692603588 331.45415933430195 256.92762893438339 9.6845809072256106 8.2823380902409536 14.17717733979225 10.877183958888052
leaf_count=12276 10371 6895 10980 7956 2879 17060 18409 1259 1354 1893 71 59 65 60
internal_value=0 0.0168816 -0.0148692 0.00918562 0.0278539 -0.00803764 -0.0245857 -0.00485849 0.0247258 -0.0134344 -0.0118485 0.0290642 0.00480594 -0.00578479
internal_weight=0 6628.61 7679.47 3895.97 2732.65 4509.11 3170.36 2837.55 2043.63 1671.56 1414.63 17.9669 2046.12 2616.87
internal_count=91587 29520 62067 18392 11128 31382 30685 18379 8249 13003 11110 130 10436 17120
is_linear=0
shrinkage=0.05


Tree=24
num_leaves=15
num_cat=0
split_feature=41 24 22 43 37 23 21 31 46 43 8 60 11 50
split_gain=1303.75 242.733 156.871 39.82 27.7978 27.459 22.0257 13.782 9.85558 9.37358 8.78479 8.83256 11.0507 11.0577
threshold=0.20650967955589297 0.46982216835021978 0.093086134642362608 0.70190306501280164 0.32153311264294054 0.12479248270392419 0.062923544312917842 0.28375117336502337 0.64154914021492015 0.80939509805381515 36.615000000000002 0.29228570520051717 418.17500000000007 0.28956667486456805
decision_type=2 2 2 2 2 2 2 2 2 2 2 2 2 2
left_child=2 4 6 8 -2 -4 -1 -6 -3 -5 -9 -12 -13 -14
right_child=1 3 5 9 7 -7 -8 10 -10 -11 11 12 13 -15
leaf_value=-0.030586849922962074 0.002599430301182086 0.019552318125510761 -0.014701890779051086 0.032111892833005862 0.042062883938242285 -0.00653517994394286 -0.021302027957112668 0.0068350616215874646 0.027073224802144292 0.049937053160540798 0.0015038760738109256 0.060622587980883352 0.060929620411391008 0.014307277104807288
leaf_weight=1061.160752274096 2132.7225147932768 1749.831905528903 1652.5717423483729 850.19338020682335 35.125721603631973 2728.9324384704232 1604.5648063123226 862.51082088053226 579.9682657122612 80.758524686098099 123.45553220808506 13.576764628291128 12.940330192446707 740.15185481309891
leaf_count=11552 11506 7075 13729 3548 163 18394 15164 3850 2343 354 561 61 59 3228
internal_value=0 0.0148376 -0.0154342 0.0249173 0.00645415 -0.00961542 -0.0249981 0.0110527 0.0214245 0.0336582 0.0104312 0.0139157 0.0159144 0.0151084
internal_weight=0 7181.24 7047.23 3260.75 3920.48 4381.5 2665.73 1787.76 2329.8 930.952 1752.64 890.124 766.669 753.092
internal_count=91587 32748 58839 13320 19428 32123 26716 7922 9418 3902 7759 3909 3348 3287
is_linear=0
shrinkage=0.05


Tree=25
num_leaves=15
num_cat=0
split_feature=31 58 21 36 31 47 35 42 38 8 46 57 17 36
split_gain=1184.78 198.301 168.542 31.9007 28.5267 25.4013 23.7938 13.1745 12.449 10.7095 20.9076 10.6948 17.4945 10.3595
threshold=0.22143908104531504 0.49327967824194813 0.10169607164779823 0.7452827369474414 0.06474677809009069 0.31329549932111872 0.1480139642953873 0.49579529439419684 0.18844018966303705 58.185000000000009 0.30092006921768194 0.24286697767394569 32.500000000000007 0.13108618057853028
decision_type=2 2 2 2 2 2 2 2 2 2 2 2 2 2
left_child=2 5 4 7 -1 8 -4 -3 -2 -10 11 -11 -13 -8
right_child=1 3 6 -5 -6 -7 13 -9 9 10 -12 12 -14 -15
leaf_value=-0.028468955474467008 -0.044883564468259578 0.0083697260183770925 -0.011514431288547426 0.034157186177888932 -0.018745551644034502 0.01092409270402931 -0.017473884248910426 0.022879495712167113 0.002309560978330254 0.073678181464218381 -0.02368889609190054 -0.0025653077181090212 0.075409122852784977 -0.003176497398740197
leaf_weight=1358.0809416845441 13.609852984547613 169.07364688813686 2087.9125102907419 678.32702754437923 1696.7380583509803 2218.4110151231289 135.00840400904417 2093.9519426375628 1576.0961667299271 15.801148205995558 17.623829320073128 21.529069662094116 10.803004294633864 2057.8157590180635
leaf_count=14803 83 712 16253 2879 15882 9787 972 8475 8323 88 84 113 56 13077
internal_value=0 0.0148583 -0.0140966 0.0246463 -0.0230683 0.00742654 -0.00769421 0.0217955 0.00273963 0.0031344 0.0229044 0.0399644 0.023488 -0.00405676
internal_weight=0 6815.23 7335.56 2941.35 3054.82 3873.87 4280.74 2263.03 1655.46 1641.85 65.7571 48.1332 32.3321 2192.82
internal_count=91587 30600 60987 12066 30685 18534 30302 9187 8747 8664 341 257 169 14049
is_linear=0
shrinkage=0.05


Tree=26
num_leaves=15
num_cat=0
split_feature=28 41 22 48 23 36 21 0 61 30 22 62 33 55
split_gain=1077.2 191.192 147.218 34.3435 26.7216 23.6856 20.7498 13.6783 9.21542 10.7806 8.98376 11.2547 8.9586 8.88785
threshold=0.22432683408260348 0.54031848907470714 0.093086134642362608 0.33379379926798253 0.13640814274549487 0.7452827369474414 0.062923544312917842 105.50000000000001 0.38074948280565613 0.82030870377229059 0.27734059095382696 0.25368404746486578 0.57205454849753778 0.55936531644314447
decision_type=2 2 2 2 2 2 2 2 2 2 2 2 2 2
left_child=2 3 6 -2 -4 12 -1 10 -7 -10 -5 -12 13 -3
right_child=1 5 4 7 -6 8 -8 -9 9 -11 11 -13 -14 -15
leaf_value=-0.029054800566395696 0.0031485140892622077 0.021434874887965499 -0.01258908602211504 0.055267367081326124 -0.0048644859774848214 0.042969028360372058 -0.01985576895244575 0.049145853687541402 0.03191824728674704 0.0083216781619646889 -0.0078888695113863844 0.011932343987841421 0.023368527592505548 0.0045220689200901219
leaf_weight=1012.4860148504376 2242.0104335546494 180.03653036057949 2102.898774035275 11.660776928067206 2394.2433922290802 165.99139869213104 1553.7185483053327 24.390497431159019 452.7761157900095 54.198378667235374 74.115019798278809 2124.5667584836483 1546.2567810565233 136.63059550523758
leaf_count=11552 11681 725 17337 59 15854 729 15164 99 1920 231 341 9073 6272 550
internal_value=0 0.0137344 -0.0139294 0.00752076 -0.00847657 0.0247038 -0.0234852 0.0119073 0.0327436 0.0293956 0.0114963 0.0112642 0.0217994 0.0141376
internal_weight=0 7012.63 7063.35 4476.74 4497.14 2535.89 2566.2 2234.73 672.966 506.974 2210.34 2198.68 1862.92 316.667
internal_count=91587 31680 59907 21253 33191 10427 26716 9572 2880 2151 9473 9414 7547 1275
is_linear=0
shrinkage=0.05


Tree=27
num_leaves=15
num_cat=0
split_feature=41 58 31 42 29 23 22 42 57 51 50 44 18 55
split_gain=980.089 183.934 130.121 27.6644 26.003 21.616 19.9359 10.1888 8.67715 8.30852 8.79735 13.1302 11.1853 10.2381
threshold=0.20650967955589297 0.49327967824194813 0.092206978926778108 0.71596281784320037 0.32138026115832813 0.12479248270392419 0.06199267320334912 0.49579529439419684 0.6936806850736642 0.2644706601921169 0.35644337441557422 0.34055424832675346 89.500000000000014 0.32244133014968585
decision_type=2 2 2 2 2 2 2 2 2 2 2 2 2 2
left_child=2 4 6 7 -2 -4 -1 -3 -9 -6 12 -12 -11 -14
right_child=1 3 5 -5 9 -7 -8 8 -10 10 11 -13 13 -15
leaf_value=-0.027972385377719195 0.0022215650163117965 0.0076161241520901375 -0.013004874397567324 0.030072016704862092 -0.013578386142177205 -0.0056753130874770703 -0.018964652263498416 0.01977303560555459 0.039676739214513507 0.01186907322056124 -0.0056911879296704451 0.010066769773758748 0.019620503074420242 0.050386361400047222
leaf_weight=1054.0694709941745 2138.440495878458 170.85388055443764 1608.5961866006255 837.46104998886585 36.600285083055496 2684.8199988380075 1472.0982749089599 1862.2307239174843 56.417132437229156 378.7486662119627 145.66468431055546 1429.4240720570087 88.916277825832367 38.858324110507965
leaf_count=12268 11481 717 13808 3598 173 18309 14454 7521 234 1714 667 6071 398 174
internal_value=0 0.0127454 -0.0137192 0.0223938 0.00611097 -0.00842145 -0.0227232 0.0193164 0.0203583 0.0100375 0.0104528 0.00860947 0.0161847 0.0289769
internal_weight=0 7183.62 6819.58 2926.96 4256.65 4293.42 2526.17 2089.5 1918.65 2118.21 2081.61 1575.09 506.523 127.775
internal_count=91587 32748 58839 12070 20678 32117 26722 8472 7755 9197 9024 6738 2286 572
is_linear=0
shrinkage=0.05


Tree=28
num_leaves=15
num_cat=0
split_feature=31 33 21 35 27 35 36 11 16 61 29 38 34 54
split_gain=889.036 150.33 138.363 29.3352 25.8643 18.604 18.4831 10.6373 17.6566 10.0194 11.6749 9.89838 9.08313 12.0302
threshold=0.22143908104531504 0.57205454849753778 0.10169607164779823 0.40736041963100439 0.069714672863483443 0.15339035540819171 0.7452827369474414 643.46500000000003 15.500000000000002 0.27909758475013285 0.39820086166197805 0.18844018966303705 0.16134768715777859 0.22024204473026071
decision_type=2 2 2 2 2 2 2 2 2 2 2 2 2 2
left_child=2 3 4 11 -1 7 -3 12 -9 10 -5 -2 13 -4
right_child=1 6 5 9 -6 -7 -8 8 -10 -11 -12 -13 -14 -15
leaf_value=-0.025907919183598378 -0.037634710659549382 0.020246885546030751 -0.0098056966881366042 0.054778814500410056 -0.016448664498050807 -0.0031738162822870022 0.030117013417908647 -0.014190570651931356 0.067556789022544556 0.012037120198895374 0.013766394368453725 0.0046224246305399076 -0.024780656680451502 0.037832194472134796
leaf_weight=1365.8084249421954 13.924867019057272 1682.1385683268309 2102.4094433933496 30.271494567394257 1534.6081856787205 1972.9771086499095 660.58680512011051 15.152360357344152 11.710302628576754 1496.4285411834717 40.659959435462952 2890.6341568678617 102.01151761412621 13.336867168545721
leaf_count=15891 87 6845 16686 133 14794 12618 2875 107 82 6174 170 14316 710 99
internal_value=0 0.0127698 -0.0124968 0.00739467 -0.020903 -0.00671584 0.02303 -0.00982921 0.0214457 0.0129075 0.0312693 0.00441984 -0.010208 -0.00950541
internal_weight=0 6814.64 7118.01 4471.92 2900.42 4217.6 2342.73 2244.62 26.8627 1567.36 70.9315 2904.56 2217.76 2115.75
internal_count=91587 30600 60987 20880 30685 30302 9720 17684 189 6477 303 14403 17495 16785
is_linear=0
shrinkage=0.05


Tree=29
num_leaves=15
num_cat=0
split_feature=28 31 22 36 36 47 21 62 60 46 52 61 43 62
split_gain=808.153 145.802 121.539 25.2717 21.5365 18.7444 18.7405 10.1609 9.77947 9.18861 9.37484 8.96059 8.25613 8.20295
threshold=0.22432683408260348 0.50670165584338289 0.093086134642362608 0.7452827369474414 0.13108618057853028 0.32226658834110938 0.062923544312917842 0.14018764038588671 0.45299493956191539 0.67141735553741466 0.55880031063428171 0.38074948280565613 0.41096991162630875 0.1246173212987997
decision_type=2 2 2 2 2 2 2 2 2 2 2 2 2 2
left_child=2 5 6 9 -4 8 -1 13 12 -3 -11 -5 -2 -6
right_child=1 3 4 11 7 -7 -8 -9 -10 10 -12 -13 -14 -15
leaf_value=-0.026813693178937073 0.0021822261980880817 0.016067751817350616 -0.011222780619574317 0.039161533883319971 -0.028510036855528383 0.0090021453188526088 -0.017813692700969549 -0.0050851853849800538 0.049347119940186895 -0.0082389269264446004 0.025033683407698987 0.02557233678346417 -0.041132325344114783 0.011392164377580762
leaf_weight=947.08775212615728 1979.8825278133154 1781.2013344764709 2011.6483113467693 160.63520868122578 14.114326722919939 2050.5501303076744 1485.8764782473445 2249.0653659626842 10.938961789011953 22.109795555472374 498.301110714674 495.48967528343201 11.062892168760298 147.28271098434925
leaf_count=11552 10388 7189 16971 729 100 8953 15164 15089 51 91 2079 2151 49 1031
internal_value=0 0.0118026 -0.0123415 0.020243 -0.00740319 0.0056422 -0.0213172 -0.00421556 0.00220058 0.0177754 0.0236201 0.0288993 0.00194154 0.00790268
internal_weight=0 7010.17 6855.07 2957.74 4422.11 4052.43 2432.96 2410.46 2001.88 2301.61 520.411 656.125 1990.95 161.397
internal_count=91587 31680 59907 12239 33191 19441 26716 16220 10488 9359 2170 2880 10437 1131
is_linear=0
shrinkage=0.05


end of trees

feature_importances:
Column_21=52
Column_23=35
Column_24=22
Column_42=20
Column_36=19
Column_22=18
Column_33=18
Column_41=17
Column_43=16
Column_31=15
Column_35=14
Column_37=13
Column_27=9
Column_29=9
Column_34=8
Column_38=8
Column_52=8
Column_28=7
Column_46=7
Column_47=7
Column_61=7
Column_50=6
Column_54=5
Column_0=4
Column_8=4
Column_20=4
Column_44=4
Column_48=4
Column_55=4
Column_58=4
Column_62=4
Column_6=3
Column_11=3
Column_32=3
Column_40=3
Column_49=3
Column_53=3
Column_60=3
Column_2=2
Column_7=2
Column_16=2
Column_17=2
Column_25=2
Column_30=2
Column_39=2
Column_51=2
Column_57=2
Column_3=1
Column_4=1
Column_10=1
Column_13=1
Column_14=1
Column_15=1
Column_18=1
Column_45=1
Column_59=1

parameters:
[boosting: gbdt]
[objective: binary]
[metric: auc]
[tree_learner: serial]
[device_type: cpu]
[data: ]
[valid: ]
[num_iterations: 10000]
[learning_rate: 0.05]
[num_leaves: 15]
[num_threads: 0]
[deterministic: 0]
[force_col_wise: 0]
[force_row_wise: 0]
[histogram_pool_size: -1]
[max_depth: -1]
[min_data_in_leaf: 50]
[min_sum_hessian_in_leaf: 0.001]
[bagging_fraction: 0.8]
[pos_bagging_fraction: 1]
[neg_bagging_fraction: 1]
[bagging_freq: 0]
[bagging_seed: 10961]
[feature_fraction: 0.8]
[feature_fraction_bynode: 1]
[feature_fraction_seed: 53]
[extra_trees: 0]
[extra_seed: 11644]
[early_stopping_round: 0]
[first_metric_only: 0]
[max_delta_step: 0]
[lambda_l1: 0]
[lambda_l2: 0]
[linear_lambda: 0]
[min_gain_to_split: 0]
[drop_rate: 0.1]
[max_drop: 50]
[skip_drop: 0.5]
[xgboost_dart_mode: 0]
[uniform_drop: 0]
[drop_seed: 30626]
[top_rate: 0.2]
[other_rate: 0.1]
[min_data_per_group: 100]
[max_cat_threshold: 32]
[cat_l2: 10]
[cat_smooth: 10]
[max_cat_to_onehot: 4]
[top_k: 20]
[monotone_constraints: ]
[monotone_constraints_method: basic]
[monotone_penalty: 0]
[feature_contri: ]
[forcedsplits_filename: ]
[refit_decay_rate: 0.9]
[cegb_tradeoff: 1]
[cegb_penalty_split: 0]
[cegb_penalty_feature_lazy: ]
[cegb_penalty_feature_coupled: ]
[path_smooth: 0]
[interaction_constraints: ]
[verbosity: -1]
[saved_feature_importance_type: 0]
[linear_tree: 0]
[max_bin: 255]
[max_bin_by_feature: ]
[min_data_in_bin: 3]
[bin_construct_sample_cnt: 200000]
[data_random_seed: 4071]
[is_enable_sparse: 1]
[enable_bundle: 1]
[use_missing: 1]
[zero_as_missing: 0]
[feature_pre_filter: 1]
[pre_partition: 0]
[two_round: 0]
[header: 0]
[label_column: ]
[weight_column: ]
[group_column: ]
[ignore_column: ]
[categorical_feature: ]
[forcedbins_filename: ]
[precise_float_parser: 0]
[parser_config_file: ]
[objective_seed: 602]
[num_class: 1]
[is_unbalance: 0]
[scale_pos_weight: 1]
[sigmoid: 1]
[boost_from_average: 1]
[reg_sqrt: 0]
[alpha: 0.9]
[fair_c: 1]
[poisson_max_delta_step: 0.7]
[tweedie_variance_power: 1.5]
[lambdarank_truncation_level: 30]
[lambdarank_norm: 1]
[label_gain: ]
[lambdarank_position_bias_regularization: 0]
[eval_at: ]
[multi_error_top_k: 1]
[auc_mu_weights: ]
[num_machines: 1]
[local_listen_port: 12400]
[time_out: 120]
[machine_list_filename: ]
[machines: ]
[gpu_platform_id: -1]
[gpu_device_id: -1]
[gpu_use_dp: 0]
[num_gpu: 1]

end of parameters

pandas_categorical:null
