tree
version=v4
num_class=1
num_tree_per_iteration=1
label_index=0
max_feature_idx=62
objective=binary sigmoid:1
feature_names=Column_0 Column_1 Column_2 Column_3 Column_4 Column_5 Column_6 Column_7 Column_8 Column_9 Column_10 Column_11 Column_12 Column_13 Column_14 Column_15 Column_16 Column_17 Column_18 Column_19 Column_20 Column_21 Column_22 Column_23 Column_24 Column_25 Column_26 Column_27 Column_28 Column_29 Column_30 Column_31 Column_32 Column_33 Column_34 Column_35 Column_36 Column_37 Column_38 Column_39 Column_40 Column_41 Column_42 Column_43 Column_44 Column_45 Column_46 Column_47 Column_48 Column_49 Column_50 Column_51 Column_52 Column_53 Column_54 Column_55 Column_56 Column_57 Column_58 Column_59 Column_60 Column_61 Column_62
feature_infos=[1:3442] [1:404] [1:165] [1:402] [0:8441] [0:55140.809999999998] [0:1] [0:418.19999999999999] [0:569.77999999999997] [0:16846621.120000001] [0:26.949999999999999] [0:673377.59999999998] [0:2824] [0:344] [0:219] [0:43] [0:410] [0:1026] [0:5420] [0:3021] [1:503] [0.038069605957643068:0.87217636132600929] [0.027379613369703293:0.90592801570892334] [0.031685706228017807:0.88246089220046997] [0.029209049418568611:0.89842617511749268] [0.027233733690976765:0.91363476659526177] [0.027233733690976765:0.91363476659526177] [0.031431995332241058:0.88954728841781616] [0.039454370737075806:0.90156584978103638] [0.031024969075635105:0.93358406698144902] [0.02870455167993767:0.93720958682867139] [0.027457502435567487:0.94975648225261] [0.030278721824288368:0.91392701864242554] [0.02855833441487551:0.94882848751084448] [0.032069972140849348:0.88410888336031823] [0.026857178658246994:0.90622502565383911] [0.031697192686181652:0.94414096161184768] [0.030278369803062199:0.92492070165096341] [0.032270796502906374:0.93488486456973818] [0.037887419207594392:0.84678211513899881] [0.030382640659809113:0.90065193176269531] [0.030476771295070648:0.89186060428619385] [0.031440976117471903:0.92135884673562307] [0.05290026615690438:0.88106004241889901] [0.031748318080484152:0.90598578875644209] [0.031748318080484152:0.90598578875644209] [0.03103979304432869:0.8967168927192688] [0.034884422933330023:0.8931880517696601] [0.039928665714797223:0.85299021201994296] [0.0378012370242546:0.86693083576704755] [0.061528257874265607:0.79130426322188208] [0.071459820937190263:0.75766213832503782] [2.0034991554792348e-19:0.99999999999931122] [0.072693602900915089:0.73777719604290726] [8.6101390577007466e-09:0.70850941980265925] [0.060506628166426039:0.80864197530864201] [0.060506628166426039:0.80864197530864201] [0.069494031993034777:0.86057096829326318] [1.7799136857013159e-10:0.77928964071519014] [0.064015757724978459:0.7276785714285714] [0.095037316846062106:0.78081391858368032] [0.11810209533529083:0.80559574118744048] [0.11242036684775453:0.78133214355100722]
tree_sizes=1715 1739 1748 1748 1744 1755 1759 1759 1748 1750 1758 1742 1750

Tree=0
num_leaves=15
num_cat=0
split_feature=42 25 32 22 42 23 24 23 22 23 36 28 43 25
split_gain=16570.3 1867.77 1503.96 326.635 240.605 229.158 167.441 50.69 48.9341 46.1352 39.4007 37.3579 32.432 27.0366
threshold=0.35503297003944628 0.17169450472053274 0.56721544265747081 0.099750451743602767 0.70623492796833143 0.2619673907756806 0.46991680562496191 0.13641148060560229 0.63313567638397228 0.074406240135431304 0.3057163267887803 0.22427490353584292 0.8114961480312145 0.44351693518284113
decision_type=2 2 2 2 2 2 2 2 2 2 2 2 2 2
left_child=1 3 6 9 8 11 13 -5 -4 -1 -7 -3 -6 -2
right_child=2 5 4 7 12 10 -8 -9 -10 -11 -12 -13 -14 -15
leaf_value=-1.2769975070250028 -1.1800770098413043 -1.2375209542409809 -1.1220121130561305 -1.2588144982131886 -1.0760428738465171 -1.2126839505876423 -1.142329017615201 -1.2473882589942324 -1.0999751281052812 -1.2674225529116963 -1.1949258074764257 -1.224170431417809 -1.0381572587455987 -1.1616434044534156
leaf_weight=3164.830743432045 734.94324918091297 1188.7395935952663 500.94629290699959 2465.6443325132132 630.47719229757786 699.18641091883183 636.43666534125805 1600.8196267038584 506.73048733174801 2088.0941873341799 564.57243157923222 937.03949680924416 62.048631101846695 272.73353105783463
leaf_count=18056 4193 6782 2858 14067 3597 3989 3631 9133 2891 11913 3221 5346 354 1556
internal_value=-1.22734 -1.2534 -1.12831 -1.26496 -1.09534 -1.22161 -1.16241 -1.25432 -1.11093 -1.27319 -1.20475 -1.23164 -1.07265 -1.17509
internal_weight=0 12708.9 3344.32 9319.39 1700.2 3389.54 1644.11 4066.46 1007.68 5252.92 1263.76 2125.78 692.526 1007.68
internal_count=91587 72507 19080 53169 9700 19338 9380 23200 5749 29969 7210 12128 3951 5749
is_linear=0
shrinkage=1


Tree=1
num_leaves=15
num_cat=0
split_feature=37 38 24 27 21 22 41 46 46 21 43 22 44 21
split_gain=14429.8 1519.92 1397.14 298.122 228.575 186.016 90.8869 39.295 33.4667 29.3803 27.989 27.9731 27.3208 24.2248
threshold=0.32172710779357522 0.51713176985267328 0.14686894416809085 0.67317333817482006 0.22425551864133011 0.092806711792945876 0.38298298418521887 0.6003025770187379 0.55183264613151561 0.30185283493086418 0.8114961480312145 0.06723309308290483 0.18820891627451497 0.1244792607603134
decision_type=2 2 2 2 2 2 2 2 2 2 2 2 2 2
left_child=2 6 5 7 12 11 -2 -3 -8 -6 -5 -1 -4 -7
right_child=1 3 4 10 9 13 8 -9 -10 -11 -12 -13 -14 -15
leaf_value=-0.049275983470059265 0.034419361057508792 0.087514429602838784 -0.01669129922195333 0.12947026546905602 0.0082341210346830868 -0.03327612619464683 0.05607843194739285 0.10541741688308726 0.10693348386124607 0.02574195923908279 0.162676891345061 -0.041304664747726039 -0.006064286784736311 -0.024242258686201029
leaf_weight=2586.6828494220972 727.01872932910919 749.53996343910694 1591.941836103797 883.91075378656387 1295.56010389328 2413.0975413620472 926.64912563562393 518.53246594965458 33.521019414067268 294.00318422913551 68.364649772644043 1915.6367461383343 975.34435653686523 1071.6348690539598
leaf_count=15168 4062 4067 9170 4678 7356 14025 5114 2779 182 1652 354 11192 5585 6203
internal_value=0 0.083529 -0.0269365 0.110712 -0.00342816 -0.0391713 0.0477558 0.0948352 0.0578539 0.0114723 0.131854 -0.0458844 -0.012654 -0.030498
internal_weight=0 3907.54 12143.9 2220.35 4156.85 7987.05 1687.19 1268.07 960.17 1589.56 952.275 4502.32 2567.29 3484.73
internal_count=91587 21236 70351 11878 23763 46588 9358 6846 5296 9008 5032 26360 14755 20228
is_linear=0
shrinkage=0.05


Tree=2
num_leaves=15
num_cat=0
split_feature=37 24 29 21 22 22 24 22 38 24 21 44 43 21
split_gain=12657 1313.13 1222.65 206.838 202.243 179.833 102.26 27.3935 26.6399 26.5809 26.1298 24.919 23.5863 23.022
threshold=0.32172710779357522 0.14686894416809085 0.53511957843364366 0.22425551864133011 0.67656204104423534 0.092806711792945876 0.44395788013935095 0.06723309308290483 0.37103068781163445 0.24146527051925662 0.29295004196535862 0.67375709583691978 0.73719924603640774 0.1244792607603134
decision_type=2 2 2 2 2 2 2 2 2 2 2 2 2 2
left_child=1 5 6 9 11 7 8 -1 -2 -3 -5 -4 -6 -7
right_child=2 3 4 10 12 13 -8 -9 -10 -11 -12 -13 -14 -15
leaf_value=-0.048185887571014524 0.030312469607860045 -0.012728359761844771 0.085401056991642799 0.0070884909427955615 0.11020166881973011 -0.032227025533920442 0.062966759926425711 -0.040196400601966505 0.044938355945887257 0.02994243767948403 0.021747595765584962 0.11428456750877587 0.12547063968941366 -0.023353206566133645
leaf_weight=2514.7787782251835 585.43215355277061 2512.3067194968462 1111.377815246582 1191.2738838344812 512.2791460454464 2368.2274905145168 616.96207030117512 1871.1726065278053 664.96941639482975 37.034268766641617 408.14075435698032 80.053121760487556 499.55539710819721 1057.1850595325232
leaf_count=15168 3212 14543 5724 6737 2562 14025 3265 11192 3599 212 2271 404 2470 6203
internal_value=0 -0.0259988 0.0760747 -0.00326561 0.101302 -0.0380728 0.0463095 -0.0447773 0.0380906 -0.0121085 0.0108292 0.0873418 0.11774 -0.0294883
internal_weight=0 11960.1 4070.63 4148.76 2203.27 7811.36 1867.36 4385.95 1250.4 2549.34 1599.41 1191.43 1011.83 3425.41
internal_count=91587 70351 21236 23763 11160 46588 10076 26360 6811 14755 9008 6128 5032 20228
is_linear=0
shrinkage=0.05


Tree=3
num_leaves=15
num_cat=0
split_feature=21 23 21 32 21 23 29 36 21 45 32 24 23 22
split_gain=11173 1151.6 1106.57 203.99 194.908 142.94 57.2989 30.8241 29.9798 26.0041 23.0607 19.1397 18.9656 14.3058
threshold=0.31191445644570875 0.13641148060560229 0.49993974895548166 0.65823519229888927 0.21628800157070893 0.077894173562526717 0.37138747966469504 0.74472366938154111 0.10196509914382533 0.18820891627451497 0.56721544265747081 0.44395788013935095 0.2619673907756806 0.69394034147262584
decision_type=2 2 2 2 2 2 2 2 2 2 2 2 2 2
left_child=1 5 6 10 9 -1 -2 -5 -7 -3 -4 -8 -6 -12
right_child=2 4 3 7 12 8 11 -9 -10 -11 13 -13 -14 -15
leaf_value=-0.045949541718310463 0.027914469446256709 -0.016745602531977901 0.06779667542745986 0.09668555112594468 0.0029604244443245959 -0.036485077509995717 0.040882345157925742 0.11265124483364319 -0.027854743730011594 -0.0059974818317083053 0.080302707265097195 0.054543140332236041 0.013661976252211137 0.12108558017968303
leaf_weight=3150.989813581109 732.9722928404808 1987.4815887212753 506.80325055122375 606.7894067466259 888.84430725872517 1837.3921945691109 688.41392475366592 602.47268261015415 2224.5865322351456 785.03072622418404 776.91708062589169 408.57930871844292 774.99740339815617 22.115014493465424
leaf_count=19503 3964 11670 2556 2910 5040 11184 3647 2836 13366 4544 3832 2109 4320 106
internal_value=0 -0.0256289 0.0683195 0.0898426 -0.00558351 -0.0379579 0.0387383 0.10464 -0.0317586 -0.0137023 0.0761397 0.0459704 0.00794508 0.0814315
internal_weight=0 11649.3 4345.06 2515.1 4436.35 7212.97 1829.97 1209.26 4061.98 2772.51 1305.84 1096.99 1663.84 799.032
internal_count=91587 69627 21960 12240 25574 44053 9720 5746 24550 16214 6494 5756 9360 3938
is_linear=0
shrinkage=0.05


Tree=4
num_leaves=15
num_cat=0
split_feature=21 30 38 41 27 23 41 28 35 46 21 43 32 62
split_gain=9919.74 1016.5 1013.91 177.734 156.649 120.354 80.6026 24.2109 22.0162 22.0039 21.6639 18.4755 17.868 18.0679
threshold=0.30185283493086418 0.12650324918152461 0.51713176985267328 0.20528183132410052 0.67317333817482006 0.077894173562526717 0.38298298418521887 0.60377970337867748 0.15941199660301211 0.56883046030998241 0.10196509914382533 0.8114961480312145 0.56721544265747081 0.32234251281411402
decision_type=2 2 2 2 2 2 2 2 2 2 2 2 2 2
left_child=1 5 6 8 7 -1 -2 -4 -3 -8 -7 -6 -9 -14
right_child=2 3 4 -5 11 10 9 12 -10 -11 -12 -13 13 -15
leaf_value=-0.044907947020385218 0.025791082479858202 -0.019831229954265926 0.066457751837974921 0.0049587596493267565 0.095316363697767692 -0.035437916721031006 0.044458448610316947 0.034319891675421453 -0.010869679584534249 0.094575430444290315 -0.027774721727391566 0.12025308563273425 0.12759643623058967 0.079592091295187184
leaf_weight=3064.8496233969927 1018.0878800600767 1306.593067586422 821.58053216338158 1836.9340179413557 1025.1499390751123 1796.3993317782879 1030.081493884325 21.00270614027977 1441.4540381878614 22.37710177898407 1895.3255893886089 80.07964038848877 20.306264877319336 564.69703489542007
leaf_count=19502 5429 7822 3983 10388 4678 11173 5263 102 8457 108 11565 354 96 2667
internal_value=0 -0.0252531 0.0617746 -0.00708194 0.082991 -0.037584 0.0358213 0.07205 -0.0151306 0.045524 -0.0315036 0.0971232 0.0796316 0.0812584
internal_weight=0 11341.6 4603.36 4584.98 2532.82 6756.57 2070.55 1427.59 2748.05 1052.46 3691.72 1105.23 606.006 585.003
internal_count=91587 68907 22680 26667 11880 42240 10800 6848 16279 5371 22738 5032 2865 2763
is_linear=0
shrinkage=0.05


Tree=5
num_leaves=15
num_cat=0
split_feature=37 30 33 28 42 31 37 28 42 21 3 40 24 22
split_gain=8845.09 958.797 858.953 161.106 124.343 112.352 78.0949 27.5904 26.8824 17.6217 17.5762 17.5143 15.482 15.0166
threshold=0.30078673654137089 0.12650324918152461 0.52610605200895488 0.22427490353584292 0.70623492796833143 0.082428126464688833 0.42221623693526739 0.60377970337867748 0.2113389457537703 0.10196509914382533 5.5000000000000009 0.3593128919601441 0.16478074342012408 0.06723309308290483
decision_type=2 2 2 2 2 2 2 2 2 2 2 2 2 2
left_child=1 5 6 8 7 13 10 -4 12 -7 -2 -5 -3 -1
right_child=2 3 4 11 -6 9 -8 -9 -10 -11 -12 -13 -14 -15
leaf_value=-0.045226409755514951 0.023800152305403794 -0.018757081486587883 0.062043825916086683 0.005380216040136364 0.092049732230966283 -0.034172059035913943 0.046676775711487983 0.075061980853382601 0.00067964474781797234 -0.026697151295656269 0.036877395120844141 0.051642485367402104 -0.011112265024538527 -0.038097671964387347
leaf_weight=2287.449674487114 1031.7623144835234 1447.8614757359028 772.81360051035881 1587.737962782383 899.69135218858719 1372.3272392302752 803.974036231637 859.84104737639427 293.61110961437225 1853.161993637681 342.1464661359787 20.725854113698006 1220.5665397644043 1091.1046750843525
leaf_count=15002 5403 8751 3648 8900 3956 8725 3974 3916 1705 11495 1779 111 7204 7018
internal_value=0 -0.0243679 0.0573234 -0.00676264 0.0771245 -0.036552 0.0342996 0.0688999 -0.0136802 -0.0298775 0.0270568 0.00597633 -0.0152603 -0.0429242
internal_weight=0 11174.5 4710.23 4570.5 2532.35 6604.04 2177.88 1632.65 2962.04 3225.49 1373.91 1608.46 2668.43 3378.55
internal_count=91587 68911 22676 26671 11520 42240 11156 7564 17660 20220 7182 9011 15955 22020
is_linear=0
shrinkage=0.05


Tree=6
num_leaves=15
num_cat=0
split_feature=21 30 21 41 22 31 41 42 35 21 36 21 37 24
split_gain=7902.02 848.784 810.4 130.161 128.609 109.161 63.0301 25.0688 19.0799 16.8901 15.0173 14.9989 13.6731 13.6455
threshold=0.29295004196535862 0.12650324918152461 0.49993974895548166 0.20528183132410052 0.65077978372573864 0.082428126464688833 0.38298298418521887 0.71602831877063078 0.15941199660301211 0.10196509914382533 0.58677440842192496 0.063011274160046607 0.33299478125850573 0.24146527051925662
decision_type=2 2 2 2 2 2 2 2 2 2 2 2 2 2
left_child=1 5 6 8 10 11 -2 -6 -3 -7 -4 -1 -8 -10
right_child=2 3 4 -5 7 9 12 -9 13 -11 -12 -13 -14 -15
leaf_value=-0.045270687659324405 0.021719945372357913 -0.018366946502232879 0.053968523308640173 0.0036817706807313142 0.072942539026335879 -0.033170219392167757 0.0021438822558624161 0.08645384517521422 -0.010644468996959457 -0.025782707194527167 0.064573974358728622 -0.038517079764050277 0.039637504306370412 0.024656998352739788
leaf_weight=1658.1215941160917 1177.5814003050327 1278.243414580822 675.03390571475029 1713.995751619339 586.6754702180624 1343.8214374035597 24.92761093378067 827.57461529970169 1396.543330386281 1823.7069830596447 660.29034785926342 1630.5366526097059 990.99614018201828 27.921577036380768
leaf_count=11191 6155 7822 3128 9668 2577 8725 128 3542 8299 11495 2993 10829 4877 158
internal_value=0 -0.0239869 0.0522589 -0.00709667 0.0703413 -0.0355415 0.0295924 0.0808489 -0.0139321 -0.0289169 0.0592127 -0.0419222 0.0387175 -0.00995251
internal_weight=0 10872.9 4943.08 4416.7 2749.57 6456.19 2193.51 1414.25 2702.71 3167.53 1335.32 3288.66 1015.92 1424.46
internal_count=91587 68187 23400 25947 12240 42240 11160 6119 16279 20220 6121 22020 5005 8457
is_linear=0
shrinkage=0.05


Tree=7
num_leaves=15
num_cat=0
split_feature=37 30 28 41 23 22 41 38 21 30 50 36 43 47
split_gain=7083.94 849.828 647.723 134.815 111.848 90.3598 65.2449 20.922 18.7376 17.3109 17.1035 15.8378 15.3381 14.7569
threshold=0.30078673654137089 0.12650324918152461 0.52491581439971935 0.20528183132410052 0.077894173562526717 0.67656204104423534 0.38298298418521887 0.51713176985267328 0.10196509914382533 0.18059696799834707 0.21101615230030971 0.58677440842192496 0.8114961480312145 0.35208501622341343
decision_type=2 2 2 2 2 2 2 2 2 2 2 2 2 2
left_child=1 4 6 9 -1 11 -2 -8 -6 -3 -5 -4 -7 -12
right_child=2 3 5 10 8 12 7 -9 -10 -11 13 -13 -14 -15
leaf_value=-0.041950428393979534 0.021491974332358679 -0.015774214985974529 0.051371881630317286 -0.0036674593363999388 -0.032359593064462365 0.075579455821759456 0.035115012433988672 0.05122044663282295 -0.025027628493634796 -0.0066708100213049501 0.0061953769202576607 0.062480402508305791 0.097498761090333619 0.037015456917974025
leaf_weight=2823.2147433459759 1057.495554253459 1967.5431492179632 510.46111935377121 506.18586923182011 1683.7583072781563 1107.7929357141256 1013.5722994804382 251.73255062103271 1806.0889074057341 710.90614558756351 1311.1850486546755 863.87917125225067 86.006386116147041 40.024547234177589
leaf_count=19502 5458 12054 2313 2895 11173 4683 4911 1151 11565 4212 7296 3806 354 214
internal_value=0 -0.0226892 0.0497908 -0.00617975 -0.0345511 0.0670956 0.0306583 0.0383192 -0.0285651 -0.013358 0.00417165 0.0583544 0.0771586 0.00710831
internal_weight=0 10848.9 4890.94 4535.84 6313.06 2568.14 2322.8 1265.3 3489.85 2678.45 1857.4 1374.34 1193.8 1351.21
internal_count=91587 68911 22676 26671 42240 11156 11520 6062 22738 16266 10405 6119 5037 7510
is_linear=0
shrinkage=0.05


Tree=8
num_leaves=15
num_cat=0
split_feature=21 21 38 44 27 23 38 29 46 21 46 50 43 42
split_gain=6360.38 754.954 618.695 122.422 95.4738 94.6143 58.8785 21.7921 16.463 15.5441 14.1065 19.5585 13.7885 12.3273
threshold=0.29295004196535862 0.1244792607603134 0.51713176985267328 0.18820891627451497 0.67317333817482006 0.074406240135431304 0.37103068781163445 0.2299906956618181 0.56883046030998241 0.10196509914382533 0.6003025770187379 0.51692346494447461 0.8114961480312145 0.19138011897384336
decision_type=2 2 2 2 2 2 2 2 2 2 2 2 2 2
left_child=1 5 6 13 10 -1 -2 -5 -8 -7 -4 -12 -6 -3
right_child=2 3 4 7 12 9 8 -9 -10 -11 11 -13 -14 -15
leaf_value=-0.041506098648594773 0.017898681393586538 -0.015888329880782353 0.049457335883923322 -0.0036916346044757482 0.070659838805077646 -0.031764606925020721 0.03309493988954209 0.0062847332795293049 0.075199212430518914 -0.024914884904846224 0.10576913426260857 0.057483063921593414 0.09129628295165261 -0.0020433135572393442
leaf_weight=2539.5654677301645 1051.9232428818941 2301.1209792643785 916.89603625237942 1091.546242043376 1124.5251817852259 1858.3656092137098 1252.7723518162966 1098.0231814682484 23.654818579554558 1494.1786897033453 21.70140765607357 623.58042016625404 87.222808122634888 172.85321596264839
leaf_count=18059 5401 14278 4069 6333 4678 12627 6015 6105 104 9746 94 2685 354 1039
internal_value=0 -0.02233 0.0456614 -0.00729981 0.061613 -0.0342263 0.0266572 0.0013113 0.0338752 -0.0287118 0.0534433 0.059107 0.0721453 -0.014921
internal_weight=0 10555.7 5102.28 4663.54 2773.93 5892.11 2328.35 2189.57 1276.43 3352.54 1562.18 645.282 1211.75 2473.97
internal_count=91587 68187 23400 27755 11880 40432 11520 12438 6119 22373 6848 2779 5032 15317
is_linear=0
shrinkage=0.05


Tree=9
num_leaves=15
num_cat=0
split_feature=21 21 39 22 32 43 38 21 54 42 28 24 48 32
split_gain=5719.31 711.502 549.217 112.119 89.3705 81.5325 58.5222 18.806 18.7573 15.3817 13.5642 13.3132 11.5518 11.6852
threshold=0.29295004196535862 0.1244792607603134 0.51964166421963942 0.19887757301330569 0.067690096795558943 0.69291378176745666 0.37103068781163445 0.099419358209953693 0.18850685869557024 0.15177158362989052 0.60377970337867748 0.46991680562496191 0.48737841884070054 0.5588987171649934
decision_type=2 2 2 2 2 2 2 2 2 2 2 2 2 2
left_child=1 4 6 9 -1 10 -2 -6 -5 -3 -4 -8 -12 -14
right_child=2 3 5 8 7 -7 11 -9 -10 -11 12 -13 13 -15
leaf_value=-0.041111334797646948 0.016766466620330829 -0.017113949501647376 0.046839697132094849 -0.0068510675121886749 -0.031798675011940031 0.069281489731923732 0.029028406519663576 -0.024494643453907561 0.0052579860134981662 -0.0096872512342252616 0.103391029530323 0.039538948795736245 0.013999175150047553 0.055955905285022735
leaf_weight=2228.3940987884998 1057.9248915910721 1356.5105857551098 815.10343942046165 411.03018796443939 1852.9573897272348 1039.6881853193045 945.10797701776028 1680.5469901114702 1440.9982128441334 1434.4377564787865 12.578877717256544 442.2660575658083 16.930400982499123 837.12926872074604
leaf_count=16289 5388 8581 3571 2373 12962 4260 4521 11181 8067 8734 54 2004 74 3528
internal_value=0 -0.021533 0.042822 -0.00696757 -0.03327 0.0582746 0.0256244 -0.0283249 0.00257056 -0.0132969 0.0514699 0.0323789 0.0558248 0.0551242
internal_weight=0 10404.9 5166.73 4642.98 5761.9 2721.43 2445.3 3533.5 1852.03 2790.95 1681.74 1387.37 866.639 854.06
internal_count=91587 68187 23400 27755 40432 11487 11913 24143 10440 17315 7227 6525 3656 3602
is_linear=0
shrinkage=0.05


Tree=10
num_leaves=15
num_cat=0
split_feature=37 21 28 41 32 42 37 21 46 27 38 55 3 52
split_gain=5151.28 707.291 450.046 115.439 86.9851 70.1776 45.6692 18.049 17.0349 16.914 13.6808 13.8163 13.4774 11.7519
threshold=0.30078673654137089 0.1244792607603134 0.52491581439971935 0.20528183132410052 0.067690096795558943 0.71602831877063078 0.42221623693526739 0.099419358209953693 0.64073941111564647 0.1562217250466347 0.34274145711029119 0.16600037804111112 5.5000000000000009 0.50832737467204903
decision_type=2 2 2 2 2 2 2 2 2 2 2 2 2 2
left_child=1 4 6 9 -1 8 12 -6 -4 -3 11 -5 -2 -8
right_child=2 3 5 10 7 -7 13 -9 -10 -11 -12 -13 -14 -15
leaf_value=-0.040189488258170786 0.017007368957149809 -0.016496767212592685 0.045875994512650585 -0.010742358154605006 -0.030864969418733419 0.066670071229511144 0.030421312273325382 -0.023644322493855893 0.056089800439389742 -0.008835539731686352 0.06058579434626047 0.0045308332211726875 0.028139222777534265 0.042790555738968061
leaf_weight=2167.1029426455498 1087.7614093869925 1353.2668248862028 1157.8797338753939 162.21755948662758 1814.551541864872 888.32507692277431 687.86479420959949 1654.6076127141714 630.53663221001625 1540.5684551149607 10.443783625960348 1697.9720660597086 362.51785859465599 266.39371781051159
leaf_count=16289 5401 8652 4951 937 12962 3599 3163 11181 2606 9404 53 9433 1774 1182
internal_value=0 -0.0203424 0.0410794 -0.00616079 -0.0323305 0.0551829 0.0253794 -0.0274211 0.049477 -0.0124182 0.00351933 0.00319894 0.0197899 0.0338743
internal_weight=0 10400.7 5081.28 4764.47 5636.26 2676.74 2404.54 3469.16 1788.42 2893.84 1870.63 1860.19 1450.28 954.259
internal_count=91587 68911 22676 28479 40432 11156 11520 24143 7557 18056 10423 10370 7175 4345
is_linear=0
shrinkage=0.05


Tree=11
num_leaves=15
num_cat=0
split_feature=23 21 23 32 23 44 38 52 27 46 0 43 52 32
split_gain=4661.54 572.29 509.974 80.6115 76.192 64.4069 61.128 16.0269 12.0222 11.0807 14.0048 10.5521 10.3514 20.9404
threshold=0.2619673907756806 0.49993974895548166 0.11968146264553071 0.65823519229888927 0.074406240135431304 0.18820891627451497 0.37103068781163445 0.6663597771439449 0.1562217250466347 0.60759675502777111 69.500000000000014 0.8114961480312145 0.50832737467204903 0.49422824382781988
decision_type=2 2 2 2 2 2 2 2 2 2 2 2 2 2
left_child=2 6 4 9 -1 8 -2 -5 -4 -3 -11 -9 -8 -14
right_child=1 3 5 7 -6 -7 12 11 -10 10 -12 -13 13 -15
leaf_value=-0.038768738933279284 0.012760365867025961 0.039880231819552553 -0.016472107765648752 0.051931424864293863 -0.026655258457036726 -0.0011714197300737078 0.026079531147308273 0.061389800532041933 -0.0096439111027429927 0.088620174482708022 0.047220925248819816 0.079778148029653939 0.027687172783182071 0.07401740808099018
leaf_weight=2340.963157966733 1603.1107427924871 1067.6080329865217 1586.9122979193926 492.12156014144421 2913.9579655081034 1665.5344643592834 1126.9545988738537 840.95231775939465 1085.6305268704891 21.414043724536896 443.79240576922894 85.995655715465546 79.917367488145828 35.101239010691643
leaf_count=18059 8274 4562 10366 2006 20579 9565 5243 3396 6740 89 1843 344 364 157
internal_value=0 0.0352134 -0.0215771 0.0506366 -0.0320516 -0.00888886 0.0192112 0.059224 -0.0136984 0.0426865 0.0491266 0.0630957 0.0275378 0.0418262
internal_weight=0 5796.97 9593 2951.88 5254.92 4338.08 2845.08 1419.07 2672.54 1532.81 465.206 926.948 1241.97 115.019
internal_count=91587 26278 65309 12240 38638 26671 14038 5746 17106 6494 1932 3740 5764 521
is_linear=0
shrinkage=0.05


Tree=12
num_leaves=15
num_cat=0
split_feature=23 38 23 23 38 36 38 36 53 46 58 44 41 43
split_gain=4211.81 513.11 481.284 74.0994 68.5074 59.7351 59.0734 12.7813 18.9577 12.3008 12.1955 12.9552 14.1259 12.0936
threshold=0.2619673907756806 0.51713176985267328 0.11968146264553071 0.074406240135431304 0.67904312646380161 0.17677039632930028 0.37103068781163445 0.3057163267887803 0.3813359295834709 0.55183264613151561 0.43076771307862333 0.2959057628068204 0.36980867385864263 0.8114961480312145
decision_type=2 2 2 2 2 2 2 2 2 2 2 2 2 2
left_child=2 6 3 -1 -3 -4 7 10 -9 -8 11 -2 -13 -6
right_child=1 4 5 -5 13 -7 9 8 -10 -11 -12 12 -14 -15
leaf_value=-0.037868422312058281 0.010913458595903298 0.041441173131133963 -0.01376126370628087 -0.025784939914983797 0.055622893981108715 -0.0019230834711223242 0.025433318189616656 0.01964297377602776 -0.0001946121061862652 0.052669490207797078 0.059950412072717708 -0.0063169519552862142 0.051438396029453305 0.074805327082642856
leaf_weight=2278.3931553214788 523.0801999270916 1637.4386775642633 2394.2504541128874 2863.0150713324547 1163.815020263195 1920.2722166031599 1293.7434319406748 710.81567433476448 145.00119307637215 42.827915221452713 10.86855113506317 213.20887157320976 11.140168488025664 88.406421720981598
leaf_count=18059 2822 6840 15495 20579 4686 11176 5937 3534 709 181 55 1105 55 354
internal_value=0 0.0331977 -0.0208063 -0.0311397 0.0481736 -0.00849242 0.0185315 0.0120938 0.0162819 0.0263061 0.00736701 0.00660239 -0.00344908 0.0569772
internal_weight=0 5840.35 9455.93 5141.41 2889.66 4314.52 2950.69 1614.11 855.817 1336.57 758.298 747.429 224.349 1252.22
internal_count=91587 26278 65309 38638 11880 26671 14398 8280 4243 6118 4037 3982 1160 5040
is_linear=0
shrinkage=0.05


end of trees

feature_importances:
Column_21=27
Column_23=15
Column_22=12
Column_38=12
Column_24=9
Column_32=9
Column_41=9
Column_43=9
Column_37=8
Column_42=8
Column_46=8
Column_28=7
Column_36=6
Column_27=5
Column_30=5
Column_44=5
Column_29=3
Column_52=3
Column_3=2
Column_25=2
Column_31=2
Column_35=2
Column_50=2
Column_0=1
Column_33=1
Column_39=1
Column_40=1
Column_45=1
Column_47=1
Column_48=1
Column_53=1
Column_54=1
Column_55=1
Column_58=1
Column_62=1

parameters:
[boosting: gbdt]
[objective: binary]
[metric: auc]
[tree_learner: serial]
[device_type: cpu]
[data: ]
[valid: ]
[num_iterations: 10000]
[learning_rate: 0.05]
[num_leaves: 15]
[num_threads: 0]
[deterministic: 0]
[force_col_wise: 0]
[force_row_wise: 0]
[histogram_pool_size: -1]
[max_depth: -1]
[min_data_in_leaf: 50]
[min_sum_hessian_in_leaf: 0.001]
[bagging_fraction: 0.8]
[pos_bagging_fraction: 1]
[neg_bagging_fraction: 1]
[bagging_freq: 0]
[bagging_seed: 10961]
[feature_fraction: 0.8]
[feature_fraction_bynode: 1]
[feature_fraction_seed: 53]
[extra_trees: 0]
[extra_seed: 11644]
[early_stopping_round: 0]
[first_metric_only: 0]
[max_delta_step: 0]
[lambda_l1: 0]
[lambda_l2: 0]
[linear_lambda: 0]
[min_gain_to_split: 0]
[drop_rate: 0.1]
[max_drop: 50]
[skip_drop: 0.5]
[xgboost_dart_mode: 0]
[uniform_drop: 0]
[drop_seed: 30626]
[top_rate: 0.2]
[other_rate: 0.1]
[min_data_per_group: 100]
[max_cat_threshold: 32]
[cat_l2: 10]
[cat_smooth: 10]
[max_cat_to_onehot: 4]
[top_k: 20]
[monotone_constraints: ]
[monotone_constraints_method: basic]
[monotone_penalty: 0]
[feature_contri: ]
[forcedsplits_filename: ]
[refit_decay_rate: 0.9]
[cegb_tradeoff: 1]
[cegb_penalty_split: 0]
[cegb_penalty_feature_lazy: ]
[cegb_penalty_feature_coupled: ]
[path_smooth: 0]
[interaction_constraints: ]
[verbosity: -1]
[saved_feature_importance_type: 0]
[linear_tree: 0]
[max_bin: 255]
[max_bin_by_feature: ]
[min_data_in_bin: 3]
[bin_construct_sample_cnt: 200000]
[data_random_seed: 4071]
[is_enable_sparse: 1]
[enable_bundle: 1]
[use_missing: 1]
[zero_as_missing: 0]
[feature_pre_filter: 1]
[pre_partition: 0]
[two_round: 0]
[header: 0]
[label_column: ]
[weight_column: ]
[group_column: ]
[ignore_column: ]
[categorical_feature: ]
[forcedbins_filename: ]
[precise_float_parser: 0]
[parser_config_file: ]
[objective_seed: 602]
[num_class: 1]
[is_unbalance: 0]
[scale_pos_weight: 1]
[sigmoid: 1]
[boost_from_average: 1]
[reg_sqrt: 0]
[alpha: 0.9]
[fair_c: 1]
[poisson_max_delta_step: 0.7]
[tweedie_variance_power: 1.5]
[lambdarank_truncation_level: 30]
[lambdarank_norm: 1]
[label_gain: ]
[lambdarank_position_bias_regularization: 0]
[eval_at: ]
[multi_error_top_k: 1]
[auc_mu_weights: ]
[num_machines: 1]
[local_listen_port: 12400]
[time_out: 120]
[machine_list_filename: ]
[machines: ]
[gpu_platform_id: -1]
[gpu_device_id: -1]
[gpu_use_dp: 0]
[num_gpu: 1]

end of parameters

pandas_categorical:null
