tree
version=v4
num_class=1
num_tree_per_iteration=1
label_index=0
max_feature_idx=62
objective=binary sigmoid:1
feature_names=Column_0 Column_1 Column_2 Column_3 Column_4 Column_5 Column_6 Column_7 Column_8 Column_9 Column_10 Column_11 Column_12 Column_13 Column_14 Column_15 Column_16 Column_17 Column_18 Column_19 Column_20 Column_21 Column_22 Column_23 Column_24 Column_25 Column_26 Column_27 Column_28 Column_29 Column_30 Column_31 Column_32 Column_33 Column_34 Column_35 Column_36 Column_37 Column_38 Column_39 Column_40 Column_41 Column_42 Column_43 Column_44 Column_45 Column_46 Column_47 Column_48 Column_49 Column_50 Column_51 Column_52 Column_53 Column_54 Column_55 Column_56 Column_57 Column_58 Column_59 Column_60 Column_61 Column_62
feature_infos=[1:3442] [1:404] [1:165] [1:402] [0:8441] [0:80843.080000000002] [0:1] [0:418.19999999999999] [0:569.77999999999997] [0:16846621.120000001] [0:18.850000000000001] [0:935923.39000000001] [0:2824] [0:344] [0:219] [0:43] [0:410] [0:1026] [0:5420] [0:3021] [1:503] [0.036719475603552286:0.87217636132600929] [0.027379613369703293:0.90592801570892334] [0.029783282428979874:0.89940571784973145] [0.029209049418568611:0.89842617511749268] [0.021783693469912654:0.91363476659526177] [0.021783693469912654:0.91363476659526177] [0.031431995332241058:0.88954728841781616] [0.039454370737075806:0.90156584978103638] [0.024367552038404964:0.94445441953658027] [0.02870455167993767:0.93720958682867139] [0.0220658317284354:0.94975648225261] [0.027018280699849129:0.91392701864242554] [0.02855833441487551:0.94882848751084448] [0.02510689945363968:0.88410888336031823] [0.026857178658246994:0.90622502565383911] [0.025738470856998371:0.94414096161184768] [0.02486341805281057:0.93785968917016804] [0.020004729661547063:0.94331686226487532] [0.037887419207594392:0.84678211513899881] [0.030382640659809113:0.90065193176269531] [0.030476771295070648:0.89301407337188721] [0.031440976117471903:0.92135884673562307] [0.05290026615690438:0.88106004241889901] [0.029335361866243907:0.90598578875644209] [0.029335361866243907:0.90598578875644209] [0.03103979304432869:0.8967168927192688] [0.027750163147186955:0.8931880517696601] [0.028169386071213096:0.86850141005226755] [0.0378012370242546:0.86693083576704755] [0.061528257874265607:0.79130426322188208] [0.071459820937190263:0.75766213832503782] [2.0034991554792348e-19:0.99999999999931122] [0.072693602900915089:0.73777719604290726] [1.0639126737702689e-06:0.70850941980265925] [0.060506628166426039:0.80864197530864201] [0.060506628166426039:0.80864197530864201] [0.069494031993034777:0.86057096829326318] [3.8755791119301847e-05:0.77928964071519014] [0.064015757724978459:0.7276785714285714] [0.095751146026804956:0.78081391858368032] [0.11810209533529083:0.80559574118744048] [0.11242036684775453:0.78133214355100722]
tree_sizes=1717 1752 1750 1752 1740 1756 1749 1749 1750 1744 1760 1757 1751 1762 1753 1753 1750 1751

Tree=0
num_leaves=15
num_cat=0
split_feature=37 24 23 28 35 42 23 29 32 29 33 42 23 43
split_gain=16629.4 1798.39 1605.95 337.498 244.268 198.476 154.013 56.7246 41.9075 37.728 35.5097 26.764 25.8923 23.3678
threshold=0.33151083591294683 0.57979530096054088 0.13611735403537753 0.22409883886575702 0.46311274170875555 0.71502179553170231 0.078059583902359023 0.27824449992256828 0.66752573847770702 0.39669437245496214 0.52569183598568636 0.19122344456986154 0.1175019107758999 0.81040628314997065
decision_type=2 2 2 2 2 2 2 2 2 2 2 2 2 2
left_child=2 4 6 11 9 8 -1 -5 -3 -2 -6 -4 -8 -7
right_child=1 5 3 7 10 13 12 -9 -10 -11 -12 -13 -14 -15
leaf_value=-1.2765352291676595 -1.185925579871981 -1.1146991966108029 -1.2456975773577807 -1.2222071128336858 -1.1540084464244815 -1.0740053113828525 -1.2646211144095421 -1.204448758002189 -1.0925539800814716 -1.1680682875790869 -1.1330825416757739 -1.234165365462019 -1.2556414754985794 -1.041357247268335
leaf_weight=3481.0333719849586 681.65854902565479 621.01214687526226 2119.1185028851032 1256.7476977407932 376.49847346544266 569.30495429039001 3164.1296289563179 700.23808263242245 325.66767397522926 522.50556303560734 439.24821904301643 659.7487216591835 1075.6848843842745 60.646402150392532
leaf_count=19860 3889 3543 12090 7170 2148 3248 18052 3995 1858 2981 2506 3764 6137 346
internal_value=-1.22734 -1.13263 -1.25468 -1.23176 -1.16387 -1.09261 -1.26874 -1.21585 -1.10708 -1.17818 -1.14274 -1.24296 -1.26234 -1.07086
internal_weight=0 3596.54 12456.7 4735.85 2019.91 1576.63 7720.85 1956.99 946.68 1204.16 815.747 2778.87 4239.81 629.951
internal_count=91587 20519 71068 27019 11524 8995 44049 11165 5401 6870 4654 15854 24189 3594
is_linear=0
shrinkage=1


Tree=1
num_leaves=15
num_cat=0
split_feature=30 33 23 21 46 37 23 23 44 21 43 21 38 21
split_gain=14462.4 1508.98 1410.52 260.203 222.363 153.264 149.379 39.4763 35.7695 28.6354 28.4776 24.8995 23.9481 23.3072
threshold=0.32068288891352609 0.55413931405991657 0.13611735403537753 0.2239973869727073 0.67661631107330333 0.43736511882548618 0.078059583902359023 0.58782491087913524 0.18804291580705423 0.10432404062048668 0.76146470239952169 0.30107114002783508 0.3700081232704821 0.499600737984147
decision_type=2 2 2 2 2 2 2 2 2 2 2 2 2 2
left_child=2 5 6 8 7 12 -1 -3 -4 -8 -6 -5 -2 -7
right_child=1 4 3 11 10 13 9 -9 -10 -11 -12 -13 -14 -15
leaf_value=-0.048066922598012422 0.033757153043713455 0.085554513022820133 -0.017419159383469739 0.0083164928058874245 0.12568064638626628 0.062151776196014474 -0.038016683506020492 0.10597561582583587 -0.0056149932248889256 -0.029717804297825962 0.1438677840543334 0.024660661652337906 0.048120081744168819 0.079537640199658796
leaf_weight=3387.227538228035 580.61330486834049 379.96880669891834 2081.4411549717188 1304.2648599594831 619.74543319642544 457.34351167082787 2107.1691419780254 627.45293805003166 927.86442451179028 2051.3869391977787 329.7603697180748 283.71661657094955 580.25985492765903 333.22107847034931
leaf_count=19860 3249 2058 11987 7404 3283 2519 12272 3367 5311 11917 1732 1596 3218 1814
internal_value=0 0.0836117 -0.0269707 -0.00513854 0.114636 0.0524999 -0.040272 0.0982734 -0.0137796 -0.0339229 0.131997 0.0112366 0.0409364 0.0694799
internal_weight=0 3908.37 12143.1 4597.29 1956.93 1951.44 7545.78 1007.42 3009.31 4158.56 949.506 1587.98 1160.87 790.565
internal_count=91587 21240 70347 26298 10440 10800 44049 5425 17298 24189 5015 9000 6467 4333
is_linear=0
shrinkage=0.05


Tree=2
num_leaves=15
num_cat=0
split_feature=37 24 29 22 24 22 35 36 21 21 21 44 24 24
split_gain=12692.3 1317.09 1210.58 206.603 195.913 192.179 93.4767 38.2198 29.8299 28.783 23.0523 22.7292 22.0361 17.2683
threshold=0.32036697609191461 0.14787022024393084 0.53427958674403186 0.65193742513656627 0.22190482169389728 0.092792637646198287 0.4062176793813706 0.74508508036286025 0.30107114002783508 0.068176558883220079 0.11920518822595415 0.18804291580705423 0.4964259415864945 0.57979530096054088
decision_type=2 2 2 2 2 2 2 2 2 2 2 2 2 2
left_child=1 5 6 13 11 9 -2 -5 -6 -1 -7 -3 -8 -4
right_child=2 4 3 7 8 10 12 -9 -10 -11 -12 -13 -14 -15
leaf_value=-0.048370887327443844 0.035374242733431156 -0.01568772322929804 0.076896960912203993 0.10666732899030362 0.0070898331675108579 -0.03254072744952393 0.052845397913353687 0.12437458586617951 0.024567349640702913 -0.040256060167941497 -0.024215285820488139 -0.0055858008171269583 0.069795423225010797 0.090223459521978952
leaf_weight=2515.9023733139038 934.5685943365097 1555.8535906225443 445.7289464622736 649.98286820948124 1365.2290164679289 2006.2323811799288 662.79777963459492 573.7196154743433 297.30106626451015 1931.7776810973883 1419.931646540761 867.16977614164352 269.8043063133955 534.68064938485622
leaf_count=15162 5106 9050 2323 3268 7726 11900 3554 2835 1651 11554 8331 4974 1419 2734
internal_value=0 -0.026038 0.0761727 0.101267 -0.0030029 -0.0379904 0.0465499 0.114969 0.0102152 -0.0448463 -0.0290904 -0.0120724 0.0577491 0.0841648
internal_weight=0 11959.4 4071.28 2204.11 4085.55 7873.84 1867.17 1223.7 1662.53 4447.68 3426.16 2423.02 932.602 980.41
internal_count=91587 70348 21239 11160 23401 46947 10079 6103 9377 26716 20231 14024 4973 5057
is_linear=0
shrinkage=0.05


Tree=3
num_leaves=15
num_cat=0
split_feature=21 45 23 22 21 23 35 42 21 23 29 36 24 45
split_gain=11215.5 1178.14 1090.29 182.8 157.881 141.074 98.468 31.0678 26.2576 25.5846 21.8466 17.9151 13.3047 13.0328
threshold=0.30107114002783508 0.51873726699740275 0.13611735403537753 0.65193742513656627 0.20089500818078862 0.078059583902359023 0.4062176793813706 0.71502179553170231 0.10432404062048668 0.25718082487583166 0.3702192808219818 0.58629110985574873 0.1656913831830025 0.43906557071048341
decision_type=2 2 2 2 2 2 2 2 2 2 2 2 2 2
left_child=2 6 5 11 12 -1 10 -5 -7 -6 -2 -3 -4 -8
right_child=1 3 4 7 9 8 13 -9 -10 -11 -12 -13 -14 -15
leaf_value=-0.04591525195520945 0.025723647443723463 0.069088805049049684 -0.018468882720137334 0.094771999582160232 -1.4192577510620667e-05 -0.035856124794136975 0.044314248782787301 0.11054109508490362 -0.027757219992157002 0.011974701726416964 0.040015929350684501 0.082013340310285288 -0.011020380646194504 0.056802040842231595
leaf_weight=3206.7249391674995 800.74074450135231 494.04571613669395 1231.0834355056286 533.8117837458849 1200.4801263213158 2018.8018239736557 326.1406809091568 752.87069256603718 1984.6466023474932 707.11941431462765 401.41007262468338 586.31634157896042 1168.6416069865227 581.36862826347351
leaf_count=19860 4343 2480 7240 2572 6829 12272 1716 3543 11917 3970 2137 2893 6819 2996
internal_value=0 0.0670513 -0.0262103 0.0912667 -0.00630672 -0.0381006 0.0398815 0.103999 -0.0318412 0.00442992 0.030496 0.076103 -0.0148415 0.0523142
internal_weight=0 4476.7 11517.5 2367.04 4307.32 7210.17 2109.66 1286.68 4003.45 1907.6 1202.15 1080.36 2399.73 907.509
internal_count=91587 22680 68907 11488 24858 44049 11192 6115 24189 10799 6480 5373 14059 4712
is_linear=0
shrinkage=0.05


Tree=4
num_leaves=15
num_cat=0
split_feature=21 23 29 28 27 46 35 21 21 0 29 24 43 24
split_gain=9956.41 1027.59 991.274 149.909 141.178 137.949 95.0999 28.492 20.9173 18.2814 18.1919 17.771 17.0874 16.2742
threshold=0.30107114002783508 0.13611735403537753 0.53427958674403186 0.2216392979025841 0.67248025536537182 0.073690328747034087 0.4062176793813706 0.10432404062048668 0.59715429494926264 68.500000000000014 0.3702192808219818 0.1656913831830025 0.81040628314997065 0.5153847634792329
decision_type=2 2 2 2 2 2 2 2 2 2 2 2 2 2
left_child=1 5 6 11 8 -1 10 -7 -4 -10 -2 -3 -6 -8
right_child=2 3 4 -5 12 7 13 -9 9 -11 -12 -13 -14 -15
leaf_value=-0.0454325822805728 0.024112183306499113 -0.017866049709711826 0.066130414236924465 0.005743000426709343 0.095640458939953987 -0.03511094101918432 0.046098820771297899 -0.026816011925663172 0.13498077778133483 0.077736744607755925 0.037047460739827835 -0.0096242028120684612 0.11996621434080068 0.062161326951527499
leaf_weight=2892.6336909383535 811.26209118962288 1218.4075514823198 598.0857327580452 1661.3704236894846 1025.9717130064964 2202.7904383391142 800.87713697552681 1953.1349423527718 14.243307709693907 671.07629172503948 408.76816126704216 1411.9882853478193 77.655159741640091 196.3551519960165
leaf_count=18411 4343 7241 2903 9358 4681 13719 4075 11919 67 3163 2134 8259 346 968
internal_value=0 -0.0253038 0.0618797 -0.00601527 0.0842393 -0.0370483 0.037808 -0.0312126 0.0729633 0.0789265 0.0284461 -0.0134419 0.0973521 0.0492615
internal_weight=0 11340.3 4604.29 4291.77 2387.03 7048.56 2217.26 4155.93 1283.41 685.32 1220.03 2630.4 1103.63 997.232
internal_count=91587 68907 22680 24858 11160 44049 11520 25638 6133 3230 6477 15500 5027 5043
is_linear=0
shrinkage=0.05


Tree=5
num_leaves=15
num_cat=0
split_feature=37 21 33 28 44 46 37 24 46 50 24 54 43 22
split_gain=8890.39 950.424 836.101 176.614 131.589 104.484 69.19 25.9872 22.9415 22.3015 18.5122 18.2834 16.0833 16.0598
threshold=0.29980144235958289 0.12437601028703128 0.52569183598568636 0.21701840311288836 0.66760454069292685 0.073690328747034087 0.39926877831169139 0.1656913831830025 0.60624247789382946 0.51284930229587566 0.52489194273948681 0.18784175059962629 0.76146470239952169 0.092792637646198287
decision_type=2 2 2 2 2 2 2 2 2 2 2 2 2 2
left_child=1 5 6 7 8 -1 -2 -3 -4 -10 -8 -5 -6 -7
right_child=2 3 4 11 12 13 10 -9 9 -11 -12 -13 -14 -15
leaf_value=-0.04441943984751346 0.026412382423005511 -0.01902432840427179 0.060962164613486948 -0.0062769243830515424 0.085281284386457282 -0.035871285724018313 0.041674591236641856 -0.0096972638041332403 0.13431863181517975 0.072365409495024735 0.061792348783439394 0.0069481334716114508 0.097768290968299906 -0.028859424926407695
leaf_weight=2812.7248784303665 1162.4029246270657 1785.8924789130688 772.31212535500526 317.3903700709343 737.41129176318645 1301.5023645311594 884.46075581014156 1283.555418163538 14.879006549715994 612.24684062600136 131.33037270605564 1479.7857939898968 396.53555741906166 2191.8402720242739
leaf_count=18411 6107 10823 3646 1807 3280 8309 4423 7560 68 2797 630 8286 1728 13712
internal_value=0 -0.0244359 0.0574581 -0.00783559 0.0769886 -0.0372469 0.0347428 -0.015124 0.066731 0.0738353 0.0442756 0.00461252 0.0896479 -0.0314718
internal_weight=0 11172.7 4711.58 4866.62 2533.38 6306.07 2178.19 3069.45 1399.44 627.126 1015.79 1797.18 1133.95 3493.34
internal_count=91587 68908 22679 28476 11519 40432 11160 18383 6511 2865 5053 10093 5008 22021
is_linear=0
shrinkage=0.05


Tree=6
num_leaves=15
num_cat=0
split_feature=37 21 29 41 27 46 41 24 31 29 36 35 58 1
split_gain=7942.38 896.913 723.461 162.182 105.845 101.802 68.4462 24.7861 17.3523 17.2423 18.7727 17.02 16.1482 15.9705
threshold=0.29980144235958289 0.12437601028703128 0.53427958674403186 0.20539230853319171 0.67248025536537182 0.073690328747034087 0.38197627663612371 0.1656913831830025 0.2240468169009803 0.25489653887364366 0.30398838322717753 0.45417784154415136 0.49327967824194813 2.5000000000000004
decision_type=2 2 2 2 2 2 2 2 2 2 2 2 2 2
left_child=1 5 6 7 12 -1 9 -3 -5 -2 13 -8 -4 -11
right_child=2 3 4 8 -6 -7 11 -9 -10 10 -12 -13 -14 -15
leaf_value=-0.043428243757149661 0.090533585625417815 -0.018479086607872227 0.044157035255828772 -0.0028151419176172918 0.082953808062047343 -0.030493060724545346 0.035385121103917457 -0.0092582225458349952 0.0075527637051382339 -0.046610359293232505 0.02610990025207929 0.047130957103190908 0.064041189315991134 0.01229207937533015
leaf_weight=2735.0637769252062 9.5744726508855802 1754.8880520164967 111.26143744587898 596.90453031659126 1168.0410537570715 3426.9323935508728 635.28137955069542 1246.4323833882809 1245.9504369050264 12.398849010467528 872.14348722994328 599.41078841686249 1240.7726988792419 160.13001422584057
leaf_count=18411 52 10755 515 3433 5027 22021 3171 7353 6935 66 4503 2873 5618 854
internal_value=0 -0.0235791 0.0534467 -0.00748084 0.0719292 -0.0362345 0.0330979 -0.0146497 0.00419458 0.0237409 0.0231288 0.0410874 0.0624049 0.00805903
internal_weight=0 11006.2 4809.01 4844.18 2520.08 6162 2288.94 3001.32 1842.85 1054.25 1044.67 1234.69 1352.03 172.529
internal_count=91587 68908 22679 28476 11160 40432 11519 18108 10368 5475 5423 6044 6133 920
is_linear=0
shrinkage=0.05


Tree=7
num_leaves=15
num_cat=0
split_feature=37 23 44 23 28 46 41 36 21 38 42 29 36 1
split_gain=7112.19 859.581 632.834 126.62 112.756 103.499 53.607 24.0436 22.614 18.9543 16.8742 14.4882 16.4423 14.622
threshold=0.29980144235958289 0.13611735403537753 0.51873726699740275 0.078059583902359023 0.22409883886575702 0.64063331484794628 0.38197627663612371 0.74508508036286025 0.10432404062048668 0.3412211597428253 0.19122344456986154 0.25489653887364366 0.30398838322717753 2.5000000000000004
decision_type=2 2 2 2 2 2 2 2 2 2 2 2 2 2
left_child=1 3 6 -1 10 -4 11 -7 -5 -6 -3 -2 13 -13
right_child=2 4 5 8 9 7 -8 -9 -10 -11 -12 12 -14 -15
leaf_value=-0.041927859223790311 0.082134626496847052 -0.013867091786451581 0.054908386053453023 -0.031857273208409566 0.0047007055392362211 0.069312739052894604 0.037720076060451371 0.081945598323399566 -0.024062056887478547 0.066978091216418137 -0.0045321286910314576 -0.045365429164696845 0.024467986517565585 0.011604479716481965
leaf_weight=2874.1184655278921 10.013713821768759 1991.1672605276108 1116.1672988981009 1859.2744384407997 1606.4068844616413 844.43964330852032 1186.0881061255932 679.91005642712116 1862.2611384242773 12.311236679553984 639.60907906293869 12.109564200043677 884.16386750340462 161.11125968396664
leaf_count=19860 52 12090 5007 12272 8951 3625 5718 2848 11917 65 3753 66 4509 854
internal_value=0 -0.0227458 0.0498669 -0.0340447 -0.00520878 0.0664768 0.0304043 0.0749474 -0.0279565 0.00517436 -0.0115975 0.0222751 0.0217082 0.00762181
internal_weight=0 10845.1 4894 6595.65 4249.49 2640.52 2253.49 1524.35 3721.54 1618.72 2630.78 1067.4 1057.38 173.221
internal_count=91587 68908 22679 44049 24859 11480 11199 6473 24189 9016 15843 5481 5429 920
is_linear=0
shrinkage=0.05


Tree=8
num_leaves=15
num_cat=0
split_feature=21 23 25 25 46 34 35 23 22 31 41 40 42 52
split_gain=6384.62 787.085 584.165 124.601 94.8355 85.875 59.4897 21.4086 14.439 14.3123 14.1779 14.2816 13.9499 13.7542
threshold=0.29646473711436677 0.12439123913645746 0.53283539707424987 0.18889364541999001 0.073690328747034087 0.68422028789762412 0.4062176793813706 0.25718082487583166 0.63438001275062572 0.094200226886742622 0.32433670759201055 0.31097830832004553 0.33118450048644904 0.52070532397755176
decision_type=2 2 2 2 2 2 2 2 2 2 2 2 2 2
left_child=1 4 6 -3 -1 8 12 -5 -4 -6 11 -9 -2 -7
right_child=2 3 5 7 9 13 -8 10 -10 -11 -12 -13 -14 -15
leaf_value=-0.041522118699689435 0.014814645436172122 -0.014389517222452883 0.051090903747417198 -0.0013932071076674232 -0.032628908370119107 0.021751284802887884 0.037311814751977833 0.01067457967133939 0.061390666816208077 -0.025954993516568561 0.056674358860174738 -0.015114308346574868 0.02538868140356787 0.073678408801430464
leaf_weight=2588.1281901896 488.67589212954044 2575.8464436680079 957.77863538265228 1497.5485124588013 1378.7235932648182 12.900748729705809 1078.3954470306635 581.54657962918282 527.77223207056522 1924.8250182718039 15.509545058012007 59.144675567746162 862.28728114068508 1108.1839996576309
leaf_count=18411 2538 15921 4226 8576 9337 54 5065 3202 2250 12691 85 324 4308 4599
internal_value=0 -0.0221601 0.046194 -0.00696862 -0.0343552 0.062634 0.0285544 0.00190664 0.0547501 -0.0287403 0.0094374 0.00829391 0.0215638 0.0730809
internal_weight=0 10621.3 5035.99 4729.6 5891.68 2606.64 2429.36 2153.75 1485.55 3303.55 656.201 640.691 1350.96 1121.08
internal_count=91587 68547 23040 28108 40439 11129 11911 12187 6476 22028 3611 3526 6846 4653
is_linear=0
shrinkage=0.05


Tree=9
num_leaves=15
num_cat=0
split_feature=21 21 31 41 46 30 35 24 46 50 22 3 61 29
split_gain=5739.64 732.571 520.65 117.521 94.1592 89.9728 42.0525 20.5699 19.3765 15.4884 14.7901 13.4369 13.2436 16.2301
threshold=0.29646473711436677 0.12437601028703128 0.51576305435755809 0.20539230853319171 0.073690328747034087 0.68867461340741543 0.4062176793813706 0.1656913831830025 0.60624247789382946 0.51284930229587566 0.092792637646198287 5.5000000000000009 0.27951724081540386 0.40382576352695104
decision_type=2 2 2 2 2 2 2 2 2 2 2 2 2 2
left_child=1 4 6 7 -1 8 11 -3 -4 -10 -6 -2 13 -8
right_child=2 3 5 -5 10 -7 12 -9 9 -11 -12 -13 -14 -15
leaf_value=-0.04058356046363399 0.017188374191087496 -0.016456143753599602 0.045390037485328855 0.003393314118616451 -0.032107517554375527 0.068580208046114741 0.079740272232417475 -0.0079696034735332096 0.101373316001106 0.055085696778764563 -0.025110322519481101 0.028786532279496114 0.032189627387591763 0.02887053580391721
leaf_weight=2517.3958415687084 1026.0931101292372 1701.960665807128 902.4539048820734 1779.2102824151516 1197.5533811450005 1139.7298159897327 33.499939933419228 1230.0658511966467 18.520723149180412 746.61285552382469 2044.5015154033899 330.04983758926392 873.93419373035431 29.47657185792923
leaf_count=18411 5159 10755 3972 9989 8309 4676 161 7371 78 3153 13712 1649 4055 137
internal_value=0 -0.021367 0.0433149 -0.00674418 -0.0333284 0.0577528 0.0256391 -0.0128958 0.0503527 0.0562061 -0.027695 0.0200111 0.0337854 0.0559304
internal_weight=0 10470.7 5100.37 4711.24 5759.45 2807.32 2293.05 2932.03 1667.59 765.134 3242.05 1356.14 936.911 62.9765
internal_count=91587 68547 23040 28115 40432 11879 11161 18126 7203 3231 22021 6808 4353 298
is_linear=0
shrinkage=0.05


Tree=10
num_leaves=15
num_cat=0
split_feature=37 21 33 28 46 42 37 42 46 47 38 21 25 54
split_gain=5172.65 707.379 443.782 113.816 91.6024 64.2222 56.3651 20.5203 18.7216 15.4441 15.1591 14.2681 13.081 11.8037
threshold=0.29980144235958289 0.12437601028703128 0.55413931405991657 0.2216392979025841 0.073690328747034087 0.71502179553170231 0.43736511882548618 0.19122344456986154 0.15552227199077609 0.59741027181757522 0.3412211597428253 0.10169123088341712 0.3397550459203989 0.18568491957763653
decision_type=2 2 2 2 2 2 2 2 2 2 2 2 2 2
left_child=1 4 6 7 -1 9 -2 -3 -9 -4 12 -6 13 -5
right_child=2 3 5 10 11 -7 -8 8 -10 -11 -12 -13 -14 -15
leaf_value=-0.039659281890277419 0.020813534843061993 -0.013942661597483095 0.044270906643096984 -0.0056776402131183176 -0.029838202898335373 0.066899883644343974 0.036107792910821605 0.055527124547582844 -0.0049121735687582121 0.054198501596766403 0.058034924805267653 -0.023113796930522644 -0.040339650083060757 0.0060197177299414753
leaf_weight=2449.0145452618599 1609.0238386392593 2480.7407226711512 658.50081486999989 254.69408769905567 1744.6476105898619 887.59926271438599 962.92905361950397 13.103644058108328 577.24204534292221 967.10726307332516 12.976923406124113 1439.9391649514437 16.629461497068405 1407.4143248796463
leaf_count=18411 7898 15603 2818 1448 12275 3595 4342 81 3418 4026 65 9746 87 7774
internal_value=0 -0.0203968 0.0411407 -0.00621222 -0.0323888 0.0560831 0.0265396 -0.0119489 -0.00357063 0.050177 0.00420193 -0.0267977 0.00378579 0.00422727
internal_weight=0 10396.4 5085.16 4762.8 5633.6 2513.21 2571.95 3071.09 590.346 1625.61 1691.71 3184.59 1678.74 1662.11
internal_count=91587 68908 22679 28476 40432 10439 12240 19102 3499 6844 9374 22021 9309 9222
is_linear=0
shrinkage=0.05


Tree=11
num_leaves=15
num_cat=0
split_feature=23 21 23 46 32 41 38 27 29 22 37 40 21 40
split_gain=4673.85 552.439 530.888 82.093 72.6343 72.4172 54.1461 18.6662 14.6842 11.7719 11.2369 12.7908 10.5554 10.3493
threshold=0.26451739668846136 0.499600737984147 0.1175019107758999 0.64063331484794628 0.067808635532856001 0.1753056198358536 0.3700081232704821 0.73785135149955761 0.22918735945018268 0.092792637646198287 0.29980144235958289 0.27910496294498449 0.25636264371276857 0.3590314537286759
decision_type=2 2 2 2 2 2 2 2 2 2 2 2 2 2
left_child=2 6 4 -3 -1 -4 10 -5 -7 -6 11 -2 -13 -14
right_child=1 3 5 7 9 8 -8 -9 -10 -11 -12 12 13 -15
leaf_value=-0.03950212715081939 0.016288353469422808 0.041589804909752982 -0.014934899717847009 0.05398809835854023 -0.030742777504256864 -0.0050809278080782751 0.027359136566191201 0.065057513605634526 0.0037944237306975223 -0.024492718912509676 0.016913799581346652 0.041953733612779064 -0.0019787349313263032 0.035640713031428288
leaf_weight=2117.2295605838299 277.84516258537769 1352.3569862693548 2367.8923461288214 971.04104816913605 1420.2639372497797 1464.5071150660515 1242.7160943746567 626.59741608798504 683.5602589994669 1604.4986399561167 902.77917909622192 15.796841084957121 323.07776866853237 19.378785997629166
leaf_count=16341 1516 5760 15251 3960 10413 8702 5764 2520 3802 11158 4478 87 1734 101
internal_value=0 0.0355822 -0.0214132 0.0506556 -0.0323992 -0.00890432 0.0195963 0.0583295 -0.0022566 -0.0274274 0.0133274 0.00823735 0.00199335 0.000150058
internal_weight=0 5731.59 9657.95 2950 5141.99 4515.96 2781.59 1597.64 2148.07 3024.76 1538.88 636.099 358.253 342.457
internal_count=91587 25920 65667 12240 37912 27755 13680 6480 12504 21571 7916 3438 1922 1835
is_linear=0
shrinkage=0.05


Tree=12
num_leaves=15
num_cat=0
split_feature=23 23 21 44 32 41 38 46 50 54 43 36 50 58
split_gain=4222.11 501.14 495.213 76.7736 70.7018 66.4559 47.9177 14.2638 17.291 14.2527 13.2013 10.9902 12.0428 11.9806
threshold=0.26451739668846136 0.1175019107758999 0.499600737984147 0.66760454069292685 0.067808635532856001 0.17693099379539493 0.3700081232704821 0.60624247789382946 0.51284930229587566 0.18362221117490643 0.81040628314997065 0.30398838322717753 0.35497335829585813 0.43076771307862333
decision_type=2 2 2 2 2 2 2 2 2 2 2 2 2 2
left_child=1 4 6 7 -1 -3 11 -4 -9 -7 -5 13 -13 -2
right_child=2 5 3 10 -6 9 -8 8 -10 -11 -12 12 -14 -15
leaf_value=-0.038605476230108168 0.0071449678430976372 -0.014174919998997702 0.037096440737297919 0.055797949072816794 -0.026549939799644918 -0.007539400730023931 0.025727744442325187 0.092671016388737051 0.045026026099091364 0.0010901268308391061 0.076044704438712418 0.021143808479554081 0.0089397843481044403 0.062584673193306073
leaf_weight=2059.5625751018524 687.81414021551609 2403.923138871789 1009.7959320396185 1162.752135425806 2969.9322637468576 742.79105597734451 1255.1099444329739 19.580611810088158 693.02575175464153 1344.6546859592199 86.498481214046478 519.71815502643585 330.81398312747478 9.8849602043628675
leaf_count=16341 3673 15609 4288 4679 21571 4467 5764 80 2847 7679 346 2583 1610 50
internal_value=0 -0.0206464 0.0335422 0.0477632 -0.0314866 -0.00850738 0.0184674 0.0409188 0.0463352 -0.00198058 0.0571998 0.0125816 0.0163971 0.00793043
internal_weight=0 9520.86 5774.99 2971.65 5029.49 4491.37 2803.34 1722.4 712.606 2087.45 1249.25 1548.23 850.532 697.699
internal_count=91587 65667 25920 12240 37912 27755 13680 7215 2927 12146 5025 7916 4193 3723
is_linear=0
shrinkage=0.05


Tree=13
num_leaves=15
num_cat=0
split_feature=23 31 23 32 38 25 38 52 23 43 22 62 40 43
split_gain=3819.55 475.041 447.31 68.772 66.1767 53.9099 52.1743 12.6779 12.6249 12.1641 11.5702 11.4007 9.72176 9.07191
threshold=0.25718082487583166 0.51576305435755809 0.1175019107758999 0.067808635532856001 0.67853537231832028 0.17134106004298144 0.3700081232704821 0.27515281955362508 0.58782491087913524 0.81040628314997065 0.092792637646198287 0.33121940700781966 0.11921855062246324 0.2304887789190421
decision_type=2 2 2 2 2 2 2 2 2 2 2 2 2 2
left_child=2 6 3 -1 8 12 7 -2 -3 -6 -5 -10 -4 -7
right_child=1 4 5 10 9 13 -8 -9 11 -11 -12 -13 -14 -15
leaf_value=-0.037719634028378732 0.0042766994905431193 0.034372847767377798 -0.023236698330936036 -0.029045176155456754 0.052886843891023522 -0.0046615911627395238 0.024603982207998431 0.014051852998794629 0.068086081333006393 0.072330685759954758 -0.022734752636079041 0.041818837073436144 -0.012656694041539624 0.0028292943050286963
leaf_weight=2003.9605357795954 453.28936259448528 781.35550707578659 242.49632553756237 1365.8867100179195 1166.4735075086355 1458.5674852281809 1353.4503717571497 1236.539539322257 43.490792438387871 86.394614994525909 1551.4348578751087 823.31545114517212 2075.4209471046925 559.11107639968395
leaf_count=16341 2421 3306 1665 10413 4682 8698 6123 6217 178 346 11158 3367 13542 3130
internal_value=0 0.0310891 -0.0202717 -0.0305881 0.0455661 -0.00856172 0.0172888 0.0114297 0.038982 0.0542276 -0.0256893 0.0431368 -0.0137636 -0.00258582
internal_weight=0 5944.31 9256.88 4921.28 2901.03 4335.6 3043.28 1689.83 1648.16 1252.87 2917.32 866.806 2317.92 2017.68
internal_count=91587 26640 64947 37912 11879 27035 14761 8638 6851 5028 21571 3545 15207 11828
is_linear=0
shrinkage=0.05


Tree=14
num_leaves=15
num_cat=0
split_feature=49 21 33 32 29 42 41 42 21 22 31 50 0 54
split_gain=3445.45 459.845 388.965 71.6024 61.5739 59.2754 44.603 14.868 13.3798 13.3473 13.2041 13.1084 12.6476 11.7861
threshold=0.26852171753185844 0.11920518822595415 0.52569183598568636 0.067808635532856001 0.19520963677618555 0.71502179553170231 0.38197627663612371 0.15183071163328107 0.61434663517762489 0.092792637646198287 0.11980267139968379 0.44042129771535682 68.500000000000014 0.26587853534064126
decision_type=2 2 2 2 2 2 2 2 2 2 2 2 2 2
left_child=1 3 6 -1 7 8 13 -3 11 -5 -9 -4 -10 -2
right_child=2 4 5 9 -6 -7 -8 10 12 -11 -12 -13 -14 -15
leaf_value=-0.036853554075400689 0.0036604641033005981 -0.014842130829440551 0.084652748774372358 -0.028217361943034924 0.00076111175139543423 0.05411937350519163 0.02446755701381154 0.051956408925791391 0.087563916093772398 -0.02148044739462663 -0.0080526881290959602 0.033685919513892271 0.041969208863338145 0.014163005039590351
leaf_weight=1951.2248724773526 336.60385604202747 1570.9354202747345 12.786913350224493 1340.7404747605324 1563.9085249900818 898.64102846384048 1279.0053500384092 9.2317238450050336 15.454185247421263 1627.868175804615 1301.790965154767 942.45081062614918 961.2670259475708 1294.2293621003628
leaf_count=16347 1773 10463 55 10428 8867 3598 5708 60 62 11852 8183 3922 3883 6386
internal_value=0 -0.0188815 0.0303142 -0.0294134 -0.00722671 0.0435104 0.0174774 -0.0115613 0.0385757 -0.0245231 -0.00763013 0.0343682 0.0426906 0.0119953
internal_weight=0 9365.7 5740.44 4919.83 4445.87 2830.6 2909.84 2881.96 1931.96 2968.61 1311.02 955.238 976.721 1630.83
internal_count=91587 66200 25387 38627 27573 11520 13867 18706 7922 22280 8243 3977 3945 8159
is_linear=0
shrinkage=0.05


Tree=15
num_leaves=15
num_cat=0
split_feature=23 23 39 46 43 29 29 52 46 62 46 43 11 58
split_gain=3132.87 397.373 388.383 65.1565 54.9986 47.725 46.28 11.1865 10.3983 12.1701 10.166 9.81221 8.08146 10.1524
threshold=0.25718082487583166 0.1175019107758999 0.51951454231759786 0.073690328747034087 0.69316005496967226 0.3702192808219818 0.17595105641495287 0.27515281955362508 0.58216571807861339 0.33121940700781966 0.17306084185838702 0.81040628314997065 2499.0850000000005 0.42588145863949584
decision_type=2 2 2 2 2 2 2 2 2 2 2 2 2 2
left_child=1 3 5 -1 8 7 10 -2 -4 -10 -3 -6 -9 -14
right_child=2 6 4 -5 11 -7 -8 12 9 -11 -12 -13 13 -15
leaf_value=-0.035278123468043529 0.0033979914108852693 -0.013685599143788885 0.030616300063743992 -0.023478104116620799 0.048927731105008795 0.022403050845774458 -0.0018450733967858542 0.013364802178785738 0.06043824063949782 0.037487405308487751 -0.0046468860452874728 0.066586386862106425 -0.022722477595323771 0.026426399345551549
leaf_weight=2145.8768284991384 454.85129880905151 2078.4027987420559 606.66525639593601 2572.0374725461006 961.91572612524033 1471.0357068926096 1846.6101872175932 1202.2295722067356 60.930862575769424 1110.3422935605049 365.84194193780422 85.673279091715813 33.632657900452614 15.280829191207884
leaf_count=18411 2417 13933 2528 19501 3854 6539 10807 5976 247 4495 2295 346 165 73
internal_value=0 -0.0188306 0.0277978 -0.0288452 0.0412841 0.0158036 -0.00781927 0.010113 0.0359294 0.0386813 -0.0123327 0.0503719 0.0125542 -0.00736811
internal_weight=0 9008.77 6002.56 4717.91 2825.53 3177.03 4290.85 1705.99 1777.94 1171.27 2444.24 1047.59 1251.14 48.9135
internal_count=91587 64947 26640 37912 11470 15170 27035 8631 7270 4742 16228 4200 6214 238
is_linear=0
shrinkage=0.05


Tree=16
num_leaves=15
num_cat=0
split_feature=23 23 31 22 34 29 37 52 44 54 27 7 52 46
split_gain=2837.11 373.92 354.039 63.3966 55.0395 42.3805 37.9442 13.6402 11.7371 14.8405 11.6356 16.6698 15.7803 17.0463
threshold=0.25718082487583166 0.1175019107758999 0.51576305435755809 0.067650251090526595 0.68422028789762412 0.17595105641495287 0.33151083591294683 0.51094509683994704 0.43906557071048341 0.34334869681797436 0.31123174726963049 15.515000000000002 0.32590766470244509 0.30667617917060858
decision_type=2 2 2 2 2 2 2 2 2 2 2 2 2 2
left_child=1 3 6 -1 -4 -3 -2 -6 10 -10 11 -8 -12 -14
right_child=2 5 4 -5 7 -7 8 -9 9 -11 12 -13 13 -15
leaf_value=-0.035321998041406504 0.0075184712856878645 -0.011810672397232359 0.033236448482844676 -0.02331254655695033 -0.0052885058308707921 -0.0017546811507620276 -0.00086147302234523436 0.04782404156105121 0.064768471625509458 0.022867175925075828 -0.0013261222791766901 0.046784386092766139 0.062305196591730651 0.015880682146032488
leaf_weight=1799.7515817061067 1190.2279436886311 2425.2036862522364 1771.6435380131006 2821.9406877532601 12.217474937438963 1844.7015696018934 25.614093273878098 1143.4524845331907 21.846039906144142 646.18123047053814 136.12843687832355 64.801066398620605 20.17474739253521 993.23741587996483
leaf_count=15885 6150 16228 7238 22027 49 10807 123 4592 96 2793 641 310 96 4552
internal_value=0 -0.0181337 0.0263052 -0.0279892 0.0387738 -0.00746624 0.0145243 0.0472625 0.0188946 0.0242374 0.0160162 0.0332866 0.0146578 0.0168049
internal_weight=0 8891.6 6025.52 4621.69 2927.31 4269.91 3098.21 1155.67 1907.98 668.027 1239.96 90.4152 1149.54 1013.41
internal_count=91587 64947 26640 37912 11879 27035 14761 4641 8611 2889 5722 433 5289 4648
is_linear=0
shrinkage=0.05


Tree=17
num_leaves=15
num_cat=0
split_feature=23 23 28 32 42 41 41 60 7 46 22 36 35 49
split_gain=2569.95 351.495 322.571 61.808 46.8311 41.472 40.1698 13.3731 11.9303 10.8412 10.4471 10.1824 12.6365 11.5477
threshold=0.25718082487583166 0.1175019107758999 0.52399596571922313 0.067808635532856001 0.71502179553170231 0.38197627663612371 0.1753056198358536 0.47639799924013904 17.505000000000006 0.64063331484794628 0.092792637646198287 0.30901699077742334 0.23111779242753985 0.23176564930024274
decision_type=2 2 2 2 2 2 2 2 2 2 2 2 2 2
left_child=1 3 5 -1 9 7 -3 11 -7 -4 -5 12 13 -2
right_child=2 6 4 10 -6 8 -8 -9 -10 -11 -12 -13 -14 -15
leaf_value=-0.034324099909129484 -0.0077365533726635755 -0.011699989801130824 0.029962843373390849 -0.025717700946695128 0.04693446614972141 0.02796576772386172 -0.0019597632627560676 0.060844566035710881 0.01785481091503497 0.037777037139144772 -0.019510101118231288 0.012659406045054424 0.0040142195616297343 0.05106522394730087
leaf_weight=1804.5207260549068 12.044373244047163 2254.8365762829781 1138.6005624681711 1265.7129367515445 892.52500230073929 415.78977477550507 1995.141559779644 12.600316047668455 977.93543648719788 727.44191156327724 1459.1292863190174 987.70217432081699 853.11237278580666 27.216216370463371
leaf_count=16341 66 15249 4644 10413 3600 1811 11786 58 4261 2915 11158 4678 4461 146
internal_value=0 -0.0174557 0.0249078 -0.0271468 0.0375146 0.0143258 -0.00712746 0.0095059 0.0208712 0.0330091 -0.0223936 0.00916183 0.00529061 0.033026
internal_weight=0 8779.34 6044.97 4529.36 2758.57 3286.4 4249.98 1892.68 1393.73 1866.04 2724.84 1880.08 892.373 39.2606
internal_count=91587 64947 26640 37912 11159 15481 27035 9409 6072 7559 21571 9351 4673 212
is_linear=0
shrinkage=0.05


end of trees

feature_importances:
Column_23=27
Column_21=26
Column_46=18
Column_29=15
Column_24=12
Column_22=11
Column_37=11
Column_41=10
Column_42=10
Column_43=9
Column_35=8
Column_36=7
Column_38=7
Column_28=6
Column_31=6
Column_32=6
Column_44=6
Column_33=5
Column_50=5
Column_52=5
Column_54=5
Column_25=4
Column_27=4
Column_40=4
Column_58=3
Column_0=2
Column_1=2
Column_7=2
Column_30=2
Column_34=2
Column_45=2
Column_49=2
Column_62=2
Column_3=1
Column_11=1
Column_39=1
Column_47=1
Column_60=1
Column_61=1

parameters:
[boosting: gbdt]
[objective: binary]
[metric: auc]
[tree_learner: serial]
[device_type: cpu]
[data: ]
[valid: ]
[num_iterations: 10000]
[learning_rate: 0.05]
[num_leaves: 15]
[num_threads: 0]
[deterministic: 0]
[force_col_wise: 0]
[force_row_wise: 0]
[histogram_pool_size: -1]
[max_depth: -1]
[min_data_in_leaf: 50]
[min_sum_hessian_in_leaf: 0.001]
[bagging_fraction: 0.8]
[pos_bagging_fraction: 1]
[neg_bagging_fraction: 1]
[bagging_freq: 0]
[bagging_seed: 10961]
[feature_fraction: 0.8]
[feature_fraction_bynode: 1]
[feature_fraction_seed: 53]
[extra_trees: 0]
[extra_seed: 11644]
[early_stopping_round: 0]
[first_metric_only: 0]
[max_delta_step: 0]
[lambda_l1: 0]
[lambda_l2: 0]
[linear_lambda: 0]
[min_gain_to_split: 0]
[drop_rate: 0.1]
[max_drop: 50]
[skip_drop: 0.5]
[xgboost_dart_mode: 0]
[uniform_drop: 0]
[drop_seed: 30626]
[top_rate: 0.2]
[other_rate: 0.1]
[min_data_per_group: 100]
[max_cat_threshold: 32]
[cat_l2: 10]
[cat_smooth: 10]
[max_cat_to_onehot: 4]
[top_k: 20]
[monotone_constraints: ]
[monotone_constraints_method: basic]
[monotone_penalty: 0]
[feature_contri: ]
[forcedsplits_filename: ]
[refit_decay_rate: 0.9]
[cegb_tradeoff: 1]
[cegb_penalty_split: 0]
[cegb_penalty_feature_lazy: ]
[cegb_penalty_feature_coupled: ]
[path_smooth: 0]
[interaction_constraints: ]
[verbosity: -1]
[saved_feature_importance_type: 0]
[linear_tree: 0]
[max_bin: 255]
[max_bin_by_feature: ]
[min_data_in_bin: 3]
[bin_construct_sample_cnt: 200000]
[data_random_seed: 4071]
[is_enable_sparse: 1]
[enable_bundle: 1]
[use_missing: 1]
[zero_as_missing: 0]
[feature_pre_filter: 1]
[pre_partition: 0]
[two_round: 0]
[header: 0]
[label_column: ]
[weight_column: ]
[group_column: ]
[ignore_column: ]
[categorical_feature: ]
[forcedbins_filename: ]
[precise_float_parser: 0]
[parser_config_file: ]
[objective_seed: 602]
[num_class: 1]
[is_unbalance: 0]
[scale_pos_weight: 1]
[sigmoid: 1]
[boost_from_average: 1]
[reg_sqrt: 0]
[alpha: 0.9]
[fair_c: 1]
[poisson_max_delta_step: 0.7]
[tweedie_variance_power: 1.5]
[lambdarank_truncation_level: 30]
[lambdarank_norm: 1]
[label_gain: ]
[lambdarank_position_bias_regularization: 0]
[eval_at: ]
[multi_error_top_k: 1]
[auc_mu_weights: ]
[num_machines: 1]
[local_listen_port: 12400]
[time_out: 120]
[machine_list_filename: ]
[machines: ]
[gpu_platform_id: -1]
[gpu_device_id: -1]
[gpu_use_dp: 0]
[num_gpu: 1]

end of parameters

pandas_categorical:null
