tree
version=v4
num_class=1
num_tree_per_iteration=1
label_index=0
max_feature_idx=20
objective=binary sigmoid:1
feature_names=Column_0 Column_1 Column_2 Column_3 Column_4 Column_5 Column_6 Column_7 Column_8 Column_9 Column_10 Column_11 Column_12 Column_13 Column_14 Column_15 Column_16 Column_17 Column_18 Column_19 Column_20
feature_infos=[1:3442] [1:404] [1:165] [1:402] [0:8441] [0:80843.080000000002] [0:1] [0:418.19999999999999] [0:569.77999999999997] [0:16846621.120000001] [0:18.850000000000001] [0:935923.39000000001] [0:2824] [0:344] [0:219] [0:43] [0:410] [0:1026] [0:5420] [0:3021] [1:503]
tree_sizes=6618 6763 6792 6830 6766 6836 6829 6796 6812 6843 6801 6855 6832 6821 6820 6802 6828 6803 6842 6844 6810 6824 6849 6825

Tree=0
num_leaves=63
num_cat=0
split_feature=0 0 0 0 0 0 0 6 5 16 0 17 17 16 8 17 7 8 4 0 1 0 17 7 0 0 0 3 12 17 12 8 6 0 16 0 10 12 3 16 0 16 13 7 7 7 20 1 12 10 15 19 8 5 13 9 20 8 1 11 0 19
split_gain=16069.1 1623 1543.74 242.843 214.879 194.36 117.794 77.2085 53.7346 49.0496 48.5591 42.9044 41.9823 27.9319 41.2377 26.5523 45.1175 25.3785 24.9704 24.3476 25.5153 20.1508 19.4078 17.3442 19.0848 25.4872 19.2891 17.2558 31.5845 17.0962 17.7895 17.0378 16.9616 21.0637 15.3652 15.3104 20.3396 18.2093 16.2682 15.273 14.6381 14.558 14.2489 14.2127 13.8481 13.7617 15.174 12.8755 12.7618 12.6423 12.5725 18.3809 12.4518 13.3862 12.1122 12.0468 12.0276 12.0064 11.9693 11.7875 11.7735 11.6636
threshold=47.500000000000007 27.500000000000004 81.500000000000014 16.500000000000004 63.500000000000007 35.500000000000007 96.500000000000014 1.0000000180025095e-35 454.97500000000008 19.500000000000004 21.500000000000004 25.500000000000004 15.500000000000002 16.500000000000004 38.430000000000007 29.500000000000004 11.785000000000002 45.275000000000013 159.50000000000003 68.500000000000014 7.5000000000000009 43.500000000000007 22.500000000000004 7.2250000000000005 56.500000000000007 60.500000000000007 50.500000000000007 12.500000000000002 76.500000000000014 16.500000000000004 19.500000000000004 31.545000000000005 0.34500000000000003 11.500000000000002 18.500000000000004 67.500000000000014 0.44500000000000006 50.500000000000007 4.5000000000000009 17.500000000000004 72.500000000000014 10.500000000000002 1.0000000180025095e-35 42.025000000000006 6.1350000000000007 40.980000000000011 43.500000000000007 15.500000000000002 135.50000000000003 0.67500000000000016 1.5000000000000002 44.500000000000007 41.905000000000008 1055.5000000000002 1.0000000180025095e-35 69627.920000000013 20.500000000000004 46.130000000000003 63.500000000000007 3227.6000000000008 40.500000000000007 74.500000000000014
decision_type=2 2 2 2 2 2 2 2 2 2 2 2 2 2 2 2 2 2 2 2 2 2 2 2 2 2 2 2 2 2 2 2 2 2 2 2 2 2 2 2 2 2 2 2 2 2 2 2 2 2 2 2 2 2 2 2 2 2 2 2 2 2
left_child=1 3 4 32 11 12 45 47 21 31 18 23 -3 52 50 16 19 43 44 20 -6 -7 -18 24 26 -26 -2 54 -29 30 34 -9 33 -1 -12 37 -37 -17 -38 -14 59 -25 49 -11 -5 -4 -47 -8 -44 -33 -15 -52 53 -10 55 -19 -57 -42 -30 -24 61 -16
right_child=2 5 6 10 15 8 7 9 13 17 29 -13 39 14 60 35 22 27 -20 -21 -22 -23 40 41 25 -27 -28 28 58 -31 -32 42 -34 -35 -36 36 38 -39 -40 -41 57 -43 48 -45 -46 46 -48 -49 -50 -51 51 -53 -54 -55 -56 56 -58 -59 -60 -61 -62 -63
leaf_value=-1.2738221798564535 -1.1605565693573827 -1.244542498628155 -1.1123432047115229 -1.248887919981388 -1.0428391721947339 -1.2328758219736196 -1.048273032019893 -1.220675381408125 -1.2190372107788709 -1.0774559448905485 -1.249106903551368 -1.1649006430446314 -1.2310988545196055 -1.2058025014133209 -1.201701658346239 -1.1281663289445021 -1.1819380437094025 -1.0659352261831794 -1.1767892102941606 -1.1414960394766334 -1.1239182352291612 -1.2019885558736361 -1.1605416770590908 -1.2555742249269426 -1.1233029392490161 -1.2045106417144815 -1.2034292635112158 -1.1618717617795453 -1.0680458375319968 -1.240410957355264 -1.2624241022495044 -1.0923083308997787 -1.2614478030787772 -1.2674170334024066 -1.2110133453483571 -1.1093006770918987 -1.1661009702634708 -1.1759755312842723 -1.1271966334754779 -1.2158252409607064 -1.1424449566875503 -1.188515828830411 -1.1190474778861059 -1.1244094035827479 -1.2613855195803381 -1.1499068286587388 -1.070913822481721 -1.0708310355503079 -1.075744840511605 -1.1700843785961936 -1.2227129536384163 -1.1458240709647827 -1.2032839820687709 -1.1208343421238558 -1.0882331864391963 -1.1813793455382231 -1.1132274057974352 -1.0746493715705883 -1.1099672902289692 -1.2278068842141443 -1.1611266155228537 -1.1104612471332822
leaf_weight=2908.9239597916603 51.356635347008705 611.19654421508312 427.50455157458782 255.20566916465759 13.847010895609854 271.50658072531223 90.268488749861717 4.2066868543624869 343.37081448733807 21.208712890744209 1031.8652296513319 469.74669873714447 757.90474826097488 434.51569633185863 38.210738927125931 43.644376114010811 91.320160463452339 9.2897668033838254 9.1144881844520551 139.87233790755272 32.42654450237751 65.554203480482101 91.67071770131588 8.2380950897932035 36.457952737808228 13.145896419882773 53.635257393121719 9.9908812791109067 227.51164737343788 524.43362784385681 273.96048139035702 7.0111447572708157 510.76189556717873 2297.2015797197819 27.1681859344244 113.58054506778717 37.334345832467079 36.633231356739998 95.877404555678368 208.75683514773846 57.841944247484207 460.98276779055595 78.349542662501335 67.131711050868034 1686.0050355046988 45.747719541192055 7.0111447572708121 211.38601443171501 21.73454874753952 20.507598415017128 12.269503325223921 21.208712890744209 242.93616583943367 3.5055723786354056 262.56737115979195 8.5886523276567441 26.291792839765549 7.3617019951343527 18.404254987835884 7.0111447572708121 87.113473609089851 3.8561296164989463
leaf_count=16596 293 3487 2439 1456 79 1549 515 24 1959 121 5887 2680 4324 2479 218 249 521 53 52 798 185 374 523 47 208 75 306 57 1298 2992 1563 40 2914 13106 155 648 213 209 547 1191 330 2630 447 383 9619 261 40 1206 124 117 70 121 1386 20 1498 49 150 42 105 40 497 22
internal_value=-1.22734 -1.2534 -1.13131 -1.26363 -1.16208 -1.22199 -1.0947 -1.08557 -1.20925 -1.09385 -1.25384 -1.17631 -1.23429 -1.20425 -1.19662 -1.14181 -1.14981 -1.08822 -1.25935 -1.1311 -1.09966 -1.22687 -1.16347 -1.18491 -1.17038 -1.14482 -1.18246 -1.08431 -1.07472 -1.24806 -1.25107 -1.12167 -1.27014 -1.271 -1.24813 -1.13102 -1.12485 -1.14998 -1.1381 -1.2278 -1.15317 -1.18969 -1.1184 -1.11314 -1.25974 -1.11532 -1.13941 -1.06408 -1.10964 -1.15027 -1.20353 -1.174 -1.21196 -1.21804 -1.09231 -1.11653 -1.13001 -1.13479 -1.07118 -1.16532 -1.17162 -1.19334
internal_weight=0 12626.5 3426.7 9524.64 1861.98 3101.91 1564.71 1084.45 1524.05 782.794 3807.75 1093.56 1577.86 1186.99 597.174 768.421 441.352 650.985 1950.33 186.146 46.2736 337.061 255.206 623.817 154.596 49.6038 104.992 562.644 255.907 1857.43 1332.99 131.81 5716.89 5206.13 1059.03 327.07 246.792 80.2776 133.212 966.662 163.886 469.221 127.603 88.3404 1941.21 480.263 52.7589 301.655 100.084 27.5187 467.994 33.4782 589.813 346.876 306.738 44.1702 34.8804 65.2036 245.916 98.6819 129.18 42.0669
internal_count=91587 72037 19550 54340 10623 17697 8927 6187 8695 4466 21724 6239 9002 6772 3407 4384 2518 3714 11127 1062 264 1923 1456 3559 882 283 599 3210 1460 10597 7605 752 32616 29702 6042 1866 1408 458 760 5515 935 2677 728 504 11075 2740 301 1721 571 157 2670 191 3365 1979 1750 252 199 372 1403 563 737 240
is_linear=0
shrinkage=1


Tree=1
num_leaves=63
num_cat=0
split_feature=0 0 0 0 0 14 0 17 14 14 17 14 16 5 6 7 17 17 14 16 1 11 14 17 7 17 7 20 3 13 14 18 16 11 4 17 5 0 0 5 5 6 2 1 17 19 16 18 14 0 16 12 10 13 16 17 7 11 2 16 16 0
split_gain=14013.2 1499.39 1201.21 236.017 192.047 183.865 143.421 55.3477 51.5631 49.9653 41.186 34.6526 33.5604 31.8203 28.026 27.3065 36.5821 24.8667 23.7265 22.804 21.809 21.3935 19.1152 17.4041 17.1954 15.4874 15.1609 16.0498 14.47 14.0825 15.4997 13.5019 13.3487 13.3123 13.1599 12.4821 11.9066 11.8631 17.5215 17.3291 11.7625 11.7505 12.3321 11.6559 11.4358 19.8188 11.825 11.3044 11.1796 11.0831 10.6874 10.6255 15.4588 10.5178 10.4464 11.0762 10.44 10.4318 10.2154 10.2034 10.0564 10.3709
threshold=44.500000000000007 73.500000000000014 22.500000000000004 32.500000000000007 94.500000000000014 1.5000000000000002 57.500000000000007 15.500000000000002 1.5000000000000002 3.5000000000000004 36.500000000000007 3.5000000000000004 16.500000000000004 866.99500000000012 0.39000000000000007 7.3350000000000009 29.500000000000004 25.500000000000004 5.5000000000000009 17.500000000000004 7.5000000000000009 3.9300000000000002 5.5000000000000009 14.500000000000002 9.7150000000000016 19.500000000000004 40.220000000000006 26.500000000000004 12.500000000000002 5.5000000000000009 4.5000000000000009 62.500000000000007 18.500000000000004 340.18000000000006 304.50000000000006 16.500000000000004 293.66500000000002 81.500000000000014 89.500000000000014 994.31000000000006 787.54000000000008 0.045000000000000005 1.5000000000000002 12.500000000000002 22.500000000000004 96.500000000000014 18.500000000000004 78.500000000000014 12.500000000000002 85.500000000000014 20.500000000000004 76.500000000000014 0.75500000000000012 19.500000000000004 15.500000000000002 24.500000000000004 2.0600000000000005 3940.2300000000005 5.5000000000000009 21.500000000000004 19.500000000000004 43.500000000000007
decision_type=2 2 2 2 2 2 2 2 2 2 2 2 2 2 2 2 2 2 2 2 2 2 2 2 2 2 2 2 2 2 2 2 2 2 2 2 2 2 2 2 2 2 2 2 2 2 2 2 2 2 2 2 2 2 2 2 2 2 2 2 2 2
left_child=2 6 5 9 26 21 17 60 -6 31 23 13 35 14 36 20 44 -2 32 -12 58 -1 -19 -10 -24 -20 37 -28 -21 30 -18 -4 -9 -23 50 -11 -7 39 49 47 -32 42 -40 -33 -17 46 -46 -3 -26 53 -25 52 -30 -39 -27 -56 -13 -41 -8 -59 61 -5
right_child=1 4 3 7 8 11 15 18 10 12 19 56 -14 -15 -16 16 29 22 25 28 -22 33 24 34 48 54 27 -29 51 -31 40 43 -34 -35 -36 -37 -38 38 41 57 -42 -43 -44 -45 45 -47 -48 -49 -50 -51 -52 -53 -54 -55 55 -57 -58 59 -60 -61 -62 -63
leaf_value=-0.031514863292039355 0.033290766899521658 0.082564157161394813 -0.023935377968877611 -0.008604043758222572 0.1405664181502001 -0.034636356702300641 0.12697413627749404 0.0057838577931228373 0.0065352829843445814 -0.016200960589737905 0.092998843033953421 0.066181207892798341 0.010020510437158736 0.051725298219005657 0.0025295529838377188 0.039763250944397602 0.035207602537318188 0.034066289389277478 0.01038678457625271 0.1188919769386647 0.074390168204642268 -0.046766635319466614 -0.021536823379353042 0.091382237423565799 0.056488524285237686 0.020166504790668425 0.05198140807901961 0.095740910724204806 0.14180512648554219 0.091904642224825223 0.15822708058860269 -0.012227719693787227 0.02162577017471834 -0.022891446403243053 0.084186384776780712 -0.0046744120666149828 -0.023880111044675356 0.099277902101156945 0.060842856688699647 0.1002824943147916 0.071699080388395717 0.026956519477605936 0.10022399300630568 0.060980058893630985 0.050453454623978593 0.015131218163402786 0.075429456154931906 0.04899897648471651 0.10601983179271555 0.11659209797044866 0.13392404274996536 0.1355953665343001 0.025672355668545872 0.014114583183289882 0.027656460037372474 0.053462485559717624 -0.020992784236473619 -0.0092570780903904731 0.043477356257251326 0.099466866936421094 0.025994933083771071 0.022490963896011115
leaf_weight=257.22741191089153 728.153116568923 96.282063290476799 1092.7613546103239 435.18579526245594 346.3101444542408 2636.7569732517004 34.879824817180634 580.08472628891468 5.5091724395751944 579.31300465762615 59.610193446278572 3.4503890722990027 221.83251291513443 11.143780514597891 54.720595121383667 134.68986997008324 30.722470432519913 144.1266572624445 147.01235373318195 384.70864036679268 104.69814389944077 3834.4767872840166 6.8395382463932028 26.613313063979149 245.06942480802536 145.27136461436749 44.561289623379707 39.552421852946281 6.0209139287471753 87.363653227686882 4.0168881565332404 215.15417490899563 172.51980826258659 59.287670031189919 82.68610979616642 395.02424000203609 285.09812362492085 136.6785603761673 28.676428198814392 175.72871854901314 176.66556672751904 8.5656863451004011 64.801279306411743 5.5781255215406409 89.215774714946747 23.587425544857979 101.08898812532425 33.922718495130539 11.947536602616308 149.15466874837875 33.155685663223267 279.98923075199127 5.4678495079278946 3.7242114543914786 99.894086927175522 71.229098618030548 747.50385421514511 4.4059610962867719 4.0930402576923361 4.2293446660041809 24.794648185372353 28.57559135556221
leaf_count=1495 4077 525 6299 2492 1819 15365 187 3291 30 3342 321 20 1269 63 318 751 169 798 835 2050 570 22398 38 143 1356 823 244 215 33 475 22 1234 971 344 445 2263 1654 734 154 952 967 46 348 32 493 131 559 185 66 801 177 1475 30 20 564 399 4339 24 22 23 141 161
internal_value=0 0.0817607 -0.0267247 -0.00517274 0.111857 -0.0382366 0.0502092 0.0091849 0.124213 -0.0149245 0.117805 -0.0301938 -0.00753159 -0.0326071 -0.0329229 0.0665562 0.0621797 0.0388278 0.0148958 0.122645 0.0862756 -0.0454805 0.04871 0.0937346 0.0567088 0.0237964 0.0926243 0.0725582 0.125259 0.0750184 0.0680401 -0.021657 0.00941531 -0.0464031 0.0971069 -0.0115278 -0.0335868 0.0950144 0.100823 0.0877838 0.0736227 0.0830068 0.0881429 -0.0103777 0.0511757 0.0583623 0.0637206 0.0738193 0.058791 0.107101 0.114981 0.133662 0.086534 0.0970189 0.0300271 0.0383981 -0.0205922 0.097646 0.118205 0.043993 -0.00502937 -0.00668806
internal_weight=0 3947.51 12103.9 4214.23 2020.35 7889.67 1927.16 1704.57 1230.07 2509.66 883.761 3738.67 1196.17 2987.72 2976.58 791.022 647.351 1136.14 1216.01 735.797 143.671 4150.99 407.983 147.964 263.856 463.407 790.283 84.1137 676.187 298.769 211.405 1313.49 752.605 3893.76 142.455 974.337 2921.86 706.17 391.601 314.569 180.682 102.043 93.4777 220.732 348.582 213.892 190.305 130.205 257.017 289.557 59.769 291.478 11.4888 140.403 316.395 171.123 750.954 184.364 38.9729 8.63531 488.556 463.761
internal_count=91587 21475 70112 24116 10794 45996 10681 9677 6523 14439 4704 21759 6874 17400 17337 4346 3567 6335 6883 3909 779 24237 2258 795 1460 2621 4271 459 3588 1633 1158 7565 4262 22742 765 5605 17019 3812 2103 1709 989 548 502 1266 1934 1183 1052 710 1422 1555 320 1538 63 754 1786 963 4359 999 209 47 2794 2653
is_linear=0
shrinkage=0.05


Tree=2
num_leaves=63
num_cat=0
split_feature=6 20 10 12 14 3 14 3 12 12 14 12 14 12 1 7 14 17 13 12 3 17 18 8 6 17 14 12 14 19 17 8 17 14 2 14 14 2 17 17 14 3 12 7 17 11 14 19 7 16 18 3 18 7 16 15 7 5 15 2 14 5
split_gain=8432.09 1917.04 1353.79 870.795 356.205 208.479 183.076 160.995 120.141 125.974 119.645 98.4447 74.5216 62.9733 58.4112 54.7196 50.0036 46.7942 43.9401 42.2409 41.3536 32.1403 31.9568 31.054 27.8814 27.3476 26.4817 22.5029 22.492 27.2383 40.2387 22.3599 21.9375 19.4863 19.3122 19.0094 18.3466 17.5196 17.1167 16.9784 16.5123 16.464 16.4622 16.3588 16.5905 15.7316 15.572 14.9782 14.9593 14.4746 14.32 14.1352 14.1081 14.8732 13.9443 13.8951 13.799 13.4461 13.23 13.1423 12.956 12.8349
threshold=0.055000000000000007 21.500000000000004 0.15500000000000003 42.500000000000007 1.5000000000000002 5.5000000000000009 5.5000000000000009 5.5000000000000009 29.500000000000004 1.0000000180025095e-35 3.5000000000000004 61.500000000000007 8.5000000000000018 36.500000000000007 17.500000000000004 18.005000000000006 3.5000000000000004 20.500000000000004 4.5000000000000009 31.500000000000004 2.5000000000000004 15.500000000000002 37.500000000000007 39.335000000000008 0.34500000000000003 28.500000000000004 10.500000000000002 47.500000000000007 10.500000000000002 41.500000000000007 24.500000000000004 55.860000000000007 34.500000000000007 4.5000000000000009 1.5000000000000002 5.5000000000000009 3.5000000000000004 5.5000000000000009 24.500000000000004 15.500000000000002 6.5000000000000009 2.5000000000000004 23.500000000000004 38.465000000000011 43.500000000000007 3.9300000000000002 11.500000000000002 53.500000000000007 29.740000000000006 13.500000000000002 43.500000000000007 9.5000000000000018 134.50000000000003 24.575000000000003 17.500000000000004 2.5000000000000004 35.365000000000002 480.91000000000003 1.5000000000000002 9.5000000000000018 11.500000000000002 876.4100000000002
decision_type=2 2 2 2 2 2 2 2 2 2 2 2 2 2 2 2 2 2 2 2 2 2 2 2 2 2 2 2 2 2 2 2 2 2 2 2 2 2 2 2 2 2 2 2 2 2 2 2 2 2 2 2 2 2 2 2 2 2 2 2 2 2
left_child=1 3 4 7 45 12 19 8 9 20 22 18 41 42 28 -9 50 55 46 36 34 -12 24 58 -6 61 39 -21 29 -7 -31 -14 -30 -19 -1 48 -4 -22 -15 -18 -25 -3 57 49 -45 -2 47 -5 -32 -13 -11 60 -27 -54 -38 -17 -49 -8 -10 -37 -16 -20
right_child=2 5 6 11 10 14 13 15 23 16 21 43 31 38 51 17 26 33 25 27 37 -23 -24 40 -26 52 -28 -29 32 30 35 -33 -34 -35 -36 59 54 -39 -40 -41 -42 -43 -44 44 -46 -47 -48 56 -50 -51 -52 -53 53 -55 -56 -57 -58 -59 -60 -61 -62 -63
leaf_value=0.025562011504154047 -0.029339119743999106 0.021900514133909452 -0.011605457357057975 -0.0016305610501020089 -0.032828067033448996 0.096166208710304957 0.063222200665447884 0.060051409956070292 0.019689932776868431 -0.034381990260170768 -0.018636703600044192 0.04634033900645685 0.078050489307920579 0.023162441536302519 0.08677576624269831 -0.0016451141120955783 -0.0091150191993680015 0.018428591068599731 0.027082823083790383 0.018587157202851503 0.042500868752018618 -0.0039745061124105471 -0.018633216191534071 0.028619145556571902 0.00022996803546934124 0.10169224644387276 0.052414877313990318 0.077669198358865016 0.076492760206907831 0.033915754819710306 0.081507284470882249 0.1321093746086352 0.1130123114792999 0.053979759376579561 -0.0057546011062482721 0.10667451790281075 0.0021015508866449382 0.016297295216468256 0.070249078227440517 0.0085107843482997974 0.062817426659727199 0.050463677866546069 0.034446643776555035 0.05633566304294995 0.094364861243343146 -0.045202728367133925 0.07007092490997846 0.049756227463593448 0.027378373947210644 0.10112778676242946 -0.014099476952439051 0.1143213497642339 0.028820035252758194 0.084586182403527804 0.036090689373506457 0.083211677802546583 0.018441253729412507 0.0017930284572480601 0.049726312474651813 0.071987849424063832 0.11711256788562525 0.065547864482431148
leaf_weight=78.147800698876381 162.87606312334538 80.53413100540638 294.57032576203346 17.905725508928299 2813.495544269681 240.01729999482632 10.165627226233481 214.87153968214989 469.72903688251972 110.64323914051056 1102.3914357125759 12.718956410884855 73.138141706585884 21.910107761621475 100.76813562214375 110.48701439797878 246.85758778452873 56.080983445048332 29.402015388011932 185.00114224851131 212.67273768782616 565.48241373896599 522.07790885865688 61.342874675989151 65.261727645993233 83.812597528100014 25.852441981434822 17.654311612248421 54.86047987639904 53.116390585899353 30.016343429684639 25.902804553508759 164.21001461148262 123.26400226354599 133.03399792313576 78.517198264598846 295.00299413502216 91.118283003568649 162.03086106479168 305.9742019623518 83.131529346108437 135.0533372759819 324.21279340982437 57.287418559193611 57.428935572504997 3860.357597887516 62.674172341823578 256.2865259796381 22.207885518670082 231.11014959216118 407.6577410697937 597.90763956308365 16.047713428735733 46.898782685399055 33.613893389701843 5.0444864034652701 40.776209205389023 72.013492211699486 39.764401376247406 41.869763135910034 54.083157762885094 82.650331676006317
leaf_count=439 964 446 1698 98 16694 1227 58 1143 2605 654 6442 66 381 120 512 623 1422 312 158 1026 1172 3252 3052 335 380 434 143 94 286 291 160 131 828 670 759 406 1682 499 855 1723 446 719 1788 298 292 23135 330 1374 117 1180 2362 2990 83 242 189 28 221 408 217 217 273 438
internal_value=0 0.0499393 -0.0263692 0.0298583 -0.0334521 0.0931529 0.0191037 0.0154721 0.00976065 0.00242745 -0.0246349 0.0699903 0.056287 0.0403668 0.101221 0.0408606 -0.00714948 0.0268765 0.0581859 0.00390429 0.022828 -0.0136656 -0.0300146 0.0278362 -0.0320786 0.0740555 0.00295329 0.0237341 0.0906546 0.08444 0.0719715 0.0921889 0.103867 0.0428629 0.00583411 0.0836821 -0.0025442 0.0346414 0.0646404 0.000640283 0.0482971 0.0397937 0.0293802 0.0909443 0.0753737 -0.0445605 0.04731 0.0427809 0.0584895 0.0982699 -0.0184292 0.110834 0.0882574 0.070369 0.00557827 0.00206001 0.0454578 0.00939187 0.0220342 0.0946107 0.0973712 0.0554548
internal_weight=0 5522.88 10508.1 3770.67 9091.94 1752.2 1416.18 2775.67 2265.93 1611.96 5068.71 995 314.628 590.333 1437.57 509.748 1096.99 294.876 636.454 825.843 514.973 1667.87 3400.84 653.968 2878.76 258.811 578.684 202.655 684.815 465.745 225.728 99.0409 219.07 179.345 211.182 172.611 623.187 303.791 183.941 552.832 144.474 215.587 406.392 358.545 114.716 4023.23 377.643 314.968 52.2242 243.829 518.301 752.759 146.759 62.9465 328.617 115.532 297.063 82.1791 509.493 120.387 154.851 112.052
internal_count=91587 29750 61837 20766 53919 8984 7918 15552 12776 9173 29820 5214 1677 3229 7307 2776 6304 1633 3378 4689 2869 9694 20126 3603 17074 1355 3288 1120 3532 2418 1191 512 1114 982 1198 900 3569 1671 975 3145 781 1165 2254 1836 590 24099 2023 1693 277 1246 3016 3775 759 325 1871 651 1595 466 2822 623 785 596
is_linear=0
shrinkage=0.05


Tree=3
num_leaves=63
num_cat=0
split_feature=6 20 17 12 12 14 3 12 12 12 3 14 14 14 3 17 12 14 14 5 14 13 16 6 5 1 14 8 14 8 2 14 11 16 16 13 8 14 9 15 20 3 9 3 12 15 14 13 12 18 15 17 2 8 18 19 4 3 12 18 14 19
split_gain=7531.82 1600.49 1252.98 749.403 268.307 248.838 169.169 150.539 179.986 115.435 91.0186 83.2036 69.0731 61.6951 47.0912 46.501 42.4403 42.4284 31.8273 30.3194 29.9302 28.2895 25.4725 23.8105 22.0911 19.7698 18.2875 17.7562 17.4093 16.4488 16.2022 15.8234 15.7055 15.6149 15.3831 15.0512 15.9505 15.0323 14.9509 14.3376 14.1843 14.0631 13.9757 13.5625 13.5552 13.477 13.33 29.6613 19.4715 11.927 11.8941 11.8345 11.6002 11.3997 11.3826 15.4372 11.5062 11.2614 12.25 11.1445 10.9001 12.4479
threshold=0.055000000000000007 21.500000000000004 16.500000000000004 38.500000000000007 31.500000000000004 1.5000000000000002 5.5000000000000009 1.0000000180025095e-35 27.500000000000004 61.500000000000007 3.5000000000000004 3.5000000000000004 3.5000000000000004 8.5000000000000018 9.5000000000000018 26.500000000000004 43.500000000000007 5.5000000000000009 4.5000000000000009 595.23500000000013 4.5000000000000009 2.5000000000000004 17.500000000000004 0.34500000000000003 644.13000000000011 14.500000000000002 10.500000000000002 55.860000000000007 1.5000000000000002 39.335000000000008 4.5000000000000009 5.5000000000000009 3.9300000000000002 18.500000000000004 17.500000000000004 1.0000000180025095e-35 54.455000000000005 11.500000000000002 51892.660000000011 1.0000000180025095e-35 17.500000000000004 2.5000000000000004 82020.690000000017 4.5000000000000009 16.500000000000004 4.5000000000000009 1.0000000180025095e-35 1.0000000180025095e-35 60.500000000000007 62.500000000000007 1.5000000000000002 10.500000000000002 4.5000000000000009 29.645000000000003 46.500000000000007 43.500000000000007 104.50000000000001 7.5000000000000009 34.500000000000007 37.500000000000007 9.5000000000000018 59.500000000000007
decision_type=2 2 2 2 2 2 2 2 2 2 2 2 2 2 2 2 2 2 2 2 2 2 2 2 2 2 2 2 2 2 2 2 2 2 2 2 2 2 2 2 2 2 2 2 2 2 2 2 2 2 2 2 2 2 2 2 2 2 2 2 2 2
left_child=1 3 5 7 11 32 13 10 17 15 30 28 23 41 37 24 18 22 -6 31 50 42 -9 39 -5 -16 -26 -15 -4 57 -1 -13 -2 59 -21 43 38 46 -37 -7 52 -3 -17 -11 -41 -23 -8 48 -48 -34 -10 -24 -12 -40 -33 56 -56 -22 -59 -14 -20 -62
right_child=2 6 4 9 16 12 14 8 20 35 40 19 33 27 25 21 -18 -19 60 34 29 45 51 -25 26 -27 -28 -29 -30 -31 -32 54 49 -35 -36 36 -38 -39 53 44 -42 -43 -44 -45 -46 -47 47 -49 -50 -51 -52 -53 -54 -55 55 -57 -58 58 -60 -61 61 -63
leaf_value=0.021030734975171703 -0.028431855024503652 0.020563555469527071 -0.029254527838144931 -0.0040759613499221324 0.0093479804084648389 -0.031607454736581692 0.084221703976423118 -0.021208341808934321 0.0058127768199485973 0.041966206883865965 0.048556709550680824 -0.0026125136170070413 -0.020125074836623642 0.071433515951718804 0.080875666955902287 0.048269397519242793 0.063994083340411859 0.012270869954388301 0.03570882761451722 0.017976798183209654 0.023314064975772753 0.067942691132412622 -0.033206033311968551 -0.00012922871899111833 0.034229970429434535 0.10205662695199369 0.061954580346330834 0.11838374756521484 -0.010684302990388502 0.046058223166504327 -0.0015691097720526273 -0.0059074060348139681 -0.044512001424844905 0.069947701428283229 0.05581471505625521 0.0985197916682332 0.098316328937242209 0.094724138220226795 -0.015911372827987425 -0.023804937865232082 0.060286477744328576 0.046748050928543929 -0.043686159714711001 0.07978242162263495 0.015651921948349311 0.11906509720247016 0.014984226972423353 0.078853928100378945 0.076655437571102075 0.037548607129652266 0.045255565428052154 0.00016522238181461326 0.027516819331251982 0.064184298313635868 0.022029315887899793 -0.0018364886815505584 0.062154058940252027 0.14452487700040959 0.026562160108209637 -0.010177054020236548 0.087169189288358914 0.037637820985532103
leaf_weight=193.24616685509682 160.49052688479424 81.457034677267075 172.05917556583881 30.671327158808708 117.45502918958664 2912.55944404006 244.27884885668755 511.16544923186302 258.11483111977577 36.043531343340874 172.46370932459831 506.35939110815525 841.33217583596706 75.843117669224739 128.29937615990639 219.65335963666439 131.14951941370964 182.92336232960224 227.97195695340633 212.15190523862839 424.03313007950783 263.02169272303581 29.363127291202545 64.063768818974495 278.12725375592709 779.49303808808327 75.65901754796505 27.417970091104507 473.60320895910263 110.96163314580917 134.50431436300278 61.288928717374802 3653.6025628894567 5.2094030231237403 30.755554065108299 35.898866698145866 171.30320799350739 148.75616839528084 4.8245574533939353 82.29568187892437 135.63418871164322 138.40751510858536 4.2111960351467124 69.285796254873276 29.594983294606209 13.556173920631407 37.206621944904327 144.82359704375267 19.510535135865211 4.4333112537860861 20.641819596290588 279.00427566468716 105.63948419690132 56.082150533795357 105.01590201258659 60.580914780497551 21.529707342386246 4.0373376905918104 4.8382540643215179 423.1185314655304 24.299103856086731 26.537897676229477
leaf_count=1073 966 446 1027 167 649 17580 1194 2999 1441 181 908 2904 4975 381 638 1142 670 1029 1224 1178 2324 1329 173 373 1487 3731 394 131 2773 586 758 350 22492 30 167 176 833 720 25 496 702 719 22 343 175 68 197 730 97 26 112 1601 567 278 590 337 119 22 26 2471 128 137
internal_value=0 0.0463209 -0.0254576 0.027937 0.0083107 -0.0344224 0.0848401 0.0124403 0.00472191 0.0595449 0.0314383 -0.00164774 -0.0262579 0.0520197 0.091899 0.049707 0.0393398 -0.00950194 0.0311801 0.00740298 0.0220552 0.0597532 -0.0143617 -0.0302938 0.03663 0.0990631 0.040159 0.0838998 -0.015633 0.0288831 0.0117561 0.00245822 -0.0437409 -0.0164403 0.0227676 0.0828568 0.0891484 0.0809609 0.0729253 -0.0309327 0.0470299 0.037047 0.0465396 0.0668418 -0.0133686 0.0704484 0.0763685 0.0668501 0.0361989 -0.0444125 0.0087335 -0.00301243 0.0405646 0.0578397 0.0127942 0.0189195 0.0288559 0.0244808 0.0802212 -0.0167962 0.0403774 0.0613129
internal_weight=0 5650.4 10347.5 3824.91 2170.76 8176.7 1825.49 2566.57 1825.08 1258.34 741.488 1643.34 4358.17 323.126 1502.37 884.9 527.414 1002.46 396.264 997.682 822.627 500.442 819.533 3088.51 384.458 907.792 353.786 103.261 645.662 543.87 327.75 754.775 3818.53 1269.66 242.907 373.438 268.109 594.576 96.8056 3024.45 413.737 219.865 223.865 105.329 111.891 276.578 445.82 201.541 56.7172 3658.04 278.757 308.367 278.103 60.9067 248.415 187.127 126.546 432.909 8.87559 1264.45 278.809 50.837
internal_count=91587 29750 61837 20766 12253 49584 8984 14321 10313 6445 4008 9445 26100 1677 7307 4609 2808 5802 2138 5645 4511 2561 4773 18624 2048 4369 1881 512 3800 2958 1831 4300 23484 7476 1345 1836 1312 2938 479 18251 2177 1165 1164 524 671 1397 2218 1024 294 22518 1553 1774 1475 303 1396 1046 709 2372 48 7446 1489 265
is_linear=0
shrinkage=0.05


Tree=4
num_leaves=63
num_cat=0
split_feature=0 0 0 14 0 0 0 17 6 14 14 16 5 17 6 7 17 1 9 17 16 1 14 11 17 0 14 11 11 16 0 8 18 2 14 9 0 0 8 16 20 8 17 0 20 16 8 18 11 7 0 18 8 7 18 0 9 9 8 5 14 9
split_gain=9834.62 930.537 926.747 165.162 151.336 104.715 101.176 48.3336 43.8697 41.0755 28.5714 27.7844 27.3856 25.3762 23.4203 23.1352 22.2446 20.4563 17.5298 17.5048 17.0754 14.6418 14.3239 13.5123 13.2427 13.4688 12.9452 12.168 11.9488 17.8962 12.5285 11.8295 11.7669 12.3072 11.6178 11.1475 12.6119 14.0898 10.9748 10.8477 14.1262 10.8203 10.8182 16.7442 14.7716 11.8552 12.0516 10.5949 10.58 10.5289 10.5097 10.4582 17.0833 12.2248 12.4408 11.6951 11.2419 10.4466 10.3681 10.2195 10.0128 9.72548
threshold=43.500000000000007 73.500000000000014 22.500000000000004 1.5000000000000002 32.500000000000007 94.500000000000014 57.500000000000007 15.500000000000002 1.0000000180025095e-35 3.5000000000000004 3.5000000000000004 16.500000000000004 866.99500000000012 14.500000000000002 0.39000000000000007 7.3350000000000009 29.500000000000004 7.5000000000000009 94.925000000000011 24.500000000000004 20.500000000000004 15.500000000000002 5.5000000000000009 1076.1950000000004 23.500000000000004 42.500000000000007 11.500000000000002 340.18000000000006 3940.2300000000005 21.500000000000004 81.500000000000014 42.585000000000008 46.500000000000007 12.500000000000002 12.500000000000002 51892.660000000011 69.500000000000014 71.500000000000014 57.445000000000007 16.500000000000004 4.5000000000000009 24.115000000000006 8.5000000000000018 56.500000000000007 11.500000000000002 10.500000000000002 27.495000000000001 65.500000000000014 1645.6100000000004 30.395000000000003 51.500000000000007 131.50000000000003 26.715000000000003 29.335000000000004 98.500000000000014 60.500000000000007 44412.165000000008 746.45500000000004 27.605000000000004 293.66500000000002 4.5000000000000009 44412.165000000008
decision_type=2 2 2 2 2 2 2 2 2 2 2 2 2 2 2 2 2 2 2 2 2 2 2 2 2 2 2 2 2 2 2 2 2 2 2 2 2 2 2 2 2 2 2 2 2 2 2 2 2 2 2 2 2 2 2 2 2 2 2 2 2 2
left_child=2 6 3 18 9 28 19 23 21 32 12 -11 14 -10 59 17 51 -8 -1 42 -15 -7 41 -6 -24 -26 -22 -20 -3 30 -30 -12 -4 -34 39 36 -18 -38 -39 60 -41 -9 43 44 50 -44 -47 -42 49 -25 -2 52 -17 -54 -55 -56 -53 -33 -13 -5 -21 -48
right_child=1 5 4 10 7 8 15 22 13 11 31 58 -14 20 -16 16 35 -19 27 34 26 -23 24 48 25 -27 -28 -29 29 -31 -32 57 33 -35 -36 -37 37 38 -40 40 47 -43 45 -45 -46 46 61 -49 -50 -51 -52 56 53 54 55 -57 -58 -59 -60 -61 -62 -63
leaf_value=-0.031636050755780284 0.067787263938129269 0.073573288501990061 -0.023998066332298482 -0.031610993892852532 -0.0094728608598480708 0.1219483210818976 0.099724077760353705 0.032351216402262295 -0.026485866003681677 -0.010279181864298163 -0.01996746548871917 0.0013124044673192721 0.047426476277830393 0.076770672591127978 0.0024093830409802047 0.017147256702701244 0.056850627699573657 0.059083649104199679 -0.043763151325601941 0.0055687553153329072 0.080379825511432912 0.10118882202925379 0.012528283293336202 -0.012385507753274759 0.025327962628888881 0.070791704758347035 0.095720080071414637 -0.02050683473418163 -0.014465463373422383 0.072347906868082068 0.047691277009648071 0.091295849575793842 -0.014946504826606203 0.074062542907567877 0.079804493566297097 0.033089055786229636 0.10337387668861137 0.079989513806188572 0.00025953920941423453 0.12385403166975956 -0.029219667615614144 0.0060471335362874343 -0.025658459055270852 0.08591068699746128 0.022168170433199342 0.013030619461670376 0.029759122113457701 0.042131665946243735 -0.022260489620036111 0.06772929880706989 0.017492447166317284 -0.0056279998619117137 0.043267694664347829 0.15298886354693739 0.10382346588648 0.05075666714263985 0.037792001405829653 0.00071364593119156629 0.02382637161697225 -0.021448740460140534 0.032963879318484123 -0.022684579171532143
leaf_weight=349.29061503708363 37.912411794066429 788.28584598004818 681.97858001291752 2492.0773227959871 433.92875485122204 122.25819127261639 42.446800157427788 41.457840099930763 4.8197604417800894 958.86290712654591 694.37290312349796 144.10641112923622 11.478431209921835 236.52438528835773 54.792033299803734 48.688047870993614 239.17937378585339 114.45457138121128 3441.64142768085 41.478456884622574 179.46403259038925 278.24608953297138 279.03472499549389 5.6934294700622621 135.79111455380917 18.511515840888023 588.49713857471943 57.178527519106865 11.930719524621962 56.97359074652195 25.295711368322372 3.547698274254798 586.68796786665916 3.9094540625810614 15.823282256722448 38.614580243825912 33.405055433511734 10.953643128275873 7.1227181851863852 5.218687877058982 5.295025795698165 686.2427051961422 12.506191328167914 15.585398554801939 120.45623578131199 184.66810731589794 380.275834441185 298.47460852563381 8.0932959765195829 14.663359254598616 14.306376755237578 23.204619243741035 197.64634397625923 4.0743102878332129 13.391425922513006 46.205908074975014 41.690148785710335 30.958025321364403 79.264676034450531 274.66065396368504 170.28647454082966 9.05064409971237
leaf_count=2126 202 3813 4078 15365 2469 566 209 231 25 5605 4156 824 63 1116 318 257 1189 570 21767 221 835 1270 1541 32 732 98 2711 344 60 276 122 21 3466 21 80 193 163 53 35 27 28 3842 69 80 636 997 2041 1545 45 82 77 119 1016 21 69 236 216 182 445 1654 889 48
internal_value=0 0.0628476 -0.0245996 -0.035135 -0.00545719 0.0850692 0.0393997 0.00638686 0.0935242 -0.0132899 -0.0273761 -0.00657959 -0.0296476 0.0879682 -0.0299611 0.0527157 0.048847 0.0700782 -0.0423168 0.0306559 0.0885174 0.107526 0.0118313 -0.00728425 0.0190281 0.0307822 0.0921352 -0.0433831 0.0715621 0.0547316 0.0277706 -0.0185475 -0.0195238 -0.0143573 0.0375975 0.0583295 0.0616827 0.084132 0.0485731 0.036315 0.0422892 0.0075457 0.0258483 0.0362768 0.0317969 0.0225009 0.0235502 0.0408879 0.026097 0.0453226 0.054008 0.0405186 0.0443394 0.0494058 0.0684595 0.0626807 0.0222662 0.0100268 0.00930163 -0.0306022 0.027598 0.02854
internal_weight=0 4464.71 11488.2 7410 4078.23 2292.3 2172.42 1623.42 1409.81 2454.81 3561.89 1182.23 2833.01 1009.31 2821.53 861.078 704.176 156.901 3848.11 1311.34 1004.49 400.504 1161.04 462.379 433.337 154.303 767.961 3498.82 882.486 94.2 37.2264 728.879 1272.58 590.597 536.577 329.275 290.661 51.4814 18.0764 520.753 308.988 727.701 774.761 188.26 172.675 586.501 573.995 303.77 28.4501 20.3568 52.2188 374.901 310.006 261.318 63.6716 59.5973 64.8948 34.5057 223.371 2766.74 211.765 389.326
internal_count=91587 22080 69507 45996 23511 10794 11286 9072 6523 14439 21759 6874 17400 4687 17337 4346 3567 779 24237 6940 4662 1836 6444 2628 2371 830 3546 22111 4271 458 182 4359 7565 3487 2790 1633 1440 251 88 2710 1600 4073 4150 995 915 3155 3086 1573 159 114 279 1934 1599 1342 326 305 335 203 1269 17019 1110 2089
is_linear=0
shrinkage=0.05


Tree=5
num_leaves=63
num_cat=0
split_feature=6 20 17 12 14 12 3 16 12 12 3 14 12 14 10 14 3 17 13 16 14 16 6 14 8 17 18 17 6 9 14 6 3 18 14 8 5 16 15 18 12 20 16 3 17 13 8 9 14 16 3 4 18 14 12 3 20 15 12 8 20 18
split_gain=6054.1 1169.87 1091.84 557.492 230.612 210.402 121.286 117.743 144.942 82.8919 68.5473 60.7116 54.8587 49.416 46.5444 35.9979 34.7719 34.6502 24.8219 24.2905 24.136 23.7449 21.0527 20.7683 18.2422 17.8502 17.3667 16.3269 31.6333 26.0912 18.8663 16.2642 15.9116 15.288 14.8886 14.0492 13.8261 13.6624 13.6312 12.7774 12.2772 12.1218 11.929 11.8377 11.7219 11.5974 12.3933 11.94 11.5007 11.2775 10.9782 13.4309 10.9687 10.9103 11.4509 10.7827 10.7318 10.6301 10.3024 13.3857 10.3011 23.0697
threshold=0.055000000000000007 21.500000000000004 16.500000000000004 38.500000000000007 1.5000000000000002 27.500000000000004 5.5000000000000009 1.0000000180025095e-35 27.500000000000004 61.500000000000007 3.5000000000000004 3.5000000000000004 36.500000000000007 3.5000000000000004 0.37500000000000006 5.5000000000000009 9.5000000000000018 22.500000000000004 1.5000000000000002 17.500000000000004 3.5000000000000004 17.500000000000004 0.34500000000000003 5.5000000000000009 39.335000000000008 21.500000000000004 91.500000000000014 47.500000000000007 1.0000000180025095e-35 16808.300000000003 3.5000000000000004 0.025000000000000005 1.5000000000000002 5.5000000000000009 1.5000000000000002 34.650000000000006 644.13000000000011 18.500000000000004 1.0000000180025095e-35 105.50000000000001 16.500000000000004 10.500000000000002 18.500000000000004 2.5000000000000004 23.500000000000004 1.0000000180025095e-35 54.455000000000005 51892.660000000011 3.5000000000000004 15.500000000000002 2.5000000000000004 149.50000000000003 62.500000000000007 5.5000000000000009 23.500000000000004 4.5000000000000009 17.500000000000004 5.5000000000000009 34.500000000000007 49.195000000000007 4.5000000000000009 61.500000000000007
decision_type=2 2 2 2 2 2 2 2 2 2 2 2 2 2 2 2 2 2 2 2 2 2 2 2 2 2 2 2 2 2 2 2 2 2 2 2 2 2 2 2 2 2 2 2 2 2 2 2 2 2 2 2 2 2 2 2 2 2 2 2 2 2
left_child=1 3 4 7 33 13 14 10 15 17 32 22 23 34 39 21 57 36 31 53 43 -9 38 60 -22 -16 -14 28 -18 -30 -31 -19 -1 -2 -4 -25 -5 -13 -6 50 -40 -36 58 44 -10 55 47 -47 -27 -20 51 -3 -35 -15 -55 -11 -12 -8 59 -26 61 -7
right_child=2 6 5 9 11 12 16 8 20 45 56 37 26 19 25 -17 27 18 49 -21 24 -23 -24 35 42 48 -28 -29 29 30 -32 -33 -34 52 41 -37 -38 -39 40 -41 -42 -43 -44 -45 -46 46 -48 -49 -50 -51 -52 -53 -54 54 -56 -57 -58 -59 -60 -61 -62 -63
leaf_value=-0.0072159478277244241 -0.022971867234356527 0.012467452045828135 -0.029280272520890299 -0.0071229891252838559 -0.029649344925489325 0.13651370449938532 0.067476785804294642 -0.020037112744408364 0.042155034877671013 0.03462866357153413 0.035197248123095146 -0.015563990063431569 0.033827938124014245 -0.003317610395157176 0.011417806019088128 0.011164731131584092 0.091786579002420945 -0.021113788747160904 0.030088278141678762 0.034292276598358776 0.019995115679678512 -0.0023994335391984661 2.6239531237760254e-05 -0.0022304918369336758 0.025054260871723674 0.015829948668392581 0.058596787605515337 0.091785075864109666 -0.030553756875228644 0.032559707648960143 0.074168753273207336 0.039110290520651236 0.017265897609018095 -0.042327680888583193 -0.014595137122068677 0.032876623816129665 0.030141254755172889 0.064118955509806494 -0.021846946781383214 -0.002176055386787275 0.015896364084972345 0.0091093325982507852 0.062465090410186885 -0.0022783450623567558 -0.038201844322314715 0.083501263960752706 0.083148058261945046 0.048280902868475778 0.077050366210251506 0.058306046318324083 0.044854793511634586 0.09077335738318941 0.035841261867183317 0.00068052200934651144 0.022525078743390867 0.067480525442328299 0.051986361457464415 0.10583252328626283 0.049056261703694259 -0.052572263480848196 0.0059793796871020974 0.013944574084275761
leaf_weight=91.634187892079353 106.18674726784229 63.992560982704163 150.97347457706928 28.719510272145271 2808.7609227597713 4.9605369269847897 613.21277855336666 499.27069666981697 29.767838925123215 37.77237194776535 287.69501996040344 1242.6511029005051 153.29892390966415 487.92567463219166 12.994886383414267 184.80635347962379 254.90401364862919 11.69131553173065 38.983836531639099 59.294924020767212 527.32617437839508 308.87219797074795 63.946999683976173 32.647408574819565 36.088537290692329 8.2140565067529661 131.45395673811436 378.71163441240788 6.5261122584342948 29.954604744911194 300.92626096308231 272.71497216820717 240.71551533043385 3514.1344125717878 348.67462132871151 224.16478842496872 186.76216639578342 5.4028103202581397 79.740086898207664 27.649115413427353 29.522726237773895 63.800350055098534 43.375918179750443 153.25221440196037 5.3546254336833945 38.450062409043312 183.44147679209709 64.311675772070885 116.10673198103905 386.07863315939903 102.55433404445648 5.9883406013250342 4.4934776425361624 147.77311053872108 100.99227339029312 73.737524926662445 142.24291525781155 18.61244635283947 37.417196094989777 6.563412830233573 259.90134510397911 16.980054661631584
leaf_count=521 663 347 935 155 17580 28 2853 2987 166 181 1473 7446 780 2813 65 1029 1136 60 192 323 2834 1784 373 175 187 41 642 1681 33 145 1374 1368 1320 22795 2085 1170 966 30 496 139 175 377 218 848 29 176 833 303 543 1868 511 31 26 835 549 343 701 85 190 34 1447 94
internal_value=0 0.0402514 -0.0237158 0.0245243 -0.0324089 0.00756594 0.0720001 0.0110559 0.0041851 0.0509425 0.0275693 -0.0244782 0.027512 -0.00451532 0.0447578 -0.0087434 0.0777363 0.0427347 0.0480681 0.00350513 0.0194832 -0.013296 -0.0283534 0.0181285 0.0240455 0.0671771 0.0452623 0.0836768 0.0784926 0.0684492 0.0704019 0.0366346 0.0105159 -0.0416638 -0.0158459 0.0284136 0.0251747 -0.015219 -0.0289753 0.0293794 -0.0116487 -0.0109286 0.0413475 0.00372208 0.0299042 0.0700312 0.0753606 0.0614592 0.0730054 0.0557181 0.0344362 0.0191682 -0.0422279 0.00102713 0.00954884 0.0563524 0.0407518 0.0686067 0.0299075 0.0131089 0.00875672 0.0416562
internal_weight=0 5857.39 10037.7 3917.05 7854.84 2182.84 1940.35 2594.38 1832.1 1322.66 762.288 4230.02 823.407 1359.43 337.5 992.949 1602.85 924.95 709.469 795.986 839.146 808.143 2981.97 538.654 650.771 137.316 284.753 971.023 592.311 337.407 330.881 284.406 332.35 3624.81 563.448 256.812 215.482 1248.05 2918.02 200.184 109.263 412.475 123.445 188.375 35.1225 397.713 286.203 102.762 124.321 425.062 172.535 69.9809 3518.63 736.691 248.765 111.51 429.938 631.825 80.0691 42.652 281.842 21.9406
internal_count=91587 29750 61837 20766 49584 12253 8984 14321 10306 6445 4015 26100 4336 7917 1677 5800 7307 4609 3488 4520 4506 4771 18624 2914 3463 649 1422 4369 2688 1552 1519 1428 1841 23484 3397 1345 1121 7476 18251 1028 671 2462 629 1043 195 1836 1312 479 584 2060 889 378 22821 4197 1384 524 2174 2938 411 221 1569 122
is_linear=0
shrinkage=0.05


Tree=6
num_leaves=63
num_cat=0
split_feature=6 3 18 12 14 20 14 12 14 12 12 12 12 12 14 3 1 12 8 13 16 6 8 8 14 14 14 18 14 19 8 9 16 16 18 18 18 7 2 8 14 7 18 11 8 16 1 2 14 12 4 4 16 19 2 7 14 5 18 20 15 12
split_gain=5443.55 1015.95 1006.3 405.267 245.512 227.115 168.161 66.8846 66.4418 57.3202 120.246 48.6415 45.479 44.5288 35.3492 35.3395 31.5026 24.5594 34.4653 23.6134 21.0563 20.1682 18.5169 18.1624 18.1244 18.117 17.9771 16.2507 16.0308 15.7577 15.3063 14.7184 14.5785 14.4245 14.2195 14.0141 13.4784 13.0391 12.9853 12.8249 12.5817 18.1291 17.3924 12.4787 12.3245 11.8641 11.5705 14.375 11.2883 15.3456 10.7934 15.2497 10.7431 10.7213 10.6332 10.5722 10.303 10.2273 15.8737 10.0631 9.92211 9.82138
threshold=0.055000000000000007 5.5000000000000009 46.500000000000007 42.500000000000007 1.5000000000000002 21.500000000000004 5.5000000000000009 47.500000000000007 3.5000000000000004 29.500000000000004 1.0000000180025095e-35 63.500000000000007 33.500000000000007 28.500000000000004 3.5000000000000004 2.5000000000000004 17.500000000000004 8.5000000000000018 31.955000000000002 1.5000000000000002 16.500000000000004 0.39000000000000007 53.07500000000001 38.430000000000007 7.5000000000000009 10.500000000000002 5.5000000000000009 37.500000000000007 1.5000000000000002 75.500000000000014 27.355000000000004 94.925000000000011 16.500000000000004 16.500000000000004 32.500000000000007 74.500000000000014 43.500000000000007 5.2550000000000008 5.5000000000000009 30.905000000000005 10.500000000000002 30.900000000000002 117.50000000000001 1782.5550000000001 32.145000000000003 15.500000000000002 11.500000000000002 5.5000000000000009 12.500000000000002 67.500000000000014 81.500000000000014 113.50000000000001 17.500000000000004 75.500000000000014 1.5000000000000002 34.135000000000012 9.5000000000000018 595.23500000000013 72.500000000000014 8.5000000000000018 1.5000000000000002 12.500000000000002
decision_type=2 2 2 2 2 2 2 2 2 2 2 2 2 2 2 2 2 2 2 2 2 2 2 2 2 2 2 2 2 2 2 2 2 2 2 2 2 2 2 2 2 2 2 2 2 2 2 2 2 2 2 2 2 2 2 2 2 2 2 2 2 2
left_child=1 3 4 9 31 7 13 17 21 10 15 19 20 28 36 54 40 -3 24 -5 39 27 45 43 -19 52 -11 -6 -4 32 38 -2 -15 -20 37 -34 -12 -10 -28 -8 41 -7 -43 -21 -42 -9 47 59 60 -50 -22 -52 -16 -32 -1 56 -35 -30 -59 -17 -14 -36
right_child=2 5 6 11 8 16 12 22 34 26 14 -13 48 29 25 46 -18 18 33 23 50 -23 -24 -25 -26 -27 30 -29 57 -31 53 -33 35 55 61 -37 -38 -39 -40 -41 44 42 -44 -45 -46 -47 -48 -49 49 -51 51 -53 -54 -55 -56 -57 -58 58 -60 -61 -62 -63
leaf_value=0.021404117635112012 -0.028835704605553077 0.044998657202456938 -0.025272340333543343 0.028714824521059751 -0.028855144625307163 0.065162344910025524 -0.011552658375288117 -0.0050205617266119787 0.0022928063444931025 0.012021952946915625 -0.031446995553217297 0.068662705873779956 0.036653052581248485 0.0042187968774109108 -0.0055735882888386656 0.012566146972991644 0.078542012798301808 -0.0020714041605330467 0.015547610891369563 0.018095361225444223 0.11300145393526087 0.003003260606722063 0.069626515459037835 0.061159873865969661 0.038948679169205247 0.041388098405030632 -0.0001786375197561979 -0.017027008570374896 -0.0076264840161164279 0.050918819753414592 0.028479053144340946 -0.041463093727476148 0.011640272820835684 0.039705134892577383 -0.025661871976967739 0.055852483699451866 -0.011354361422926038 -0.021517823780981056 0.045024935822506433 0.016435744909395932 0.026622848736294943 -0.016330765866287768 0.049105687820839218 0.049694269055593709 0.076479929766525748 0.050766132998131465 0.048125699578286142 0.010143047189642186 0.08003039158537735 -0.0062893615275702343 0.011367522551238024 0.054216649553326647 0.0083676358625268035 0.051426973062453689 -0.00013816009598848579 -0.018082991980801849 0.069603513362220218 0.025785174531567891 -0.0096150253541076314 0.03859789671147007 0.074353144535773408 -0.006631454975066212
leaf_weight=84.694780483841896 247.9930082410574 234.80108268558979 113.68268339335918 204.6053920686245 2626.7442629635334 412.66514819860458 47.167108252644539 9.9783703833818418 64.10676147043705 317.75966627895832 104.81817059218884 253.3478095382452 219.45567339658737 225.79447402060032 316.6917966157198 46.766458138823509 865.45123769342899 126.34320625662804 61.71605159342289 53.958407059311867 4.7755428701639167 55.02762271463871 186.51232682168484 175.18184313178062 34.222557306289673 28.478015884757042 71.141357600688934 326.4806410074234 691.96155209839344 26.269565314054489 250.38724511861801 3322.2255229502916 43.683219403028488 140.89133916795254 76.004476547241211 30.394471615552902 409.71783444285393 557.6729674488306 20.455237165093422 309.50653180480003 13.075893446803091 11.267722710967062 102.78679926693439 74.219957709312439 238.12346708774567 212.32372078299522 75.383157581090927 95.92770092189312 36.123374730348587 6.0046372562646857 36.503285184502602 48.158392161130905 245.16198302805424 63.884103059768677 176.98281069099903 6.7178921699523917 36.222412392497063 62.41803851723671 64.277017906308174 180.07368578016758 18.960416778922081 627.90173614025116
leaf_count=460 1598 1141 707 1012 16756 1886 271 49 388 1700 657 1145 1081 1236 1826 247 3775 697 320 266 27 319 841 819 178 149 377 2012 4071 133 1285 22137 237 712 461 159 2433 3402 107 1669 61 56 476 359 1053 996 364 499 170 28 195 246 1362 315 994 33 174 356 365 926 92 3721
internal_value=0 0.0376647 -0.0228838 0.0188446 -0.030877 0.0603739 0.00894236 0.0422064 -0.022879 0.00907783 0.00421831 0.0507669 0.0280936 -0.00211568 -0.00586797 0.0211076 0.0719787 0.0321265 0.0246842 0.0418414 0.0181741 -0.0269887 0.0580091 0.0506949 0.00667151 0.0024816 0.0209286 -0.0275475 -0.00767835 0.0137863 0.0279018 -0.040586 0.0105334 0.0364629 -0.0135532 0.0297808 -0.0154475 -0.0190629 0.00991617 0.0127345 0.0646769 0.0602856 0.0426411 0.0363923 0.0738847 0.0482621 0.0304884 0.0263692 0.0438672 0.067727 0.0398669 0.0357415 0.000509593 0.0331438 0.00683423 0.0434846 0.0458198 -0.00523516 0.00782536 0.0332311 0.0396512 -0.00868627
internal_weight=0 5942.74 9889.29 3249.64 7904.16 2693.1 1985.14 1049.73 4333.94 2488.32 1764.7 761.313 726.655 1258.48 1104.87 659.829 1643.37 640.915 406.113 507.966 446.111 3008.25 408.814 303.36 160.566 590.332 723.628 2953.22 932.339 326.142 405.868 3570.22 299.872 245.548 1325.69 74.0777 514.536 621.78 91.5966 356.674 777.919 526.72 114.055 128.178 251.199 222.302 398.151 322.768 280.544 42.128 89.4372 84.6617 561.854 314.271 261.678 183.832 177.114 818.657 126.695 226.84 238.416 703.906
internal_count=91587 29750 61837 17302 50794 12448 11043 5141 27059 13701 9917 3601 3779 7264 6427 3490 7307 3255 2114 2456 2408 19087 1886 1444 875 3337 3784 18768 5499 1765 2084 23735 1632 1239 7972 396 3090 3790 484 1940 3532 2418 532 625 1114 1045 2036 1672 1371 198 468 441 3188 1600 1454 919 886 4792 721 1173 1173 4182
is_linear=0
shrinkage=0.05


Tree=7
num_leaves=63
num_cat=0
split_feature=0 0 0 14 0 0 0 11 14 17 14 5 16 7 15 6 1 17 17 15 1 11 17 7 17 11 16 16 7 11 16 8 4 14 18 0 0 10 0 1 11 0 5 7 4 18 8 7 18 0 1 7 0 3 18 0 0 0 8 7 16 14
split_gain=7129.95 724.88 656.25 148.533 99.58 75.2982 69.7653 38.477 34.2653 32.8422 23.5808 23.9408 22.4385 20.245 20.1772 19.5396 19.2638 17.4133 16.761 16.0335 15.4553 15.2001 14.8487 14.6321 13.6489 11.651 10.995 10.7156 15.3447 10.7085 14.3065 10.4881 10.4003 10.2892 11.3534 10.1486 10.0299 9.91642 18.2377 9.77817 11.9987 9.60737 9.90259 10.5615 10.0234 9.51402 11.5374 10.1321 9.93489 9.47146 14.0457 9.37423 9.24346 9.19403 9.15032 9.10202 9.46721 9.92675 9.09408 9.01611 10.118 9.00506
threshold=42.500000000000007 22.500000000000004 73.500000000000014 1.5000000000000002 32.500000000000007 57.500000000000007 94.500000000000014 656.30000000000007 3.5000000000000004 15.500000000000002 3.5000000000000004 866.99500000000012 16.500000000000004 7.3350000000000009 1.0000000180025095e-35 0.34500000000000003 7.5000000000000009 24.500000000000004 36.500000000000007 1.5000000000000002 15.500000000000002 1076.1950000000004 29.500000000000004 3.4850000000000008 16.500000000000004 340.18000000000006 17.500000000000004 17.500000000000004 18.215000000000003 3940.2300000000005 21.500000000000004 42.195000000000007 304.50000000000006 5.5000000000000009 63.500000000000007 81.500000000000014 40.500000000000007 0.43500000000000005 69.500000000000014 1.5000000000000002 20.065000000000001 45.500000000000007 780.32000000000016 28.010000000000002 166.50000000000003 133.50000000000003 26.715000000000003 29.335000000000004 98.500000000000014 34.500000000000007 8.5000000000000018 17.375000000000004 60.500000000000007 1.5000000000000002 95.500000000000014 92.500000000000014 85.500000000000014 89.500000000000014 33.425000000000004 30.900000000000002 16.500000000000004 4.5000000000000009
decision_type=2 2 2 2 2 2 2 2 2 2 2 2 2 2 2 2 2 2 2 2 2 2 2 2 2 2 2 2 2 2 2 2 2 2 2 2 2 2 2 2 2 2 2 2 2 2 2 2 2 2 2 2 2 2 2 2 2 2 2 2 2 2
left_child=1 3 5 23 8 17 29 20 14 21 11 15 -10 16 24 39 -7 41 32 27 -8 -6 45 -1 -3 -25 -20 28 -11 55 35 -12 -9 59 -35 -31 54 38 53 -5 -41 42 43 -2 -44 46 -15 -48 -49 -30 58 -16 -50 -24 -23 56 -4 -58 -51 60 -19 -55
right_child=2 4 6 10 9 13 7 18 12 19 31 -13 -14 22 51 -17 -18 33 26 -21 -22 36 37 25 -26 -27 -28 -29 49 30 -32 -33 -34 34 -36 -37 -38 -39 -40 40 -42 -43 44 -45 -46 -47 47 48 52 50 -52 -53 -54 61 -56 -57 57 -59 -60 -61 -62 -63
leaf_value=-0.033101490521898778 0.0098805657430228403 -0.023575731105105066 0.05711464489685214 -0.034375708628786715 -0.0094503813924643118 0.086534480141685466 0.1019998088409298 0.070391624111268161 -0.0090631728010919198 0.0084980282694035805 -0.018070560113091615 0.044423678637271466 0.0085067599908614459 0.014028492430666513 0.015897380526642177 -0.0001019877123866819 0.048268444097285812 0.011649380827807471 0.054270210792353328 0.035875325016763639 0.081440528047101918 0.027936590377000671 -0.0064526033240573811 -0.041451993670878262 -0.012134032621219377 -0.018259691282525265 0.074460470271005816 0.015168922985205842 -0.032657812112808444 -0.018522705905223907 0.057490684834833133 0.0092982173420530622 0.045817909968967022 -0.01126376358890247 0.037574936990956126 0.036090162908241789 0.07234396752983932 0.035911280718603382 0.087878315578809346 -0.0065887133465644711 -0.027146154606189105 0.023264810408080674 0.054943721977307541 -0.036362347071385658 0.0053231462925014631 0.014792637818694178 0.034431824586766281 0.12821124750072962 0.085585550815149083 0.0013060724330810755 0.034163791137333303 -0.015950372639482093 0.041409555057610917 0.01798589911558595 -0.054256967770790747 0.036487368380822574 0.075319448725479576 0.053800743161870203 -0.02598919216487976 -0.015417701832043197 0.034609750716166177 0.05353344380076578
leaf_weight=739.88116304576397 183.27383604645729 732.64988096058369 550.56501334905624 474.19459004700184 416.19109739363194 45.079322531819344 132.45712535083294 73.736929178237915 943.96648044884205 545.42099839448929 671.76492096483707 11.715930908918379 225.03679300844669 50.427777603268623 62.073308303952217 64.881957069039345 121.62765124440193 81.874687403440475 73.304152205586433 52.918199971318245 294.99327649176121 13.854813575744634 7.6287347525358191 2773.3743858188391 404.58418509364128 55.230499446392059 841.46242615580559 328.57912842929363 32.609508752822876 12.418504089117048 61.346564963459969 36.928828164935112 103.4849828183651 12.293986216187475 371.05762796103954 27.004184722900391 8.9804535657167417 130.76183532178402 32.494607910513878 73.50252477824688 2068.4867010861635 622.10064716637135 23.699473395943642 13.239368811249731 17.837152361869812 62.49083910882473 209.79283362627029 4.4847180992364875 15.288722917437552 79.124639183282852 21.815658703446388 36.805965289473534 52.515501573681831 20.041445150971413 4.4813449829816809 40.443639606237411 176.63927827775478 76.937218949198723 49.672995507717133 14.750272631645201 115.90805043280125 160.43381807208061
leaf_count=4902 970 4523 2502 3089 2363 209 571 326 5605 3021 4141 63 1269 258 379 379 570 425 324 288 1249 76 36 18991 2442 344 3594 1764 185 60 276 218 459 63 1819 122 48 611 146 479 13390 3204 124 71 93 307 1022 21 73 436 117 221 253 95 25 180 786 345 269 73 578 745
internal_value=0 -0.0225308 0.0503972 -0.0322355 -0.00544423 0.031606 0.0684589 0.0750941 -0.0118178 0.00442237 -0.0247594 -0.0268951 -0.00568091 0.0428625 -0.0176216 -0.0272068 0.058616 0.0245471 0.070116 0.00901722 0.0878114 -0.00707895 0.0393439 -0.0393617 -0.0195052 -0.0409991 0.0728425 0.00767286 0.00429254 0.0577943 0.0423881 -0.0166444 0.0560423 0.0311166 0.0360087 0.0188866 0.0290517 0.0468215 0.0532886 -0.027879 -0.0264407 0.019996 0.0114536 0.00676512 0.0336351 0.0326924 0.0360564 0.0399944 0.0561376 -0.00822642 -0.00293675 0.00404265 0.0513705 0.0473133 0.00784854 0.0596324 0.0607965 0.0687905 -0.00922081 0.0222926 0.025105 0.049586
internal_weight=0 10928.7 4833.9 6969.96 3958.77 2369.1 2464.79 1519.44 2405.12 1553.65 3401.48 2692.78 1169 913.068 1236.11 2681.07 166.707 1456.04 1091.99 1110.14 427.45 443.508 746.361 3568.49 1137.23 2828.6 914.767 1057.22 728.644 945.354 100.769 708.694 177.222 595.885 383.352 39.4227 27.3166 351.36 220.599 2616.18 2141.99 860.15 238.05 196.513 41.5366 395 332.51 282.082 72.2889 183.223 150.613 98.8793 67.8042 188.104 18.3362 844.585 804.142 253.576 128.798 212.533 197.783 180.475
internal_count=91587 69027 22560 45996 23031 11766 10794 6523 14439 8592 21759 17400 6874 4346 7565 17337 779 7420 4703 6080 1820 2512 3567 24237 6965 19335 3918 5792 4028 4271 458 4359 785 2958 1882 182 149 1633 1022 16958 13869 4462 1258 1041 217 1934 1627 1369 347 1007 822 600 326 876 101 3813 3633 1131 705 1076 1003 840
is_linear=0
shrinkage=0.05


Tree=8
num_leaves=63
num_cat=0
split_feature=0 0 0 14 0 0 0 14 14 17 14 5 16 15 6 7 16 1 17 9 15 1 18 17 19 1 17 20 9 6 16 7 0 16 14 1 9 8 9 16 5 7 5 20 0 8 8 7 16 1 14 7 8 13 7 18 9 1 0 14 17 16
split_gain=6393.4 680.534 574.432 143.285 90.555 65.7414 62.0866 33.3581 31.6006 29.5463 22.2785 21.7673 20.325 18.5746 18.2683 17.3832 16.714 16.2473 15.2507 14.6753 14.0752 13.4334 13.1011 13.0595 12.3468 12.3523 11.8788 11.6008 10.72 10.3785 9.54012 13.9539 10.6464 9.46447 9.36214 9.35091 11.6247 9.16914 12.1443 8.90548 8.88173 8.86866 8.76111 8.66571 8.6629 11.5925 8.54075 8.44067 8.43374 10.9667 9.83842 9.34394 8.41744 9.78089 12.1141 8.41718 8.32709 8.26283 8.13933 12.0814 10.9665 8.12724
threshold=42.500000000000007 22.500000000000004 73.500000000000014 1.5000000000000002 32.500000000000007 57.500000000000007 94.500000000000014 1.5000000000000002 3.5000000000000004 15.500000000000002 3.5000000000000004 866.99500000000012 16.500000000000004 1.0000000180025095e-35 0.34500000000000003 7.3350000000000009 20.500000000000004 7.5000000000000009 24.500000000000004 108.24000000000001 1.5000000000000002 15.500000000000002 46.500000000000007 24.500000000000004 43.500000000000007 8.5000000000000018 14.500000000000002 20.500000000000004 51892.660000000011 0.40500000000000008 17.500000000000004 16.895000000000003 35.500000000000007 16.500000000000004 12.500000000000002 1.5000000000000002 345.57500000000005 47.620000000000012 51892.660000000011 15.500000000000002 994.31000000000006 40.220000000000006 288.64500000000004 26.500000000000004 43.500000000000007 33.645000000000003 27.605000000000004 17.375000000000004 16.500000000000004 3.5000000000000004 4.5000000000000009 23.595000000000002 38.07500000000001 7.5000000000000009 16.205000000000002 65.500000000000014 119998.02500000001 7.5000000000000009 67.500000000000014 2.5000000000000004 34.500000000000007 26.500000000000004
decision_type=2 2 2 2 2 2 2 2 2 2 2 2 2 2 2 2 2 2 2 2 2 2 2 2 2 2 2 2 2 2 2 2 2 2 2 2 2 2 2 2 2 2 2 2 2 2 2 2 2 2 2 2 2 2 2 2 2 2 2 2 2 2
left_child=1 3 5 19 8 18 41 21 13 24 11 14 -10 22 35 17 26 -7 44 -1 30 -8 -3 -17 57 -26 -9 -21 33 -12 31 -11 -33 -25 48 -5 -37 38 -18 40 -34 -4 -38 56 45 -2 -14 -15 50 -50 -20 52 -52 54 -54 -51 -43 -6 59 60 -35 -40
right_child=2 4 6 10 9 15 7 16 12 20 29 -13 46 47 -16 23 37 -19 34 27 -22 -23 -24 28 25 -27 -28 -29 -30 -31 -32 32 39 58 -36 36 42 -39 61 -41 -42 43 -44 -45 -46 -47 -48 -49 49 55 51 -53 53 -55 -56 -57 -58 -59 -60 -61 -62 -63
leaf_value=-0.029007936630340445 -0.014191678616362112 -0.023774124133251282 0.055520375926563295 -0.033386466885183541 -0.0046890558343772974 0.079699913027704933 0.094843921270671788 -0.022039086988025404 -0.0086559588984364711 0.0092075542316487069 -0.016391410288239285 0.041259685752208813 0.00077092511630411065 0.0149593163134162 -9.6897071410995502e-05 0.026528461834595549 0.095910835060662919 0.045025217147389794 0.00085241133123824676 -0.039600239393132057 0.033452962359358726 0.075875828799080725 -0.012950857545564066 0.032257721480550075 0.00087777604621537553 0.054519260440809181 0.05589749001773358 0.062602778894569902 0.019910237700797528 0.072707715131847969 0.014298639829492466 -0.022358761051529192 -0.016267646959535711 0.029594641113728198 0.065334047796996295 -0.0052581388217312766 -0.027441749110013576 0.071314828617306592 0.045678072089045327 0.0096757889874402592 0.056744977192732748 0.033304031055956008 -0.017387785653669156 0.055136806348474711 0.020152880801660739 0.034749968382008924 0.021030482026146227 -0.015296958318826874 0.067892064129469326 -0.027089156286048955 0.092431274472213415 0.078772298746824912 0.037347969428575704 -0.014716311991092823 0.0096060439626061145 0.031915335179218123 -0.027164361178780794 -0.020150965242128626 0.059414540292226585 0.045231689492452876 -0.07155854725777816 0.07384780368042064
leaf_weight=372.63299828767776 41.156081765890121 602.46064211428165 861.52954925596714 464.09297589957714 258.39944519102573 46.459830403327942 135.41822741925716 4.9837714582681647 939.08382196724415 470.14161342382431 698.41768914461136 11.976616635918615 144.91329284012318 62.652115285396576 64.878241196274757 219.52011188864708 18.475876852869987 123.81034903228283 48.859867334365845 3103.3325318992138 53.886558920145035 300.41269390285015 521.72588869929314 137.41276702284813 38.708921536803246 14.849085837602614 257.35220271348953 2.7790138125419608 54.189033687114716 3.2837252318859091 331.08266688883305 67.233375638723373 74.39400041103363 7.3908102512359601 17.371459379792213 68.315472975373268 1792.2520876675844 693.50023746490479 102.44409154355526 114.08388657867908 4.412294700741767 46.360172986984253 246.48249886929989 48.556556567549706 809.95318841934204 17.137424170970917 81.152735590934753 36.46804615855217 21.22528275847435 6.1606510281562796 4.3458309322595587 8.0347809344530088 94.039203196763992 16.461303398013115 67.66650977730751 319.66654136776924 6.4905610978603354 129.81410939991474 104.65226694941521 230.19718326628208 4.2033625692129135 34.136591359972954
leaf_count=2439 222 3783 3812 3089 1501 209 569 24 5605 2596 4340 63 824 379 379 1079 79 570 254 21781 288 1250 3182 640 219 80 1108 17 255 19 1764 383 406 35 81 447 11859 2906 441 620 23 214 1563 215 4150 90 445 221 102 32 22 39 467 82 331 1548 30 712 471 1067 20 146
internal_value=0 -0.0217247 0.0471165 -0.0312767 -0.00519289 0.0296271 0.0638412 0.0700464 -0.0113088 0.00418901 -0.0238957 -0.0259948 -0.00541585 -0.0169217 -0.0263003 0.0400508 0.0654471 0.0544865 0.0230571 -0.038384 0.00852404 0.0817695 -0.0187511 0.0368062 -0.0067546 0.01575 0.0544169 -0.0395088 0.0409994 -0.0159745 0.00725836 0.00406648 -0.00522538 0.0433613 0.0291597 -0.0269615 -0.0255464 0.0688572 0.0578653 0.0007466 -0.0121797 0.0538741 -0.0262262 0.0398879 0.018813 0.000196438 0.00804366 0.0038275 0.0280882 0.0330682 0.020869 0.0260016 0.0236785 0.0220014 0.0257392 0.0307997 0.025878 -0.00985934 0.0477654 0.0427234 -0.00707753 0.0527187
internal_weight=0 10773.9 4909.57 6828.44 3945.46 2399.91 2509.66 1546.72 2388.46 1557.01 3349.7 2648 1165.15 1223.31 2636.02 927.836 1110.89 170.27 1472.08 3478.74 1115.23 435.831 1124.19 757.566 441.772 53.558 262.336 3106.11 538.045 701.701 1061.35 730.265 260.124 483.856 603.831 2571.14 2107.05 848.557 155.057 192.89 78.8063 962.937 2038.73 101.407 868.247 58.2935 226.066 99.1202 586.46 347.052 239.407 190.548 182.513 178.167 161.706 325.827 52.8507 388.214 346.444 241.791 11.5942 136.581
internal_count=91587 69027 22560 45996 23031 11766 10794 6523 14439 8592 21759 17400 6874 7565 17337 4346 4704 779 7420 24237 6080 1819 6965 3567 2512 299 1132 21798 2488 4359 5792 4028 1432 2233 2958 16958 13869 3572 666 1049 429 4271 13422 459 4462 312 1269 600 2877 1682 1195 941 902 880 798 1580 244 2213 1593 1122 55 587
is_linear=0
shrinkage=0.05


Tree=9
num_leaves=63
num_cat=0
split_feature=6 3 17 12 14 1 14 14 18 12 17 14 12 17 18 7 12 19 3 14 12 17 6 13 1 16 8 1 18 16 3 16 18 16 12 14 11 19 13 13 14 14 8 7 16 12 20 14 16 12 19 7 17 12 14 16 19 7 7 16 13 2
split_gain=4004.71 917.22 489.458 360.029 178.408 170.431 86.1273 74.4482 111.491 65.9491 54.2429 40.9414 33.7094 33.1521 31.3293 26.7037 41.5488 25.0205 24.7387 22.2004 17.9975 17.5016 16.7083 15.7153 15.1391 14.9532 23.8761 17.1784 14.7999 14.6852 14.5984 12.4184 11.9877 11.8225 15.0184 11.7726 12.3023 11.6077 11.3581 11.0492 10.8905 10.3721 12.9472 10.776 10.4441 9.98978 9.97967 9.96708 9.58835 9.51845 16.063 12.2384 9.4836 21.0214 13.2818 9.31629 9.38629 9.23399 11.6466 9.08538 12.7964 9.07302
threshold=0.065000000000000016 5.5000000000000009 16.500000000000004 42.500000000000007 1.5000000000000002 13.500000000000002 5.5000000000000009 5.5000000000000009 1.0000000180025095e-35 27.500000000000004 30.500000000000004 3.5000000000000004 23.500000000000004 28.500000000000004 44.500000000000007 15.845000000000001 27.500000000000004 38.500000000000007 2.5000000000000004 1.5000000000000002 26.500000000000004 21.500000000000004 0.34500000000000003 1.5000000000000002 7.5000000000000009 16.500000000000004 36.695000000000007 4.5000000000000009 5.5000000000000009 17.500000000000004 9.5000000000000018 14.500000000000002 37.500000000000007 14.500000000000002 54.500000000000007 9.5000000000000018 679.92000000000007 90.500000000000014 1.5000000000000002 7.5000000000000009 1.0000000180025095e-35 10.500000000000002 26.825000000000003 30.010000000000002 14.500000000000002 3.5000000000000004 15.500000000000002 29.500000000000004 21.500000000000004 12.500000000000002 20.500000000000004 9.1750000000000025 47.500000000000007 23.500000000000004 3.5000000000000004 18.500000000000004 155.50000000000003 6.9850000000000003 6.8650000000000011 19.500000000000004 6.5000000000000009 1.5000000000000002
decision_type=2 2 2 2 2 2 2 2 2 2 2 2 2 2 2 2 2 2 2 2 2 2 2 2 2 2 2 2 2 2 2 2 2 2 2 2 2 2 2 2 2 2 2 2 2 2 2 2 2 2 2 2 2 2 2 2 2 2 2 2 2 2
left_child=1 3 4 7 28 10 19 8 18 14 15 22 -8 41 -10 46 -17 -9 61 -4 24 31 -6 47 -21 37 39 -28 -2 -16 -7 -18 57 34 -14 36 -23 -19 -33 -27 45 42 48 -44 -45 -30 -3 -15 -5 -34 51 -51 53 -32 -55 56 -56 58 -13 60 -54 -1
right_child=2 5 6 13 11 30 12 17 9 -11 -12 32 33 23 29 16 21 25 -20 20 -22 35 -24 -25 -26 26 27 -29 40 -31 52 38 49 -35 -36 -37 -38 -39 -40 -41 -42 -43 43 44 -46 -47 -48 -49 -50 50 -52 -53 59 54 55 -57 -58 -59 -60 -61 -62 -63
leaf_value=0.019223228171175527 -0.018767528411391222 0.027763873884891817 -0.024129400129992151 -0.019864336445121873 -0.025750482114162667 0.053681140651699724 -0.00037193192868220713 -0.0036494776208970611 -0.025789241413242282 0.008342621355446278 0.049493111653441599 -0.0085155491116563932 0.020215544752845371 0.035429290358751787 -0.012096600268598504 -0.0082090797456584111 -0.019411856075544187 0.0099471744150606608 0.025636888618087945 -0.0076069840884950626 0.010082147393600678 0.075384896394645726 0.00014053956566212022 0.055676836660976205 0.040550252588164172 0.013912826036882601 0.063267139946185269 0.029592421217683171 -0.041503110238775509 0.0010944680373166935 0.071013513637895584 0.007171939670434716 -0.033509651829929557 0.044120699344363405 0.084332545502762174 0.049898777984869636 0.026992779101217335 0.061802907246027119 0.036581076406398787 0.03918514117428791 -0.041056039599609524 0.042876922657867765 0.018526630176910291 -0.024502522985342657 0.047699924120244125 -0.032130819331210064 0.045835721281355962 0.084454998331270015 0.029584444717177097 0.11945500381843766 -0.0051772406629816267 0.021445244880058778 0.0045676283304987445 0.017022110807813583 0.041304736656438433 0.058092938542655542 -0.032084647377716373 -0.019515627352031863 0.069525644695139666 0.072521309112659887 0.076685310885229258 -0.0004251634503439634
leaf_weight=87.687965855002403 97.880481034517288 107.78392554819584 136.49544852972031 27.063123375177383 2575.9392781257629 440.19978739321232 127.44035337865353 124.05729635059834 317.19899268448353 566.6602670699358 561.96254853904247 160.06185953319073 192.70942571759224 193.89638321101665 621.58623339235783 88.136165544390678 22.584126889705658 295.76048432290554 410.65989696979523 674.35263518989086 216.39426018297672 13.854811534285544 63.857218325138092 330.44995068013668 16.724605798721313 270.54861035943031 57.869759038090706 109.59242296218872 414.22230887413025 319.40928500890732 258.02659100294113 71.32955539226532 25.88375686109066 102.16285386681557 9.5874350517988187 96.499018952250481 252.23390421271324 11.200451269745825 60.827533677220345 51.478514090180397 1788.9787390232086 91.690084561705589 110.21902112662792 5.3763589709997168 73.204448223114014 906.59753593802452 262.29797029495239 10.952786251902578 15.371436908841131 4.1079836338758495 236.46407912671566 14.177864566445349 12.123905077576639 25.411673605442047 27.70439225435257 247.57118184864521 5.1698044240474692 610.74481506645679 4.9279051274061194 373.49955016374588 12.48537866771221 178.06155011057854
leaf_count=473 656 515 892 134 17267 1881 718 697 2072 3035 2455 999 965 876 3781 503 117 1536 2042 4053 1173 70 373 1429 98 1398 277 522 2966 1846 1067 371 162 503 42 435 1216 53 305 256 12881 417 525 26 341 6537 1175 47 74 25 1426 86 51 115 122 1041 22 3821 31 1536 52 1007
internal_value=0 0.0271125 -0.0236959 0.0123426 -0.029283 0.0486164 0.00243987 0.00508003 0.000605932 -0.00582095 0.0371193 -0.0217953 0.0212187 0.0412989 -0.0121999 0.0299914 0.0235239 0.0172373 0.0179447 -0.00532913 -0.00250133 0.0289302 -0.0251242 0.0489316 -0.00644154 0.0204907 0.0259161 0.0412294 -0.0379111 -0.00761906 0.061223 0.0148526 -0.0134766 0.0302561 0.0232542 0.0349381 0.0295125 0.0118393 0.020708 0.0179528 -0.0385136 0.0286465 0.0230038 0.0286128 0.04276 -0.0350701 0.0405724 0.0380506 -0.00195208 -0.00462104 -0.00168583 0.0434635 0.0646741 0.0605028 0.0516357 0.0547721 0.0297635 -0.0166803 -0.00618462 0.0705825 0.0411561 0.00605811
internal_weight=0 7219.7 8379.71 4280 6903.84 2939.7 1475.87 3421.77 2501.26 1824.85 1537.51 3696.16 431.9 858.224 1258.19 975.547 605.465 920.508 676.409 1043.97 907.472 517.329 2639.8 535.299 691.077 796.45 489.489 167.462 3207.68 940.996 1402.19 154.741 1056.37 304.46 202.297 362.588 266.089 306.961 132.157 322.027 3109.8 322.924 231.234 188.8 78.5808 1320.82 370.082 204.849 42.4346 280.634 254.75 18.2858 961.992 563.884 305.857 280.445 32.8742 775.735 164.99 398.109 24.6093 265.75
internal_count=91587 35913 55674 22864 47230 13049 8444 18995 14256 10734 7162 24190 2228 3869 7699 4707 3017 4739 3522 6216 5324 2514 17640 2352 4151 4042 2453 799 23040 5627 5887 793 6550 1510 1007 1721 1286 1589 676 1654 22384 1517 1100 892 367 9503 1690 923 208 1699 1537 111 4006 2367 1300 1185 144 4851 1030 1639 103 1480
is_linear=0
shrinkage=0.05


Tree=10
num_leaves=63
num_cat=0
split_feature=0 0 0 14 10 0 0 11 0 18 6 14 19 17 14 7 1 16 0 12 17 1 19 11 2 14 13 14 3 17 20 19 17 10 0 5 0 16 5 7 19 9 17 11 7 19 7 14 16 17 18 18 16 13 16 5 17 15 7 11 1 0
split_gain=5214.36 596.889 461.933 117.878 88.6269 51.9257 51.4251 29.8907 28.8552 20.6857 18.2901 18.1478 17.9199 15.7421 15.7291 15.3877 18.6793 14.0073 12.9524 14.9935 12.8111 12.5457 11.6325 11.61 11.141 10.68 10.0478 10.2695 14.6434 10.0282 10.0138 13.1849 9.83961 11.4804 12.3085 9.33161 9.35261 9.05723 9.04155 12.1707 8.75508 8.67496 10.7824 8.5834 10.4209 8.40603 8.36333 16.9978 8.36291 11.68 9.49129 8.18347 8.16959 8.16895 9.67998 8.11593 7.84077 7.71962 8.22616 7.6014 10.1579 7.55391
threshold=42.500000000000007 21.500000000000004 73.500000000000014 1.5000000000000002 0.15500000000000003 59.500000000000007 94.500000000000014 656.30000000000007 35.500000000000007 37.500000000000007 0.39000000000000007 3.5000000000000004 43.500000000000007 25.500000000000004 3.5000000000000004 7.3350000000000009 7.5000000000000009 5.5000000000000009 26.500000000000004 19.500000000000004 36.500000000000007 15.500000000000002 63.500000000000007 340.18000000000006 13.500000000000002 1.5000000000000002 1.0000000180025095e-35 10.500000000000002 2.5000000000000004 31.500000000000004 11.500000000000002 56.500000000000007 29.500000000000004 0.43500000000000005 69.500000000000014 1588.0500000000004 58.500000000000007 10.500000000000002 658.3950000000001 13.555000000000001 39.500000000000007 69627.920000000013 18.500000000000004 6734.4650000000011 47.365000000000002 52.500000000000007 7.5650000000000004 4.5000000000000009 13.500000000000002 10.500000000000002 57.500000000000007 99.500000000000014 20.500000000000004 6.5000000000000009 12.500000000000002 544.98000000000013 48.500000000000007 1.5000000000000002 8.8050000000000015 22.685000000000006 1.5000000000000002 95.500000000000014
decision_type=2 2 2 2 2 2 2 2 2 2 2 2 2 2 2 2 2 2 2 2 2 2 2 2 2 2 2 2 2 2 2 2 2 2 2 2 2 2 2 2 2 2 2 2 2 2 2 2 2 2 2 2 2 2 2 2 2 2 2 2 2 2
left_child=1 3 5 17 9 13 43 21 14 57 11 12 59 -2 24 16 -7 -1 19 46 41 -8 -16 -19 -6 -10 27 -15 -29 -30 31 38 -17 34 -34 36 53 -22 39 -27 55 52 -43 -4 -45 -41 47 -11 -20 -50 -51 -33 -9 -28 -55 -32 -35 58 -3 -5 -61 -23
right_child=2 4 6 10 8 15 7 20 25 18 -12 -13 -14 26 22 32 -18 23 48 -21 37 61 -24 -25 -26 30 35 28 29 -31 40 51 33 56 -36 -37 -38 -39 -40 45 -42 42 -44 44 -46 -47 -48 -49 49 50 -52 -53 -54 54 -56 -57 -58 -59 -60 60 -62 -63
leaf_value=-0.029923798294922251 0.017252271595531481 -0.013468842815646418 0.048158709985538312 -0.017279663881957921 -0.010527881428831789 0.078352177354356456 0.085497481039865403 0.041554437014450399 -0.018366276422393416 -0.012873598734096004 0.0047400391082374942 -0.015181460336021191 0.016670275399673126 0.016277990421580978 0.0040595316032470616 0.026968061840113324 0.040014376760566857 -0.038693346719108436 -0.010027065493815081 -0.026831950196225265 -0.0078032135960499783 0.017064114968357604 -0.030381966063089488 -0.011918369504181476 0.070183882866988664 0.02735824783265707 0.035916189475333156 -0.017923855884310683 0.038821869311417012 0.11931928670304925 0.069531946863298361 -0.013356194834684901 0.040992045936539441 0.023263814936359463 0.073913783147012968 -0.019426859523632697 0.070689752631272154 0.060456413807478453 0.025258903303263781 0.003939619055127826 0.016368744514946312 -0.034000577355847252 0.040407574451620902 -0.038389378400531027 0.042427177294459939 -0.044714991985703202 -0.010128676393101225 0.08880255907613821 -0.024495774717169971 0.0054330599570599726 -0.023851825363672124 0.0182280180166987 0.075153837165948215 -0.036516434714468256 0.023257070614215523 0.00062577400560523248 0.065039062997387154 0.014635002682688931 -0.022177477273986473 -0.035153640282985808 -0.025319522118511219 0.068617604665556525
leaf_weight=619.63700745999813 1032.2620542943478 557.12365934252739 972.82317289710045 235.06596884131432 463.22822341322899 43.149569228291512 139.0836768746376 34.431659653782845 32.396522611379623 11.007901191711428 58.64584082365036 538.46835741400719 25.0970389097929 217.717748016119 555.0996181666851 334.12332712113857 120.49781055748463 2600.8914074450731 300.84791480004787 154.81537558138371 4.884720340371131 7.2781032770872107 25.648636341094971 41.126993060112 4.3153650760650626 59.527008876204491 271.71171480417252 5.4006161391735104 8.0136367529630643 7.4807056933641425 15.13622558116913 101.54852059483528 164.46694415807724 113.69526782631874 34.314383789896965 8.377479210495947 16.524468570947647 948.06003697216511 92.05728417634964 217.02668346464634 222.13737858831882 5.099973037838935 107.37071289122105 6.3459612131118801 10.738865017890928 9.2559483945369703 414.25526449084282 6.5601240098476401 41.636645510792732 379.79298977553844 29.842041015625 25.698768734931946 38.122583001852036 7.7201020568609229 55.225388243794441 5.9543208330869666 12.463361352682112 18.768614038825035 528.30967450141907 307.68960022926331 1791.3770156949759 299.63871452212334
leaf_count=4363 5185 3310 4196 1604 2788 188 571 147 176 68 339 3424 145 1037 3149 1573 540 19264 1803 994 21 30 143 268 22 318 1290 25 37 34 83 538 730 509 146 39 75 3897 487 1174 1168 24 455 28 47 50 2583 39 256 2264 175 135 159 39 263 32 56 117 3412 2124 12212 1219
internal_value=0 -0.0202496 0.0416848 -0.0301355 -0.00586027 0.0261596 0.0564817 0.0620689 0.00246284 -0.0120917 -0.0229045 -0.023464 -0.0253543 0.0209922 -0.00295696 0.0364003 0.0501231 -0.0366897 -0.00791323 -0.0134819 0.0577689 0.0730403 0.00253843 -0.0382766 -0.00978292 0.00973996 0.0274463 0.0194914 0.0529744 0.0776862 0.0109567 0.00694314 0.0329929 0.039188 0.0466751 0.0327253 0.0339694 0.0601065 0.0116309 0.00724145 0.0192917 0.0457292 0.0370335 0.0475417 0.0124088 0.00194943 -0.00869572 0.0250936 -0.00356977 0.000735098 0.00329965 -0.00697747 0.0592088 0.0321562 0.015926 0.0500782 0.0273908 -0.0171578 -0.0177076 -0.0258062 -0.026761 0.0673951
internal_weight=0 10490 5027.02 6218 4271.99 2453.14 2573.88 1583.97 1829.03 2442.96 2956.34 2897.7 2359.23 1630.43 1048.29 822.711 163.647 3261.66 1338.76 586.639 1137.97 446 580.748 2642.02 467.544 780.739 598.172 238.613 20.895 15.4943 748.342 505.114 659.063 324.94 198.781 359.559 351.182 952.945 377.867 285.81 243.228 185.025 112.471 989.908 17.0848 226.283 431.823 17.568 752.12 451.272 409.635 127.247 72.5542 334.657 62.9455 21.0905 126.159 1104.2 1085.43 2334.13 2099.07 306.917
internal_count=91587 69027 22560 43743 25284 11766 10794 6523 10263 15021 19848 19509 16085 8024 6102 3742 728 23895 8182 3684 4703 1820 3292 19532 2810 4161 2839 1133 96 71 3985 2702 3014 1441 876 1706 1667 3918 2029 1542 1283 785 479 4271 75 1224 2690 107 4498 2695 2439 673 306 1592 302 115 565 6839 6722 15940 14336 1249
is_linear=0
shrinkage=0.05


Tree=11
num_leaves=63
num_cat=0
split_feature=6 3 5 12 1 12 12 12 12 18 17 17 7 12 16 15 3 15 8 19 16 8 17 6 8 10 16 9 13 8 3 8 8 16 16 7 7 7 13 6 5 19 13 19 1 19 13 5 16 7 15 3 13 15 3 16 5 3 16 16 17 12
split_gain=3289.3 725.677 430.076 282.49 137.917 72.3871 53.2473 91.8524 47.1761 45.0596 42.3346 26.6398 20.5337 33.74 20.4481 19.2105 19.2011 18.5395 16.1849 16.1483 15.8031 16.8105 14.3958 13.4872 13.2246 13.2017 13.1112 13.8601 13.0823 12.9598 12.7814 12.7072 12.2993 11.0087 10.7367 11.1327 12.5087 11.6131 10.404 10.3176 12.499 9.89402 9.57303 9.43754 10.0202 9.23932 9.21626 9.18271 10.2601 9.26375 9.16142 9.06088 8.92968 8.69899 9.15813 8.61677 8.36946 8.33954 8.26652 8.18065 8.14756 10.4858
threshold=0.065000000000000016 5.5000000000000009 314.96500000000009 42.500000000000007 13.500000000000002 27.500000000000004 29.500000000000004 1.0000000180025095e-35 12.500000000000002 44.500000000000007 30.500000000000004 28.500000000000004 15.845000000000001 27.500000000000004 15.500000000000002 1.5000000000000002 1.5000000000000002 1.0000000180025095e-35 27.355000000000004 84.500000000000014 13.500000000000002 40.475000000000001 21.500000000000004 0.46500000000000002 45.685000000000009 0.10500000000000002 16.500000000000004 9662.5350000000017 1.5000000000000002 28.825000000000003 9.5000000000000018 46.130000000000003 22.865000000000006 14.500000000000002 10.500000000000002 13.555000000000001 15.010000000000002 9.7650000000000023 1.0000000180025095e-35 0.075000000000000025 638.7650000000001 22.500000000000004 1.5000000000000002 56.500000000000007 6.5000000000000009 6.5000000000000009 5.5000000000000009 994.31000000000006 12.500000000000002 7.0100000000000007 1.5000000000000002 3.5000000000000004 1.0000000180025095e-35 2.5000000000000004 9.5000000000000018 13.500000000000002 461.32500000000005 1.5000000000000002 17.500000000000004 16.500000000000004 63.500000000000007 23.500000000000004
decision_type=2 2 2 2 2 2 2 2 2 2 2 2 2 2 2 2 2 2 2 2 2 2 2 2 2 2 2 2 2 2 2 2 2 2 2 2 2 2 2 2 2 2 2 2 2 2 2 2 2 2 2 2 2 2 2 2 2 2 2 2 2 2
left_child=1 3 8 6 10 17 7 16 23 -9 12 -5 -3 -14 -11 29 -1 20 38 26 21 25 33 32 34 -4 50 -28 -13 46 -6 -26 57 -15 -7 37 -37 -36 41 -22 -41 -16 -35 -40 -45 -34 -10 48 49 -33 -8 -18 -31 55 -55 -12 -20 -2 -30 -38 61 -32
right_child=2 4 5 11 30 24 19 9 15 14 53 28 13 22 18 -17 51 -19 56 -21 39 -23 -24 -25 31 -27 27 -29 58 52 60 47 45 42 35 36 59 -39 43 40 -42 -43 -44 44 -46 -47 -48 -49 -50 -51 -52 -53 -54 54 -56 -57 -58 -59 -60 -61 -62 -63
leaf_value=-0.0036572566935020329 -0.034844342195226918 0.035734690000015605 0.083727520445141312 0.025083370226674062 0.047305370939706416 -0.047769020688166165 0.0027519492341488154 -0.022060843490038763 -0.02457189996949289 -0.0099107195754243784 0.097180244122074752 0.033253078876749539 -0.0077992351440060491 -0.019328588159493117 0.062816021103773143 0.030011005532302504 0.013929860928125318 0.014115978676937029 0.054023052117928121 0.039942365502192705 -0.0081966663820300951 -0.003318445283165228 0.031070010712865331 -0.017228818315352654 0.10392093002109218 -0.020037523777334563 -0.024190433577171259 0.018619518974004264 0.035981457753405409 -0.017892313499989338 0.062997452942413587 0.073755081771044631 0.037359513285481476 0.0060124961757277596 -0.054018418440100184 -0.0096461088648287993 0.013299929595341809 0.030849484963497105 0.0036941520019402084 0.0048267343807026457 0.076233668943452765 -0.0096071007786345669 0.032770854723209536 0.002128447390606769 0.11824689114932758 -0.026758261015441837 0.0013257593717100648 0.044187847341680464 0.027675834490225468 0.0025782716411257844 0.038629107116072842 0.026500687890773717 -0.00070231199083867928 0.071953194908050952 0.026976606483318857 0.040704679449370895 0.0089670042972822377 -0.029938287439226597 0.053779724302663236 0.085249045774945631 0.065709479354140191 0.050604108095215095
leaf_weight=103.16570936143398 1846.391754463315 377.65701958537102 3.0892291516065589 329.62885321676731 449.6920395642519 8.6210275292396528 312.66573974490166 330.7253303527832 1235.2938773930073 487.84384216368198 6.8453675359487525 209.65757332742214 87.671939626336098 22.545368894934654 4.7852673232555381 18.380536168813705 308.82984629273415 105.68186502158642 10.577739298343657 58.057074218988419 228.05357874929905 284.40483815968037 370.72189079225063 182.29507417976856 4.913610875606536 395.27006524801254 19.551226377487183 573.62158034741879 88.209869369864464 296.28844371438026 263.10769237577915 4.8169506639242163 5.648247852921485 72.042414128780365 4.3115509599447241 80.419218823313713 12.366108402609827 61.920559093356133 198.69285382330418 227.59354673326015 6.297775223851203 325.00236378610134 62.355534896254539 3.6596570760011664 3.7735791951417923 1068.1417625397444 35.336445912718773 42.344772800803185 135.36714218556881 89.678581297397614 18.867455303668976 267.51236815750599 101.404555529356 47.497360065579414 14.858788967132567 506.19764798879623 402.6505968272686 1631.657163888216 250.52271154522896 5.8054481893777838 230.43586477637291 485.80161347985268
leaf_count=587 13599 1690 20 1517 1881 49 1612 2209 8475 2930 30 923 503 117 30 116 1625 615 62 273 1371 1685 1721 1260 25 2488 102 2852 376 1994 1070 24 41 371 24 425 65 333 1141 1388 34 1936 305 20 20 7587 224 190 663 453 93 1284 645 200 62 2163 2219 11852 1053 29 931 2005
internal_value=0 0.0241555 -0.0220844 0.0110107 0.0430477 0.000270189 0.00453269 0.000584839 -0.0280063 -0.00542096 0.0328101 0.0363169 0.0265569 0.0209241 -0.00159125 -0.0208262 0.0162087 -0.00592151 0.00268482 0.0143634 -0.00777141 -0.0126037 0.0256965 -0.0305645 0.0174532 -0.0192328 0.0127574 0.0172085 0.0430692 -0.0213862 0.0542836 0.02423 -0.0310986 0.0130036 0.00662543 0.00947052 -0.00118018 0.0253248 -0.0030485 -0.000629172 0.00674944 -0.00855623 0.0184274 0.00576349 0.0610775 -0.026421 -0.0238517 0.0227915 0.0188499 0.00620654 0.00479371 0.0197647 -0.0135092 0.0436015 0.0612358 0.0414582 0.0101203 -0.0325428 0.0491449 0.0362862 0.0574879 0.0549582
internal_weight=0 7305.43 8121.79 4308 2997.43 1700.96 3429.98 2447.22 6420.84 1767.71 1568.39 878.019 992.994 615.337 1436.99 1686.7 679.508 1250.39 949.142 982.763 1144.71 682.764 527.665 4734.13 450.565 398.359 924.706 593.173 548.39 1668.32 1429.04 277.121 4551.84 156.943 173.444 164.823 98.5908 66.2321 535.914 461.945 233.891 329.788 134.398 206.126 7.43324 1073.79 1270.63 272.207 229.863 94.4955 331.533 576.342 397.693 575.399 62.3561 513.043 413.228 3478.05 338.733 18.1716 979.345 748.909
internal_count=91587 35913 55674 22864 13049 9881 18995 14063 45793 10567 7162 3869 4707 3017 8358 11454 3496 7601 5428 4932 6986 4193 2514 34339 2280 2508 4659 2954 2352 11338 5887 1355 33079 793 925 876 519 357 3147 2793 1422 1966 676 1181 40 7628 8699 1330 1140 477 1705 2909 2639 2455 262 2193 2281 25451 1429 94 4006 3075
is_linear=0
shrinkage=0.05


Tree=12
num_leaves=63
num_cat=0
split_feature=0 0 0 14 10 0 0 11 14 18 6 14 11 2 7 3 7 17 20 16 0 12 20 11 12 19 20 4 20 14 13 14 16 17 15 11 16 14 14 5 12 5 3 18 3 14 7 3 4 14 5 16 17 7 3 0 12 0 14 5 0 0
split_gain=4278.3 522.798 380.523 115.456 74.4479 44.01 41.4037 27.1248 24.1146 19.1993 17.1212 17.1936 15.9637 14.7211 13.8149 18.4629 13.4768 12.3073 12.0036 11.4871 11.3998 14.0893 11.1666 10.8252 10.5972 10.3287 13.3543 9.6605 9.02921 8.96429 10.3121 8.78536 8.45632 8.28698 8.23197 8.19005 11.4143 9.02312 8.13283 8.06785 8.02514 9.23936 13.3086 11.1562 8.02009 8.00722 11.7165 9.66067 10.962 8.81775 11.1403 8.70746 8.44855 8.50183 8.87192 7.99719 7.96961 7.92161 7.82252 7.79912 7.73653 8.99515
threshold=42.500000000000007 21.500000000000004 73.500000000000014 1.5000000000000002 0.15500000000000003 94.500000000000014 59.500000000000007 692.45000000000016 3.5000000000000004 37.500000000000007 0.39000000000000007 3.5000000000000004 692.45000000000016 14.500000000000002 7.3350000000000009 2.5000000000000004 3.4850000000000008 25.500000000000004 30.500000000000004 20.500000000000004 26.500000000000004 19.500000000000004 11.500000000000002 340.18000000000006 32.500000000000007 43.500000000000007 18.500000000000004 89.500000000000014 16.500000000000004 12.500000000000002 1.0000000180025095e-35 1.0000000180025095e-35 24.500000000000004 17.500000000000004 1.0000000180025095e-35 3940.2300000000005 21.500000000000004 5.5000000000000009 11.500000000000002 1588.0500000000004 27.500000000000004 539.17000000000019 4.5000000000000009 59.500000000000007 2.5000000000000004 5.5000000000000009 21.255000000000006 1.5000000000000002 147.50000000000003 6.5000000000000009 549.5100000000001 19.500000000000004 15.500000000000002 11.515000000000002 4.5000000000000009 5.5000000000000009 47.500000000000007 92.500000000000014 7.5000000000000009 461.32500000000005 85.500000000000014 87.500000000000014
decision_type=2 2 2 2 2 2 2 2 2 2 2 2 2 2 2 2 2 2 2 2 2 2 2 2 2 2 2 2 2 2 2 2 2 2 2 2 2 2 2 2 2 2 2 2 2 2 2 2 2 2 2 2 2 2 2 2 2 2 2 2 2 2
left_child=1 3 6 16 9 35 17 18 13 -3 11 12 -5 24 15 -8 -1 -2 -7 33 21 27 45 31 59 -26 44 34 -17 30 -19 55 40 -9 -11 57 37 -37 -21 56 -24 43 -43 -42 -27 51 47 58 49 52 -51 -10 -49 -54 -55 -18 -32 60 -47 -6 -4 -62
right_child=2 4 5 10 8 7 14 19 22 20 -12 -13 -14 -15 -16 28 23 29 -20 38 -22 -23 32 -25 25 26 -28 -29 -30 -31 39 -33 -34 -35 -36 36 -38 -39 -40 -41 41 42 -44 -45 -46 46 -48 48 -50 50 -52 -53 53 54 -56 -57 -58 -59 -60 -61 61 -63
leaf_value=-0.02871270556585236 0.015315693181673291 -0.016141701725883455 0.041677255812483563 -0.023946305505451029 0.072248003649586334 0.077848893820837747 0.085486505288096967 -0.025861601924351614 -0.0020916217165751478 -0.0077725376743174842 0.005752032625380623 -0.013533386430549618 0.022612614292970595 0.09021205427969807 0.029031251441952313 0.05517980778248114 -0.042513874175669902 0.015014936345501452 0.06039552679935304 0.045617580344099962 -0.0030993884822114151 -0.025562543811721673 0.0058524633189160121 -0.011177907863796839 0.051875848991330978 0.033355614138572458 0.037488501653778802 -0.036745355672120839 0.028940950464869053 0.057809636286064149 0.027910684468038988 -0.039514741068973271 0.089556603510633548 0.043669835302765879 0.020880339715770743 -0.050157342819685605 0.042251006493133236 0.017956398081058023 0.056961666871397046 -0.021891916635269668 0.0039518957620102947 6.7870576269767561e-06 0.033579102012454974 0.098980977648012072 -0.015230644231110497 -0.026792360717159944 -0.0080949134888410584 0.096039376580777214 -0.023255804386143025 -0.0089521522271324479 0.021728422610663892 0.021837019090335662 0.068033587005266738 0.029000105506565274 -0.013209940533313237 -0.030901048327687881 0.062737303460320054 0.022899910794781056 0.02214170108394023 -0.0092022841943452047 0.065940128091279554 0.045977721728523054
leaf_weight=663.34179909527302 1047.4106957763433 1086.3445548117161 589.52504648268223 2261.1685437560081 2.9547003209590903 145.00332447886467 24.189007669687271 4.3550396859645835 484.86140768229961 372.75743126869202 58.022176593542099 525.32828804850578 18.561766535043716 3.9943251460790625 673.02004162967205 50.837886273860931 186.6238654255867 234.61548586189747 307.26253896951675 206.12925259768963 747.73580138385296 151.24118268489838 139.61826947331429 40.716829553246498 12.256099864840506 9.9739203751087171 21.208179712295532 27.004056826233864 92.339127495884895 19.268920540809631 331.21399739384651 1507.9371689110994 3.7765003442764273 267.3313999325037 26.874534040689468 5.6196183264255515 65.422961920499802 36.071302697062492 676.58957456052303 7.7651636600494376 4.9810750782489768 53.139522284269333 66.411885321140289 8.12842048704624 57.227767780423164 24.080378174781799 76.19905287027359 4.6761633604764929 15.645652666687964 45.227165713906288 85.56336909532547 41.253257274627686 11.477164745330809 80.636958986520767 14.721456065773962 721.03952053189278 17.28407296538353 42.997858673334122 12.358494877815245 553.22407980263233 80.158146783709526 190.64964255690575
leaf_count=4864 5185 6839 2502 15982 18 587 109 21 2736 2356 339 3424 103 19 3014 219 1460 1097 1236 840 4498 994 772 269 66 53 108 168 400 85 1544 11717 19 1102 166 25 276 157 2737 36 27 276 337 43 305 131 411 27 81 244 446 221 61 427 77 5585 77 180 66 3292 336 795
internal_value=0 -0.0188599 0.0371466 -0.0283825 -0.00544098 0.05047 0.0231876 0.0556119 0.00215287 -0.0112139 -0.021132 -0.0216881 -0.0235672 -0.00548574 0.0322281 0.0450835 -0.0350366 0.018604 0.0659913 0.0515456 -0.00717557 -0.0124499 0.00645717 -0.0367444 -0.00606768 0.00886028 0.00289711 -0.00780149 0.0382576 0.0242489 0.0231545 -0.0371753 0.0152505 0.0425553 -0.00584568 0.042294 0.0292215 0.00877519 0.0543126 0.0285148 0.0142198 0.023026 0.0186565 0.0628738 -0.00801958 0.00375009 0.00937976 0.0139029 0.0173072 0.0199264 0.0111191 -0.000215349 0.0302564 0.0273771 0.0224837 -0.0332888 0.0296379 0.0438441 -0.010196 -0.00876958 0.0448908 0.0518865
internal_weight=0 10228.3 5115.06 5982.74 4245.55 2617.12 2497.94 1606.67 1833.6 2411.96 2863.08 2805.06 2279.73 660.839 840.386 167.366 3119.66 1657.56 452.266 1154.41 1325.61 577.877 1172.76 2456.32 656.845 100.666 88.4099 426.636 143.177 610.148 590.879 2415.6 276.056 271.686 399.632 1010.44 107.114 41.6909 882.719 356.263 272.279 132.661 119.551 13.1095 67.2017 896.701 370.586 294.387 257.948 242.302 130.791 526.115 111.512 106.836 95.3584 907.663 348.498 903.331 36.4389 556.179 860.333 270.808
internal_count=91587 69027 22560 43743 25284 10794 11766 6523 10263 15021 19848 19509 16085 3861 3742 728 23895 8024 1823 4700 8182 3684 6402 19031 3842 532 466 2690 619 2839 2754 18762 1474 1123 2522 4271 458 182 3577 1657 1455 683 613 70 358 4928 1971 1560 1363 1282 690 2957 592 565 504 7045 1621 3813 197 3310 3633 1131
is_linear=0
shrinkage=0.05


Tree=13
num_leaves=63
num_cat=0
split_feature=0 0 0 14 17 0 0 19 16 0 12 19 7 14 19 17 0 14 7 14 7 3 19 14 17 16 3 11 9 7 7 12 16 14 17 7 2 7 15 14 18 0 12 2 17 7 0 17 15 13 11 1 5 0 16 1 17 10 0 15 3 17
split_gain=3860.2 489.669 342.487 111.007 69.9263 40.8024 36.7228 27.8053 24.3906 24.1038 19.5639 16.3304 16.3012 16.2544 15.3833 15.1545 13.2954 16.3051 13.1556 12.7765 12.153 15.7329 11.693 14.9538 10.9168 10.862 10.4177 10.4024 9.87416 12.3532 10.4648 9.4659 8.76134 8.58399 8.5731 8.7617 8.20855 10.0851 8.52236 8.05593 7.93035 7.91053 7.80671 7.59427 9.98759 8.89802 8.23757 8.15097 9.72797 8.82874 8.75474 7.97886 7.66489 7.57127 7.55464 7.52262 7.49436 10.2101 10.7008 7.4629 8.82111 7.32487
threshold=42.500000000000007 21.500000000000004 73.500000000000014 1.5000000000000002 16.500000000000004 98.500000000000014 59.500000000000007 102.50000000000001 18.500000000000004 32.500000000000007 56.500000000000007 56.500000000000007 4.0100000000000007 3.5000000000000004 43.500000000000007 24.500000000000004 34.500000000000007 1.5000000000000002 3.4850000000000008 3.5000000000000004 7.3350000000000009 2.5000000000000004 53.500000000000007 10.500000000000002 25.500000000000004 9.5000000000000018 1.5000000000000002 340.18000000000006 131484.63000000003 49.535000000000004 51.010000000000012 80.500000000000014 21.500000000000004 1.0000000180025095e-35 27.500000000000004 6.660000000000001 1.5000000000000002 35.365000000000002 1.5000000000000002 5.5000000000000009 63.500000000000007 185.50000000000003 3.5000000000000004 5.5000000000000009 7.5000000000000009 11.210000000000003 45.500000000000007 18.500000000000004 2.5000000000000004 3.5000000000000004 2748.3100000000004 7.5000000000000009 787.54000000000008 81.500000000000014 15.500000000000002 7.5000000000000009 29.500000000000004 0.43500000000000005 69.500000000000014 1.0000000180025095e-35 2.5000000000000004 34.500000000000007
decision_type=2 2 2 2 2 2 2 2 2 2 2 2 2 2 2 2 2 2 2 2 2 2 2 2 2 2 2 2 2 2 2 2 2 2 2 2 2 2 2 2 2 2 2 2 2 2 2 2 2 2 2 2 2 2 2 2 2 2 2 2 2 2
left_child=1 3 6 18 8 28 24 -7 16 19 -9 -10 -5 14 26 31 17 -3 -1 -6 21 -8 34 36 43 -17 -14 33 30 -30 53 -12 -32 42 35 -11 61 38 -38 -26 -41 -27 -20 44 51 -46 52 48 -47 -50 -49 -2 -45 -4 59 -23 -22 58 -58 -21 -61 -24
right_child=2 4 5 12 9 7 20 10 11 22 15 -13 13 -15 -16 25 -18 -19 27 54 56 55 23 -25 39 41 -28 -29 29 -31 32 -33 -34 -35 -36 -37 37 -39 -40 40 -42 -43 -44 46 45 47 -48 50 49 -51 -52 -53 -54 -55 -56 -57 57 -59 -60 60 -62 -63
leaf_value=-0.027824054664061005 0.039347027064783581 -0.025025967414256386 0.036794203222481642 -0.007515695943724289 -0.010155206228746031 0.063611901740007901 0.079064810455437631 -0.039079736360273787 0.0050865108080671703 0.069348032426781767 0.043155675219713308 0.084114334419466946 -0.02910377893220395 -0.013486843172040486 0.015240733059220829 -0.027276068691238067 -0.0037331220503535214 -0.012320185601064813 -0.041189127151758244 -0.0051777585660465163 0.022144317708991008 0.057230371185376709 -0.011159508583448531 0.086315544558241961 0.01510509206182783 0.047626369675835001 -0.021482660975042894 -0.010695744932386134 -0.043607023435012333 0.038127540786923764 -0.026313184993694384 -0.027764300529594783 0.031916693434322317 -0.038622018931144447 0.031260019109598039 0.008305858293148909 0.0089316813184247817 -0.053673706429874006 0.080338475328081527 -0.016436345799716815 0.028213579711067988 0.05761980762023218 -0.02988900582581391 -0.01746506918633535 -0.021057877690245388 0.0037364422977941418 0.011876493571074542 0.019971636620718287 0.018128327232817765 0.1087696035132999 -0.032851261567997357 0.01493416422817357 0.029650506152308239 0.045250828680931061 0.0092753637192878255 0.029859758410034257 0.034386095253223739 0.021687263094096364 0.064625500184220183 0.055942539030144955 -0.0017792859567142144 0.024389591717718557
leaf_weight=650.62975461781025 80.200892582535744 308.69144892692566 429.27616734802723 226.99413694441319 468.66616173088551 445.2599985897541 24.828404024243355 6.3169458806514731 127.97605729103088 5.9303960204124442 8.717757776379587 6.8888401687145224 659.31400808691978 510.04838961362839 25.385948151350021 4.5234649926424018 335.03754949569702 1387.1145080626011 196.29450327903032 334.10823926329613 344.15781213343143 32.33566802740097 190.13216045498848 4.8127994537353507 217.88529182970524 718.53737065196037 1401.7747624963522 40.432158842682838 7.7586786001920727 11.437688291072844 10.043090328574182 10.221928730607031 18.105216130614281 1466.709396764636 45.499216005206108 672.10226601362228 104.01838372647762 6.2189907878637305 4.3533836156129828 10.206723242998121 387.34384150803089 273.35860307514668 690.44878292828798 49.214355885982513 17.288816332817078 178.10520388185978 207.58683058619499 434.40898884832859 7.4243524074554426 4.2098222225904465 7.988265022635459 57.439382776618004 10.468221873044966 690.27408693730831 186.13255229592323 112.24646943807602 169.62512382864952 129.96759510040283 35.353178098797798 11.256331816315653 16.065642938017845 15.685951367020605
leaf_count=4864 388 1953 1815 1538 2936 1791 109 26 734 33 37 36 4784 3355 145 19 1891 8940 1580 1983 1573 135 1014 24 1030 2907 10026 269 33 48 45 44 77 11717 238 3629 540 31 22 50 1759 1099 5465 247 91 909 1000 2130 37 21 39 272 51 2853 1039 484 730 565 146 66 94 81
internal_value=0 -0.0181573 0.0350286 -0.0275059 -0.00519058 0.047634 0.0218448 0.0531845 -0.0114674 0.00139246 0.04864 0.00912322 -0.0203648 -0.0214881 -0.0234441 0.0491858 -0.0128348 -0.014633 -0.0341286 -0.0040953 0.0303148 0.0422954 0.00671003 -0.00116469 0.0175406 0.0500279 -0.0239206 -0.0358421 0.0406564 0.00509253 0.0412512 0.00487949 0.0111407 -0.0362741 0.0102497 0.00883976 -0.00247871 0.0082468 0.0118002 0.0228322 0.0270672 0.0503805 -0.0323905 0.0144518 0.0169247 0.0143317 0.00716977 0.0152995 0.00663 0.0509268 0.0190178 0.0291592 -0.00920108 0.0420083 0.00109145 0.0359812 0.0273261 0.0326504 0.0396016 -0.00312317 0.0220014 -0.00845022
internal_weight=0 10098.7 5152.12 5868.03 4230.69 2633.83 2518.29 1466.94 2165.71 2064.98 1021.68 134.865 2823.52 2596.52 2086.47 1015.36 2030.84 1695.81 3044.51 1016.23 848.514 169.411 1048.75 325.222 1669.77 996.419 2061.09 2393.88 1166.89 19.1964 1147.7 18.9397 28.1483 2353.45 723.532 678.033 320.409 114.591 108.372 615.436 397.551 991.896 886.743 1054.34 787.066 649.425 267.269 632.137 189.739 11.6342 442.397 137.64 59.6826 1119.55 547.563 144.582 679.104 334.946 204.978 361.43 27.322 205.818
internal_count=91587 69027 22560 43743 25284 10794 11766 5923 13554 11730 4132 770 19848 18310 14955 4106 12784 10893 23895 6118 3742 728 5612 1712 8024 4025 14810 19031 4871 81 4790 81 122 18762 3900 3662 1688 593 562 2839 1809 4006 7045 5185 3887 3227 1298 3136 967 58 2169 660 298 4668 3182 619 3014 1441 876 2143 160 1095
is_linear=0
shrinkage=0.05


Tree=14
num_leaves=63
num_cat=0
split_feature=0 0 0 14 17 0 0 19 16 0 7 17 6 14 19 11 16 1 14 0 14 14 16 11 11 18 19 19 14 7 3 18 9 7 3 2 15 18 17 16 16 1 9 9 7 10 7 7 20 17 20 7 4 4 15 16 0 5 3 9 0 11
split_gain=3485.83 458.27 309.22 106.624 63.7023 38.0832 33.0952 22.826 22.2116 21.7087 17.7804 15.9425 15.3531 15.3182 14.0647 13.8093 12.9869 12.8928 12.6196 12.2427 15.1909 11.6219 10.7418 12.8442 10.5781 10.5142 15.1375 10.4734 13.009 10.17 9.11721 9.88286 8.78999 8.6233 8.48095 8.40012 8.14662 8.52512 7.76839 7.51132 9.54242 7.42341 13.3132 7.42029 12.7655 7.83261 7.12926 7.73372 6.99172 7.03029 6.9775 9.05757 7.51625 13.0777 6.95079 6.79291 6.78096 9.71465 7.48156 6.75382 7.84526 6.73737
threshold=42.500000000000007 21.500000000000004 73.500000000000014 1.5000000000000002 16.500000000000004 94.500000000000014 56.500000000000007 113.50000000000001 18.500000000000004 32.500000000000007 7.3350000000000009 36.500000000000007 0.39000000000000007 3.5000000000000004 56.500000000000007 692.45000000000016 6.5000000000000009 7.5000000000000009 5.5000000000000009 34.500000000000007 1.5000000000000002 3.5000000000000004 16.500000000000004 2904.2900000000004 340.18000000000006 63.500000000000007 45.500000000000007 53.500000000000007 10.500000000000002 22.915000000000003 1.5000000000000002 124.50000000000001 39715.755000000012 51.010000000000012 5.5000000000000009 5.5000000000000009 1.5000000000000002 65.500000000000014 22.500000000000004 16.500000000000004 22.500000000000004 1.5000000000000002 345.57500000000005 4521.8500000000013 12.695000000000002 0.13500000000000004 25.315000000000001 26.005000000000006 24.500000000000004 35.500000000000007 13.500000000000002 19.675000000000004 101.50000000000001 91.500000000000014 1.5000000000000002 15.500000000000002 11.500000000000002 110.38500000000001 3.5000000000000004 960.11000000000013 11.500000000000002 3940.2300000000005
decision_type=2 2 2 2 2 2 2 2 2 2 2 2 2 2 2 2 2 2 2 2 2 2 2 2 2 2 2 2 2 2 2 2 2 2 2 2 2 2 2 2 2 2 2 2 2 2 2 2 2 2 2 2 2 2 2 2 2 2 2 2 2 2
left_child=1 3 6 16 8 61 18 33 19 21 17 -9 13 15 -10 41 -1 35 30 20 -3 -6 -12 38 -18 26 34 36 39 -13 31 -2 -32 -7 43 -8 -11 -38 -24 48 -41 -5 -43 -20 -45 -46 -31 -48 49 -29 -21 -52 53 -53 -22 -23 -44 -58 -59 60 -15 -4
right_child=2 4 5 12 9 7 10 11 14 27 22 29 -14 59 -16 -17 24 -19 25 50 54 55 23 -25 -26 -27 -28 28 -30 46 32 -33 -34 -35 -36 -37 37 -39 -40 40 -42 42 56 44 45 -47 47 -49 -50 -51 51 52 -54 -55 -56 -57 57 58 -60 -61 -62 -63
leaf_value=-0.028406798438286248 -0.020993520762680597 -0.024143681103446391 0.038890606290607858 -0.028324520562910474 -0.0097080733713046999 0.058520002645845781 0.067589927970109334 0.028287517908270277 0.004818506485824557 0.0085025645395211038 0.015410397756571423 0.015929867335823699 0.0058459590119431864 -0.061233665250163063 0.076841392972358244 0.020629494100773239 -0.036009964421962803 0.032758360281593867 -0.027933939326897701 0.0016688294216755759 -0.012368166186769317 -0.0029740789917424349 0.017976967477464745 0.0074475134506021877 -0.010043231123514499 0.021968037410205667 -0.033650248261924628 -0.013580978095485667 0.078984308771367723 0.080501082730476847 0.013325323167721441 0.060305088938198373 -0.017132583768547743 0.0027633115798021226 0.080488708541285287 0.004922849428193936 0.01565234207267233 0.068141148688402264 0.033093805372470149 0.0099553297493754841 -0.037977579979278933 0.0014927631438393712 -0.031760238163794134 0.071476768082535974 0.068240611973663462 -0.0027310633437229157 0.0078283294391511375 0.04843313583557108 0.046018753125816554 0.029029486326396577 -0.021185995876343997 -0.0032740895596133999 -0.0065989511561348651 0.12042381560022708 0.01025128248589109 0.0087674062778256411 -0.0091906924424152419 -0.022912225224209687 -0.0052342742054811335 -0.015038524521459887 0.003558248836793375 0.025714981137214515
