tree
version=v4
num_class=1
num_tree_per_iteration=1
label_index=0
max_feature_idx=20
objective=binary sigmoid:1
feature_names=Column_0 Column_1 Column_2 Column_3 Column_4 Column_5 Column_6 Column_7 Column_8 Column_9 Column_10 Column_11 Column_12 Column_13 Column_14 Column_15 Column_16 Column_17 Column_18 Column_19 Column_20
feature_infos=[1:3442] [1:404] [1:165] [1:402] [0:8441] [0:80843.080000000002] [0:1] [0:418.19999999999999] [0:569.77999999999997] [0:16846621.120000001] [0:18.850000000000001] [0:935923.39000000001] [0:2824] [0:344] [0:219] [0:43] [0:410] [0:1026] [0:5420] [0:3021] [1:503]
tree_sizes=3355 3436 3412 3450 3444 3452 3446 3442 3439 3433 3458 3443 3455 3461 3450 3451 3442 3445 3453 3445 3456 3443 3461 3452 3452

Tree=0
num_leaves=31
num_cat=0
split_feature=0 0 0 14 0 0 0 14 14 5 16 6 17 17 18 6 16 10 17 7 17 0 20 14 17 17 14 0 17 3
split_gain=16069.1 1623 1543.74 287.906 214.879 194.36 117.794 84.4953 78.0069 53.7346 50.0136 43.0459 42.9044 41.9823 38.8779 28.3551 27.9319 26.7751 26.5523 45.1175 26.0174 24.3476 24.335 21.7704 20.7051 20.5789 21.7433 20.1508 19.4078 19.1989
threshold=47.500000000000007 27.500000000000004 81.500000000000014 1.5000000000000002 63.500000000000007 35.500000000000007 96.500000000000014 3.5000000000000004 1.0000000180025095e-35 454.97500000000008 19.500000000000004 0.055000000000000007 25.500000000000004 15.500000000000002 37.500000000000007 0.34500000000000003 16.500000000000004 0.28500000000000009 29.500000000000004 11.785000000000002 36.500000000000007 68.500000000000014 12.500000000000002 5.5000000000000009 16.500000000000004 22.500000000000004 5.5000000000000009 43.500000000000007 22.500000000000004 12.500000000000002
decision_type=2 2 2 2 2 2 2 2 2 2 2 2 2 2 2 2 2 2 2 2 2 2 2 2 2 2 2 2 2 2
left_child=1 3 4 11 12 13 -4 14 -8 27 -10 -1 -2 -3 15 -5 -11 -16 19 21 -12 22 -6 -14 -9 -18 -27 -7 -21 -22
right_child=2 5 6 7 18 9 8 24 10 16 20 -13 23 -15 17 -17 25 -19 -20 28 29 -23 -24 -25 -26 26 -28 -29 -30 -31
leaf_value=-1.2533301574146343 -1.1849076587086467 -1.244542498628155 -1.1153165370330671 -1.2625551412684326 -1.031321686213821 -1.2328758219736196 -1.0637148822969213 -1.2478756645464677 -1.1218153954199219 -1.2119649871933438 -1.1131456906611161 -1.2740515299645556 -1.1813720866417847 -1.2278004186630962 -1.2499473184407555 -1.2295191975527928 -1.2050394661649813 -1.1778863645720097 -1.1310156515961147 -1.1819380437094025 -1.0925507615900685 -1.1414960394766334 -1.1188956811668795 -1.1578665121793934 -1.2324849303423546 -1.1995481965535335 -1.1710561928704701 -1.2019885558736361 -1.1531739912121142 -1.0740454399929826
leaf_weight=266.42350077629089 623.81660477817059 611.19654421508312 480.26341587305069 2919.9665127843618 10.166159898042677 271.50658072531223 296.57142323255539 1093.7385821342468 132.51063591241837 589.81255270540714 89.742652893066406 4228.2461244910955 140.5734523832798 966.66158340871334 663.60485127568245 66.430596575140953 327.77101740241051 13.145896419882773 327.06990292668343 91.320160463452339 309.36676241457462 139.87233790755272 36.107395499944687 329.17324635386467 273.08408829569817 144.95541785657406 124.44781944155693 65.554203480482101 163.88550870120525 256.25734087824821
leaf_count=1520 3559 3487 2740 16659 58 1549 1692 6240 756 3365 512 24123 802 5515 3786 379 1870 75 1866 521 1765 798 206 1878 1558 827 710 374 935 1462
internal_value=-1.22734 -1.2534 -1.13131 -1.26363 -1.16208 -1.22199 -1.0947 -1.25541 -1.08557 -1.20925 -1.0938 -1.27282 -1.17631 -1.23429 -1.25937 -1.26182 -1.20425 -1.24855 -1.14181 -1.14981 -1.08814 -1.1311 -1.09966 -1.1649 -1.2448 -1.19662 -1.18639 -1.22687 -1.16347 -1.08417
internal_weight=0 12626.5 3426.7 9524.64 1861.98 3101.91 1564.71 5029.97 1084.45 1524.05 787.877 4494.67 1093.56 1577.86 3663.15 2986.4 1186.99 676.751 768.421 441.352 655.367 186.146 46.2736 469.747 1366.82 597.174 269.403 337.061 255.206 565.624
internal_count=91587 72037 19550 54340 10623 17697 8927 28697 6187 8695 4495 25643 6239 9002 20899 17038 6772 3861 4384 2518 3739 1062 264 2680 7798 3407 1537 1923 1456 3227
is_linear=0
shrinkage=1


Tree=1
num_leaves=31
num_cat=0
split_feature=1 12 20 12 14 6 12 1 14 12 17 14 17 12 14 5 17 14 17 14 17 14 17 12 14 14 6 13 2 17
split_gain=9479.58 2300.3 1431.3 558.068 526.548 381.479 273.796 191.121 183.174 106.286 92.4314 91.9589 140.656 89.2617 60.8614 55.1517 53.2334 47.6629 45.1014 41.2447 85.282 39.2942 32.7333 32.4859 31.4318 27.7086 27.2416 26.7527 26.2803 24.6053
threshold=6.5000000000000009 27.500000000000004 21.500000000000004 47.500000000000007 3.5000000000000004 0.015000000000000001 42.500000000000007 17.500000000000004 1.5000000000000002 63.500000000000007 16.500000000000004 6.5000000000000009 4.5000000000000009 31.500000000000004 5.5000000000000009 314.96500000000009 20.500000000000004 11.500000000000002 26.500000000000004 1.0000000180025095e-35 22.500000000000004 5.5000000000000009 28.500000000000004 34.500000000000007 5.5000000000000009 3.5000000000000004 0.39000000000000007 1.0000000180025095e-35 5.5000000000000009 47.500000000000007
decision_type=2 2 2 2 2 2 2 2 2 2 2 2 2 2 2 2 2 2 2 2 2 2 2 2 2 2 2 2 2 2
left_child=1 4 3 11 5 -1 14 9 -7 19 -6 12 28 25 -3 26 -16 22 -8 -4 -21 -22 -5 -13 -12 -14 -10 -20 -2 -9
right_child=2 6 7 17 10 8 18 29 15 -11 24 23 13 -15 16 -17 -18 -19 27 20 21 -23 -24 -25 -26 -27 -28 -29 -30 -31
leaf_value=0.02205766423373906 0.054356368285554492 0.011886687103235193 0.087612437866032844 0.050859023929790942 -0.016921936431059756 -0.04508522281063701 0.04211632933972289 0.112822782170934 -0.03361242487390996 0.11242954195236994 -0.0033967321503857932 0.029008288460398726 -0.014121782730077631 0.029322506561162445 0.010213398521157241 -0.017914456824591293 0.045336437497241019 0.10506208104249928 0.06152952105401574 0.022825171043928678 0.046227416653338099 0.092825410034675815 0.085098567961902183 0.05776840864301705 0.016210112349185183 0.009084276234174465 0.001632975327206783 0.093845259354601418 0.030283165621687921 0.13098164591943418
leaf_weight=274.23655234277248 243.2438668012619 507.90244947373867 326.77292600274086 102.56323349475861 1455.3522028625011 4222.1818558573723 85.914448156952858 480.49870650470257 2995.2616748958826 272.31813754141331 582.89657662808895 153.00683578848839 296.9165508300066 323.89368505775928 147.5065575838089 760.09023059904575 401.57156671583652 204.13235466182232 94.922952383756638 95.555034071207047 63.586716309189796 156.80903239548206 218.53307393193245 274.0482669621706 314.79660934209824 226.95699234306812 55.845718890428543 196.87528079748154 212.33713142573833 304.93703167140484
leaf_count=1553 1350 2872 1774 565 8383 24709 475 2564 17415 1456 3327 859 1706 1815 830 4375 2235 1098 518 537 353 855 1185 1514 1787 1292 319 1067 1185 1614
internal_value=0 -0.0220194 0.0671423 0.0410296 -0.0300185 -0.0359324 0.0374187 0.10178 -0.037912 0.08625 -0.00913898 0.0273277 0.0207299 0.00868885 0.0243615 -0.0299652 0.0359008 0.0861714 0.0739577 0.0751579 0.0622767 0.0793814 0.0741619 0.0474641 0.00347886 -0.00406825 -0.0329673 0.0833328 0.0431363 0.119873
internal_weight=0 12095.4 3956.11 2255.63 10660.7 8307.62 1434.69 1700.48 8033.38 915.042 2353.05 1730.4 1303.35 847.767 1056.98 3811.2 549.078 525.229 377.713 642.724 315.951 220.396 321.096 427.055 897.693 523.874 3051.11 291.798 455.581 785.436
internal_count=91587 69865 21722 12569 61868 48371 7997 9153 46818 4975 13497 9721 7348 4813 5937 22109 3065 2848 2060 3519 1745 1208 1750 2373 5114 2998 17734 1585 2535 4178
is_linear=0
shrinkage=0.05


Tree=2
num_leaves=31
num_cat=0
split_feature=0 0 0 0 0 0 0 6 17 17 17 7 17 5 1 17 16 16 7 6 0 1 8 15 16 7 8 8 10 0
split_gain=12464.9 1257.64 1128.2 208.807 153.235 119.726 87.5785 58.5593 55.8813 38.6674 33.7331 30.495 30.5597 27.6307 25.8863 22.9642 18.9324 18.218 17.9351 17.7255 19.8373 17.0281 15.3528 15.2568 15.2299 14.864 14.8033 14.4921 14.3318 26.3129
threshold=44.500000000000007 73.500000000000014 22.500000000000004 32.500000000000007 94.500000000000014 57.500000000000007 16.500000000000004 1.0000000180025095e-35 15.500000000000002 16.500000000000004 36.500000000000007 7.3350000000000009 29.500000000000004 697.82000000000005 7.5000000000000009 25.500000000000004 17.500000000000004 17.500000000000004 40.220000000000006 0.34500000000000003 11.500000000000002 15.500000000000002 40.195000000000007 1.5000000000000002 18.500000000000004 9.7150000000000016 25.500000000000004 36.695000000000007 0.43500000000000005 69.500000000000014
decision_type=2 2 2 2 2 2 2 2 2 2 2 2 2 2 2 2 2 2 2 2 2 2 2 2 2 2 2 2 2 2
left_child=2 5 6 9 18 15 19 21 -5 24 26 14 -13 -8 -7 -2 22 -12 -3 20 -1 -6 23 -10 -4 -17 -9 -18 29 -14
right_child=1 4 3 8 7 11 13 10 16 -11 17 12 28 -15 -16 25 27 -19 -20 -21 -22 -23 -24 -25 -26 -27 -28 -29 -30 -31
leaf_value=-0.044363946164298139 0.030922014226587663 0.087680918248645351 -0.020447263199839236 -0.0058592936807772243 0.14598573201636553 0.1165556412596222 -0.029419669194527723 0.024936394964377419 0.0022729021344322668 -0.0065644452814873052 0.084530075547107189 0.046729926166679391 0.068893900297664054 0.038738956832611464 0.069147197057384494 -0.013301989120076185 0.017957647482195097 0.11259095538316966 0.063858822161373105 -0.031562722673435566 -0.038008037384354848 0.12253256147620195 0.017877438518545511 0.046126339343918653 0.0031118182628747538 0.047101649910096063 0.08874638511938121 0.041000896909686661 0.05429121506139515 0.12122835386907188
leaf_weight=2770.6605922579765 741.84730190038681 733.52562586963177 1438.497326284647 493.1738448292017 111.24774803221226 39.268405303359032 2254.5029572546482 9.6957002431154233 468.57019427418709 978.38779766857624 62.960305944085121 359.35286946594715 166.20091412961483 14.968026980757712 107.94529393315315 10.446515768766401 300.61265948414803 711.3889789134264 88.547917187213898 488.07162436842918 2204.3294176012278 254.31657503545284 347.12662729620934 20.709973961114883 72.03468419611454 406.46162110567093 145.28497767448425 88.264909580349922 116.75142525136471 28.074910178780556
leaf_count=16596 4077 3812 8386 2794 566 209 13295 50 2645 5635 324 1934 876 85 570 57 1682 3570 459 2914 13106 1270 1950 117 418 2201 743 489 611 146
internal_value=0 0.0752197 -0.0258888 -0.00505259 0.101998 0.046536 -0.037226 0.112716 0.00835261 -0.0143081 0.106048 0.0611867 0.0566616 -0.0289701 0.0817931 0.0361987 0.0140729 0.110309 0.085115 -0.0406557 -0.0415478 0.12967 0.00983496 0.00412911 -0.0193238 0.0455881 0.0847544 0.0231879 0.0681364 0.0764568
internal_weight=0 4093.32 11939.9 4207.38 2116.97 1976.35 7732.53 1294.89 1718.46 2488.92 929.33 817.594 670.38 2269.47 147.214 1158.76 1225.28 774.349 822.074 5463.06 4974.99 365.564 836.407 489.28 1510.53 416.908 154.981 388.878 311.027 194.276
internal_count=91587 21475 70112 24116 10794 10681 45996 6523 9677 14439 4687 4346 3567 13380 779 6335 6883 3894 4271 32616 29702 1836 4712 2762 8804 2258 793 2171 1633 1022
is_linear=0
shrinkage=0.05


Tree=3
num_leaves=31
num_cat=0
split_feature=1 10 20 12 12 18 14 3 14 14 3 7 14 14 12 1 8 12 8 12 18 18 12 16 8 7 3 14 14 12
split_gain=7421.16 1942.34 975.023 392.152 366.93 296.451 343.982 201.593 117.689 113.38 85.6975 83.3628 85.6383 72.5465 61.0689 52.805 46.0888 34.9799 34.4176 33.4057 28.0466 27.4905 27.2353 27.1461 26.1644 24.7092 22.4734 21.6004 27.4231 31.1824
threshold=6.5000000000000009 0.15500000000000003 21.500000000000004 43.500000000000007 36.500000000000007 1.0000000180025095e-35 1.5000000000000002 5.5000000000000009 3.5000000000000004 5.5000000000000009 3.5000000000000004 4.5250000000000012 3.5000000000000004 8.5000000000000018 61.500000000000007 17.500000000000004 40.195000000000007 27.500000000000004 38.07500000000001 27.500000000000004 36.500000000000007 37.500000000000007 24.500000000000004 19.500000000000004 55.860000000000007 2.5350000000000006 2.5000000000000004 11.500000000000002 1.0000000180025095e-35 45.500000000000007
decision_type=2 2 2 2 2 2 2 2 2 2 2 2 2 2 2 2 2 2 2 2 2 2 2 2 2 2 2 2 2 2
left_child=1 5 3 10 9 26 -7 13 21 17 22 -12 -13 -4 18 27 -5 -3 23 -14 -10 25 -2 -6 -15 -8 -1 28 -9 -30
right_child=2 4 7 16 14 6 8 15 20 -11 11 12 19 24 -16 -17 -18 -19 -20 -21 -22 -23 -24 -25 -26 -27 -28 -29 29 -31
leaf_value=0.0051529924271672802 -0.0043960328957243413 -0.008352016188170058 0.033510700742436221 0.047841236046691528 0.0097079495437348822 -0.043235459632439438 0.0014716493647915136 0.088974211314273507 -0.01942674600242671 0.024620710179515459 0.050806270804768849 -0.0039751212471121683 0.0087880383811580684 0.068916338619256792 0.082944844201839951 0.10073086585586635 0.075044634575088837 0.010569785244527358 0.052872801029860118 0.038663876892075767 -0.0067353984841323116 -0.019328835092595115 0.018812526980435614 0.054623346841244536 0.12609557255086626 -0.031747497896593806 0.033899983231091849 0.096106347387673582 0.038757829938126001 0.076218394045405702
leaf_weight=125.96386031806469 304.68290884792805 712.65678155422211 232.813626781106 228.78132028877735 101.88180707395077 3962.4014097005129 57.126221001148224 247.04977808892727 869.83559714257717 643.94854746758938 331.71636767685413 239.86947739124298 120.66136872768402 77.854730442166328 129.24398146569729 790.08087278902531 487.42123048007488 371.61215572059155 362.82922054827213 416.68012595176697 871.43080405890942 603.28241221606731 216.04035952687263 50.223115757107735 26.925940603017807 2786.2035486549139 147.71149069070816 199.34945337474346 75.88967065513134 207.29414600133896
leaf_count=711 1727 4129 1216 1185 549 24341 332 1219 5132 3540 1745 1362 681 390 641 3787 2437 2071 1883 2240 5057 3555 1192 267 130 16845 812 969 406 1036
internal_value=0 -0.0204294 0.0569454 0.0355176 0.0200079 -0.0306091 -0.0321428 0.0840103 -0.0236704 0.00800259 0.0219651 0.0298222 0.0208661 0.0490602 0.0522159 0.0917744 0.0663549 -0.00186694 0.0445032 0.0319552 -0.0130753 -0.0290232 0.00523285 0.0245384 0.0836099 -0.0310801 0.0206687 0.0820753 0.0768001 0.0661794
internal_weight=0 11796.4 4203.11 2345.85 2372.4 9423.96 9150.28 1857.26 5187.88 1728.22 1629.65 1108.93 777.211 337.594 644.178 1519.66 716.203 1084.27 514.934 537.341 1741.27 3446.61 520.723 152.105 104.781 2843.33 273.675 729.583 530.234 283.184
internal_count=91587 69865 21722 12569 13080 56785 55262 9153 30921 9740 8947 6028 4283 1736 3340 7417 3622 6200 2699 2921 10189 20732 2919 816 520 17177 1523 3630 2661 1442
is_linear=0
shrinkage=0.05


Tree=4
num_leaves=31
num_cat=0
split_feature=0 0 0 14 0 0 0 14 14 17 16 17 14 5 17 14 6 17 15 1 4 15 1 18 14 19 1 16 4 16
split_gain=9877.4 1005.15 881.975 165.384 132.728 107.571 103.812 46.2093 43.2835 39.1934 32.3987 28.2658 28.0603 27.9811 25.3135 24.4375 23.6518 22.7773 21.1343 18.6723 18.1816 16.2976 16.1255 14.9011 14.1602 13.9377 14.5357 13.6324 13.5054 13.2384
threshold=42.500000000000007 73.500000000000014 22.500000000000004 1.5000000000000002 32.500000000000007 57.500000000000007 94.500000000000014 1.5000000000000002 3.5000000000000004 15.500000000000002 16.500000000000004 24.500000000000004 3.5000000000000004 866.99500000000012 36.500000000000007 1.0000000180025095e-35 0.34500000000000003 24.500000000000004 1.0000000180025095e-35 7.5000000000000009 9.5000000000000018 1.5000000000000002 15.500000000000002 46.500000000000007 12.500000000000002 43.500000000000007 8.5000000000000018 17.500000000000004 268.50000000000006 17.500000000000004
decision_type=2 2 2 2 2 2 2 2 2 2 2 2 2 2 2 2 2 2 2 2 2 2 2 2 2 2 2 2 2 2
left_child=2 5 3 20 8 11 -3 22 18 25 -10 -2 13 16 -9 19 -5 -17 23 -7 -1 29 -8 -4 -13 -6 -27 -16 -19 -11
right_child=1 6 4 12 9 15 7 14 10 21 -12 24 -14 -15 27 17 -18 28 -20 -21 -22 -23 -24 -25 -26 26 -28 -29 -30 -31
leaf_value=-0.029137952624306823 0.024108833958527282 0.072071861337077464 -0.026713112259223643 -0.030674605576789568 -0.010298166620508446 0.099756882852350348 0.12355185173197754 0.070507314701218307 -0.010298968551548712 0.0054488452535816877 0.010987934046393571 0.037255983830524211 -0.018663972192840939 0.048554326023770057 0.070201281228519957 0.034624074742000341 -0.0001417478687427117 0.056997662691332808 0.0023432544270257059 0.060123427867188141 -0.043243330630787911 0.037845252812421737 0.10170266724822806 -0.015408629471932384 0.085473778175604864 0.0010656813654063865 0.059972264539885391 0.093680521683370099 0.029368582896693057 0.017647451151964446
leaf_weight=243.90137419104576 832.77342231571674 880.33855795860291 633.62171038985252 2757.1859797984362 390.89759950339794 40.200564682483673 122.2347691655159 166.93061396479607 959.10733196139336 720.68707637488842 219.69273589551449 550.33032664656639 730.13195997476578 11.389915883541105 67.159736573696136 208.82119329273701 64.91979543864727 450.77048489451408 100.81996856629848 113.96280010044575 3607.5192375034094 52.189489766955376 273.1661231815815 539.90970987081528 15.659562528133391 38.671221852302551 14.361665844917296 777.84472750127316 49.041934490203857 321.68489082157612
leaf_count=1484 4462 4271 3783 16958 2213 200 569 795 5605 4028 1269 2877 4359 63 321 1085 379 2250 600 568 22753 288 1250 3182 81 219 80 3588 243 1764
internal_value=0 0.0621708 -0.0249664 -0.0351673 -0.0060168 0.0385328 0.0855389 0.093963 -0.0132372 0.00549625 -0.00633173 0.0299685 -0.0274044 -0.0296566 0.0882996 0.0524173 -0.0299722 0.0484925 -0.0196249 0.0704585 -0.0423501 0.0105786 0.108457 -0.0215122 0.0385901 -0.00703492 0.017018 0.0918144 0.0542867 0.00921344
internal_weight=0 4549.23 11406.7 7415.05 3991.64 2261.56 2287.67 1407.34 2453.15 1538.49 1178.8 1398.76 3563.63 2833.5 1011.94 862.797 2822.11 708.634 1274.35 154.163 3851.42 1094.56 395.401 1173.53 565.99 443.93 53.0329 845.004 499.812 1042.37
internal_count=91587 22560 69027 45996 23031 11766 10794 6523 14439 8592 6874 7420 21759 17400 4704 4346 17337 3578 7565 768 24237 6080 1819 6965 2958 2512 299 3909 2493 5792
is_linear=0
shrinkage=0.05


Tree=5
num_leaves=31
num_cat=0
split_feature=0 0 0 14 0 0 0 14 14 17 14 5 17 7 17 17 15 7 1 11 18 11 18 11 15 13 14 11 14 18
split_gain=8792.71 852.148 829.386 159.704 120.756 92.2716 88.1504 39.9859 38.0837 35.2084 26.5716 25.4437 24.4146 21.6447 20.5495 20.1701 19.5159 19.2692 18.7656 18.3437 17.7078 16.4757 14.4218 14.3723 14.2577 13.7754 13.348 13.3376 13.1584 12.9121
threshold=42.500000000000007 73.500000000000014 22.500000000000004 1.5000000000000002 32.500000000000007 57.500000000000007 94.500000000000014 3.5000000000000004 1.0000000180025095e-35 15.500000000000002 3.5000000000000004 866.99500000000012 24.500000000000004 7.3350000000000009 36.500000000000007 29.500000000000004 1.0000000180025095e-35 2.5350000000000006 7.5000000000000009 3.9300000000000002 54.500000000000007 1076.1950000000004 62.500000000000007 3940.2300000000005 1.5000000000000002 5.5000000000000009 5.5000000000000009 340.18000000000006 4.5000000000000009 63.500000000000007
decision_type=2 2 2 2 2 2 2 2 2 2 2 2 2 2 2 2 2 2 2 2 2 2 2 2 2 2 2 2 2 2
left_child=2 5 3 19 7 12 23 16 -8 21 11 17 -2 18 -10 -15 22 -5 -7 -1 -9 -6 -4 -3 -11 28 -14 -21 -17 -28
right_child=1 6 4 10 9 13 8 20 14 24 -12 -13 26 15 -16 25 -18 -19 -20 27 -22 -23 -24 -25 -26 -27 29 -29 -30 -31
leaf_value=-0.02798173788614754 0.022622708336552812 0.06864588382444177 -0.023193069575519715 -0.00077064160974426839 -0.0091665260023572979 0.093145700406295384 0.09928774938844534 -0.010141310895051509 0.065484607432044165 0.0087091751853201147 -0.017927966844697187 0.0449546421663728 0.025813497979426003 0.037090162579231277 0.084383224631379108 0.018912306228362812 0.0022230331331398261 -0.029616271004893519 0.054782077555906909 -0.042618807184853197 0.0031474022239989514 0.031229806771636389 -0.0082312366260637367 0.048346150575511768 0.035237897524846483 0.069599794411640964 -0.0092507913503383585 -0.017763212524271332 0.052197818456110781 0.043387858974549533
leaf_weight=241.3961101770401 842.83736196160316 808.54298816621304 965.81693026423454 59.157757073640823 415.35555405914783 43.764383226633072 407.70825956761837 811.9189321398735 172.17386780679226 1047.4074351191521 722.30487048625946 11.679032430052755 207.07103246450424 383.77520586550236 874.07682134211063 34.722625717520714 100.95511554181576 2712.9779507815838 117.34356278181076 3456.8966453969479 362.67146228253841 26.87365397810936 193.29431711137295 97.733093127608299 53.220860183238983 98.329400971531868 12.04260830581188 54.82806071639061 204.91908046603203 357.36102758347988
leaf_count=1495 4462 3813 5826 344 2363 209 1808 4784 798 5792 4359 63 1076 1934 3917 169 600 16993 570 22398 2090 149 1139 458 288 475 63 344 989 1819
internal_value=0 0.0575847 -0.0240911 -0.0341462 -0.00573976 0.0359409 0.0786959 -0.012675 0.0863247 0.0052042 -0.0264732 -0.0286904 0.0280461 0.0486329 0.0812732 0.0449341 -0.0188616 -0.0290007 0.0652034 -0.0413143 -0.00603823 -0.0067117 -0.020698 0.0664568 0.00999197 0.0538411 0.0359755 -0.0422307 0.047375 0.0416718
internal_weight=0 4662.4 11236.8 7259.24 3977.51 2302.17 2360.24 2434.66 1453.96 1542.86 3506.12 2783.81 1419.31 882.854 1046.25 721.746 1260.07 2772.14 161.108 3753.12 1174.59 442.229 1159.11 906.276 1100.63 337.971 576.475 3511.72 239.642 369.404
internal_count=91587 22560 69027 45996 23031 11766 10794 14439 6523 8592 21759 17400 7420 4346 4715 3567 7565 17337 779 24237 6874 2512 6965 4271 6080 1633 2958 22742 1158 1882
is_linear=0
shrinkage=0.05


Tree=6
num_leaves=31
num_cat=0
split_feature=0 0 0 14 0 0 0 14 6 17 16 14 14 17 5 17 6 16 11 9 11 16 14 11 16 6 14 20 11 16
split_gain=7850.44 779.511 732.014 154.197 109.844 79.9969 76.4363 36.918 32.4634 31.637 28.6412 27.3265 25.1444 23.3315 23.1661 22.7263 21.0466 19.552 19.4089 18.4611 14.7442 14.1595 13.5689 13.091 12.6584 12.9694 12.5367 12.5161 12.068 17.6268
threshold=42.500000000000007 22.500000000000004 73.500000000000014 1.5000000000000002 32.500000000000007 56.500000000000007 94.500000000000014 3.5000000000000004 1.0000000180025095e-35 15.500000000000002 16.500000000000004 1.0000000180025095e-35 3.5000000000000004 23.500000000000004 866.99500000000012 23.500000000000004 0.34500000000000003 20.500000000000004 2904.2900000000004 94.925000000000011 1076.1950000000004 16.500000000000004 5.5000000000000009 340.18000000000006 17.500000000000004 0.055000000000000007 11.500000000000002 13.500000000000002 3940.2300000000005 21.500000000000004
decision_type=2 2 2 2 2 2 2 2 2 2 2 2 2 2 2 2 2 2 2 2 2 2 2 2 2 2 2 2 2 2
left_child=1 3 5 19 7 13 28 -3 -8 20 -9 27 14 -2 16 -13 -5 -10 21 -1 -6 -17 -15 -21 25 -11 -19 -7 -4 -30
right_child=2 4 6 12 9 11 8 10 17 24 -12 15 -14 22 -16 18 -18 26 -20 23 -22 -23 -24 -25 -26 -27 -28 -29 29 -31
leaf_value=-0.029071483138426564 0.019728884691943543 -0.01812247638668851 0.06351756813392094 -0.028737650020317501 -0.0087530035526879636 0.083335253058628211 0.091478318315027715 -0.009528496658760939 0.063044856684406833 -0.0053777025522622184 0.010462520154251075 0.026191754681330889 -0.017215396313025769 0.022983580056738291 0.041734684863582422 0.035691201822513112 0.00011956797168605322 0.06770354370230329 0.01760010435894082 -0.041828052663557241 0.029176932043350468 0.053594740372396699 0.038363144409617689 -0.017061961685417244 0.017389832654217528 0.0096371394234505605 0.082368893003430699 0.053896890232727215 0.01912990925792496 0.062149608643538003
leaf_weight=332.74176083505154 737.21909141540527 1246.3120100349188 829.55951634049416 2659.1477735638618 413.28373646736145 50.276364088058472 426.04647544026375 949.7280567586422 254.06966762244701 192.45395077764988 220.8283876478672 204.92438691854477 714.7877132743597 223.22734345495701 11.943952202796934 155.24097129702568 64.722859025001526 190.2655912488699 56.413661614060402 3270.6697896271944 27.314442306756973 382.63898208737373 401.12695616483688 54.242672547698021 344.79886102676392 569.11660897731781 622.53262084722519 128.10458920896053 39.458329901099205 60.045113772153854
leaf_count=2126 3866 7565 3813 16958 2363 235 1836 5605 1135 1061 1269 1035 4359 1150 63 748 379 836 271 21767 149 1834 2015 344 1863 3156 2716 612 182 276
internal_value=0 -0.0232405 0.0535365 -0.0331476 -0.00547453 0.0335872 0.0728037 -0.0121336 0.0798109 0.00492911 -0.00575714 0.0444995 -0.0255656 0.0257522 -0.0277473 0.0405501 -0.028052 0.0751515 0.0455012 -0.0403003 -0.00640158 0.0484275 0.0328644 -0.041424 0.00944141 0.00584279 0.0789359 0.062194 0.061544 0.04509
internal_weight=0 11072.1 4761.15 7108.26 3963.84 2339.17 2421.98 2416.87 1492.91 1546.97 1170.56 977.599 3450.6 1361.57 2735.81 799.218 2723.87 1066.87 594.294 3657.65 440.598 537.88 624.354 3324.91 1106.37 761.571 812.798 178.381 929.063 99.5034
internal_count=91587 69027 22560 45996 23031 11766 10794 14439 6523 8592 6874 4735 21759 7031 17400 3888 17337 4687 2853 24237 2512 2582 3165 22111 6080 4217 3552 847 4271 458
is_linear=0
shrinkage=0.05


Tree=7
num_leaves=31
num_cat=0
split_feature=0 0 0 14 0 0 0 17 17 6 16 6 17 8 14 11 14 16 16 11 0 0 17 11 17 10 1 11 16 15
split_gain=7026.39 733.227 636.762 130.595 118.001 98.6979 38.8203 35.8871 28.4357 28.1748 23.7804 22.6535 22.1292 21.5551 20.9633 19.7145 17.522 17.3227 17.2079 16.7409 14.9839 15.4857 13.3761 13.2072 13.0536 16.9542 12.6695 12.6087 12.528 12.4133
threshold=42.500000000000007 21.500000000000004 67.500000000000014 1.5000000000000002 32.500000000000007 94.500000000000014 56.500000000000007 16.500000000000004 15.500000000000002 1.0000000180025095e-35 7.5000000000000009 0.39000000000000007 17.500000000000004 36.695000000000007 3.5000000000000004 692.45000000000016 3.5000000000000004 16.500000000000004 18.500000000000004 3.9300000000000002 81.500000000000014 89.500000000000014 28.500000000000004 1076.1950000000004 28.500000000000004 0.44500000000000006 7.5000000000000009 340.18000000000006 19.500000000000004 1.5000000000000002
decision_type=2 2 2 2 2 2 2 2 2 2 2 2 2 2 2 2 2 2 2 2 2 2 2 2 2 2 2 2 2 2
left_child=1 3 6 19 7 20 13 18 23 -7 26 14 -11 22 15 -5 -9 -15 -3 -1 24 -22 -2 -6 -4 -26 -8 -21 -14 -10
right_child=2 4 5 11 8 9 10 16 29 12 -12 -13 28 17 -16 -17 -18 -19 -20 27 21 -23 -24 -25 25 -27 -28 -29 -30 -31
leaf_value=-0.026340859777087257 0.017671227104617857 -0.018043198922160789 0.043836405030849949 -0.028331418543135936 -0.0083564364487727898 0.084919596082503018 0.085114080669309047 -0.012149463750118349 0.0077250527997659232 -0.01017036823802853 0.034777849741451101 0.0055235380377201826 0.058460931982725464 0.023520281818721143 -0.017194872491952982 0.023521088739477922 0.00091393320851147547 0.040451951763489813 0.0065059759142524296 -0.040734759704696401 0.066644852624706166 0.04756697608932809 0.065715310734980548 0.027297995153752704 0.069090806634907881 0.046620749771030749 0.048195285418099698 -0.013146474057904143 0.072915359554585543 0.032206677352386408
leaf_weight=226.92153264582157 753.43955799937248 1650.8539057224989 366.03311255574226 2460.5386803597212 411.30374278128147 435.73677453398705 35.143171489238739 481.94421415030956 1057.3188376426697 8.5663023442029935 600.62469276785851 58.162446081638336 179.82482792437077 333.66107383370399 555.0121850669384 18.468627989292145 549.20634157955647 276.03606720268726 74.608850717544556 3244.319581836462 391.50049112737179 146.04835464060307 14.771394193172453 27.723834544420242 162.50576192140579 173.6538915336132 68.599427416920662 41.950726762413979 901.02912712097168 54.444222658872604
leaf_count=1457 3897 10134 1703 15982 2363 1836 161 2936 5792 39 2891 339 791 1691 3424 103 3182 1370 440 22169 1752 652 73 149 736 787 324 269 3857 288
internal_value=0 -0.0224138 0.04993 -0.0328798 -0.0063643 0.0656569 0.0290474 -0.0125715 0.00466928 0.074174 0.038596 -0.025386 0.0698761 0.0241663 -0.0259786 -0.0279451 -0.0051917 0.031186 -0.0169817 -0.0394756 0.055179 0.0614615 0.018595 -0.00610492 0.0503695 0.0574832 0.0607017 -0.0403826 0.0705105 0.00892394
internal_weight=0 10912.8 4847.17 6605.37 4307.4 2764.9 2082.28 2756.61 1550.79 1525.16 704.367 3092.18 1089.42 1377.91 3034.02 2479.01 1031.15 609.697 1725.46 3513.19 1239.74 537.549 768.211 439.028 702.193 336.16 103.743 3286.27 1080.85 1111.76
internal_count=91587 69027 22560 43743 25284 12153 10407 16692 8592 6523 3376 19848 4687 7031 19509 16085 6118 3061 10574 23895 5630 2404 3970 2512 3226 1523 485 22438 4648 6080
is_linear=0
shrinkage=0.05


Tree=8
num_leaves=31
num_cat=0
split_feature=0 0 0 0 0 0 0 17 17 19 17 5 6 7 17 16 7 7 11 7 16 7 16 16 15 3 2 1 16 3
split_gain=6301.7 689.178 558.815 107.419 61.0899 59.7995 56.2645 33.0827 25.5664 25.0922 24.9997 20.4464 19.7393 17.5509 16.4672 15.7997 15.0644 13.2591 11.8402 11.2919 11.1638 14.4121 15.8095 10.7759 11.2653 10.6878 10.1679 10.0197 9.96863 9.69895
threshold=42.500000000000007 21.500000000000004 73.500000000000014 32.500000000000007 57.500000000000007 94.500000000000014 14.500000000000002 16.500000000000004 15.500000000000002 113.50000000000001 36.500000000000007 697.82000000000005 0.34500000000000003 6.2250000000000005 25.500000000000004 18.500000000000004 27.235000000000003 22.915000000000003 1076.1950000000004 40.220000000000006 17.500000000000004 13.705000000000002 13.500000000000002 15.500000000000002 1.0000000180025095e-35 3.5000000000000004 3.5000000000000004 13.500000000000002 13.500000000000002 12.500000000000002
decision_type=2 2 2 2 2 2 2 2 2 2 2 2 2 2 2 2 2 2 2 2 2 2 2 2 2 2 2 2 2 2
left_child=1 6 4 7 14 19 12 15 18 -7 -11 13 -1 -8 -2 -3 -6 -12 -5 -4 21 22 -10 24 -9 -18 -24 -21 -15 -19
right_child=2 3 5 8 16 9 11 23 20 10 17 -13 -14 28 -16 -17 25 29 -20 27 -22 -23 26 -25 -26 -27 -28 -29 -30 -31
leaf_value=-0.036769050892092828 0.019229255152379509 -0.017330036032845286 0.055254513615397439 -0.0079762587763255802 0.044029812732223665 0.077803849715981227 -0.016570679393926157 -0.010646653514971301 0.0060192282104528302 0.042520813762761754 0.03021363282689217 0.029313303554310905 -0.025406275882297841 -0.029973851631333665 0.030311948819023202 0.0061573998421885689 0.014357965706339668 0.063759829651945904 0.025572716390812412 0.022664662830675707 0.01584618486785597 0.00011794435858532903 0.02446776227961971 0.001963524466937777 0.013507690092266114 0.035803450112783373 0.070635663939494539 0.053917163624901704 -0.02141349496253761 0.074468633528639055
leaf_weight=3589.6501789540052 956.73330217599869 1633.3069606423378 863.46715472638607 409.41212625801563 615.35176400840282 551.03031124174595 387.78301899135113 611.43749365210533 177.09425976872444 114.40506033599377 23.392439797520638 16.625878393650055 427.75707392394543 1615.6838684082031 515.9113746881485 74.88363741338253 76.695462495088577 491.77208246290684 28.104361116886139 53.242518246173859 349.41649340093136 504.49449615180492 71.540189445018768 364.15640868246555 52.409504741430283 239.58850602805614 14.311666473746298 49.480717942118645 430.75997765362263 370.91198122501373
leaf_count=24741 4897 10134 3812 2363 2850 2302 2534 3666 975 495 101 89 2883 10667 2523 440 369 2077 149 240 1863 2769 394 2142 310 1127 79 219 2829 1548
internal_value=0 -0.0216102 0.0466913 -0.00607242 0.0294511 0.0631549 -0.0319169 -0.0120353 0.0044242 0.0692359 0.0645169 -0.0259464 -0.0355592 -0.0263238 0.0231119 -0.0163004 0.0394716 0.0673569 -0.0058212 0.0533901 0.00843773 0.00506465 0.0145555 -0.00494823 -0.00873971 0.0306032 0.032164 0.0377187 -0.028172 0.0683641
internal_weight=0 10758.8 4921.98 4290.57 2404.28 2517.7 6468.26 2736.19 1554.37 1551.51 1000.48 2450.85 4017.41 2434.23 1472.64 1708.19 931.636 886.077 437.516 966.19 1116.86 767.441 262.946 1028 663.847 316.284 85.8519 102.723 2046.44 862.684
internal_count=91587 69027 22560 25284 11766 10794 43743 16692 8592 6523 4221 16119 27624 16030 7420 10574 4346 3726 2512 4271 6080 4217 1448 6118 3976 1496 473 459 13496 3625
is_linear=0
shrinkage=0.05


Tree=9
num_leaves=31
num_cat=0
split_feature=0 0 0 14 0 0 14 0 16 17 14 6 14 19 9 15 17 18 8 16 0 0 9 8 1 17 10 3 8 16
split_gain=5661.16 647.127 494.791 127.485 97.747 78.531 33.8625 31.857 25.8171 22.9891 22.9042 21.1015 19.8114 17.9861 17.035 16.4057 16.1615 13.098 12.8997 12.8411 12.163 12.9515 12.0354 11.7754 11.2356 11.053 14.3444 11.5798 10.9894 10.957
threshold=42.500000000000007 21.500000000000004 67.500000000000014 1.5000000000000002 32.500000000000007 94.500000000000014 3.5000000000000004 48.500000000000007 16.500000000000004 15.500000000000002 1.5000000000000002 0.39000000000000007 3.5000000000000004 43.500000000000007 108.24000000000001 1.0000000180025095e-35 36.500000000000007 45.500000000000007 26.435000000000006 20.500000000000004 81.500000000000014 89.500000000000014 6133.3600000000015 29.370000000000001 15.500000000000002 28.500000000000004 0.44500000000000006 8.5000000000000018 28.155000000000005 7.5000000000000009
decision_type=2 2 2 2 2 2 2 2 2 2 2 2 2 2 2 2 2 2 2 2 2 2 2 2 2 2 2 2 2 2
left_child=1 3 7 14 6 20 15 18 28 -6 24 12 13 -5 -1 17 -12 -3 -2 -20 25 -22 -16 -21 -7 -4 -27 -28 -8 -9
right_child=2 4 5 11 9 10 8 29 -10 -11 16 -13 -14 -15 22 -17 -18 -19 19 23 21 -23 -24 -25 -26 26 27 -29 -30 -31
leaf_value=-0.027276154746651834 0.0055723782053249075 -0.023003788538752741 0.038002546832308463 -0.026451183982810978 -0.0055499106433750597 0.08627057782372799 -0.01424029370736815 0.040442975633578689 0.0094242073708303755 0.0079792753333950538 0.047599700778823112 0.0065245118327467632 -0.015401330965263813 0.015993267183833867 -0.039264718681214325 0.0012905630525247593 0.063730847760408632 -0.01292868126802494 0.018010041042253542 0.086323454920246123 0.058396674572293486 0.041222099835537374 -0.012135508231549463 0.031412199963227798 0.069118720161610844 0.060822468082095828 0.033652704128257077 0.064117211093123253 -0.0040866646848825633 0.02801214580370099
leaf_weight=352.96201741695404 187.50298754870892 715.03502014279366 377.81787030398846 2363.6080319136381 436.06380033493042 138.76815274357796 513.94865940511227 207.22974714636803 232.09658072888851 1121.6407053172588 185.91621939837933 57.552033513784409 540.34215891361237 25.225873708724976 2955.3442849218845 114.39221423864365 941.98659667372704 587.74786819517612 451.54972825944424 12.258674278855322 405.74463665485382 150.48317191004753 41.455036580562592 47.960220977663994 306.08616191148758 168.60603398084641 138.78409089148045 40.236059308052063 553.45382726192474 1226.1228736341
leaf_count=2400 964 4572 1703 15940 2512 569 3157 986 1336 6080 795 339 3424 145 21223 702 3909 3631 2279 62 1752 652 272 237 1250 736 611 176 3294 5879
internal_value=0 -0.0208275 0.0437615 -0.030969 -0.00579339 0.0573746 -0.0115188 0.025541 -0.0056893 0.00419192 0.0648613 -0.0234582 -0.0240473 -0.026003 -0.0376658 -0.0168643 0.0610719 -0.0184584 0.0167918 0.0209024 0.0481876 0.0537502 -0.0388894 0.0425904 0.0744691 0.0439226 0.0503567 0.0404998 -0.00897558 0.0298094
internal_weight=0 10610.9 4987.05 6336.49 4274.38 2854.43 2716.67 2132.62 1299.5 1557.7 1572.76 2986.73 2929.18 2388.83 3349.76 1417.18 1127.9 1302.78 699.272 511.769 1281.67 556.228 2996.8 60.2189 444.854 725.444 347.626 179.02 1067.4 1433.35
internal_count=91587 69027 22560 43743 25284 12153 16692 10407 7787 8592 6523 19848 19509 16085 23895 8905 4704 8203 3542 2578 5630 2404 21495 299 1819 3226 1523 787 6451 6865
is_linear=0
shrinkage=0.05


Tree=10
num_leaves=31
num_cat=0
split_feature=0 0 0 14 0 17 0 14 6 16 16 6 14 19 9 18 16 14 0 7 14 17 14 18 11 16 0 7 14 0
split_gain=5097.2 563.091 494.972 122.895 71.9107 64.2493 52.5841 26.6557 24.7164 23.5587 20.8082 19.557 18.7063 16.6189 16.5902 16.4737 14.596 14.1915 13.9528 13.1098 13.0009 12.9177 12.3895 12.0204 11.809 11.5359 11.4568 11.1683 10.8396 10.7087
threshold=39.500000000000007 67.500000000000014 21.500000000000004 1.5000000000000002 85.500000000000014 16.500000000000004 48.500000000000007 5.5000000000000009 1.0000000180025095e-35 20.500000000000004 18.500000000000004 0.39000000000000007 3.5000000000000004 43.500000000000007 94.925000000000011 63.500000000000007 15.500000000000002 10.500000000000002 34.500000000000007 35.365000000000002 10.500000000000002 29.500000000000004 3.5000000000000004 170.50000000000003 340.18000000000006 17.500000000000004 61.500000000000007 18.490000000000006 1.5000000000000002 60.500000000000007
decision_type=2 2 2 2 2 2 2 2 2 2 2 2 2 2 2 2 2 2 2 2 2 2 2 2 2 2 2 2 2 2
left_child=2 6 3 14 21 10 15 25 -6 -10 18 12 13 -5 -1 -2 -9 -17 22 26 -11 27 -4 -23 -16 28 29 -3 -7 -8
right_child=1 4 5 11 8 7 19 16 9 20 -12 -13 -14 -15 24 17 -18 -19 -20 -21 -22 23 -24 -25 -26 -27 -28 -29 -30 -31
leaf_value=-0.025591201651144948 0.0038259561780306338 0.043945988094413899 -0.019767852463708338 -0.025570102373195458 0.068179739869549741 -0.02005870242565401 0.028100602286733379 0.0028054015191199154 0.045235494541555926 0.049172770647086597 0.0070973679893680062 0.0061748737040853985 -0.014772903214023338 0.015061122487124021 -0.03823311270447291 0.016004860053676809 0.022597526961569865 0.05030703411280233 -0.0027424401019943818 0.012164062697067546 0.062822704397420021 0.053151285294158815 -0.011271707550738322 0.031443836230265795 -0.01112112059735379 0.0054686549909929265 0.037540608368922188 0.029267311153280452 -0.0040093712797820069 0.0068528529949407396
leaf_weight=303.77250157296658 312.87449233233929 283.12457597255707 947.45314860343933 2323.8289963752031 560.20188939571381 117.93838338553905 940.11431393027306 209.44828981161118 385.68554128706455 224.65604466199875 119.52783650159836 57.764656603336334 535.29311649501324 25.442025765776634 2921.9638531655073 780.46448381245136 167.76253506541252 31.364347457885742 227.23437529802322 120.17622944712639 780.46218980848789 336.87150701880455 784.28602090477943 78.666409909725189 40.723031997680664 290.48713923990726 326.70529380440712 238.95091603696346 974.47675940394402 63.291550815105438
leaf_count=2087 1664 1237 6065 15940 2293 731 4516 1164 1624 936 691 339 3424 145 21539 3990 901 157 1304 574 3212 1447 4828 339 269 1632 1484 1065 5699 291
internal_value=0 0.0386882 -0.021317 -0.0300431 0.0538434 -0.00720306 0.0216871 -0.000173597 0.0593124 0.0557407 -0.0131557 -0.0226312 -0.0232081 -0.0251301 -0.0367194 0.0135735 0.0116078 0.0173301 -0.0143915 0.0279793 0.0597718 0.0424635 -0.01592 0.0490418 -0.0378605 -0.00338719 0.0294082 0.0372276 -0.00574208 0.0267604
internal_weight=0 5463.61 10047.4 6208.79 2888.62 3838.61 2574.99 1760.11 1951.01 1390.8 2078.5 2942.33 2884.56 2349.27 3266.46 1124.7 377.211 811.829 1958.97 1450.29 1005.12 937.613 1731.74 415.538 2962.69 1382.9 1330.11 522.075 1092.42 1003.41
internal_count=91587 24829 66758 43743 12153 23015 12676 10127 8065 5772 12888 19848 19509 16085 23895 5811 2065 4147 12197 6865 4148 4088 10893 1786 21808 8062 6291 2302 6430 4807
is_linear=0
shrinkage=0.05


Tree=11
num_leaves=31
num_cat=0
split_feature=6 3 17 5 14 20 14 6 10 14 14 14 17 12 3 3 14 12 17 18 11 16 8 17 18 16 12 16 9 5
split_gain=3314.11 764.774 434.772 274.065 170.075 140.563 76.0265 50.3677 107.088 44.6284 36.8901 36.8603 35.712 32.1419 25.1179 23.9242 19.8148 18.6884 31.2328 18.1643 17.8353 17.6889 32.6307 17.1568 16.5819 15.5574 12.6538 12.1518 12.0267 11.9441
threshold=0.065000000000000016 5.5000000000000009 16.500000000000004 964.73000000000013 1.5000000000000002 21.500000000000004 5.5000000000000009 0.025000000000000005 0.15500000000000003 3.5000000000000004 5.5000000000000009 3.5000000000000004 27.500000000000004 23.500000000000004 9.5000000000000018 2.5000000000000004 1.5000000000000002 8.5000000000000018 21.500000000000004 41.500000000000007 20.065000000000001 16.500000000000004 36.695000000000007 23.500000000000004 5.5000000000000009 14.500000000000002 35.500000000000007 14.500000000000002 18185.600000000002 942.92000000000007
decision_type=2 2 2 2 2 2 2 2 2 2 2 2 2 2 2 2 2 2 2 2 2 2 2 2 2 2 2 2 2 2
left_child=1 3 4 7 24 12 16 15 19 -10 26 20 17 -8 -7 -1 -4 -3 25 -9 -6 -11 -23 -12 -2 -19 -5 28 -15 -24
right_child=2 5 6 10 11 14 13 8 9 21 23 -13 -14 27 -16 -17 -18 18 -20 -21 -22 22 29 -25 -26 -27 -28 -29 -30 -31
leaf_value=0.0048940735357905713 -0.015377592035124166 0.034342478644712231 -0.022905719230102942 -0.0098033393850665042 -0.010488106833717772 0.04537198047421722 -0.00101147117316372 -0.026229389677036603 -0.0053190449276815672 0.0050075613412950276 0.021614577305410887 -0.012242932393882021 0.040557236376739622 0.018844299588404667 0.05756756287666074 0.023559521252636269 -0.0022434982435392561 -0.027828315544657586 0.029390778648723678 -0.0095766829315291103 -0.024765723209698526 0.010916437791831761 0.036630247134604145 0.043066604045138478 -0.036872847962951913 0.0090431585194383299 0.021852920395948359 0.042820409722399359 0.072735645891249937 -0.015137003790087346
leaf_weight=287.75623795390129 92.512855708599091 245.4796042740345 133.14242275059223 40.621317341923714 241.54972809553146 697.5833148509264 128.22944509983063 239.81680637598038 509.10746732354164 554.35585850477219 109.31876686215401 1037.547804877162 521.60889261960983 193.02442261576653 1069.4944430887699 425.55444258451462 902.85604600608349 34.269134998321533 242.03327108919621 516.28897055983543 2315.2670145630836 643.31920039653778 196.32818798720837 632.32109469175339 2971.917664706707 173.19712240993977 141.63706895709038 102.75044330954552 10.939308643341063 11.812951594591139
leaf_count=1605 656 1141 892 213 1633 2966 718 1612 2927 2943 510 6550 2268 959 4415 2118 5324 185 1165 3204 16007 3337 954 2733 22384 909 654 503 48 54
internal_value=0 0.0242907 -0.0221352 0.0108153 -0.0275697 0.0437484 0.0024664 0.00422625 0.00107408 0.00736504 0.0349516 -0.0201914 0.030669 0.02001 0.0527532 0.0160297 -0.00489893 0.0232475 0.0171883 -0.0148585 -0.0234169 0.0119585 0.016484 0.0399045 -0.0362239 0.00295275 0.0147974 0.0287985 0.0217347 0.0336922
internal_weight=0 7291.9 8129.74 4308.24 6658.8 2983.67 1470.94 3384.34 2671.03 1914.92 923.898 3594.36 1216.59 434.944 1767.08 713.311 1036 694.979 449.5 756.106 2556.82 1405.82 851.46 741.64 3064.43 207.466 182.258 306.714 203.964 208.141
internal_count=91587 35913 55674 22864 47230 13049 8444 18754 15031 10215 4110 24190 5668 2228 7381 3723 6216 3400 2259 4816 17640 7288 4345 3243 23040 1094 867 1510 1007 1008
is_linear=0
shrinkage=0.05


Tree=12
num_leaves=31
num_cat=0
split_feature=0 0 0 14 0 14 0 5 19 6 15 8 14 9 19 8 15 0 0 18 11 11 14 0 0 14 1 13 20 9
split_gain=4187.54 461.148 435.386 113.717 62.4468 51.5248 41.9228 29.5114 23.5945 17.8156 16.5103 17.0352 16.4967 15.2529 14.8741 13.181 13.0998 17.2574 11.6865 11.1423 11.0368 11.0115 10.9313 12.746 10.7888 10.7114 15.9061 10.3287 14.467 10.1045
threshold=39.500000000000007 67.500000000000014 21.500000000000004 1.5000000000000002 98.500000000000014 3.5000000000000004 48.500000000000007 314.96500000000009 102.50000000000001 0.39000000000000007 1.5000000000000002 37.655000000000008 3.5000000000000004 108.24000000000001 43.500000000000007 45.275000000000013 1.0000000180025095e-35 34.500000000000007 81.500000000000014 62.500000000000007 2904.2900000000004 340.18000000000006 1.0000000180025095e-35 5.5000000000000009 61.500000000000007 5.5000000000000009 1.5000000000000002 5.5000000000000009 8.5000000000000018 69627.920000000013
decision_type=2 2 2 2 2 2 2 2 2 2 2 2 2 2 2 2 2 2 2 2 2 2 2 2 2 2 2 2 2 2
left_child=2 6 3 13 18 16 10 -7 -6 12 11 -2 14 -1 -5 -10 17 19 29 -4 24 22 23 -15 -8 27 -27 -9 -29 -3
right_child=1 4 5 9 8 7 20 25 15 -11 -12 -13 -14 21 -16 -17 -18 -19 -20 -21 -22 -23 -24 -25 -26 26 -28 28 -30 -31
leaf_value=-0.024853719263639842 0.0058269853703885903 0.037824069928282966 -0.018346388839578186 -0.023942257088311807 0.065004711530300033 -0.012327930132064213 0.023228482435255757 -0.0018268923129748709 0.034431831141128182 0.0064205648664437832 0.036289853723815567 0.018975276888210997 -0.013692705035103246 -0.042144029938662453 0.014388249422739511 0.053134149512606248 0.0012849861482533624 -0.0012271994693371128 0.04535796871128403 -0.0065772729004476673 0.0052008998963817893 -0.010129534282835062 -0.039107490744788476 -0.029612313104917923 0.033370766118070182 -0.023818197623782608 0.010317313549813132 -0.0028356192823431815 0.0592312124455487 0.011945615833292253
leaf_weight=336.22700898349285 689.6837419718504 710.72307200729847 1150.6020665168762 2251.9897340536118 445.14583678543568 465.69465534389019 1062.2869627475739 1025.2657822519541 105.04500789940357 57.614960283041 65.994962990283966 383.23495692014694 526.7090273052454 268.18378917872906 25.59710967540741 913.34946247935295 148.46577498316765 220.20409932732582 722.91071425378323 243.70154754817486 68.64346607029438 40.132758617401123 1633.3815526515245 833.5789856761694 348.13530491292477 36.734545037150383 480.6744249612093 21.156584545969963 16.878824725747108 39.834752291440964
leaf_count=2400 3567 3053 7458 15940 1791 2919 4997 5953 432 339 332 1912 3424 2087 145 3700 901 1224 3004 1469 317 269 12662 6477 1551 211 2662 123 95 173
internal_value=0 0.0344856 -0.0198717 -0.0282951 0.0480869 -0.00666297 0.0192269 -0.00126564 0.0554023 -0.0211018 0.0120165 0.0105234 -0.0216673 -0.0349114 -0.0235115 0.051205 -0.012928 -0.014235 0.0408207 -0.0162893 0.0247791 -0.0361299 -0.0365114 -0.0326627 0.0257319 0.00199343 0.00789379 -0.000877728 0.0247075 0.0364506
internal_weight=0 5554.99 9782.79 5973.41 2937.01 3809.38 2617.98 2046.4 1463.54 2861.91 1138.91 1072.92 2804.3 3111.5 2277.59 1018.39 1762.97 1614.51 1473.47 1394.3 1479.07 2775.28 2735.14 1101.76 1410.42 1580.71 517.409 1063.3 38.0354 750.558
internal_count=91587 24829 66758 43743 12153 23015 12676 11963 5923 19848 5811 5479 19509 23895 16085 4132 11052 10151 6230 8927 6865 21495 21226 8564 6548 9044 2873 6171 218 3226
is_linear=0
shrinkage=0.05


Tree=13
num_leaves=31
num_cat=0
split_feature=0 0 0 14 0 17 0 14 19 17 16 7 3 16 7 17 15 18 14 14 11 7 7 16 14 15 0 14 3 14
split_gain=3782.42 414.103 408.585 109.342 57.7716 51.1014 37.1716 20.7869 19.0028 19.7172 17.8379 16.9908 17.3946 16.8311 15.839 15.4541 14.502 15.2469 18.0358 11.4128 11.1218 11.0862 11.0089 10.7273 10.5813 12.4418 10.6437 10.1477 10.2054 9.84576
threshold=39.500000000000007 67.500000000000014 21.500000000000004 1.5000000000000002 94.500000000000014 16.500000000000004 48.500000000000007 3.5000000000000004 115.50000000000001 36.500000000000007 18.500000000000004 4.0100000000000007 1.5000000000000002 15.500000000000002 3.4850000000000008 16.500000000000004 1.5000000000000002 63.500000000000007 4.5000000000000009 3.5000000000000004 340.18000000000006 22.915000000000003 35.365000000000002 15.500000000000002 3.5000000000000004 1.0000000180025095e-35 34.500000000000007 10.500000000000002 7.5000000000000009 7.5000000000000009
decision_type=2 2 2 2 2 2 2 2 2 2 2 2 2 2 2 2 2 2 2 2 2 2 2 2 2 2 2 2 2 2
left_child=2 6 3 14 -3 10 16 -7 -6 -10 24 -5 -13 -9 -1 19 17 -2 23 -14 -16 -11 -8 -19 25 26 -4 28 -20 -15
right_child=1 4 5 11 8 7 22 13 9 21 -12 12 15 29 20 -17 -18 18 27 -21 -22 -23 -24 -25 -26 -27 -28 -29 -30 -31
leaf_value=-0.027020553321161558 0.0004091561066882389 0.037696100279374922 -0.019812552738358167 -0.0071891648359913608 0.058968854256992123 -0.0071386793266393746 0.024614971408106298 -0.0012549115135801758 0.028500028465507365 0.017053267925659574 0.0069823220786894308 -0.027377531568668019 -0.021822089455994856 0.0089286587786445212 -0.03631548817874336 -0.00023118275249487685 0.033911733984586856 -0.013249530387674506 0.015841511893384234 -0.011098525620824853 -0.0096868395634292018 0.051071591269499429 0.0089926837016310705 0.0093671807274191988 -0.0089050967068664104 0.0029190787958960022 -0.0031876394047910366 0.047354552906116801 0.05467674113903627 0.033792437581013746
leaf_weight=640.42600420117378 301.6646493524313 1338.0721696317196 846.18691955506802 226.09043015539646 581.96909596025944 658.33136862516403 1369.2386901825666 628.82926987111568 118.67426079511642 24.609768941998482 119.61907289922237 843.96369343996048 1340.8481381982565 426.3962671905756 2356.3619007617235 107.04199495911598 67.06316851079464 74.83876083791256 479.29272837936878 304.45166689157486 39.875243350863457 892.62405921518803 122.89188934862614 175.08748331665993 884.20441661775112 77.425459712743759 108.63551898300648 29.585229516029358 17.535682916641235 43.916582003235817
leaf_count=4864 1587 5630 5607 1538 2340 3989 6291 3586 488 101 691 5970 9635 2323 18762 704 332 386 2388 2001 269 3594 574 890 5482 491 617 143 85 229
internal_value=0 0.0325318 -0.019143 -0.0274205 0.0453823 -0.00635861 0.0181282 -0.000112404 0.0517392 0.0476776 -0.0117501 -0.0203355 -0.0214803 0.00409599 -0.0340055 -0.0186401 0.0113519 0.00994841 0.0136551 -0.0198378 -0.0358724 0.0501589 0.0233283 0.00259476 -0.0129194 -0.0163579 -0.017921 0.0189063 0.0172122 0.0112504
internal_weight=0 5593.15 9652.6 5859.06 2955.95 3793.54 2637.2 1757.47 1617.88 1035.91 2036.07 2822.4 2596.31 1099.14 3036.66 1752.34 1145.07 1078 776.34 1645.3 2396.24 917.234 1492.13 249.926 1916.45 1032.25 954.822 526.414 496.828 470.313
internal_count=91587 24829 66758 43743 12153 23015 12676 10127 6523 4183 12888 19848 18310 6138 23895 12340 5811 5479 3892 11636 19031 3695 6865 1276 12197 6715 6224 2616 2473 2552
is_linear=0
shrinkage=0.05


Tree=14
num_leaves=31
num_cat=0
split_feature=0 0 0 14 0 17 0 14 8 16 7 14 16 6 16 16 14 1 16 16 11 11 8 1 0 7 12 5 14 11
split_gain=3418.67 383.05 373.233 105.034 48.4494 46.656 37.7595 20.641 19.791 23.2822 18.9462 18.7961 16.2914 15.9626 15.5543 15.0773 15.0595 14.8935 14.5634 14.4957 13.7785 13.2889 14.5596 12.8228 12.2762 12.219 12.1773 14.3594 11.3096 10.6892
threshold=39.500000000000007 21.500000000000004 73.500000000000014 1.5000000000000002 56.500000000000007 16.500000000000004 98.500000000000014 1.5000000000000002 37.025000000000013 16.500000000000004 7.3350000000000009 3.5000000000000004 17.500000000000004 0.39000000000000007 5.5000000000000009 15.500000000000002 3.5000000000000004 7.5000000000000009 20.500000000000004 16.500000000000004 692.45000000000016 2904.2900000000004 26.825000000000003 4.5000000000000009 43.500000000000007 42.025000000000006 36.500000000000007 393.00500000000005 5.5000000000000009 340.18000000000006
decision_type=2 2 2 2 2 2 2 2 2 2 2 2 2 2 2 2 2 2 2 2 2 2 2 2 2 2 2 2 2 2
left_child=1 3 4 14 8 12 25 -8 24 -10 17 -7 28 16 -1 -13 20 -6 -9 -12 -5 22 -21 -11 26 -4 27 -2 -3 -16
right_child=2 5 6 13 10 11 7 18 9 23 19 15 -14 -15 29 -17 -18 -19 -20 21 -22 -23 -24 -25 -26 -27 -28 -29 -30 -31
leaf_value=-0.025654041470434426 -0.013023048545321375 -0.014164868477950171 0.039273046521879323 -0.022302006648702868 0.06271796062960848 -0.0068105884583265696 0.059338610171337208 0.035355206048200492 0.012400806315496941 0.049037610766527892 0.013735785576665095 -0.0011930027866836179 0.0019139437016222676 0.0064617970103415679 -0.035301988823732977 0.010625514128300512 -0.012456874774831594 0.032386313900912789 0.049236250127805005 0.0051087846479808434 0.020617282089586006 0.0073660921504675172 0.033110227544085401 0.024838809043991845 0.012919372297995339 0.021370444652101857 -0.034949345576373247 0.010669124569236278 -0.0015164739776016964 -0.009069287056904898
leaf_weight=565.79610527306795 89.153407141566277 1612.1839642375708 1074.9422208964825 2191.1431449651718 56.19889010488987 655.61449033021927 402.75387415289879 245.01157659292221 447.9285684376955 69.062115579843521 252.34880697727203 628.39982123672962 210.62583221495152 57.589908540248871 2359.3508362546563 472.97461967170238 517.0627259761095 144.61180487275124 825.89427077770233 51.142055436968803 18.860786184668541 69.730281546711922 503.0326671153307 264.05270949006081 777.62024962902069 104.58400805294514 21.463171675801277 226.26275219023228 198.49137343466282 39.482677161693573
leaf_count=4363 492 10417 4434 15982 237 3989 1612 995 2179 324 1125 3586 1253 339 19264 2552 3424 623 3316 237 103 312 2201 1225 3786 437 112 1182 1218 268
internal_value=0 -0.0184342 0.0307211 -0.0265615 0.0185541 -0.00606715 0.0443529 0.0496894 0.0137424 0.0198453 0.0270223 -0.000107687 -0.0112473 -0.0195884 -0.0331113 0.00388235 -0.0201385 0.0408749 0.0460604 0.0238477 -0.0219357 0.0279376 0.0305261 0.0298558 0.00946543 0.0376857 0.00149268 0.00397245 -0.0127783 -0.0348702
internal_weight=0 9527.58 5625.79 5749.29 2972.61 3778.29 2653.19 1473.66 1895.54 781.043 1077.06 1756.99 2021.3 2784.66 2964.63 1101.37 2727.07 200.811 1070.91 876.254 2210 623.905 554.175 333.115 1114.5 1179.53 336.879 315.416 1810.68 2398.83
internal_count=91587 66758 24829 43743 14035 23015 10794 5923 9300 3728 4735 10127 12888 19848 23895 6138 19509 860 4311 3875 16085 2750 2438 1549 5572 4871 1786 1674 11635 19532
is_linear=0
shrinkage=0.05


Tree=15
num_leaves=31
num_cat=0
split_feature=0 0 0 14 0 18 0 14 6 7 3 7 17 17 17 0 7 0 2 17 18 10 8 8 0 11 14 14 13 20
split_gain=3091.81 358.835 337.723 100.764 50.2606 42.9432 30.0787 27.5862 19.5901 15.5436 16.6396 15.1599 14.3737 14.1899 13.7194 12.4398 10.9912 12.6322 10.6452 10.3237 13.0304 12.2915 10.5884 11.4233 11.0473 10.2269 10.0863 9.69054 9.44361 15.854
threshold=39.500000000000007 21.500000000000004 67.500000000000014 1.5000000000000002 85.500000000000014 37.500000000000007 47.500000000000007 3.5000000000000004 1.0000000180025095e-35 4.0100000000000007 1.5000000000000002 3.4850000000000008 21.500000000000004 16.500000000000004 18.500000000000004 163.50000000000003 27.235000000000003 61.500000000000007 11.500000000000002 28.500000000000004 170.50000000000003 0.58500000000000008 18.985000000000003 23.975000000000005 68.500000000000014 340.18000000000006 3.5000000000000004 5.5000000000000009 6.5000000000000009 11.500000000000002
decision_type=2 2 2 2 2 2 2 2 2 2 2 2 2 2 2 2 2 2 2 2 2 2 2 2 2 2 2 2 2 2
left_child=1 3 6 11 19 -3 14 18 -6 -5 -11 -1 -10 26 -2 -14 17 28 -7 22 -21 -22 24 -24 -4 -13 -12 -9 -8 -30
right_child=2 5 4 9 8 7 16 27 12 10 13 25 15 -15 -16 -17 -18 -19 -20 20 21 -23 23 -25 -26 -27 -28 -29 29 -31
leaf_value=-0.025273286636906245 0.0015866127095103884 -0.014702057541801219 0.073328150318307944 -0.0062043688066537378 0.052992745350143512 -0.0091349530488839762 0.022431029233978102 -0.0011173104137350335 0.012136905643831557 -0.025844862583481017 -0.020247691055441674 -0.034555208095623582 0.04008444244507646 0.00055205693485753968 0.013651930361296928 0.050885178819989531 0.013423626507421875 0.032816125433545944 0.035885301057053169 0.040634755956176855 -0.0085476761031007646 0.032244902162936483 -0.017571883226961082 0.021945539543439089 0.03053194537890724 -0.0088576110629277477 -0.010077669877096089 0.0070841924048181439 -0.0037379658216034894 0.028277137623577232
leaf_weight=616.53254877775908 358.56695897877216 994.12360611557961 15.986372485756872 222.85930860042572 569.83673653006554 1115.3542990535498 794.22336974740028 1107.3264829665422 39.110950291156769 817.66537265479565 1301.8522704094648 2239.3912881687284 1033.353518396616 105.93185287714005 687.10663124918938 359.28163108229637 420.34087190032005 250.13156868517399 13.286864817142485 382.29418843984604 27.483847960829735 56.283049896359444 20.012317255139351 212.17848655581474 265.7957279831171 39.398057922720909 299.97304171323776 533.78004445135593 96.1026681214571 64.705359414219856
leaf_count=4864 1877 6485 67 1538 2293 7029 3647 6470 162 5970 9635 18762 4170 704 3402 1440 1921 1079 74 1574 114 233 88 905 1107 269 2001 2957 452 298
internal_value=0 -0.017745 0.0290419 -0.0257198 0.0406095 -0.0057875 0.0161299 -0.00258786 0.045152 -0.0188624 -0.0199794 -0.032229 0.0420313 -0.0171711 0.00951467 0.0428709 0.0203854 0.0228136 -0.00860495 0.0313322 0.0367213 0.0188609 0.0264454 0.0185396 0.0329599 -0.0341109 -0.0183432 0.00155028 0.0201938 0.00914416
internal_weight=0 9407.48 5652.79 5643.6 2981.62 3763.87 2671.18 2769.75 2001.58 2748.28 2525.42 2895.32 1431.75 1707.76 1045.67 1392.64 1625.5 1205.16 1128.64 980.034 466.061 83.7669 513.973 232.191 281.782 2278.79 1601.83 1641.11 955.031 160.808
internal_count=91587 66758 24829 43743 12153 23015 12676 16530 8065 19848 18310 23895 5772 12340 5279 5610 7397 5476 7103 4088 1921 347 2167 993 1174 19031 11636 9427 4397 750
is_linear=0
shrinkage=0.05


Tree=16
num_leaves=31
num_cat=0
split_feature=0 0 0 14 17 0 0 19 8 16 14 17 14 16 16 6 3 17 16 1 11 8 1 3 3 16 8 1 0 11
split_gain=2797.35 335.842 307.187 96.5685 40.6025 38.9056 33.3113 19.7625 16.5926 20.1698 16.0273 15.8321 14.9349 14.9293 14.8437 14.3007 15.3697 13.1387 11.9087 11.649 11.245 12.193 11.1878 11.3951 10.945 11.0245 10.7577 10.1866 10.1688 10.144
threshold=39.500000000000007 21.500000000000004 73.500000000000014 1.5000000000000002 16.500000000000004 56.500000000000007 99.500000000000014 115.50000000000001 37.025000000000013 16.500000000000004 5.5000000000000009 33.500000000000007 1.0000000180025095e-35 18.500000000000004 5.5000000000000009 0.24500000000000002 1.5000000000000002 16.500000000000004 16.500000000000004 1.5000000000000002 2904.2900000000004 26.825000000000003 4.5000000000000009 4.5000000000000009 12.500000000000002 18.500000000000004 39.030000000000008 7.5000000000000009 43.500000000000007 3940.2300000000005
decision_type=2 2 2 2 2 2 2 2 2 2 2 2 2 2 2 2 2 2 2 2 2 2 2 2 2 2 2 2 2 2
left_child=1 3 5 14 13 8 29 -8 28 -10 -6 -9 27 -3 -1 16 -5 -18 26 -12 21 -20 -11 -24 -13 -26 -14 -7 -2 -4
right_child=2 4 6 15 10 12 7 11 9 22 19 24 18 -15 -16 -17 17 -19 20 -21 -22 -23 23 -25 25 -27 -28 -29 -30 -31
leaf_value=-0.023948514988340736 0.0010738587154036489 -0.011487853116935304 0.035396131480809799 -0.024913092145524042 -0.0025073653281221047 0.054737119453041078 0.053199756459563929 0.019426081709202767 0.010872006366059421 0.044692783701500059 -0.023714821793173333 0.037903645776651035 -0.0058409276348064428 0.0067073297247455411 -0.033128748163026786 -0.0059134420611254776 -0.017661530481892462 0.00052426890343517101 0.0041393799237736777 0.011334224319853189 0.0061104361067777328 0.029667392076589763 0.0091069192745257144 0.030367605832899797 0.0072908554798177972 0.050738979838860748 0.017989969917485294 0.029469971869343931 0.0114428439890236 0.021417730201933209
leaf_weight=545.54015219956636 338.14503611624241 1876.7981327474117 1059.6410607546568 805.81184336543083 1367.5555790364742 54.848724842071533 481.66810464859009 79.402195528149605 453.01569648087025 70.708730861544609 25.375127181410789 510.36433111131191 62.435246005654335 119.9420735090971 2283.1494494825602 219.28117252886295 1582.51359385252 105.96824334561825 51.492057844996452 360.59699960052967 70.243880465626717 510.63014516234398 101.29665450751781 166.80538791418076 15.194129675626753 373.42199628055096 196.08358709514141 146.25223831832409 786.19795176386833 147.90313169360161
leaf_count=4363 1786 12197 4326 5985 8062 227 1937 322 2179 324 143 2046 286 691 19532 1521 11638 704 237 1922 312 2200 466 759 61 1495 853 620 3786 607
internal_value=0 -0.0170748 0.0274755 -0.0248939 -0.00551948 0.0165216 0.0398278 0.0449091 0.012229 0.0177733 3.21405e-05 0.0408276 0.024054 -0.0103949 -0.0313583 -0.0181554 -0.0192316 -0.0165202 0.0212758 0.00902998 0.024972 0.027329 0.0270008 0.0223347 0.0427178 0.0490402 0.0122345 0.0363614 0.00832438 0.033684
internal_weight=0 9292.53 5675.75 5542.26 3750.27 3008.16 2667.59 1460.05 1916.17 791.826 1753.53 978.383 1091.99 1996.74 2828.69 2713.57 2494.29 1688.48 890.885 385.972 632.366 562.122 338.811 268.102 898.98 388.616 258.519 201.101 1124.34 1207.54
internal_count=91587 66758 24829 43743 23015 14035 10794 5861 9300 3728 10127 3924 4735 12888 23895 19848 18327 12342 3888 2065 2749 2437 1549 1225 3602 1556 1139 847 5572 4933
is_linear=0
shrinkage=0.05


Tree=17
num_leaves=31
num_cat=0
split_feature=0 0 14 18 0 0 0 14 9 11 7 5 14 7 14 3 12 3 5 6 20 11 0 1 18 7 2 14 4 1
split_gain=2535.59 366.641 235.875 94.3584 57.6508 34.6091 31.5115 17.886 17.1503 16.1122 15.0411 14.7314 13.5044 12.8577 12.5753 11.7564 12.1895 11.1804 11.1658 10.945 10.9133 22.1426 14.3902 10.1014 10.0925 10.0885 10.0201 10.0126 9.36016 9.15382
threshold=35.500000000000007 63.500000000000007 1.5000000000000002 37.500000000000007 85.500000000000014 19.500000000000004 44.500000000000007 3.5000000000000004 9244.7000000000025 20.065000000000001 3.4850000000000008 447.76500000000004 1.5000000000000002 5.2550000000000008 3.5000000000000004 12.500000000000002 76.500000000000014 5.5000000000000009 325.05000000000001 0.095000000000000015 13.500000000000002 131.05500000000004 43.500000000000007 1.5000000000000002 210.50000000000003 24.855000000000004 11.500000000000002 1.0000000180025095e-35 60.500000000000007 1.5000000000000002
decision_type=2 2 2 2 2 2 2 2 2 2 2 2 2 2 2 2 2 2 2 2 2 2 2 2 2 2 2 2 2 2
left_child=2 6 5 7 -3 10 11 9 -6 -4 -1 20 -13 -9 26 -10 24 -14 23 -8 21 22 -2 -11 -17 27 -5 -12 -16 -30
right_child=1 4 3 14 8 -7 19 13 15 18 25 12 17 -15 28 16 -18 -19 -20 -21 -22 -23 -24 -25 -26 -27 -28 -29 29 -31
leaf_value=-0.023824146377649721 0.016086130090246516 0.027111940702563064 -0.0069477056563824165 -0.0085252300296782407 0.048133252139636484 -0.017057451053412751 0.016247576008975095 0.011761200101986651 0.034763346899817769 -0.029914987642400914 -0.028703099502037956 -0.021814506156907505 0.0071932660791898546 -0.01249429385038483 0.028248162824625972 0.035312993770611194 0.047117752995204924 0.022371378322443208 0.01988372856214838 -0.01262467080894937 -0.017701839902902316 -0.010366848393405514 0.083006728939706287 -0.019712807927955045 -0.016673370722847657 0.024364908889400082 0.048033236722863977 -0.035845894597840065 -0.015565920092899255 0.00015864981092476052
leaf_weight=578.07318632304668 61.341978043317795 1260.4681812822819 234.39697951078415 934.66467854380608 565.92580296099186 537.36973292380571 1741.9640269875526 58.930468901991844 979.15806356072426 281.20439822971821 788.94166499376297 35.791294783353806 808.6358527392149 749.86629165709019 27.784733936190605 30.592674225568771 414.7892946600914 142.74552592635155 16.74455726146698 33.454548209905624 101.3215714097023 121.40329368412495 9.243705600500105 1768.435529589653 13.436308607459067 7.6537116467952719 7.8971863240003577 1297.5239785611629 100.52873019874096 1166.382235661149
leaf_count=4752 352 5246 1665 6106 2285 3681 8006 395 3939 2166 6932 193 4207 5000 181 123 1664 720 116 158 555 696 47 13345 54 54 44 11407 624 6874
internal_value=0 0.0238383 -0.0179206 -0.0114887 0.03549 -0.0286356 0.0113916 -0.0171228 0.0407599 -0.0193711 -0.0309639 0.00541301 0.00833631 -0.010727 -0.00365797 0.0378581 0.0444625 0.00947059 -0.0207803 0.0157035 -0.00442569 0.00258075 0.0248499 -0.0211125 0.0194483 -0.0329348 -0.00805136 -0.033145 -0.000459497 -0.00108909
internal_weight=0 6320.27 8556.4 5346.84 3264.37 3209.56 3055.9 3109.58 2003.9 2300.78 2672.19 1280.48 987.173 808.797 2237.26 1437.98 458.818 951.381 2066.38 1775.42 293.311 191.989 70.5857 2049.64 44.029 2094.12 942.562 2086.47 1294.7 1266.91
internal_count=91587 28245 63342 36516 13311 26826 14934 22687 8065 17292 23145 6770 5120 5395 13829 5780 1841 4927 15627 8164 1650 1095 399 15511 177 18393 6150 18339 7679 7498
is_linear=0
shrinkage=0.05


Tree=18
num_leaves=31
num_cat=0
split_feature=0 0 0 0 17 0 16 8 18 6 16 6 6 0 10 18 16 18 13 16 7 0 8 8 13 5 4 6 0 13
split_gain=2298.16 331.781 221.328 53.3855 51.7392 28.698 17.4337 19.1307 16.6351 15.9221 18.1512 14.5955 13.9687 13.1655 11.4007 11.7613 11.0755 9.61881 9.24353 9.01661 10.2805 8.97447 13.9919 8.71601 9.9459 12.1485 10.8869 8.61669 9.37632 8.41731
threshold=35.500000000000007 63.500000000000007 16.500000000000004 85.500000000000014 16.500000000000004 47.500000000000007 16.500000000000004 39.915000000000006 37.500000000000007 1.0000000180025095e-35 20.500000000000004 0.34500000000000003 0.16500000000000004 11.500000000000002 0.33500000000000008 99.500000000000014 13.500000000000002 51.500000000000007 5.5000000000000009 17.500000000000004 9.1550000000000029 5.5000000000000009 9.5150000000000023 32.660000000000004 1.0000000180025095e-35 2164.1000000000008 726.00000000000011 0.20500000000000004 5.5000000000000009 35.500000000000007
decision_type=2 2 2 2 2 2 2 2 2 2 2 2 2 2 2 2 2 2 2 2 2 2 2 2 2 2 2 2 2 2
left_child=2 5 11 -3 8 6 -2 14 12 -5 23 13 -4 27 15 17 -6 -8 -9 20 -10 -13 -23 -11 25 -25 -26 -1 -29 -12
right_child=1 3 4 9 16 -7 7 18 19 10 29 21 -14 -15 -16 -17 -18 -19 -20 -21 -22 22 -24 24 26 -27 -28 28 -30 -31
leaf_value=-0.032910691367862017 0.002047198383968996 0.025631285600163561 -0.017606581795867254 0.045847675774838496 -0.0073226674161413416 0.016113800934567987 -0.028370429433591068 0.025676863832626656 0.017964322282650724 -0.003659337645695634 0.038091277359942631 -0.026366036857791909 -0.0027765163025208583 -0.023696690197434471 -0.021032747631388314 0.036328895680179385 0.0015370814964964057 0.0094133107859909991 0.073009812257174206 0.0012463346741182428 -0.011585473963951796 0.034109428634517949 -0.013820145442289187 0.032478208006769371 0.029220742505073217 -0.0078306694948470298 0.058170803451502454 -0.035976372441973374 -0.023387786918901879 0.0543349316369146
leaf_weight=1035.2577555179596 973.71591018140316 1266.4579299986362 1766.200574606657 566.27778957784176 591.66600741446018 1382.7161120474339 17.435973808169365 116.40024887025356 30.387803122401237 21.982173874974251 945.75216533243656 142.25279991328716 174.46998673677444 1618.4466382861137 30.928248301148415 39.847714617848396 873.53145192563534 496.33797633647919 11.317431434988974 190.35548392683268 937.51664818823338 16.425721175968647 208.61400184035301 37.465838417410851 269.83894304931164 37.303707152605057 36.917804211378098 189.45386748015881 674.66694442927837 87.097516223788261
leaf_count=9061 5139 5246 12892 2293 3715 6239 97 552 208 90 3798 1164 1291 13106 149 195 5162 2510 53 1173 6285 120 1630 151 1085 150 148 1696 5839 350
internal_value=0 0.0225822 -0.017249 0.0336661 -0.0097827 0.0107746 0.00639573 0.0123405 -0.0134432 0.0387472 0.0359479 -0.0260201 -0.0162733 -0.0270104 0.0085102 0.0101606 -0.0020406 0.00813104 0.0298712 -0.00870136 -0.0106577 -0.0165357 -0.0103218 0.0269553 0.0287192 0.0123675 0.0327048 -0.0298339 -0.0261478 0.0394611
internal_weight=0 6337.79 8449.25 3269.09 4564.13 3068.7 1685.98 712.268 3098.93 2002.64 1436.36 3885.12 1940.67 3517.83 584.55 553.622 1465.2 513.774 127.718 1158.26 967.904 367.293 225.04 403.508 381.526 74.7695 306.757 1899.38 864.121 1032.85
internal_count=91587 28245 63342 13311 30726 14934 8695 3556 21849 8065 5772 32616 14183 29702 2951 2802 8877 2607 605 7666 6493 2914 1750 1624 1534 301 1233 16596 7535 4148
is_linear=0
shrinkage=0.05


Tree=19
num_leaves=31
num_cat=0
split_feature=0 0 14 18 0 0 0 16 14 14 16 11 16 16 18 16 14 7 12 11 7 20 7 1 7 5 7 1 0 0
split_gain=2083.27 301.515 216.488 79.6665 39.7039 34.7315 31.7017 17.8689 16.4016 16.2843 15.5896 15.1774 14.6 14.0874 12.3398 11.4744 13.911 11.4512 10.9911 10.8744 10.7263 10.914 10.6477 10.5511 10.298 10.1386 9.61485 9.50329 9.43892 10.8795
threshold=35.500000000000007 67.500000000000014 1.5000000000000002 37.500000000000007 96.500000000000014 47.500000000000007 19.500000000000004 18.500000000000004 1.5000000000000002 3.5000000000000004 16.500000000000004 20.065000000000001 6.5000000000000009 19.500000000000004 51.500000000000007 13.500000000000002 5.5000000000000009 5.2550000000000008 26.500000000000004 656.30000000000007 13.335000000000003 26.500000000000004 24.855000000000004 15.500000000000002 12.010000000000002 325.05000000000001 27.015000000000004 1.5000000000000002 56.500000000000007 50.500000000000007
decision_type=2 2 2 2 2 2 2 2 2 2 2 2 2 2 2 2 2 2 2 2 2 2 2 2 2 2 2 2 2 2
left_child=2 5 6 9 -3 10 12 -8 23 11 -2 -4 -1 -10 -12 24 20 -11 -9 -18 -17 -22 -14 -6 -5 27 28 -13 29 -7
right_child=1 4 3 15 8 26 7 18 13 17 14 25 22 -15 -16 16 19 -19 -20 -21 21 -23 -24 -25 -26 -27 -28 -29 -30 -31
leaf_value=-0.023967973394649816 0.0019428623708798655 0.027040473467702348 -0.0057170235312383536 -0.0030348892150612473 0.059018802570556299 0.022830035367721269 -0.01807718460159926 -0.0018278249175579997 0.022849270708994993 0.011648677801514188 -0.02924160099478797 -0.028306369028819375 -0.03227630405594839 0.03790585868113644 0.012713765947143678 0.0079892690479275962 0.018872923126921144 -0.011245042485642223 0.06349425409802234 -0.0071282532316648819 -0.0050782554666442652 0.052242565004460222 0.028205894135144689 0.041745065360071498 -0.014546804363953881 0.019371540950770302 0.0099210468037997761 -0.01822762077179952 0.023652860133467277 0.0099692430087619851
leaf_weight=835.09099937230349 974.68089658021927 1465.1048131287098 230.20977418124676 443.35640341043472 127.13790875673294 261.90275900065899 500.56084781140089 16.527034275233749 186.54360277950764 58.999745145440102 17.977045372128487 270.69561333209276 1719.7861637175083 929.09195379912853 697.92361275851727 201.77053602039814 144.68908797204494 735.90962117910385 10.550611853599547 55.689908415079117 1025.3475603014231 8.372063606977461 7.3077433928847304 290.15985369682312 345.77279359102249 16.831443756818771 442.61901894211769 1719.8867370635271 516.99407981336117 441.90497885644436
leaf_count=7288 5139 5966 1665 2812 518 1208 3515 105 749 395 101 2166 15806 3735 3455 1284 821 5000 61 302 6336 45 51 1185 2229 116 1978 13345 2211 2000
internal_value=0 0.021404 -0.016594 -0.0104211 0.0329261 0.0111048 -0.0270976 -0.0159371 0.0385514 -0.0156931 0.00605782 -0.017877 -0.0293959 0.0353883 0.0116602 -0.00323564 -0.000573775 -0.00954583 0.0236245 0.0116466 -0.00255575 -0.00461402 -0.0320204 0.0470078 -0.00807907 -0.0192715 0.0162342 -0.0195982 0.0185232 0.014755
internal_weight=0 6352.04 8347.35 5257.53 2998.04 3354 3089.82 527.638 1532.93 3032.53 1690.58 2237.62 2562.18 1115.64 715.901 2225 1435.87 794.909 27.0776 200.379 1235.49 1033.72 1727.09 417.298 789.129 2007.41 1663.42 1990.58 1220.8 703.808
internal_count=91587 28245 63342 36516 12153 16092 26826 3681 6187 22687 8695 17292 23145 4484 3556 13829 8788 5395 166 1123 7665 6381 15857 1703 5041 15627 7397 15511 5419 3208
is_linear=0
shrinkage=0.05


Tree=20
num_leaves=31
num_cat=0
split_feature=0 0 14 10 0 0 0 14 16 19 7 17 15 8 16 11 17 1 15 14 12 12 7 7 0 14 12 10 12 0
split_gain=1888.91 273.854 203.825 70.0371 37.2423 31.0841 30.3886 17.4382 16.2326 15.2109 14.1447 14.0987 13.7351 15.3368 13.8215 13.0014 11.0093 10.9216 11.1901 10.2663 9.4542 9.45378 9.32116 9.13883 9.11437 8.67132 13.2305 12.9179 8.58032 9.83452
threshold=35.500000000000007 67.500000000000014 1.5000000000000002 0.10500000000000002 98.500000000000014 48.500000000000007 19.500000000000004 3.5000000000000004 18.500000000000004 115.50000000000001 3.4850000000000008 33.500000000000007 1.5000000000000002 37.655000000000008 16.500000000000004 22.685000000000006 16.500000000000004 1.5000000000000002 1.5000000000000002 1.0000000180025095e-35 3.5000000000000004 26.500000000000004 40.980000000000011 5.2550000000000008 81.500000000000014 4.5000000000000009 38.500000000000007 0.19500000000000003 76.500000000000014 102.50000000000001
decision_type=2 2 2 2 2 2 2 2 2 2 2 2 2 2 2 2 2 2 2 2 2 2 2 2 2 2 2 2 2 2
left_child=2 5 6 7 22 12 10 15 -8 -6 -1 -11 13 -2 25 -4 -5 -17 -19 20 -12 -10 24 -9 -3 27 -27 -15 29 -13
right_child=1 4 3 16 9 -7 8 23 21 11 19 28 -14 14 -16 17 -18 18 -20 -21 -22 -23 -24 -25 -26 26 -28 -29 -30 -31
leaf_value=-0.021478058615298078 0.0016202512942731899 0.02325301011292932 -0.0064413162436017593 -0.0071640722075865656 0.044303364644386251 0.015689178651191144 -0.017381880445591455 0.010205337508557193 -0.0017384068486153209 0.013607202725685358 -0.036400845414098236 0.05455215678290673 0.024087920312503373 0.025483568456088929 0.022972795380331926 -0.027818601774400764 0.00025896624977280109 -0.017235571068949251 0.027071384992414273 -0.033381730344939513 -0.022869667142783118 0.058228993989821447 0.01339317742588585 -0.010010114695968025 0.031340562619281649 0.0088734055387220453 0.063201792731179041 -0.014145359524742503 0.036713953685288049 0.0097682552605784043
leaf_weight=549.59966892004013 1132.6415694206953 738.61031931638718 261.50917153805494 850.32606081664562 479.17140781879425 1556.8442258238792 494.70719467848539 60.071665182709694 16.508758641779426 82.131819263100624 166.56449259072542 15.453045308589934 99.748439148068428 26.658934101462364 183.38131718337536 261.74569341540337 1210.6959799677134 1755.3509405255318 14.367164783179758 1216.3722284212708 573.77710086107254 10.919338241219519 136.82053370773792 806.33831082284451 659.33843323588371 265.43904784321785 11.700281038880346 89.946072101593018 826.3981114178896 59.306103751063347
leaf_count=4752 5893 3019 1923 5549 1962 6865 3515 399 105 330 1579 62 488 144 855 2133 7168 13741 105 11448 5366 61 561 5498 2650 1328 54 465 3331 238
internal_value=0 0.0202965 -0.0159603 -0.00997397 0.0312891 0.0105093 -0.0262794 -0.0146516 -0.015306 0.0369987 -0.0285655 0.033439 0.00605275 0.00500057 0.0116346 -0.016935 -0.00280359 -0.0182858 -0.0168759 -0.0305562 -0.025914 0.0221351 0.0258485 -0.0086085 0.0270675 0.00635405 0.011167 -0.00508516 0.0352465 0.0190253
internal_weight=0 6363.59 8248.85 5220.4 2997.23 3366.36 3028.45 3159.38 522.135 1462.46 2506.31 983.289 1809.52 1709.77 577.126 2292.97 2061.02 2031.46 1769.72 1956.71 740.342 27.4281 1534.77 866.41 1397.95 393.744 277.139 116.605 901.157 74.7591
internal_count=91587 28245 63342 36516 12153 16092 26826 23799 3681 5923 23145 3961 9227 8739 2846 17902 12717 15979 13846 18393 6945 166 6230 5897 5669 1991 1382 609 3631 300
is_linear=0
shrinkage=0.05


Tree=21
num_leaves=31
num_cat=0
split_feature=0 0 14 18 0 0 0 16 8 16 19 8 4 5 14 14 1 14 7 7 6 3 13 1 9 1 7 7 16 1
split_gain=1712.87 249.376 191.699 68.3752 43.5371 29.084 20.8622 14.751 14.6368 13.8256 12.3501 13.2105 11.8714 11.49 12.0483 11.1926 11.02 14.0567 10.1264 9.8422 9.67473 9.4959 9.08156 10.8739 8.879 8.68656 19.4817 8.37427 11.5367 8.25979
threshold=35.500000000000007 63.500000000000007 1.5000000000000002 37.500000000000007 94.500000000000014 19.500000000000004 44.500000000000007 18.500000000000004 42.940000000000005 6.5000000000000009 113.50000000000001 45.275000000000013 11.500000000000002 447.76500000000004 1.5000000000000002 3.5000000000000004 1.5000000000000002 5.5000000000000009 24.855000000000004 22.915000000000003 0.095000000000000015 5.5000000000000009 1.0000000180025095e-35 17.500000000000004 5305.0700000000006 7.5000000000000009 6.5150000000000015 32.530000000000008 21.500000000000004 13.500000000000002
decision_type=2 2 2 2 2 2 2 2 2 2 2 2 2 2 2 2 2 2 2 2 2 2 2 2 2 2 2 2 2 2
left_child=2 6 5 8 27 9 13 -7 12 -1 -6 -12 -4 25 -15 -14 -5 29 -11 -13 -8 24 23 -21 -16 26 -2 -3 -29 -18
right_child=1 4 3 16 10 7 20 -9 -10 18 11 19 15 14 21 -17 17 -19 -20 22 -22 -23 -24 -25 -26 -27 -28 28 -30 -31
leaf_value=-0.022378658951948918 0.024224139862695313 0.025148614611091358 0.018196396970044715 -0.016427744561499227 0.04075324125883955 -0.016707058461458518 0.013070718129723042 0.020769806539307569 0.010020887921738632 -0.030632952269700194 0.014821061597101164 0.0033603779897623839 -0.017169785770463002 -0.021712014449613081 0.042231047200921377 -0.010089808613997097 -0.0038894896021288844 0.0082464134498932435 0.028415177668727157 0.0094184915903655613 -0.013932453622155836 0.019624175613188043 0.036425045812614375 0.037431366249830546 0.0050228186091037692 -0.016184198967654932 -0.0095580267343454445 0.006927710974400654 0.024480528572016665 0.041462624440329408
leaf_weight=805.67917282879353 64.461870595812798 1285.0282652527094 26.67776258289814 140.85852442681789 560.14708034694195 489.10059050470591 1775.4662578850985 27.74592137336731 59.627072252333164 1639.7901925742626 106.01104421913624 26.428986385464668 2126.6573072746396 35.721092000603676 16.360390678048134 756.90268293023109 1774.7097849398851 289.39939491450787 7.2930568605661383 73.905110329389572 33.801804751157761 145.61111409962177 774.03590562939644 65.208324700593948 802.22682563960552 102.58338616788387 126.28100280463696 168.2592921257019 211.00456757843494 10.096659541130064
leaf_count=7288 357 5229 170 922 2302 3515 8006 166 405 15806 426 106 16902 193 85 5210 11215 1638 51 297 158 720 3128 264 4122 565 728 696 863 54
internal_value=0 0.0192543 -0.0153448 -0.00954302 0.0288887 -0.0254746 0.0090998 -0.0146952 -0.0145018 -0.027746 0.0347623 0.0315527 -0.0150042 0.00425022 0.00680283 -0.0153114 -0.00289453 -0.00197549 -0.0303715 0.0334406 0.0125662 0.00785923 0.0343112 0.0225493 0.00576647 -0.00445134 0.00185871 0.0232218 0.0166933 -0.00363293
internal_weight=0 6372.54 8154.54 5184.93 3270.03 2969.61 3102.51 516.847 2969.86 2452.76 1605.74 1045.59 2910.24 1293.25 999.919 2883.56 2215.06 2074.21 1647.08 939.578 1809.27 964.198 913.149 139.113 818.587 293.326 190.743 1664.29 379.264 1784.81
internal_count=91587 28245 63342 36516 13311 26826 14934 3681 22687 23145 6523 4221 22282 6770 5120 22112 13829 12907 15857 3795 8164 4927 3689 561 4207 1650 1085 6788 1559 11269
is_linear=0
shrinkage=0.05


Tree=22
num_leaves=31
num_cat=0
split_feature=0 0 14 5 0 0 0 14 14 9 16 9 15 8 7 14 16 14 0 10 16 1 15 20 14 9 16 7 5 17
split_gain=1553.28 228.969 180.081 62.699 33.7885 27.8003 22.8631 14.1887 14.086 13.7062 13.4115 12.1537 12.0511 13.415 14.3704 11.9075 11.8544 11.6716 14.8107 10.6323 10.1631 10.0424 10.2741 10.0251 9.9699 9.79748 9.2938 9.76015 9.65848 9.03908
threshold=35.500000000000007 73.500000000000014 1.5000000000000002 314.96500000000009 48.500000000000007 19.500000000000004 99.500000000000014 3.5000000000000004 1.5000000000000002 108.24000000000001 18.500000000000004 408.31500000000011 1.5000000000000002 39.915000000000006 21.085000000000004 4.5000000000000009 12.500000000000002 1.0000000180025095e-35 5.5000000000000009 0.19500000000000003 10.500000000000002 1.5000000000000002 1.5000000000000002 30.500000000000004 3.5000000000000004 51892.660000000011 16.500000000000004 7.5650000000000004 769.75500000000011 33.500000000000007
decision_type=2 2 2 2 2 2 2 2 2 2 2 2 2 2 2 2 2 2 2 2 2 2 2 2 2 2 2 2 2 2
left_child=2 4 5 7 12 9 -3 11 23 -1 -7 -4 13 -2 15 19 -10 18 -11 -15 -17 -13 -23 -8 -5 -6 27 -26 -29 -18
right_child=1 6 3 24 25 10 8 -9 16 17 -12 21 -14 14 -16 20 29 -19 -20 -21 -22 22 -24 -25 26 -27 -28 28 -30 -31
leaf_value=-0.016301119030295293 0.001639557106144627 0.024454166937862516 -0.0055213143375314458 -0.0065247892460786163 0.015806443698869462 -0.016052458840839817 0.054354490639853197 -0.0081443088374770125 -0.0079578432150511098 -0.035317632736864578 0.01949584940602055 -0.026326538300706838 0.022168427208452593 0.025680796058964811 0.036718900311166681 -0.015885067877592619 0.01805850010869486 -0.031356804003309056 -0.020137239763674993 -0.01152966175086767 0.016605333802231937 -0.016032068074251764 0.026260258480212885 0.036684471559272271 0.026297311280534946 0.00035101033637283986 0.0075795675026804031 -0.0023753914925083697 -0.039613377426904184 0.033120931198687475
leaf_weight=268.95072016119957 1235.1324862241745 1224.8203513175249 258.82738377153873 843.77568527311087 1792.0001182407141 483.73299508541822 114.4399046599865 856.11122019588947 19.400659367442131 212.3852114379406 28.072336174547672 253.92198959738016 101.05733302235603 23.681453481316566 50.463880583643913 26.326262831687927 111.68249125778675 1260.1391554996371 659.94405598193407 101.37767119705677 280.7034178674221 1714.1486126855016 14.481458015739916 268.84158729016781 29.086566776037216 108.76319156587124 339.0347166955471 823.8000648021698 17.789128497242928 920.92845392227173
leaf_count=2290 6380 4933 1929 5535 7751 3515 478 5893 78 2087 166 2135 488 125 232 133 448 12392 6376 517 1352 13738 105 1123 178 473 1908 4994 101 3734
internal_value=0 0.0182711 -0.0147474 -0.00912833 0.0102605 -0.0246827 0.0294721 -0.0136199 0.0337541 -0.0269376 -0.0141026 -0.0157113 0.00538868 0.00440147 0.0114708 0.00852206 0.0307643 -0.0282791 -0.0238332 -0.00448341 0.0138194 -0.0170416 -0.0156778 0.0419604 -0.00235325 0.0149221 0.000556414 -0.00217835 -0.00316251 0.0314918
internal_weight=0 6379.62 8064.2 5150.98 3719.51 2913.22 2660.11 3097.49 1435.29 2401.42 511.805 2241.38 1818.74 1717.69 482.553 432.089 1052.01 2132.47 872.329 125.059 307.03 1982.55 1728.63 383.281 2053.49 1900.76 1209.71 870.676 841.589 1032.61
internal_count=91587 28245 63342 36516 17451 26826 10794 23800 5861 23145 3681 17907 9227 8739 2359 2127 4260 20855 8463 642 1485 15978 13843 1601 12716 8224 7181 5273 5095 4182
is_linear=0
shrinkage=0.05


Tree=23
num_leaves=31
num_cat=0
split_feature=0 0 14 18 0 0 8 16 8 16 16 11 16 14 17 16 4 15 14 4 15 4 16 14 7 0 0 20 20 14
split_gain=1408.64 209.384 168.977 58.3763 43.7568 26.5336 15.6247 14.6439 13.2978 13.22 12.1945 10.8361 12.339 10.7093 15.9863 11.9117 10.6365 10.1925 10.7401 11.31 10.088 10.0749 9.66676 9.60704 9.59704 9.15722 8.97971 9.32123 8.81456 8.66477
threshold=35.500000000000007 81.500000000000014 1.5000000000000002 37.500000000000007 56.500000000000007 19.500000000000004 37.025000000000013 16.500000000000004 42.940000000000005 6.5000000000000009 18.500000000000004 3940.2300000000005 21.500000000000004 1.0000000180025095e-35 21.500000000000004 20.500000000000004 11.500000000000002 1.0000000180025095e-35 3.5000000000000004 60.500000000000007 1.5000000000000002 296.50000000000006 16.500000000000004 3.5000000000000004 24.855000000000004 23.500000000000004 99.500000000000014 30.500000000000004 24.500000000000004 10.500000000000002
decision_type=2 2 2 2 2 2 2 2 2 2 2 2 2 2 2 2 2 2 2 2 2 2 2 2 2 2 2 2 2 2
left_child=2 4 5 8 6 9 20 -8 16 -1 -7 -6 -13 26 -15 -16 -4 18 -5 -20 28 -14 -21 -18 -11 -24 -3 -28 -2 -17
right_child=1 13 3 17 11 10 7 -9 -10 24 -12 12 21 14 15 29 23 -19 19 22 -22 -23 25 -25 -26 -27 27 -29 -30 -31
leaf_value=-0.020808595613633102 0.003689245823562691 0.027915960931979174 0.017439030055093997 -0.0079819204023475736 0.018154545757938248 -0.015417818345784817 0.0068238299090347043 0.01911749223199749 0.009991895108253341 -0.029042065863438545 0.01831600840817146 -0.025928954810631118 -0.0070340372964791884 -8.3568820375404599e-06 0.0216644779042174 0.02358679120388555 -0.01591282798958665 0.0084939800139470951 0.031530298836638625 -0.0041046304322997235 0.019212971659214498 0.051324274980940825 -0.025404097096778485 -0.0093049879309121866 0.028461418130344796 0.0084963502831988356 0.052346728433807846 0.035148251932174489 -0.01204722774313615 0.033973868969394333
leaf_weight=777.96858344972134 1394.744813516736 241.72226056456566 26.878809481859207 833.89417725801468 1528.9372417628765 478.59635348618031 617.07412837445736 398.76996475458145 59.628229580819607 1566.9794128090143 28.378459475934505 30.340212762355804 16.360347449779514 50.477081030607224 440.79462824761868 266.37470602989197 2077.6629989594221 189.44122791290283 26.813727498054504 842.79580272734165 98.424405708909035 13.496861621737478 21.379359543323517 748.12655955553055 7.2896170094609252 291.85990904271603 112.1113453656435 265.01520805060863 95.051279053092003 815.27483548223972
leaf_count=7288 7024 974 170 5607 6348 3515 2987 1781 405 15806 166 129 69 204 1769 1074 16902 1136 175 5151 467 56 133 5210 51 1627 474 1116 457 3316
internal_value=0 0.0173431 -0.0141684 -0.00872965 0.010797 -0.0239046 0.00680696 0.0116497 -0.0133772 -0.0261408 -0.0135295 0.0173353 -0.00347278 0.029867 0.0276747 0.0285925 -0.0138656 -0.00259465 -0.00363625 -0.0005726 0.00370948 0.0193467 -0.00131721 -0.0141634 -0.0287758 0.00618256 0.035439 0.040261 0.00268523 0.0314159
internal_weight=0 6384.97 7977.69 5118.48 4193.2 2859.21 2604.06 1015.84 2912.3 2352.24 506.975 1589.13 60.1974 2191.77 1572.92 1522.44 2852.67 2206.18 2016.74 1182.85 1588.22 29.8572 1156.04 2825.79 1574.27 313.239 618.849 377.127 1489.8 1081.65
internal_count=91587 28245 63342 36516 19318 26826 12716 4768 22687 23145 3681 6602 254 8927 6363 6159 22282 13829 12693 7086 7948 125 6911 22112 15857 1760 2564 1590 7481 4390
is_linear=0
shrinkage=0.05


Tree=24
num_leaves=31
num_cat=0
split_feature=0 0 0 0 17 16 8 8 16 9 16 17 1 15 7 2 13 0 1 19 17 16 11 16 7 0 7 12 0 4
split_gain=1277.52 191.397 156.984 39.5407 34.0468 12.6249 15.2227 12.0849 12.3973 9.76723 13.9886 9.72099 9.68955 9.59976 8.70941 13.2459 14.3573 11.4453 10.1128 8.58868 8.74882 8.5504 8.53559 11.7836 8.50985 12.6088 8.46933 12.1444 11.2478 11.7329
threshold=35.500000000000007 81.500000000000014 16.500000000000004 57.500000000000007 16.500000000000004 16.500000000000004 37.655000000000008 39.030000000000008 16.500000000000004 9244.7000000000025 20.500000000000004 31.500000000000004 2.5000000000000004 1.0000000180025095e-35 15.640000000000002 5.5000000000000009 7.5000000000000009 47.500000000000007 5.5000000000000009 70.500000000000014 19.500000000000004 13.500000000000002 3940.2300000000005 21.500000000000004 13.335000000000003 32.500000000000007 2.5350000000000006 1.5000000000000002 11.500000000000002 26.500000000000004
decision_type=2 2 2 2 2 2 2 2 2 2 2 2 2 2 2 2 2 2 2 2 2 2 2 2 2 2 2 2 2 2
left_child=2 3 26 5 7 14 -7 8 -4 -3 19 -8 -10 21 15 16 17 -2 -19 -11 -21 -6 -5 -24 25 -23 27 -1 -28 -30
right_child=1 9 4 22 13 6 11 -9 12 10 -12 -13 -14 -15 -16 -17 -18 18 -20 20 -22 24 23 -25 -26 -27 28 -29 29 -31
leaf_value=-0.043364267828115879 0.0080719714620481765 0.033781708400820815 -0.012037160343520509 0.017482579644558172 -0.0071615795564361805 0.0064922218224866581 0.024072972304063956 0.011429086300607306 -0.054839294479875102 -0.010731849044374547 0.029457622641953819 0.0077529172465154884 -0.0003114564668703971 0.012392461318970534 -0.00087106539098630352 -0.0058320701478428534 -0.014545695046054611 0.037016910923263112 0.012101592727710558 -0.018232034277482666 0.021930491275410087 0.0049874537891437505 -0.024588788677780478 0.020352402936983274 -0.0017407101383040903 0.041932422771376182 -0.025088388958273918 -0.011035104934802135 -0.009390100197443579 -0.021169192011633132
leaf_weight=32.036537766456604 433.42082899808884 620.57393209636211 2559.019413150847 1445.8170222640038 532.7365098670125 838.13229030370712 259.86715339124203 62.093190729618073 8.3606820255517942 22.900855407118797 1095.9174728542566 140.61859646439552 319.03959851711988 122.0011847242713 646.51324278116226 163.32107594609261 54.209787860512733 75.531814023852348 88.382482081651688 14.000211745500563 430.86522379517555 148.54617694020271 29.049559265375137 29.294311448931694 614.94026164710522 27.345593616366386 1695.519768550992 311.46593376994133 256.37237966805696 1205.3766856044531
leaf_count=250 2263 2586 19266 5967 3445 4046 1159 451 59 92 4462 611 2073 708 3199 818 274 339 396 57 1730 954 124 122 3620 150 16690 2673 2289 10714
internal_value=0 0.0164675 -0.0136071 0.0102293 -0.00731387 0.00661009 0.0103239 -0.0103956 -0.0108651 0.0284743 0.026368 0.0183427 -0.00170391 -0.00102813 0.00346242 0.0069006 0.0100923 0.0123282 0.0235826 0.0191294 0.0206665 -0.00226519 0.016726 -0.00202393 0.00103322 0.0107312 -0.0215062 -0.0140503 -0.0223174 -0.0191033
internal_weight=0 6388.42 7894.85 4204.16 4394.08 2700 1238.62 2948.51 2886.42 2184.26 1563.68 400.486 327.4 1445.57 1461.38 814.866 651.545 597.335 163.914 467.766 444.865 1323.57 1504.16 58.3439 790.832 175.892 3500.77 343.502 3157.27 1461.75
internal_count=91587 28245 63342 19318 30726 13105 5816 21849 21398 8927 6341 1770 2132 8877 7289 4090 3272 2998 735 1879 1787 8169 6213 246 4724 1104 32616 2923 29693 13003
is_linear=0
shrinkage=0.05


end of trees

feature_importances:
Column_0=153
Column_14=111
Column_16=76
Column_17=67
Column_7=46
Column_1=31
Column_8=31
Column_11=31
Column_6=28
Column_18=26
Column_12=24
Column_3=19
Column_15=19
Column_5=18
Column_9=13
Column_20=12
Column_10=11
Column_19=11
Column_4=9
Column_13=9
Column_2=5

parameters:
[boosting: gbdt]
[objective: binary]
[metric: auc]
[tree_learner: serial]
[device_type: cpu]
[data: ]
[valid: ]
[num_iterations: 10000]
[learning_rate: 0.05]
[num_leaves: 31]
[num_threads: 0]
[deterministic: 0]
[force_col_wise: 0]
[force_row_wise: 0]
[histogram_pool_size: -1]
[max_depth: -1]
[min_data_in_leaf: 50]
[min_sum_hessian_in_leaf: 0.001]
[bagging_fraction: 0.8]
[pos_bagging_fraction: 1]
[neg_bagging_fraction: 1]
[bagging_freq: 0]
[bagging_seed: 10961]
[feature_fraction: 0.8]
[feature_fraction_bynode: 1]
[feature_fraction_seed: 53]
[extra_trees: 0]
[extra_seed: 11644]
[early_stopping_round: 0]
[first_metric_only: 0]
[max_delta_step: 0]
[lambda_l1: 0]
[lambda_l2: 0]
[linear_lambda: 0]
[min_gain_to_split: 0]
[drop_rate: 0.1]
[max_drop: 50]
[skip_drop: 0.5]
[xgboost_dart_mode: 0]
[uniform_drop: 0]
[drop_seed: 30626]
[top_rate: 0.2]
[other_rate: 0.1]
[min_data_per_group: 100]
[max_cat_threshold: 32]
[cat_l2: 10]
[cat_smooth: 10]
[max_cat_to_onehot: 4]
[top_k: 20]
[monotone_constraints: ]
[monotone_constraints_method: basic]
[monotone_penalty: 0]
[feature_contri: ]
[forcedsplits_filename: ]
[refit_decay_rate: 0.9]
[cegb_tradeoff: 1]
[cegb_penalty_split: 0]
[cegb_penalty_feature_lazy: ]
[cegb_penalty_feature_coupled: ]
[path_smooth: 0]
[interaction_constraints: ]
[verbosity: -1]
[saved_feature_importance_type: 0]
[linear_tree: 0]
[max_bin: 255]
[max_bin_by_feature: ]
[min_data_in_bin: 3]
[bin_construct_sample_cnt: 200000]
[data_random_seed: 4071]
[is_enable_sparse: 1]
[enable_bundle: 1]
[use_missing: 1]
[zero_as_missing: 0]
[feature_pre_filter: 1]
[pre_partition: 0]
[two_round: 0]
[header: 0]
[label_column: ]
[weight_column: ]
[group_column: ]
[ignore_column: ]
[categorical_feature: ]
[forcedbins_filename: ]
[precise_float_parser: 0]
[parser_config_file: ]
[objective_seed: 602]
[num_class: 1]
[is_unbalance: 0]
[scale_pos_weight: 1]
[sigmoid: 1]
[boost_from_average: 1]
[reg_sqrt: 0]
[alpha: 0.9]
[fair_c: 1]
[poisson_max_delta_step: 0.7]
[tweedie_variance_power: 1.5]
[lambdarank_truncation_level: 30]
[lambdarank_norm: 1]
[label_gain: ]
[lambdarank_position_bias_regularization: 0]
[eval_at: ]
[multi_error_top_k: 1]
[auc_mu_weights: ]
[num_machines: 1]
[local_listen_port: 12400]
[time_out: 120]
[machine_list_filename: ]
[machines: ]
[gpu_platform_id: -1]
[gpu_device_id: -1]
[gpu_use_dp: 0]
[num_gpu: 1]

end of parameters

pandas_categorical:null
