tree
version=v4
num_class=1
num_tree_per_iteration=1
label_index=0
max_feature_idx=42
objective=binary sigmoid:1
feature_names=Column_0 Column_1 Column_2 Column_3 Column_4 Column_5 Column_6 Column_7 Column_8 Column_9 Column_10 Column_11 Column_12 Column_13 Column_14 Column_15 Column_16 Column_17 Column_18 Column_19 Column_20 Column_21 Column_22 Column_23 Column_24 Column_25 Column_26 Column_27 Column_28 Column_29 Column_30 Column_31 Column_32 Column_33 Column_34 Column_35 Column_36 Column_37 Column_38 Column_39 Column_40 Column_41 Column_42
feature_infos=[1:2224] [1:404] [1:140] [1:402] [0:5669] [0:80843.080000000002] [0:1] [0:418.19999999999999] [0:569.77999999999997] [0:16846621.120000001] [0:26.949999999999999] [0:935923.39000000001] [0:1739] [0:344] [0:219] [0:43] [0:410] [0:1026] [0:3368] [0:3021] [1:503] [0.13369524512578801:148.38707115355368] [5.1719059287004363:128.57088780879519] [0.22144138139651087:148.2990452308544] [0.75973245532601941:144.66185762366615] [0.12011462443793228:147.96434709416326] [0.57965503446008304:145.84815652203608] [0.23231856326763015:147.85965392704171] [1.3963014972848298:140.73918742541355] [0.5379235037921507:146.74411832213366] [0.30822573096306644:147.18799946204334] [0.36249246174161337:147.7809845867271] [0.17063985048712851:148.26915790820539] [2.0970559189281794:138.34636519318786] [1.3594740034897534:143.97826693594129] [0.11589112828364921:148.83864945092228] [0.16097891574314796:145.40057953785387] [0.49332146731052723:147.51425353741277] [0.1773416870948869:148.06704876154012] [0.13111014132325396:148.92676508617978] [0.12121694654425484:148.66407956575046] [0.44560934065626723:146.68934437749002] [0:20]
tree_sizes=1693 1732 1731 1731 1729 1742 1736 1736 1730 1743 1742 1745 1744 1735 1745 1743 1735 1733 1737 1743 1734 1756 1735 1741 1734 1747 1754 1749 1745 1739 1752 1743 1735 1748 1744 1755 1760 1746 1752 1751 1743 1747 1747 1754 1728 1757 1747 1748 1758 1768 1767 1757 1754 1726 1762 1742 1738 1761 1765 1747 1743 1746 1746 1766 1749 1743 1756 1746 1744 1759 1752 1752 1745 1744 1745 1739 1744 1752 1745 1735 1736 1742 1743 1737 1734 1750 1759 1759 1751 1747 1731

Tree=0
num_leaves=15
num_cat=0
split_feature=0 0 0 14 0 25 0 21 36 0 39 3 0 23
split_gain=16045.9 1589.55 1574.5 264.497 229.093 217.003 112.772 90.49 82.0925 67.9904 48.6846 43.1588 41.0122 40.2209
threshold=47.500000000000007 81.500000000000014 26.500000000000004 1.5000000000000002 59.500000000000007 4.0098914906142005 99.500000000000014 1.0880031402645065 7.4697247983259141 39.500000000000007 5.2801512822422003 12.500000000000002 34.500000000000007 2.8391305458158418
decision_type=2 2 2 2 2 2 2 2 2 2 2 2 2 2
left_child=2 4 3 10 -2 12 -3 -5 -8 -7 -1 -10 -4 -6
right_child=1 6 5 7 13 9 8 -9 11 -11 -12 -13 -14 -15
leaf_value=-1.2738632263795744 -1.181091062265637 -1.1129729696896953 -1.2410437987809497 -1.2615768335369215 -1.1082156877614129 -1.2193567505851988 -1.0612370537248785 -1.2476048678834326 -1.1029266346497835 -1.198054943115606 -1.2475415908295049 -1.0785022696063749 -1.2251049563086511 -1.1487520230990576
leaf_weight=4297.1926475018263 886.01006783545017 533.88460269570351 1203.0807330608368 2851.1821510344744 65.552475839853287 861.29643389582634 274.47908332943916 1952.3770812302828 452.9080148935318 662.88626638054848 183.16132955253124 301.1207312643528 607.3244085162878 920.18849775195122
leaf_count=24517 5055 3046 6864 16267 374 4914 1566 11139 2584 3782 1045 1718 3465 5250
internal_value=-1.22738 -1.13156 -1.25346 -1.26405 -1.16264 -1.22399 -1.09433 -1.2559 -1.08465 -1.21009 -1.27279 -1.09317 -1.2357 -1.14606
internal_weight=0 3434.14 12618.5 9283.91 1871.75 3334.59 1562.39 4803.56 1028.51 1524.18 4480.35 754.029 1810.41 985.741
internal_count=91586 19593 71993 52968 10679 19025 8914 27406 5868 8696 25562 4302 10329 5624
is_linear=0
shrinkage=1


Tree=1
num_leaves=15
num_cat=0
split_feature=0 0 0 25 0 0 14 0 6 21 40 17 0 25
split_gain=13977.9 1569.11 1189.34 265.181 179.36 156.223 145.546 62.5588 61.5457 52.4827 41.839 40.0871 38.179 37.4941
threshold=44.500000000000007 73.500000000000014 21.500000000000004 3.820399262374512 95.500000000000014 56.500000000000007 1.5000000000000002 32.500000000000007 1.0000000180025095e-35 2.3306821230781005 3.3410295030213724 33.500000000000007 34.500000000000007 4.6706628503215457
decision_type=2 2 2 2 2 2 2 2 2 2 2 2 2 2
left_child=2 5 6 12 -3 13 -1 -5 -6 -8 -7 -10 -4 -2
right_child=1 4 3 7 8 10 9 -9 11 -11 -12 -13 -14 -15
leaf_value=-0.045323969905095365 0.027685679449314417 0.094310173757954696 -0.019447182830325604 -0.0035685723575235337 0.14239434634613032 0.10466990773633733 -0.032542935356035099 0.014703901522662778 0.088722624473687547 0.00073699342775772705 0.062144239824662752 0.12155084481056827 -0.0022832329172539235 0.046415230000235785
leaf_weight=4099.9843955785036 558.2652305662632 814.58843424916267 2260.7891345769167 784.73688925802708 348.77884538471699 62.316435292363167 3287.1505707800388 1162.0696499496698 106.20604300498962 122.89430432021618 804.9481910020113 747.47474692761898 378.18626314401627 512.51719117164612
leaf_count=23996 3124 4408 13052 4496 1832 337 19074 6582 567 709 4419 3977 2155 2858
internal_value=0 0.0815549 -0.0267244 -0.00666035 0.112425 0.0494261 -0.038976 0.00733846 0.124697 -0.0313436 0.0651999 0.117467 -0.0169875 0.0366504
internal_weight=0 3955.1 12095.8 4585.78 2017.05 1938.05 7510.03 1946.81 1202.46 3410.04 867.265 853.681 2638.98 1070.78
internal_count=91586 21522 70064 26285 10784 10738 43779 11078 6376 19783 4756 4544 15207 5982
is_linear=0
shrinkage=0.05


Tree=2
num_leaves=15
num_cat=0
split_feature=35 40 31 14 42 42 29 41 22 22 42 14 1 22
split_gain=10477 1323.01 1202.48 339.287 268.868 185.547 159.606 152.096 126.019 98.0805 80.321 76.9527 73.0054 60.3262
threshold=4.4690991847777015 2.8063272873639957 4.0833761839235958 1.5000000000000002 8.5000000000000018 8.5000000000000018 5.5167420632191631 4.1243304605888271 26.466688990427539 27.376662798843597 7.5000000000000009 3.5000000000000004 10.500000000000002 27.68471115198556
decision_type=2 2 2 2 2 2 2 2 2 2 2 2 2 2
left_child=1 3 4 -1 -2 7 9 13 -5 10 -4 -7 -8 -3
right_child=2 5 6 8 -6 11 12 -9 -10 -11 -12 -13 -14 -15
leaf_value=-0.044230362464406037 0.054496810164178469 0.027402447890620379 0.085926448025886948 -0.013960930045065243 0.018606522341003302 -0.013970143139648915 0.074792246055335937 0.068437769218055486 -0.03044899634730729 0.0013563228178634817 0.042561174368993683 0.0080374183370463554 0.10962883015244258 -0.0053170350750243074
leaf_weight=4050.1843833476305 1232.9051017165184 409.74247914552689 876.91092321276665 1741.3763614594936 904.76893785595894 707.21741892397404 176.86887581646442 178.9580283164978 3464.4396786093712 40.587642878293991 121.58360016345978 906.15034860372543 1004.6246884763241 214.68693362176418
leaf_count=24298 6618 2259 4530 10119 5042 4092 912 949 20449 228 655 5145 5055 1235
internal_value=0 -0.024776 0.0660742 -0.0333774 0.0393063 0.00816678 0.0918428 0.0277997 -0.0249336 0.0775489 0.080646 -0.00160956 0.104414 0.0161531
internal_weight=0 11672.8 4358.25 9256 2137.67 2416.76 2220.58 803.387 5205.82 1039.08 998.495 1613.37 1181.49 624.429
internal_count=91586 68546 23040 54866 11660 13680 11380 4443 30568 5413 5185 9237 5967 3494
is_linear=0
shrinkage=0.05


Tree=3
num_leaves=15
num_cat=0
split_feature=0 0 0 28 0 0 0 36 0 35 23 23 26 16
split_gain=10939.1 1070.93 1051.55 214.931 115.216 112.928 64.1033 47.5333 41.5296 34.9203 32.5088 30.8169 29.6223 29.5425
threshold=44.500000000000007 73.500000000000014 21.500000000000004 9.195199004788341 95.500000000000014 56.500000000000007 14.500000000000002 7.3145485196923223 35.500000000000007 4.1535727095490484 1.0390738210207819 1.6027013052942267 2.1618233010572694 19.500000000000004
decision_type=2 2 2 2 2 2 2 2 2 2 2 2 2 2
left_child=2 5 6 8 -3 12 -1 -6 -4 -7 -8 -5 -2 -9
right_child=1 4 3 11 7 9 10 13 -10 -11 -12 -13 -14 -15
leaf_value=-0.040485387244036705 0.041783480343205393 0.078733206977468717 -0.00063293564870180836 -0.019815077479313905 0.11718080983178902 0.09008005491858341 -0.035453115220627676 0.077592319359886849 0.014446279361137971 0.052678395871906314 -0.024284671176185345 -0.0091262840419693621 0.025107466491827098 0.10028954168262674
leaf_weight=4526.8080784976482 442.17326702177525 883.71469897031784 889.92108505964279 1513.0107542276382 372.44930779933929 67.32589915394783 1535.4283017069101 175.52708554267883 937.74804121255875 854.26938086748123 1131.8736971765757 1216.5087099224329 669.53208193182945 782.41319525241852
leaf_count=27683 2368 4408 5085 8940 1761 339 9295 851 5226 4417 6801 7034 3614 3764
internal_value=0 0.0686681 -0.0249582 -0.00616585 0.0927278 0.0424689 -0.0368624 0.102024 0.00710397 0.0554107 -0.0307138 -0.0150512 0.0317402 0.0961306
internal_weight=0 4247.4 11751.3 4557.19 2214.1 2033.3 7194.11 1330.39 1827.67 921.595 2667.3 2729.52 1111.71 957.94
internal_count=91586 21522 70064 26285 10784 10738 43779 6376 10311 4756 16096 15974 5982 4615
is_linear=0
shrinkage=0.05


Tree=4
num_leaves=15
num_cat=0
split_feature=0 0 0 25 0 0 0 25 25 0 40 3 25 17
split_gain=9715.56 1010.97 884.219 180.239 117.321 95.9595 62.0647 40.0077 39.5817 35.6746 29.0776 27.6044 27.3654 27.1209
threshold=42.500000000000007 73.500000000000014 21.500000000000004 3.820399262374512 56.500000000000007 96.500000000000014 16.500000000000004 3.431077514738043 4.6706628503215457 32.500000000000007 3.3410295030213724 12.500000000000002 3.9619618065313529 26.500000000000004
decision_type=2 2 2 2 2 2 2 2 2 2 2 2 2 2
left_child=2 4 6 -4 8 -3 -1 -7 -2 -5 -6 -9 -8 -12
right_child=1 5 3 9 10 7 12 11 -10 -11 13 -13 -14 -15
leaf_value=-0.038573433048821687 0.020513828311377619 0.072656254508772125 -0.015733254764902047 -0.0031207779501912828 0.082378922499828242 0.11347954666838639 -0.029134814760829821 0.083087571150140482 0.037847292277635336 0.011056123282861888 0.039294863990632305 0.098885246353232092 0.0011264169886213279 0.056944489060780312
leaf_weight=5230.2132053375244 738.24571062624454 951.76207372546196 2528.5489547401667 780.62913365662098 69.605016067624092 209.46779324114323 1730.5845274478197 660.74106611311436 594.64358280599117 1028.2659903466702 404.05178120732307 475.53836004436016 78.078906163573265 471.82257762551308
leaf_count=32684 3984 4584 14950 4496 337 951 10629 3074 3119 5718 2045 2175 466 2374
internal_value=0 0.0614032 -0.02487 -0.00711245 0.0378028 0.084807 -0.0358125 0.0934005 0.0282468 0.00493808 0.0512744 0.089699 -0.0278285 0.0488025
internal_weight=0 4575.88 11376.3 4337.44 2278.37 2297.51 7038.88 1345.75 1332.89 1808.9 945.479 1136.28 1808.66 875.874
internal_count=91586 22643 68943 25164 11859 10784 43779 6200 7103 10214 4756 5249 11095 4419
is_linear=0
shrinkage=0.05


Tree=5
num_leaves=15
num_cat=0
split_feature=0 0 0 25 14 0 0 21 26 6 17 0 14 37
split_gain=8652.36 862.383 832.413 164.377 138.479 123.028 57.9369 48.5636 36.3361 33.2978 36.8119 31.9712 30.5984 26.7871
threshold=42.500000000000007 67.500000000000014 21.500000000000004 3.820399262374512 1.5000000000000002 94.500000000000014 56.500000000000007 2.3306821230781005 2.1006060425271689 1.0000000180025095e-35 17.500000000000004 32.500000000000007 3.5000000000000004 4.6904863167498521
decision_type=2 2 2 2 2 2 2 2 2 2 2 2 2 2
left_child=2 6 4 -4 13 -3 8 12 -2 -7 -11 -5 -6 -1
right_child=1 5 3 11 7 9 -8 -9 -10 10 -12 -13 -14 -15
leaf_value=-0.042611926991705185 0.037628937743757182 0.063736618180215948 -0.015085024691816388 -0.002969994461502686 -0.030638785800184899 0.097156350217661044 0.044280061852605739 0.004368745269944246 0.020439624170560455 -0.019195143050607634 0.08146357430232537 0.01044062719212685 -0.017508684052115319 -0.027370107346308854
leaf_weight=3407.8423211425543 472.95648853480816 1183.2243926674128 2505.9344596713781 779.28313726186752 2508.5072024464607 427.55226145684719 687.9182296693325 118.04780094325542 878.50355783104897 9.1638856232166273 1027.8743359297514 1034.2807639837265 539.06566113233566 314.90196473896503
leaf_count=21991 2454 5602 14950 4496 15718 1877 3392 709 4649 42 4627 5718 3356 2005
internal_value=0 0.0569054 -0.0239949 -0.00678736 -0.0347853 0.0757276 0.0324678 -0.0270974 0.0264552 0.0854149 0.0805741 0.00467812 -0.0283163 -0.0413226
internal_weight=0 4687.19 11207.9 4319.5 6888.36 2647.81 2039.38 3165.62 1351.46 1464.59 1037.04 1813.56 3047.57 3722.74
internal_count=91586 22643 68943 25164 43779 12148 10495 19783 7103 6546 4669 10214 19074 23996
is_linear=0
shrinkage=0.05


Tree=6
num_leaves=15
num_cat=0
split_feature=35 40 31 14 3 25 26 23 14 26 14 22 22 12
split_gain=6649.1 817.786 754.087 216.305 134.397 130.523 154.683 120.749 88.6469 85.7463 59.1409 51.4538 47.954 46.8052
threshold=4.3239884837215472 2.35424886124096 3.762758571068924 1.5000000000000002 4.5000000000000009 1.5585470590148571 5.5976416362544121 2.8391305458158418 5.5000000000000009 6.0750579353987488 3.5000000000000004 23.997396849745954 27.432701618165179 36.500000000000007
decision_type=2 2 2 2 2 2 2 2 2 2 2 2 2 2
left_child=1 3 7 -1 13 6 -3 -2 -7 12 -5 -9 -6 -4
right_child=2 5 4 10 9 8 -8 11 -10 -11 -12 -13 -14 -15
leaf_value=-0.041355984026064739 0.0054212057945041813 0.043431309749614913 0.021246205297824432 -0.027933112185050527 0.061192886891684076 -0.01070886182700229 -0.012717859077249413 0.046579560974103207 0.01199631675291867 0.079402000014843002 -0.0142812592303206 0.026772359477957849 -0.018412702047734712 0.051717226397196149
leaf_weight=3388.3369093388319 582.38060039281845 308.49715903401375 186.44787958264351 2856.649152174592 1215.0530031919479 2246.562258630991 203.61529704928398 436.29370012879372 531.61215640604496 1047.8944703638554 1098.3270672857761 1319.4580098837614 19.217331498861313 388.88629744946957
leaf_count=22422 3200 1582 962 18097 5578 13362 1167 2124 2984 4598 6772 6833 108 1797
internal_value=0 -0.0228032 0.0462084 -0.0320848 0.0634391 -0.00208853 0.0211065 0.0251502 -0.00636416 0.0688836 -0.0241419 0.0316943 0.0599534 0.0418425
internal_weight=0 10633.6 5195.63 7343.31 2857.5 3290.29 512.112 2338.13 2778.17 2282.16 3954.98 1755.75 1234.27 575.334
internal_count=91586 66386 25200 47291 13043 19095 2749 12157 16346 10284 24869 8957 5686 2759
is_linear=0
shrinkage=0.05


Tree=7
num_leaves=15
num_cat=0
split_feature=0 0 0 34 14 0 0 21 14 36 14 21 32 17
split_gain=6980.94 736.88 665.289 141.368 129.062 74.4884 63.4104 43.8299 31.8006 30.2316 27.3312 26.0331 25.5692 25.5048
threshold=42.500000000000007 21.500000000000004 73.500000000000014 8.7636759861016476 1.5000000000000002 56.500000000000007 96.500000000000014 2.3306821230781005 3.5000000000000004 7.3145485196923223 3.5000000000000004 2.7437127028568304 2.8016508734636472 24.500000000000004
decision_type=2 2 2 2 2 2 2 2 2 2 2 2 2 2
left_child=1 4 5 -3 12 13 -4 10 -5 -8 -6 -7 -1 -2
right_child=2 3 6 8 7 11 9 -9 -10 -11 -12 -13 -14 -15
leaf_value=-0.04060053213440732 0.01773912854045092 0.0051769648602417026 0.058284301130946008 -0.018617477377062104 -0.028799389610589629 0.08013165669785853 0.086248171017715272 0.0045547019606463996 -0.0075968578277433507 0.070094215411391103 -0.016253453791956859 0.039530832738493289 -0.02474368592333949 0.031577996901626486
leaf_weight=3265.6078519523144 827.01430854201317 1659.506224706769 1022.2528949081898 1399.1096493154764 2421.6062230169773 41.168151170015335 399.61842912435532 117.77318708598614 1230.0816973149776 1052.3002188205719 528.91703796386719 963.77571184933186 275.69114854931831 557.28725235164165
leaf_count=22202 4300 9341 4584 8468 15718 188 1677 709 7355 4523 3356 4568 1794 2803
internal_value=0 -0.0223897 0.0496511 -0.00624932 -0.0328625 0.0308324 0.0678238 -0.0253564 -0.0134614 0.0745403 -0.0265504 0.0411941 -0.0393661 0.0233103
internal_weight=0 10898.3 4863.42 4288.7 6609.6 2389.25 2474.17 3068.3 2629.19 1451.92 2950.52 1004.94 3541.3 1384.3
internal_count=91586 68943 22643 25164 43779 11859 10784 19783 15823 6200 19074 4756 23996 7103
is_linear=0
shrinkage=0.05


Tree=8
num_leaves=15
num_cat=0
split_feature=0 0 0 25 0 0 0 0 25 25 25 7 25 0
split_gain=6261.24 692.629 583.13 131.126 65.0982 57.0468 55.8822 34.8791 30.5343 28.7287 27.1376 26.7208 25.2277 21.142
threshold=42.500000000000007 21.500000000000004 73.500000000000014 3.6928082177050015 56.500000000000007 94.500000000000014 14.500000000000002 32.500000000000007 3.9619618065313529 3.431077514738043 4.502530122481927 27.515000000000004 4.6158445232321377 163.50000000000003
decision_type=2 2 2 2 2 2 2 2 2 2 2 2 2 2
left_child=1 6 4 -3 10 -4 12 -5 -8 -7 -2 -6 -1 -11
right_child=2 3 5 7 11 9 8 -9 -10 13 -12 -13 -14 -15
leaf_value=-0.036816938428212938 0.014047191230430809 -0.014949420951357949 0.053695738592992127 -0.0040656203589209908 0.044139594672394825 0.084653491972718403 -0.027107654890343121 0.0085664071619694828 0.00060871778096353705 0.061409461161815095 0.028075080494838922 0.026888848909016334 -0.023499315087096011 0.074645632023871478
leaf_weight=3636.8013871610165 615.69192981719971 2081.1830846369267 960.7562824934721 1039.5651359558105 687.57052394747734 251.74854218959808 2337.8973871618509 1152.0496614426374 103.78109952807426 832.47865989804268 783.5063913166523 333.29061627388 394.14030827581882 473.16669929027557
leaf_count=25035 3205 12729 4238 6096 3203 1043 15458 6339 638 3524 3898 1553 2648 1979
internal_value=0 -0.021585 0.0464335 -0.00596097 0.028907 0.0632773 -0.0318989 0.00257456 -0.0259296 0.0691882 0.0219024 0.0385076 -0.0355148 0.0662063
internal_weight=0 10745.4 4938.21 4272.8 2420.06 2518.15 6472.62 2191.61 2441.68 1557.39 1399.2 1020.86 4030.94 1305.65
internal_count=91586 68943 22643 25164 11859 10784 43779 12435 16096 6546 7103 4756 27683 5503
is_linear=0
shrinkage=0.05


Tree=9
num_leaves=15
num_cat=0
split_feature=0 0 0 25 0 0 17 33 6 17 25 23 26 17
split_gain=5625.12 650.395 517.578 120.385 77.0543 54.2952 32.7287 35.4514 29.4301 30.7356 24.4417 23.7915 23.2635 23.0511
threshold=42.500000000000007 21.500000000000004 67.500000000000014 3.820399262374512 85.500000000000014 16.500000000000004 24.500000000000004 13.366366428058642 1.0000000180025095e-35 21.500000000000004 4.6158445232321377 1.0071977627287627 3.2487917037904199 29.500000000000004
decision_type=2 2 2 2 2 2 2 2 2 2 2 2 2 2
left_child=1 5 6 12 13 10 7 -2 -6 -10 -1 -7 -3 -4
right_child=2 3 4 -5 8 11 -8 -9 9 -11 -12 -13 -14 -15
leaf_value=-0.034816148060702649 0.016446468779498749 -0.0070223420483642787 0.038662885635336132 0.0040221113176146153 0.07280174613715136 -0.028970058976816322 0.031634041449005106 0.046590787878986711 0.014700463130362119 0.060470154664637281 -0.021874955990350102 -0.017008761335450165 -0.016989164437598413 0.054552225894853881
leaf_weight=4276.996736228466 1046.7715713530779 981.46582739055157 520.82035046815872 1824.7802164852619 561.72510536015034 861.42649930715561 993.55614525079727 107.55731672048569 37.721124455332756 1328.6364647001028 398.88475927710533 803.48949970304966 1451.0416489392519 406.33388404548168
leaf_count=29972 5222 5971 2308 10214 2319 5811 4746 527 162 5571 2712 5284 8979 1788
internal_value=0 -0.0208019 0.0435232 -0.00568548 0.0574715 -0.0309513 0.0249814 0.0192552 0.0631674 0.0592066 -0.0337122 -0.0231975 -0.0129678 0.0456265
internal_weight=0 10598.1 5003.12 4257.29 2855.24 6340.8 2147.89 1154.33 1928.08 1366.36 4675.88 1664.92 2432.51 927.154
internal_count=91586 68943 22643 25164 12148 43779 10495 5749 8052 5733 32684 11095 14950 4096
is_linear=0
shrinkage=0.05


Tree=10
num_leaves=15
num_cat=0
split_feature=0 0 0 14 25 0 0 25 14 25 14 23 25 7
split_gain=5068.53 579.894 499.175 127.416 82.3402 70.9649 47.2738 39.1899 30.0953 27.476 24.4604 24.1498 23.9951 22.7977
threshold=39.500000000000007 67.500000000000014 21.500000000000004 1.5000000000000002 3.6433830050511813 94.500000000000014 47.500000000000007 4.6158445232321377 3.5000000000000004 4.502530122481927 3.5000000000000004 2.3000900084591893 3.431077514738043 38.540000000000013
decision_type=2 2 2 2 2 2 2 2 2 2 2 2 2 2
left_child=2 6 3 11 -4 13 9 10 -6 -2 -5 -1 -7 -3
right_child=1 5 4 7 8 12 -8 -9 -10 -11 -12 -13 -14 -15
leaf_value=-0.038969281187402394 0.0063765871206932006 0.047649288527024485 -0.014749648559302534 -0.025527674951964171 -0.0080878908472410381 0.074958930705828153 0.026756524704560882 0.012937432454747955 0.0046129310738538369 0.023293818838034216 -0.013462629376499955 -0.028554964919430215 0.058293081882712997 0.027047890332714104
leaf_weight=2597.1218857467175 622.37258525192738 1142.2766373902559 1827.0121172219515 2318.5909436643124 739.05705353617668 257.55472493171692 1569.0031361579895 76.448743969202042 1264.3430482596159 390.67204064130783 513.04873710870743 708.52602060139179 1337.8656895756721 152.17828734219074
leaf_count=18960 3329 4948 11403 15919 4315 1043 7445 470 7195 1972 3394 5036 5503 654
internal_value=0 0.0385402 -0.02127 -0.0300216 -0.0070731 0.0539259 0.0213203 -0.022388 -7.24196e-05 0.0129006 -0.0233417 -0.0367371 0.0609835 0.0452274
internal_weight=0 5471.92 10044.1 6213.74 3830.41 2889.88 2582.05 2908.09 2003.4 1013.04 2831.64 3305.65 1595.42 1294.45
internal_count=91586 24894 66692 43779 22913 12148 12746 19783 11510 5301 19313 23996 6546 5602
is_linear=0
shrinkage=0.05


Tree=11
num_leaves=15
num_cat=0
split_feature=39 38 14 17 42 29 11 28 14 17 42 26 7 14
split_gain=4053.85 666.012 294.687 127.372 111.26 102.226 76.7894 55.635 48.3846 45.4838 45.1447 40.0364 36.253 36.0225
threshold=5.3508099700115652 3.6250614171923092 1.5000000000000002 16.500000000000004 8.5000000000000018 5.3855852985054282 2.1300000000000003 11.296757714827919 3.5000000000000004 15.500000000000002 7.5000000000000009 5.609367727631696 41.080000000000005 3.5000000000000004
decision_type=2 2 2 2 2 2 2 2 2 2 2 2 2 2
left_child=2 4 6 8 11 7 -1 10 -4 -6 12 -2 -3 -11
right_child=1 5 3 -5 9 -7 -8 -9 -10 13 -12 -13 -14 -15
leaf_value=-0.0047027835655960972 0.026181204488422673 0.043805198973444572 -0.023106608354371075 -0.0003451719122635263 -0.0089784551235911874 0.053602928159191536 -0.035988583238539172 -0.016821156070744026 -0.011122782488718973 -0.0028516377894772359 0.021891507068555572 0.0018146810138544751 0.01763441104732549 0.014479286466689537
leaf_weight=208.51822750270367 1259.7237927764654 1423.7979479134083 2782.3505747169256 1112.2354766130447 470.48594111204147 1517.6987335383892 3301.6191320568323 47.981265023350716 1207.9546835571527 438.06214633584023 366.88324956595898 194.62621839344501 145.88640201091766 950.1411858946085
leaf_count=1310 6031 6172 19080 6638 2716 6275 24433 273 7725 2442 1757 1071 628 5035
internal_value=0 0.0286324 -0.0229791 -0.0153081 0.0125619 0.0438347 -0.0341301 0.0363644 -0.0194788 0.00445687 0.0376821 0.0229204 0.0413729 0.00901033
internal_weight=0 6815.29 8612.68 5102.54 3313.04 3502.25 3510.14 1984.55 3990.31 1858.69 1936.57 1454.35 1569.68 1388.2
internal_count=91586 32400 59186 33443 17295 15105 25743 8830 26805 10193 8557 7102 6800 7477
is_linear=0
shrinkage=0.05


Tree=12
num_leaves=15
num_cat=0
split_feature=0 0 22 14 0 25 9 0 28 14 25 6 17 35
split_gain=4155.28 474.555 444.827 104.847 61.4615 59.1754 55.2734 38.0685 28.5974 28.2135 28.0189 26.058 26.0058 23.1865
threshold=39.500000000000007 67.500000000000014 26.466688990427539 1.5000000000000002 85.500000000000014 3.6336444100116241 93.160000000000011 56.500000000000007 11.886196744461738 3.5000000000000004 4.6706628503215457 1.0000000180025095e-35 21.500000000000004 5.4437220176876551
decision_type=2 2 2 2 2 2 2 2 2 2 2 2 2 2
left_child=2 7 5 6 -3 -1 -4 10 -5 13 -2 -6 -13 -7
right_child=1 4 3 8 11 9 -8 -9 -10 -11 -12 12 -14 -15
leaf_value=-0.013642263544323553 0.010014012499087004 0.037731289545538213 -0.018741158061480388 -0.0213920341411135 0.062123850204455371 -0.0092825150137219974 -0.036539765160789973 0.028326982039484628 0.026589637439097421 0.004386303091765323 0.022499693695105433 0.0090446431724662876 0.050624220806146869 0.030581935479106301
leaf_weight=1335.4744830280542 1117.9825628995895 960.3639869838953 515.98287922143936 2951.5602691173553 573.9332839846611 787.40036338567734 2820.998828291893 756.29840430617332 31.384126886725426 1298.1372834891081 751.27968260645866 38.669525146484375 1366.4621655791998 38.247438192367554
leaf_count=8578 5758 4096 3452 20543 2319 4726 21612 3392 196 7377 3596 162 5571 208
internal_value=0 0.0343108 -0.0198093 -0.0276988 0.0481102 -0.00539545 -0.0337876 0.0188618 -0.0208872 -0.000209697 0.0150322 0.0531467 0.0494799 -0.00743583
internal_weight=0 5564.99 9779.19 6319.93 2939.43 3459.26 3336.98 2625.56 2982.94 2123.79 1869.26 1979.06 1405.13 825.648
internal_count=91586 24894 66692 45803 12148 20889 25064 12746 20739 12311 9354 8052 5733 4934
is_linear=0
shrinkage=0.05


Tree=13
num_leaves=15
num_cat=0
split_feature=0 0 0 34 0 0 0 23 25 25 7 25 25 3
split_gain=3753.23 425.94 417.261 66.67 58.4475 47.9411 34.083 28.9389 25.9459 22.5963 21.976 21.0335 20.9156 20.6022
threshold=39.500000000000007 67.500000000000014 21.500000000000004 8.7636759861016476 99.500000000000014 14.500000000000002 47.500000000000007 1.0390738210207819 3.431077514738043 4.6158445232321377 32.480000000000011 3.4590477766186516 4.502530122481927 12.500000000000002
decision_type=2 2 2 2 2 2 2 2 2 2 2 2 2 2
left_child=2 6 5 -4 10 9 12 -7 -6 -1 -3 -5 -2 -10
right_child=1 4 3 11 8 7 -8 -9 13 -11 -12 -13 -14 -15
leaf_value=-0.032320910243036592 0.0050084467026499423 0.041968664950201594 0.0028238871532543443 -0.015916331947483372 0.068522730604951551 -0.026648611419038612 0.022326911975783688 -0.015215744844881291 0.044168606446927161 -0.019187046706677442 0.027994131614363638 -0.0066214449309106305 0.019610831760078801 0.057184124042556406
leaf_weight=3248.9094305485487 630.28805713355541 1126.1096191257238 1341.7503925710917 1162.9619195759296 216.12181097269058 1280.4398361295462 1612.7700370699167 974.91858643293381 708.91129733622074 364.19706684350967 375.01745949685574 1276.9437197297812 401.39044944941998 532.36083932220936
leaf_count=25035 3329 4716 7604 7501 865 9295 7445 6801 2866 2648 1564 7808 1972 2137
internal_value=0 0.0323685 -0.0190804 -0.00612862 0.0454021 -0.0274265 0.0177869 -0.0217066 0.0525345 -0.030997 0.0384775 -0.0110518 0.0106897 0.0497507
internal_weight=0 5602.97 9650.12 3781.66 2958.52 5868.46 2644.45 2255.36 1457.39 3613.11 1501.13 2439.91 1031.68 1241.27
internal_count=91586 24894 66692 22913 12148 43779 12746 16096 5868 27683 6280 15309 5301 5003
is_linear=0
shrinkage=0.05


Tree=14
num_leaves=15
num_cat=0
split_feature=0 0 0 14 25 0 0 21 25 21 25 14 21 14
split_gain=3392.11 391.044 386.759 113.476 57.7561 50.058 36.8925 34.9752 23.9438 23.3285 22.6418 22.4992 22.2568 22.2431
threshold=39.500000000000007 21.500000000000004 73.500000000000014 1.5000000000000002 3.6336444100116241 56.500000000000007 99.500000000000014 2.3306821230781005 3.431077514738043 1.9064264665632875 4.6706628503215457 3.5000000000000004 2.9365411276865441 3.5000000000000004
decision_type=2 2 2 2 2 2 2 2 2 2 2 2 2 2
left_child=1 3 5 9 -3 10 -4 11 -8 -1 -2 -5 -7 -6
right_child=2 4 6 7 13 12 8 -9 -10 -11 -12 -13 -14 -15
leaf_value=-0.035601276097455746 0.0088008329156161625 -0.012536924970751769 0.037926475986192296 -0.022581308073260406 -0.0070098859146674941 0.050720020503082087 0.065145905931169007 0.0079889223606060839 0.047111170545437557 -0.024986235666144153 0.01994445245221169 -0.010666797607376446 0.024622600149726719 0.0038571453610424383
leaf_weight=2349.7653091177344 1129.3526352494955 1737.5761411935091 1193.0617527961731 2146.2315822094679 742.46301141381264 88.97536900639534 215.9602424800396 113.30987717211246 1245.1712586134672 663.80543215572834 764.31551291048527 485.95297859609127 998.74015249311924 1287.3298545926809
leaf_count=18933 5758 11225 4916 15718 4400 379 865 709 5003 5063 3596 3356 4377 7288
internal_value=0 -0.0183706 0.0305677 -0.026564 -0.00584573 0.0182088 0.0444501 -0.0192108 0.0497768 -0.0332631 0.0132986 -0.0203817 0.0267574 -0.000117826
internal_weight=0 9526.43 5635.58 5759.07 3767.37 2981.38 2654.19 2745.49 1461.13 3013.57 1893.67 2632.18 1087.72 2029.79
internal_count=91586 66692 24894 43779 22913 14110 10784 19783 5868 23996 9354 19074 4756 11688
is_linear=0
shrinkage=0.05


Tree=15
num_leaves=15
num_cat=0
split_feature=0 0 14 21 40 0 0 25 14 14 6 16 33 8
split_gain=3076.28 450.026 278.076 106.423 55.6416 50.6079 47.8395 26.1322 25.9784 23.6644 21.8585 23.1044 19.1036 20.8374
threshold=35.500000000000007 67.500000000000014 1.5000000000000002 1.0880031402645065 2.4510535190476648 85.500000000000014 47.500000000000007 4.5300407820918869 3.5000000000000004 3.5000000000000004 1.0000000180025095e-35 20.500000000000004 13.448101782974202 37.005000000000003
decision_type=2 2 2 2 2 2 2 2 2 2 2 2 2 2
left_child=2 6 4 9 -1 -3 7 -2 -5 -4 -7 -12 13 -8
right_child=1 5 3 8 -6 10 12 -9 -10 -11 11 -13 -14 -15
leaf_value=-0.033532657972011333 0.0036946365953935134 0.03134488955144861 -0.023205294563297563 -0.01085316502548578 -0.017094499705298246 0.053409007229542553 0.012799313831791599 0.017411348972292007 -0.0017598627464999379 -0.010856469589455454 0.031700559004686608 0.045858630156138794 0.045498018063532229 0.024336206798008589
leaf_weight=2762.6353723406792 1156.313036352396 983.85447125136852 1761.6417841911316 1554.1263053864241 632.69014243036509 576.57199940085411 760.70273622870445 496.24770823121071 1587.9743572920561 497.52403971552849 401.1839687526226 1022.7824077308178 69.642579898238182 806.16286061704159
leaf_count=22623 6255 4096 13067 10259 4282 2319 3514 2447 9629 3431 1622 4111 314 3617
internal_value=0 0.0265708 -0.0192571 -0.0122087 -0.0304695 0.0406294 0.0138144 0.00781363 -0.00625754 -0.0204858 0.0451955 0.0418698 0.019874 0.0187351
internal_weight=0 6273.46 8796.59 5401.27 3395.33 2984.39 3289.07 1652.56 3142.1 2259.17 2000.54 1423.97 1636.51 1566.87
internal_count=91586 28295 63291 36386 26905 12148 16147 8702 19888 16498 8052 5733 7445 7131
is_linear=0
shrinkage=0.05


Tree=16
num_leaves=15
num_cat=0
split_feature=0 0 14 18 40 0 0 23 16 8 25 7 39 25
split_gain=2786.62 406.447 262.867 100.682 53.5322 47.9189 42.6433 25.4562 24.3385 24.1924 19.3578 18.8261 18.1454 17.8907
threshold=35.500000000000007 67.500000000000014 1.5000000000000002 37.500000000000007 2.4510535190476648 96.500000000000014 47.500000000000007 0.98793288904584364 16.500000000000004 38.430000000000007 3.431077514738043 38.540000000000013 6.0004170791131264 4.6158445232321377
decision_type=2 2 2 2 2 2 2 2 2 2 2 2 2 2
left_child=2 6 4 7 -1 11 8 -4 -2 -10 -7 -3 -6 -9
right_child=1 5 3 -5 12 10 -8 13 9 -11 -12 -13 -14 -15
leaf_value=-0.032653504624260254 0.0022109600528754099 0.034053015026427651 -0.022006885991069588 -0.003623788019918995 -0.018858072008419463 0.057794605651092561 0.018753603688668654 -0.01409998390419316 0.0096298826252990254 0.032283083701027275 0.042236900013800767 0.016476468080098165 0.013331654614145663 0.012502745918237702
leaf_weight=2696.8574652373791 957.14250683784485 1273.8447202593088 1566.9538577347994 2244.7376386970282 578.48500316590071 235.9654361307621 1647.2432762682438 1480.3237058520317 551.36880610883236 149.90029244124889 1309.6908408552408 173.04143942892551 47.364060401916504 66.018084689974785
leaf_count=22623 5134 5236 11636 13799 3999 951 7445 10536 2833 735 5249 712 283 415
internal_value=0 0.0251407 -0.0185474 -0.0116956 -0.0295962 0.0384904 0.0130554 -0.0175155 0.00739567 0.0144721 0.044612 0.0319509 -0.016422 -0.0129642
internal_weight=0 6298.2 8680.74 5358.03 3322.71 2992.54 3305.65 3113.3 1658.41 701.269 1545.66 1446.89 625.849 1546.34
internal_count=91586 28295 63291 36386 26905 12148 16147 22587 8702 3568 6200 5948 4282 10951
is_linear=0
shrinkage=0.05


Tree=17
num_leaves=15
num_cat=0
split_feature=0 0 14 23 0 40 14 16 8 9 34 23 17 0
split_gain=2524.92 369.044 248.26 93.3916 60.0564 51.4078 43.3646 35.9364 39.5493 24.1425 22.1741 18.2094 29.985 21.8072
threshold=35.500000000000007 63.500000000000007 1.5000000000000002 1.652729687514676 81.500000000000014 2.4510535190476648 3.5000000000000004 16.500000000000004 37.665000000000006 69915.535000000018 8.958851139958762 2.8678403896506386 28.500000000000004 68.500000000000014
decision_type=2 2 2 2 2 2 2 2 2 2 2 2 2 2
left_child=2 7 5 6 9 -1 -4 -2 -9 11 -6 13 -13 -3
right_child=1 4 3 -5 10 -7 -8 8 -10 -11 -12 12 -14 -15
leaf_value=-0.031785207336046957 0.0060846898106325072 0.086996026389080577 -0.019844174360072991 -0.0020490083766635985 0.034868815496408558 -0.015774027285757733 -0.0079154122922294543 0.010874120685733681 0.02806086892928894 -0.0077459482456036337 0.044889032954210907 0.016391597924539997 0.034377583490202777 0.030667300490260053
leaf_weight=2633.6303657516837 1586.5706046372652 27.039124444127083 2363.6161281764507 1828.8359833061695 1047.2523873448372 619.19603410363197 1124.2688331156969 947.63744573295116 517.53190746903419 51.483487322926521 1167.7735062688589 459.83259682357311 467.1304100304842 47.133845537900925
leaf_count=22623 8001 112 17557 11288 4213 4282 7541 4624 2361 214 4701 1935 1941 193
internal_value=0 0.0238018 -0.0178572 -0.0112006 0.0354787 -0.0287374 -0.0159991 0.0112988 0.0169449 0.0256457 0.0401515 0.0273629 0.0254554 0.0512015
internal_weight=0 6319.39 8569.55 5316.72 3267.65 3252.83 3487.88 3051.74 1465.17 1052.62 2215.03 1001.14 926.963 74.173
internal_count=91586 28295 63291 36386 13309 26905 25098 14986 6985 4395 8914 4181 3876 305
is_linear=0
shrinkage=0.05


Tree=18
num_leaves=15
num_cat=0
split_feature=0 0 14 5 40 0 0 25 14 11 25 7 3 34
split_gain=2288.22 335.571 234.186 88.3887 49.3344 48.8911 29.1553 26.603 24.8793 21.1046 20.5484 20.1225 18.8854 17.4255
threshold=35.500000000000007 73.500000000000014 1.5000000000000002 314.96500000000009 2.4510535190476648 56.500000000000007 99.500000000000014 4.5300407820918869 3.5000000000000004 22.685000000000006 3.431077514738043 27.515000000000004 12.500000000000002 8.169372579661184
decision_type=2 2 2 2 2 2 2 2 2 2 2 2 2 2
left_child=2 5 4 8 -1 7 -3 -2 9 -4 -8 -7 -12 -13
right_child=1 6 3 -5 -6 11 10 -9 -10 -11 12 13 -14 -15
leaf_value=-0.030927550537451998 0.0045617471410845682 0.030291624482911939 -0.0050847058043403427 -0.0026666729128242898 -0.015142684342303854 0.026117657511888388 0.055168530545565198 0.01491312838716106 -0.0086238677793919211 -0.020240724504893587 0.033027722491655358 0.015772831740135603 0.045469596723312154 -0.018294589643834517
leaf_weight=2572.8944556117058 1481.2315239012241 1214.3603114038706 257.99923945963383 2069.3356048762798 612.92492863535881 752.05748671293259 212.03269182145596 1068.376515597105 856.34580254554749 2093.5365394502878 715.42005543410778 319.80624878406525 531.64753179252148 42.527250021696091
leaf_count=22623 7756 4916 1911 12689 4282 3203 865 4999 5865 15921 2866 1368 2137 185
internal_value=0 0.0225458 -0.0171858 -0.0107234 -0.0278907 0.0127178 0.0360151 0.00889934 -0.0159206 -0.0185779 0.0407786 0.0214541 0.0383319 0.0117743
internal_weight=0 6337.46 8463.04 5277.22 3185.82 3664 2673.46 2549.61 3207.88 2351.54 1459.1 1114.39 1247.07 362.333
internal_count=91586 28295 63291 36386 26905 17511 10784 12755 23697 17832 5868 4756 5003 1553
is_linear=0
shrinkage=0.05


Tree=19
num_leaves=15
num_cat=0
split_feature=40 32 14 3 42 14 28 17 26 41 14 26 22 34
split_gain=1897.07 317.925 186.99 75.7156 63.7452 49.7953 36.8302 36.6466 36.6207 32.4004 27.3764 27.3688 27.8756 23.4938
threshold=2.8205642876597801 3.8468848352121152 1.5000000000000002 5.5000000000000009 8.5000000000000018 3.5000000000000004 7.0532992836117669 15.500000000000002 6.0750579353987488 4.2120706468262421 3.5000000000000004 5.609367727631696 27.53855521127991 8.904128053813535
decision_type=2 2 2 2 2 2 2 2 2 2 2 2 2 2
left_child=2 4 -1 6 9 13 -3 -6 -5 11 -9 -2 -13 -4
right_child=1 3 5 8 7 -7 -8 10 -10 -11 -12 12 -14 -15
leaf_value=-0.029046178693435284 0.015810494270767885 0.02726312756713983 0.0022114326119363017 0.027215909405736573 -0.0093553919013311098 -0.0051591373100629175 0.010164499437826748 -0.0040517657199327217 0.039506224182276908 0.040625975055588549 0.0096406033299877569 0.020682813222670862 -0.012339850326157692 -0.017547059195986394
leaf_weight=2761.8216158673167 1266.7589413821697 557.3701361566782 159.74677015095949 1386.9035511761904 568.97568288445473 1538.3246588259935 724.05452843010426 533.58125978708267 1076.5688373744488 110.89580838382244 1155.8234921246767 96.046303763985634 190.9713481515646 2584.5352877154946
leaf_count=24463 5944 2283 1053 5780 3426 10112 3401 3054 4376 471 6063 415 1147 19598
internal_value=0 0.0170389 -0.0189021 0.0274593 0.00709172 -0.0123603 0.0176017 0.0016197 0.0325869 0.0145153 0.00531601 0.0126518 -0.00128929 -0.0163969
internal_weight=0 7667.95 7044.43 3744.9 3923.05 4282.61 1281.42 2258.38 2463.47 1664.67 1689.4 1553.78 287.018 2744.28
internal_count=91586 36360 55226 15840 20520 30763 5684 12543 10156 7977 9117 7506 1562 20651
is_linear=0
shrinkage=0.05


Tree=20
num_leaves=15
num_cat=0
split_feature=39 41 22 17 3 17 27 6 29 22 32 12 26 33
split_gain=1716.82 288.377 156.228 106.781 35.94 25.0132 23.5199 22.7768 21.4243 21.1028 22.1228 20.7088 19.47 19.3226
threshold=5.2936749121497177 4.1243304605888271 26.466688990427539 26.500000000000004 9.5000000000000018 16.500000000000004 2.1642853540641673 0.115 1.3734660033106396 26.782711745084502 2.1110216291508439 43.500000000000007 5.609367727631696 12.789554260893555
decision_type=2 2 2 2 2 2 2 2 2 2 2 2 2 2
left_child=2 3 5 6 7 -1 8 -3 -2 -4 -11 -5 -8 -14
right_child=1 4 9 11 -6 -7 12 -9 -10 10 -12 -13 13 -15
leaf_value=-0.011148177465671913 0.010211044038583769 0.026113852216109165 -0.015668368281817297 0.014128033182780395 0.037221130667847373 -0.0001502119082519272 0.0098977486325699665 -0.023424121013799527 -0.0042312655208301157 -0.024742180074081535 -0.013703202286540159 0.026280479802333969 0.050537779340797256 -0.011482281956110441
leaf_weight=1010.8107148632407 342.07080361247063 1619.5532619506121 1131.2389429211617 636.92428539693356 1057.5761426687241 1058.2461346387863 1585.0730532705784 23.540909558534622 1029.9641399458051 3648.3052151426673 518.34300864487886 779.7241332679987 13.523395314812658 176.03641229867935
leaf_count=6832 1754 6791 8669 2969 4309 6569 7608 115 5964 31538 4138 3234 65 1031
internal_value=0 0.0170817 -0.0171743 0.00941764 0.0300316 -0.00552312 0.00428569 0.0254041 -0.000630561 -0.0217246 -0.0233689 0.0208167 0.00808663 -0.00705771
internal_weight=0 7263.99 7366.94 4563.32 2700.67 2069.06 3146.67 1643.09 1372.03 5297.89 4166.65 1416.65 1774.63 189.56
internal_count=91586 33840 57746 22625 11215 13401 16422 6906 7718 44345 35676 6203 8704 1096
is_linear=0
shrinkage=0.05


Tree=21
num_leaves=15
num_cat=0
split_feature=40 32 14 20 23 27 29 14 17 14 12 23 28 26
split_gain=1570.59 262.954 173.067 54.1731 47.4832 41.6285 28.0597 26.3316 22.8225 18.7346 17.8233 17.5725 17.3695 17.1618
threshold=2.8063272873639957 3.8468848352121152 1.5000000000000002 22.500000000000004 0.98793288904584364 2.2325439684021551 5.3855852985054282 3.5000000000000004 28.500000000000004 3.5000000000000004 27.500000000000004 1.1970051908259931 11.219320464662326 5.7797629232654764
decision_type=2 2 2 2 2 2 2 2 2 2 2 2 2 2
left_child=2 5 11 8 -4 7 12 -2 -3 10 -6 -1 -5 -7
right_child=1 3 4 6 9 13 -8 -9 -10 -11 -12 -13 -14 -15
leaf_value=-0.032402785614335038 -0.007594843428059302 0.010879110022220294 -0.018286178693672817 0.024642718189647868 -0.011804532649020278 0.011976884712608063 0.034825402168876952 0.0050304620119449662 0.022807936352171806 -0.0025441203890830379 0.029529814826569835 -0.024160475214789562 -0.0083821566391417707 -0.011406989027605476
leaf_weight=1135.7217450812459 617.72259353101254 669.43768991529942 1548.4859626963735 786.94084930419922 1421.7612203583121 2046.4980381280184 1255.4578592330217 1246.0252158790827 999.8137990385294 1172.4092467576265 26.567199930548668 1501.7071575671434 41.936626508831978 81.592038452625275
leaf_count=10654 3736 3096 12222 3284 10578 9917 5129 6674 4108 7602 166 13644 223 553
internal_value=0 0.0152355 -0.0176856 0.0247361 -0.0113444 0.00630199 0.0301116 0.000845917 0.018024 -0.00724279 -0.0110463 -0.0277098 0.0229718 0.0110803
internal_weight=0 7745.42 6806.65 3753.59 4169.22 3991.84 2084.34 1863.75 1669.25 2620.74 1448.33 2637.43 828.877 2128.09
internal_count=91586 36720 54866 15840 30568 20880 8636 10410 7204 18346 10744 24298 3507 10470
is_linear=0
shrinkage=0.05


Tree=22
num_leaves=15
num_cat=0
split_feature=0 0 14 18 0 40 7 28 8 16 6 17 14 39
split_gain=1579.11 256.247 189.917 60.4907 52.4371 34.363 24.8126 20.5684 19.767 24.4494 19.6241 28.593 17.3576 14.9579
threshold=34.500000000000007 81.500000000000014 1.5000000000000002 37.500000000000007 56.500000000000007 2.4510535190476648 40.220000000000006 11.886196744461738 37.005000000000003 16.500000000000004 1.0000000180025095e-35 23.500000000000004 3.5000000000000004 5.46866546871503
decision_type=2 2 2 2 2 2 2 2 2 2 2 2 2 2
left_child=2 4 5 7 8 -1 13 12 -2 -10 -3 -12 -4 -6
right_child=1 10 3 -5 6 -7 -8 -9 9 -11 11 -13 -14 -15
leaf_value=-0.027841302449855637 0.003418902763766862 0.039356326249086644 -0.016580052069502797 -0.002710499393837855 0.046304054097267233 -0.014251812828348871 -0.005680054515718836 0.02770512715900629 0.0061582223715493517 0.021896295283804355 -0.0016370792354844016 0.030453755106982339 -0.0077621855837420196 0.018885502779084046
leaf_weight=2368.2225800678134 1673.3596226722002 639.48934750258923 2127.127128534019 2100.5868230015039 51.51700396835804 578.89453493058681 101.81016965210438 29.488033562898636 644.37462556362152 399.94375403225422 72.807981595396996 1488.3828096091747 756.59350594878197 1443.543929412961
leaf_count=22621 8525 2626 17040 13177 209 4165 425 188 3171 1826 293 5995 5333 5992
internal_value=0 0.0180947 -0.015099 -0.00917815 0.0110129 -0.025172 0.0182039 -0.0138417 0.00678761 0.0121854 0.031979 0.0289572 -0.0142665 0.0198303
internal_weight=0 6515.23 7960.91 5013.8 4314.55 2947.12 1596.87 2913.21 2717.68 1044.32 2200.68 1561.19 2883.72 1495.06
internal_count=91586 29062 62524 35738 20148 26786 6626 22561 13522 4997 8914 6288 22373 6201
is_linear=0
shrinkage=0.05


Tree=23
num_leaves=15
num_cat=0
split_feature=39 41 22 17 23 3 20 16 8 32 12 33 29 5
split_gain=1288.88 219.482 128.777 84.8619 34.3294 29.8485 21.9269 20.4964 19.2821 18.4877 15.8766 17.2814 15.677 17.1239
threshold=5.2936749121497177 4.100213761528539 26.691804262344196 26.500000000000004 1.6199001707457412 9.5000000000000018 21.500000000000004 17.500000000000004 37.005000000000003 2.1110216291508439 43.500000000000007 11.126691528820688 2.1031150391086997 257.84000000000009
decision_type=2 2 2 2 2 2 2 2 2 2 2 2 2 2
left_child=2 3 4 7 12 -3 -7 -2 -9 -4 -5 -12 -1 -14
right_child=1 5 9 10 -6 6 -8 8 -10 -11 11 -13 13 -15
leaf_value=-0.0046209842795288487 -0.00034853034270466201 0.021623103877584489 -0.021933359650973983 0.012088906103907605 0.00056758381846272303 0.0024857157111693715 0.034049862272283349 0.0060654169022581568 0.028028584322397205 -0.011757094748539176 0.0217415064011123 0.080322440786655014 -0.007021902908444547 -0.019242424158478374
leaf_weight=626.64963630586863 1782.282703794539 1733.7574524879456 3797.2709851637483 643.29178260266781 982.09673792123795 58.248448684811592 993.07550765573978 1188.5870129689574 109.10508939623833 505.76619390398264 765.45921339094639 12.799952551722525 475.9129114151001 720.84857659041882
leaf_count=4199 9484 7333 34238 2961 6030 245 4077 6033 509 4172 3143 55 3629 5478
internal_value=0 0.0146215 -0.0153033 0.00779585 -0.00696879 0.0256539 0.0323011 0.00313189 0.007912 -0.0207373 0.0179009 0.022705 -0.0110279 -0.0143827
internal_weight=0 7286.61 7108.55 4501.53 2805.51 2785.08 1051.32 3079.97 1297.69 4303.04 1421.55 778.259 1823.41 1196.76
internal_count=91586 33840 57746 22185 19336 11655 4322 16026 6542 38410 6159 3198 13306 9107
is_linear=0
shrinkage=0.05


Tree=24
num_leaves=15
num_cat=0
split_feature=0 0 0 42 0 29 0 25 25 7 39 9 0 1
split_gain=1311.65 241.173 133.049 39.5958 36.3195 21.9005 21.8255 22.1305 17.5553 17.4332 16.8514 14.9526 14.9787 14.4728
threshold=32.500000000000007 73.500000000000014 16.500000000000004 7.5000000000000009 47.500000000000007 4.4634112120704108 99.500000000000014 2.1320086334627812 4.6158445232321377 30.900000000000002 3.6293611550748817 69915.535000000018 81.500000000000014 10.500000000000002
decision_type=2 2 2 2 2 2 2 2 2 2 2 2 2 2
left_child=2 4 8 10 5 -2 11 -8 -1 -6 -4 -3 -13 -9
right_child=1 6 3 -5 9 -7 7 13 -10 -11 -12 12 -14 -15
leaf_value=-0.022862139156611186 0.0051804374250168355 0.024572999626668784 0.049232463375282462 -0.0050954359436894553 0.014949035931942032 -0.013153458595614329 0.052869718701877677 0.017685772695195955 -0.01068994919415981 0.0021649884801202678 -0.016692772562073264 -0.022331143399912493 0.015999133566949247 0.032046881672094706
leaf_weight=3205.4426023513079 2013.1878325492144 1072.3352740705013 9.7762751355767232 2757.1047551780939 1722.9865218698978 177.22515417635441 112.59061633050442 208.41663239896297 326.37899631261826 315.50623950362206 1142.1913484558463 32.436688438057899 118.97215263545513 1108.5977077335119
leaf_count=29972 10595 4308 82 18640 7460 973 473 838 2712 1349 9019 131 477 4557
internal_value=0 0.0155812 -0.0147033 -0.00834819 0.00816715 0.00369705 0.0273976 0.0315932 -0.0217373 0.0129704 -0.0161333 0.0224962 0.00778754 0.0297742
internal_weight=0 6882.25 7440.89 3909.07 4228.91 2190.41 2653.35 1429.6 3531.82 2038.49 1151.97 1223.74 151.409 1317.01
internal_count=91586 31161 60425 27741 20377 11568 10784 5868 32684 8809 9101 4916 608 5395
is_linear=0
shrinkage=0.05


Tree=25
num_leaves=15
num_cat=0
split_feature=0 0 14 14 0 21 21 9 6 16 8 25 16 8
split_gain=1190.48 199.303 170.717 49.6428 39.4244 32.0443 24.9139 24.5239 17.8291 19.4885 17.2698 17.1908 16.9965 20.427
threshold=34.500000000000007 81.500000000000014 1.5000000000000002 3.5000000000000004 56.500000000000007 1.9064264665632875 1.0880031402645065 69915.535000000018 1.0000000180025095e-35 19.500000000000004 31.975000000000005 3.7532761238157515 16.500000000000004 37.005000000000003
decision_type=2 2 2 2 2 2 2 2 2 2 2 2 2 2
left_child=2 4 5 6 12 -1 -4 -6 -3 10 -10 -5 -2 -14
right_child=1 8 3 11 7 -7 -8 -9 9 -11 -12 -13 13 -15
leaf_value=-0.026681930044660108 0.0021415889875486711 0.03499705949982674 -0.016278339192977245 -0.0052257571549677974 0.016859577636170624 -0.014946137597853676 -0.0071221674837069829 -0.014521133988115815 -0.029753477882278112 0.028050879193046385 0.017424690674582698 0.0045147526027758426 0.0055867702308730373 0.019256106518953233
leaf_weight=1992.4094677865505 1495.9343203902245 629.91408196091652 1539.0024013072252 1204.4967565238476 1543.6340056359768 821.47435761243105 1436.2980701848865 64.875904276967049 20.608946725726128 1200.6374822854996 329.99465137720108 726.00083827972412 836.25665850937366 405.99383719265461
leaf_count=20015 7618 2626 13066 8361 6359 6771 10098 267 83 4878 1327 4213 4078 1826
internal_value=0 0.0155698 -0.0134381 -0.00780681 0.00938103 -0.0232558 -0.0118583 0.0155939 0.0279031 0.0250224 0.0146515 -0.00156265 0.00573136 0.0100542
internal_weight=0 6527.85 7719.68 4905.8 4346.69 2813.88 2975.3 1608.51 2181.16 1551.24 350.604 1930.5 2738.18 1242.25
internal_count=91586 29062 62524 35738 20148 26786 23164 6626 8914 6288 1410 12574 13522 5904
is_linear=0
shrinkage=0.05


Tree=26
num_leaves=15
num_cat=0
split_feature=40 3 14 17 41 21 14 5 17 26 41 36 16 14
split_gain=983.882 163.064 140.132 52.6228 51.5149 29.9448 25.9513 20.9833 27.9015 27.4437 21.6821 17.7003 17.1103 15.8411
threshold=2.8063272873639957 5.5000000000000009 1.5000000000000002 28.500000000000004 4.3850883298069325 0.97409473938207303 4.5000000000000009 1.0000000180025095e-35 15.500000000000002 5.609367727631696 4.161267803071012 6.5613438324118727 16.500000000000004 5.5000000000000009
decision_type=2 2 2 2 2 2 2 2 2 2 2 2 2 2
left_child=2 3 -1 7 -3 -4 -5 9 -9 -2 -11 -12 -8 -10
right_child=1 4 5 6 -6 -7 12 8 13 10 11 -13 -14 -15
leaf_value=-0.024157097228478322 0.022851900478306073 0.013916656374061651 -0.013901447004254866 -0.0034075922678537709 0.026721835545873585 -0.0051628056826309408 0.0099912126274342358 -0.0072309863003286196 -5.3537239684198716e-05 -0.0091960250689439842 0.010749619429969621 0.070944021591529544 0.024743097327582477 0.0083206484504164558
leaf_weight=2409.7539325132966 284.02210375666618 1502.8754756376147 1712.1913654506207 146.55347196757793 1645.2372218444943 2293.5025800392032 308.97956210374832 726.16594315320253 1156.7140686586499 193.73084743320942 135.73954595625401 13.420038565993307 540.26384395360947 1103.4535253345966
leaf_count=24298 1370 6694 14388 686 6817 16180 1343 4370 6238 1133 626 61 2230 5152
internal_value=0 0.0118372 -0.0146296 0.00584595 0.0206088 -0.00889805 0.0160228 0.00304124 0.00129544 0.0113574 0.00183635 0.0161654 0.0193759 0.00403489
internal_weight=0 7757.16 6415.45 4609.04 3148.11 4005.69 995.797 3613.25 2986.33 626.913 342.89 149.16 849.243 2260.17
internal_count=91586 36720 54866 23209 13511 30568 4259 18950 15760 3190 1820 687 3573 11390
is_linear=0
shrinkage=0.05


Tree=27
num_leaves=15
num_cat=0
split_feature=40 20 14 42 23 41 14 8 16 41 26 41 23 6
split_gain=893.665 148.746 131.531 53.1267 34.4039 28.2442 22.8432 20.8498 17.3074 28.2225 18.0469 20.1375 17.1865 14.9385
threshold=2.8063272873639957 22.500000000000004 1.5000000000000002 8.5000000000000018 0.98793288904584364 4.3850883298069325 4.5000000000000009 40.545000000000009 16.500000000000004 4.100213761528539 5.609367727631696 3.8145134366131517 1.1970051908259931 0.025000000000000005
decision_type=2 2 2 2 2 2 2 2 2 2 2 2 2 2
left_child=2 3 12 8 -4 -3 -5 -8 9 10 11 -2 -1 -10
right_child=1 5 4 6 -6 -7 7 -9 13 -11 -12 -13 -14 -15
leaf_value=-0.028337217669875028 0.0014466260899783604 0.013168262537211126 -0.014659452574279109 -0.0027314362652225369 -0.0049955273727442517 0.025935473701071566 0.0033166831724277465 0.018947725502543814 0.0011382915790930954 0.017300406345153955 -0.012344614970516213 0.01893437629246103 -0.019719037458774111 0.017470520434442884
leaf_weight=1008.8179647326469 640.10771874338388 599.74390584230423 1446.7351201400161 1353.9049643054605 2534.1293995827436 1559.8655271530151 1033.0913223922253 268.85641191899776 157.9288160353899 529.99841260910034 159.92474262416363 221.6105110347271 1356.1531413048506 1233.9493945986032
leaf_count=10654 2900 2604 12222 7926 18346 6526 5277 1297 647 2320 973 1086 13644 5164
internal_value=0 0.0112425 -0.014056 0.00694312 -0.00850761 0.0223899 0.00181582 0.00654454 0.0115693 0.00793807 0.00308116 0.005944 -0.0233953 0.0156174
internal_weight=0 7758.98 6345.84 5599.37 3980.86 2159.61 2655.85 1301.95 2943.52 1551.64 1021.64 861.718 2364.97 1391.88
internal_count=91586 36720 54866 27590 30568 9130 14500 6574 13090 7279 4959 3986 24298 5811
is_linear=0
shrinkage=0.05


Tree=28
num_leaves=15
num_cat=0
split_feature=0 0 0 0 25 9 8 6 17 25 21 17 20 28
split_gain=902.758 173.815 105.395 34.6806 24.8871 22.0559 19.2142 16.6408 22.5739 15.7995 14.0394 14.024 17.3438 13.6713
threshold=32.500000000000007 81.500000000000014 16.500000000000004 56.500000000000007 3.431077514738043 69915.535000000018 32.995000000000012 1.0000000180025095e-35 23.500000000000004 4.6158445232321377 2.7437127028568304 26.500000000000004 14.500000000000002 11.553774023556825
decision_type=2 2 2 2 2 2 2 2 2 2 2 2 2 2
left_child=2 3 9 6 -4 10 13 -3 -9 -1 -5 12 -12 -2
right_child=1 7 4 5 -6 -7 -8 8 -10 -11 11 -13 -14 -15
leaf_value=-0.020195205608870066 -0.00050954907184696553 0.031454367936197367 -0.011119576632144534 0.039229034625751169 -0.00304401015792452 -0.015184476593257112 0.0082741344960102943 -0.0054078970894324285 0.023102728062159107 -0.0084077081591608302 -0.0033460258277243277 0.018162017379394196 0.013719751735093761 0.024023311802699218
leaf_weight=3014.8085837513208 1503.1176003962755 620.0717401355505 1832.2764896601439 55.572478175163269 1990.4358592554927 64.968352660536766 1550.5425879582763 72.879707172513008 1465.8028861284256 313.87229049950838 215.2035318762064 798.32602423429489 483.06143739819527 59.017352521419525
leaf_count=29972 7803 2626 14607 224 13134 267 7492 293 5995 2712 898 3246 1991 326
internal_value=0 0.0127828 -0.0125789 0.00741709 -0.00691474 0.0133571 0.00433109 0.0245391 0.0217523 -0.0190837 0.0145517 0.0136354 0.00846012 0.000417301
internal_weight=0 6888.56 7151.39 4729.81 3822.71 1617.13 3112.68 2158.75 1538.68 3328.68 1552.16 1496.59 698.265 1562.13
internal_count=91586 31161 60425 22247 27741 6626 15621 8914 6288 32684 6359 6135 2889 8129
is_linear=0
shrinkage=0.05


Tree=29
num_leaves=15
num_cat=0
split_feature=0 0 14 14 21 0 17 38 0 25 9 3 19 7
split_gain=818.936 158.955 130.661 34.3101 23.3048 23.0418 19.655 19.5163 17.2231 20.9357 16.7904 12.7284 12.7206 12.6289
threshold=32.500000000000007 73.500000000000014 1.5000000000000002 3.5000000000000004 1.8237587872375933 44.500000000000007 15.500000000000002 3.2677509215285849 99.500000000000014 2.1320086334627812 51974.020000000011 12.500000000000002 39.500000000000007 40.220000000000006
decision_type=2 2 2 2 2 2 2 2 2 2 2 2 2 2
left_child=2 5 4 7 -1 6 -2 -4 13 -10 -7 -11 -8 -3
right_child=1 8 3 -5 -6 10 12 -9 9 11 -12 -13 -14 -15
leaf_value=-0.024107494681991418 -0.0068410459497710383 0.019314939844786615 -0.010977732886531699 -0.0012323195100341275 -0.013818888546274194 0.010250786115005964 0.015202672491334224 0.014385045971004668 0.046795580045199681 0.01976810174310567 -0.0090740683963319545 0.029897041115739209 0.0026595277934181455 0.003142945960033615
leaf_weight=1810.6794884428382 474.35081662982702 1085.6289870589972 2729.6832131743431 1675.8331667333841 790.7616548910737 2357.3521391153336 249.07944943010807 78.015885189175606 107.97451901435852 765.19118824601173 118.02804696559906 521.57089032232761 1072.4198494851589 135.82360625267029
leaf_count=19620 2727 4369 22190 11247 6886 10245 1401 482 473 3175 493 2220 5511 547
internal_value=0 0.0121462 -0.012066 -0.00689381 -0.0209801 0.00620137 0.00188977 -0.010273 0.0218517 0.0256482 0.00932936 0.0238737 0.00502369 0.0175166
internal_weight=0 6887.42 7084.97 4483.53 2601.44 4271.23 1795.85 2807.7 2616.19 1394.74 2475.38 1286.76 1321.5 1221.45
internal_count=91586 31161 60425 33919 26506 20377 9639 22672 10784 5868 10738 5395 6912 4916
is_linear=0
shrinkage=0.05


Tree=30
num_leaves=15
num_cat=0
split_feature=0 0 14 23 0 23 9 14 0 29 6 16 14 22
split_gain=742.859 145.753 121.864 34.7271 29.093 23.7683 19.0429 15.108 14.9423 17.0492 14.8616 16.7154 14.6643 15.5501
threshold=32.500000000000007 81.500000000000014 1.5000000000000002 0.98793288904584364 56.500000000000007 1.1970051908259931 69915.535000000018 5.5000000000000009 5.5000000000000009 5.7862050179438382 1.0000000180025095e-35 20.500000000000004 3.5000000000000004 24.745874709401608
decision_type=2 2 2 2 2 2 2 2 2 2 2 2 2 2
left_child=2 4 5 -4 7 -1 -6 -2 -7 -10 -3 -12 13 -5
right_child=1 10 3 12 6 8 -8 -9 9 -11 11 -13 -14 -15
leaf_value=-0.02652467127372661 0.00080928303036029593 0.028955825466920805 -0.013087415460503994 0.054237377487968599 0.013195940039963251 -0.0264463442383404 -0.014471460694924852 0.0078309975022118044 -0.015090240772868758 0.022926701373244016 0.011851330977096642 0.023201836142842228 0.00025580105958070913 -0.0070869626224723111
leaf_weight=952.99528223276138 1777.7964667603374 611.95316907763481 1405.4119737446308 10.401407584547995 1556.2619618326426 308.60480156540871 64.781062051653862 1346.083290874958 1267.4309740960598 30.193602800369263 466.95731800794601 1062.1598388701677 1368.2591333091259 1677.7568768635392
leaf_count=10648 9184 2626 12215 57 6359 3176 267 6437 12449 233 1894 4394 8865 12782
internal_value=0 0.0115418 -0.0115712 -0.00658234 0.00665528 -0.020269 0.0120903 0.00383495 -0.0165575 -0.0142056 0.0223709 0.0197357 -0.00359115 -0.00670912
internal_weight=0 6885.99 7021.05 4461.83 4744.92 2559.22 1621.04 3123.88 1606.23 1297.62 2141.07 1529.12 3056.42 1688.16
internal_count=91586 31161 60425 33919 22247 26506 6626 15621 15858 12682 8914 6288 21704 12839
is_linear=0
shrinkage=0.05


Tree=31
num_leaves=15
num_cat=0
split_feature=0 0 14 23 0 23 8 16 23 17 10 0 38 34
split_gain=673.816 133.001 113.533 31.9032 26.4505 22.651 17.394 17.4353 16.5776 15.5816 16.3906 14.1301 17.3049 14.068
threshold=32.500000000000007 81.500000000000014 1.5000000000000002 0.98793288904584364 59.500000000000007 1.1970051908259931 37.005000000000003 16.500000000000004 2.8391305458158418 28.500000000000004 0.43500000000000005 5.5000000000000009 4.2976170624293903 8.958851139958762
decision_type=2 2 2 2 2 2 2 2 2 2 2 2 2 2
left_child=2 4 5 -4 6 -1 -2 -8 -6 -10 -11 -7 -13 -3
right_child=1 13 3 -5 8 11 7 -9 9 10 -12 12 -14 -15
leaf_value=-0.025755212281652864 0.0010996028513338117 0.017144172960023758 -0.012556198466740135 -0.003420652925480998 0.032538692708794295 -0.025661936783714662 0.0038617498693046086 0.015812201018961813 0.0052386834308034936 0.023808819179081758 0.007746890720877306 -0.01476576978777247 0.016460903066911056 0.025271537604515889
leaf_weight=932.91181664168835 2082.7665180116892 1030.4144237488508 1391.9777785092592 3048.8552357628942 92.861588686704636 302.29886649549007 787.1036517098546 498.52116020023823 653.13135285675526 336.52293835580349 300.80984453856945 1237.6668060719967 46.016423925757408 1101.7460005730391
leaf_count=10648 10600 4213 12215 21704 374 3176 3833 2190 2676 1362 1212 12345 337 4701
internal_value=0 0.0109686 -0.0110938 -0.00628419 0.00631313 -0.0195731 0.0039225 0.00849572 0.0121343 0.010666 0.0162279 -0.0159366 -0.0136464 0.0213438
internal_weight=0 6883.88 6959.73 4440.83 4751.72 2518.89 3368.39 1285.62 1383.33 1290.46 637.333 1585.98 1283.68 2132.16
internal_count=91586 31161 60425 33919 22247 26506 16623 6023 5624 5250 2574 15858 12682 8914
is_linear=0
shrinkage=0.05


Tree=32
num_leaves=15
num_cat=0
split_feature=0 0 14 23 23 14 0 21 34 33 19 0 7 1
split_gain=611.112 121.482 105.684 29.872 21.8962 19.7993 19.7619 19.5329 15.515 17.6359 16.3846 13.6045 13.037 11.678
threshold=32.500000000000007 67.500000000000014 1.5000000000000002 1.652729687514676 2.4467763770548934 3.5000000000000004 99.500000000000014 4.2414480316820145 8.169372579661184 13.448101782974202 115.50000000000001 5.5000000000000009 32.480000000000011 10.500000000000002
decision_type=2 2 2 2 2 2 2 2 2 2 2 2 2 2
left_child=2 8 4 5 -1 -4 12 -8 10 -10 -2 -6 -3 -9
right_child=1 6 3 -5 11 -7 7 13 9 -11 -12 -13 -14 -15
leaf_value=-0.021405125320799565 0.010023540476836991 0.016925426928202873 -0.011647705672761509 5.5367609547295878e-05 -0.02173226362856304 -0.00306804939200013 0.047090786519328791 0.010112269947670796 0.0014599330883290477 0.019250831152182554 -0.023332790972763723 -0.0048048092350620091 0.006341163743411489 0.023128881317165007
leaf_weight=1928.615194760263 1303.0815052390099 1167.7640051245689 2017.4858206212521 1395.1579279452562 172.85869920253754 1008.6036715433002 76.389904662966728 204.63789203763008 2465.1257654726505 147.63975805044174 37.884872153401375 378.82052630931139 387.46928782761097 1090.7422896325588
leaf_count=21365 5720 4716 17466 9170 1737 7283 343 836 12402 734 157 3404 1564 4689
internal_value=0 0.0104255 -0.0106317 -0.00599747 -0.0188925 -0.00878808 0.0181469 0.0225215 0.00470913 0.00246524 0.00908116 -0.0101087 0.0142885 0.0210726
internal_weight=0 6880.74 6901.54 4421.25 2480.29 3026.09 2927 1371.77 3953.73 2612.77 1340.97 551.679 1555.23 1295.38
internal_count=91586 31161 60425 33919 26506 24749 12148 5868 19013 13136 5877 5141 6280 5525
is_linear=0
shrinkage=0.05


Tree=33
num_leaves=15
num_cat=0
split_feature=0 14 0 23 40 14 11 6 17 33 17 14 0 0
split_gain=555.584 132.888 67.3524 52.2748 27.8918 18.3262 13.7459 12.5717 20.0568 12.4105 22.7387 15.8796 14.5424 12.0369
threshold=42.500000000000007 1.5000000000000002 81.500000000000014 1.652729687514676 1.8264034735811394 3.5000000000000004 3949.2000000000003 1.0000000180025095e-35 21.500000000000004 13.11668316949609 22.500000000000004 5.5000000000000009 71.500000000000014 163.50000000000003
decision_type=2 2 2 2 2 2 2 2 2 2 2 2 2 2
left_child=1 4 6 5 -1 -3 9 -4 -9 10 -2 12 -12 -10
right_child=2 3 7 -5 -6 -7 -8 8 13 -11 11 -13 -14 -15
leaf_value=-0.021134234211761287 0.0016737348454241891 -0.011058756564042399 0.025604074495174173 0.0012979666717093524 -0.010421613486562287 -0.0029719858683053225 -0.013399631745964494 -0.01393159476927493 0.015625714420137642 0.018934047534131304 0.00065759356717250464 0.013710869734562973 0.035355760942379841 0.02636044202848304
leaf_weight=1718.9954403340816 1050.4175276905298 2021.075635060668 599.90994887053967 2665.8733862489462 939.80198285728693 1072.284972935915 73.507559388875961 50.491822645068169 1123.7260776162148 259.99858060479164 439.56824058294296 1335.2503146380186 32.424517512321472 340.19513128697872
leaf_count=20119 4692 17603 2626 15875 7647 7699 306 203 4632 1122 1902 5577 130 1453
internal_value=0 -0.00810179 0.0125572 -0.00383335 -0.0173477 -0.00825555 0.00797165 0.0194783 0.0170517 0.00847554 0.00752399 0.0109243 0.00304126 0.0181203
internal_weight=0 8418.03 5305.49 5759.23 2658.8 3093.36 3191.17 2114.32 1514.41 3117.66 2857.66 1807.24 471.993 1463.92
internal_count=91586 68943 22643 41177 27766 25302 13729 8914 6288 13423 12301 7609 2032 6085
is_linear=0
shrinkage=0.05


Tree=34
num_leaves=15
num_cat=0
split_feature=0 0 14 23 23 0 23 33 0 38 1 33 26 14
split_gain=504.444 101.57 91.1081 26.2836 21.2938 19.9777 14.2291 13.5826 13.2283 15.161 12.6494 18.0832 12.0724 16.1083
threshold=32.500000000000007 81.500000000000014 1.5000000000000002 0.98793288904584364 1.1970051908259931 59.500000000000007 2.8391305458158418 9.8717161828346018 5.5000000000000009 4.2976170624293903 1.5000000000000002 14.168425342391741 2.1006060425271689 11.500000000000002
decision_type=2 2 2 2 2 2 2 2 2 2 2 2 2 2
left_child=2 5 4 -4 -1 12 -7 -5 -6 -10 11 -9 13 -2
right_child=1 -3 3 7 8 6 -8 10 9 -11 -12 -13 -14 -15
leaf_value=-0.023760252629490809 0.0072758294752041557 0.018587636045538296 -0.011255434854678616 0.069204568471848568 -0.023675698066393466 0.02935659927014532 0.0090981921598319911 -0.013258394040293867 -0.012851172129839918 0.01638594136461274 -0.0016189841428872677 0.021992817583390691 0.0015864287946252128 0.048333025930320135
leaf_weight=883.75957803428173 832.98272150754929 2105.133153423667 1359.6579572707415 6.5197276026010504 287.10760648548603 92.904461681842804 1293.2434019893408 449.32682242244482 1191.8825150132179 46.053527802228928 2530.011320181191 39.585536941885948 2523.2323821559548 24.595077186822891
leaf_count=10648 3748 8914 12215 33 3176 374 5250 3576 12345 337 17830 265 12771 104
internal_value=0 0.0094404 -0.0097725 -0.00548109 -0.0175848 0.0054009 0.010456 -0.00288606 -0.0140061 -0.0117635 -0.00304175 -0.0104042 0.00332829 0.00845334
internal_weight=0 6872.09 6793.9 4385.1 2408.8 4766.96 1386.15 3025.44 1525.04 1237.94 3018.92 488.912 3380.81 857.578
internal_count=91586 31161 60425 33919 26506 22247 5624 21704 15858 12682 21671 3841 16623 3852
is_linear=0
shrinkage=0.05


Tree=35
num_leaves=15
num_cat=0
split_feature=0 0 14 14 23 8 16 34 23 14 16 40 6 17
split_gain=457.33 92.5637 84.5403 24.4634 20.1651 19.5612 22.7131 16.5595 15.3489 13.7529 13.3725 12.7526 11.7589 18.2402
threshold=32.500000000000007 81.500000000000014 1.5000000000000002 3.5000000000000004 1.1970051908259931 37.005000000000003 16.500000000000004 10.499406684856211 1.6199001707457412 5.5000000000000009 18.500000000000004 0.71371845728339489 1.0000000180025095e-35 21.500000000000004
decision_type=2 2 2 2 2 2 2 2 2 2 2 2 2 2
left_child=2 5 4 8 -1 7 -7 -2 -4 -8 -5 -6 -3 -14
right_child=1 12 3 10 11 6 9 -9 -10 -11 -12 -13 13 -15
leaf_value=-0.023027302848455583 0.0019570708350315227 0.023694366503283947 -0.010518136624178137 -0.0014905208170868682 -0.020038080319628879 0.003505490086892004 0.0050128009598004678 0.041833899777552822 -0.0021605817367412235 0.017707495853674697 0.018847106344937477 -0.010245539697884651 -0.014164181700421614 0.016405075826055802
leaf_weight=866.73506660759449 2691.7340538725257 592.65251952409744 1943.8381041288376 1572.9240646511316 494.72762934118509 1018.179949067533 300.61778597533703 26.288600727915764 765.7855229601264 734.93181464076042 85.204743936657906 1013.681137599051 50.492595970630646 1453.7833140790462
leaf_count=10648 13028 2626 17243 10766 5981 4752 1306 131 5429 3030 481 9877 203 6085
internal_value=0 0.00897325 -0.00935746 -0.00522894 -0.0169496 0.0051255 0.00880835 0.00234276 -0.00815615 0.0140223 -0.00044545 -0.0134573 0.0177292 0.015379
internal_weight=0 6868.68 6742.9 4367.75 2375.14 4771.75 2053.73 2718.02 2709.62 1035.55 1658.13 1508.41 2096.93 1504.28
internal_count=91586 31161 60425 33919 26506 22247 9088 13159 22672 4336 11247 15858 8914 6288
is_linear=0
shrinkage=0.05


Tree=36
num_leaves=15
num_cat=0
split_feature=40 14 3 26 17 23 14 3 7 23 16 1 4 25
split_gain=384.242 73.7868 71.0723 22.4324 21.897 19.2892 16.7662 14.3834 13.7698 12.8268 12.5739 12.3188 13.4493 12.6729
threshold=2.8063272873639957 1.5000000000000002 5.5000000000000009 6.0750579353987488 28.500000000000004 0.98793288904584364 4.5000000000000009 1.5000000000000002 21.105000000000004 1.1970051908259931 19.500000000000004 1.5000000000000002 11.500000000000002 4.0692039174658579
decision_type=2 2 2 2 2 2 2 2 2 2 2 2 2 2
left_child=1 9 4 -4 8 7 -6 -3 -2 -1 -10 12 -7 -13
right_child=2 5 3 -5 6 11 -8 -9 10 -11 -12 13 -14 -15
leaf_value=-0.022100146399988183 0.0038666032534865912 -0.018908934357252851 0.010166558048268735 0.019286957455936605 -0.0057215683182076961 0.03972437672163192 0.012536718510720602 -0.007287793021285455 -0.0060454499555015776 -0.014075379143486328 0.0041049241796329919 -0.0020266250087934029 -0.011871827185511961 0.020990120711386832
leaf_weight=851.18527734279633 2271.0496859624982 366.38806810230017 2095.2081214860082 994.07032687962055 147.45097977668047 12.998949743807314 853.70385234057903 974.27891889959574 877.61559625715017 1199.9614296332002 467.69636463373899 1940.8028426319361 444.96728323400021 61.705224864184856
leaf_count=10654 12238 3388 9135 4376 686 94 3573 8834 4530 13644 2182 14271 3584 397
internal_value=0 -0.00976265 0.00723104 0.0131013 0.00330362 -0.00563847 0.00984762 -0.0104637 0.00149198 -0.0174055 -0.00251668 -0.00300929 -0.0104073 -0.00131739
internal_weight=0 5852.29 7706.79 3089.28 4617.52 3801.14 1001.15 1340.67 3616.36 2051.15 1345.31 2460.47 457.966 2002.51
internal_count=91586 54866 36720 13511 23209 30568 4259 12222 18950 24298 6712 18346 3678 14668
is_linear=0
shrinkage=0.05


Tree=37
num_leaves=15
num_cat=0
split_feature=0 14 0 17 40 38 33 17 14 28 0 19 7 19
split_gain=382.807 98.8853 47.6697 39.0039 21.6236 16.0037 14.4734 17.5537 17.3707 14.4545 13.0457 15.8424 13.4451 12.1489
threshold=42.500000000000007 1.5000000000000002 85.500000000000014 16.500000000000004 1.8264034735811394 4.3870566698869089 13.11668316949609 22.500000000000004 4.5000000000000009 11.886196744461738 163.50000000000003 177.50000000000003 56.745000000000005 125.50000000000001
decision_type=2 2 2 2 2 2 2 2 2 2 2 2 2 2
left_child=1 4 6 9 -1 -4 7 -2 13 -3 11 12 -7 -9
right_child=2 3 5 -5 -6 10 -8 8 -10 -11 -12 -13 -14 -15
leaf_value=-0.018550638118324116 0.00098649736324728991 -0.0065538848362198593 0.031199987863424056 0.0023718763764546823 -0.008931382777963506 0.016769198064588608 0.017805477202650237 4.2668527129889196e-05 0.010735601615425973 0.028090629993351424 0.02255393402671808 0.001792240051253655 -0.014282949090257692 -0.045905506032724051
leaf_weight=1614.6390579640865 1145.1872286051512 3639.8281395286322 175.40005157887936 2028.6003950461745 915.48489143699408 935.92463949322701 278.88941901922226 289.06151174008846 1688.7451893091202 30.358596816658974 456.76015904545784 263.58080817759037 36.207993566989899 15.139467060565947
leaf_count=20119 5070 29314 761 11672 7647 3991 1193 1243 7023 191 2027 1122 151 62
internal_value=0 -0.00684413 0.0104007 -0.00319202 -0.0150701 0.0168235 0.00688978 0.00591969 0.0087544 -0.00626732 0.0153336 0.0126647 0.0156126 -0.00224408
internal_weight=0 8228.91 5284.9 5698.79 2530.12 1867.87 3417.02 3138.13 1992.95 3670.19 1692.47 1235.71 972.133 304.201
internal_count=91586 68943 22643 41177 27766 8052 14591 13398 8328 29505 7291 5264 4142 1305
is_linear=0
shrinkage=0.05


Tree=38
num_leaves=15
num_cat=0
split_feature=0 14 0 17 40 9 28 3 19 21 36 17 30 16
split_gain=346.519 91.126 43.8002 35.3809 20.2947 14.1188 12.9222 12.2565 11.6837 11.8551 10.5842 15.2126 11.7713 10.0909
threshold=42.500000000000007 1.5000000000000002 81.500000000000014 16.500000000000004 1.8264034735811394 69915.535000000018 11.886196744461738 2.5000000000000004 53.500000000000007 2.9108983375081068 7.3145485196923223 36.500000000000007 4.5029728890294001 17.500000000000004
decision_type=2 2 2 2 2 2 2 2 2 2 2 2 2 2
left_child=1 4 5 6 -1 -2 7 -3 -5 -10 -4 12 -12 -13
right_child=2 3 10 8 -6 -7 -8 -9 9 -11 11 13 -14 -15
leaf_value=-0.017902026753984657 0.0067552188099785637 -0.0081236944241783599 0.021133207791533576 0.0041674499744960994 -0.0085387389314990885 -0.014699523246810137 0.026231018631421091 -0.001729057127988459 -0.014361627821872561 0.0026172792533906107 0.017628130937957967 0.0020736755745425508 -0.0015250559506901039 0.017847867660244959
leaf_weight=1590.1188627406955 3128.7914880663157 2564.6599647253752 603.00518588721752 1617.7261376529932 909.85069250315428 78.608395621180534 30.871556967496872 1058.6454757302999 191.59264922142029 221.85149694979191 117.2064111828804 113.01508192718029 254.21125371754169 985.2853002846241
leaf_count=20119 13402 21609 2700 9559 7647 327 191 7705 1022 1091 474 467 1058 4215
internal_value=0 -0.00653849 0.00989023 -0.00304015 -0.0144943 0.0062294 -0.00598088 -0.00625533 0.00225036 -0.00525085 0.0155551 0.0132665 0.00451902 0.0162247
internal_weight=0 8185.32 5280.12 5685.35 2499.97 3207.4 3654.18 3623.31 2031.17 413.444 2072.72 1469.72 371.418 1098.3
internal_count=91586 68943 22643 41177 27766 13729 29505 29314 11672 2113 8914 6214 1532 4682
is_linear=0
shrinkage=0.05


Tree=39
num_leaves=15
num_cat=0
split_feature=0 0 14 14 23 41 22 31 3 0 38 0 11 1
split_gain=314.959 67.1217 62.1862 20.8671 17.5775 17.2691 13.6931 13.347 12.4282 12.4078 17.445 12.0256 11.7895 13.2369
threshold=32.500000000000007 64.500000000000014 1.5000000000000002 3.5000000000000004 2.4467763770548934 2.9952562463147387 24.745874709401608 3.3672133281050409 1.5000000000000002 99.500000000000014 5.6726003564246659 5.5000000000000009 22.685000000000006 1.5000000000000002
decision_type=2 2 2 2 2 2 2 2 2 2 2 2 2 2
left_child=2 8 4 6 -1 -3 -4 -7 -2 -9 -11 -6 -8 -14
right_child=1 5 3 -5 11 7 12 9 -10 10 -12 -13 13 -15
leaf_value=-0.017043991020384529 -0.0071686898477823892 0.001594039278485546 0.049189604075520567 2.9510824129248681e-05 -0.018014437199051034 0.031978936345881857 0.0035580845800420834 0.010088739189813099 0.0037373250201563168 0.031026027938833162 0.014551265836800923 -0.0014897509267440762 -0.019246837438771668 -0.0071217249494953108
leaf_weight=1740.1945850998163 282.45581994950771 306.31790445744991 10.748821154236792 1646.9937673732638 158.729227848351 100.63165862858295 226.22261292487383 1365.1097528785467 3475.5547606498003 187.21860745549202 1133.7406385540962 359.35900999605656 251.0709417834878 2175.0544176474214
leaf_count=21365 1433 1240 57 11247 1737 408 1909 5560 16663 891 4966 3404 2313 18393
internal_value=0 0.00740751 -0.00791594 -0.00439439 -0.0146371 0.0128627 -0.00713035 0.0141014 0.00291762 0.0134316 0.0168862 -0.0065525 -0.00735859 -0.00837651
internal_weight=0 6851.03 6568.37 4310.09 2258.28 3093.02 2663.1 2786.7 3758.01 2686.07 1320.96 518.088 2652.35 2426.13
internal_count=91586 31161 60425 33919 26506 13065 22672 11825 18096 11417 5857 5141 22615 20706
is_linear=0
shrinkage=0.05


Tree=40
num_leaves=15
num_cat=0
split_feature=0 0 0 42 14 19 39 23 9 16 41 21 26 7
split_gain=286.034 71.395 43.0725 21.633 19.522 17.0826 16.3923 11.775 11.5216 13.1342 16.8894 19.1858 14.532 13.1681
threshold=39.500000000000007 16.500000000000004 81.500000000000014 7.5000000000000009 1.5000000000000002 13.500000000000002 3.6293611550748817 1.2074831763639413 69915.535000000018 16.500000000000004 2.9341249046919962 2.7437127028568304 3.0760508414645522 17.885000000000002
decision_type=2 2 2 2 2 2 2 2 2 2 2 2 2 2
left_child=1 4 8 6 7 -6 -3 -1 9 10 12 -12 -2 -11
right_child=2 3 -4 -5 5 -7 -8 -9 -10 13 11 -13 -14 -15
leaf_value=-0.021369760398625735 -0.0013946312587790964 0.05827043445300148 0.014167101012070114 -0.00075750340428330809 -0.0026457656131761774 -0.014631039440963146 -0.0092163202838454177 -0.012773123117058952 -0.013640562154769352 0.021226233879484933 0.02309399287048412 0.0036986032927531181 -0.03002668580508765 0.0070535222377498819
leaf_weight=647.11980236321688 715.33436281979084 9.0706629306077939 2056.2624461352825 3630.9927312880754 696.45026628673077 518.7463470697403 1122.4345207810402 1036.0791462138295 80.028598189353943 181.39570373296738 152.31079666316509 782.84048233926296 47.242727190256119 1698.3840399682522
leaf_count=8771 3305 83 8914 24172 6507 4877 9753 12529 334 796 691 3358 234 7262
internal_value=0 -0.0064042 0.00837731 -0.00263867 -0.0125915 -0.00776207 -0.00867532 -0.0160782 0.0051223 0.00554203 0.00235415 0.00685759 -0.00316843 0.00842117
internal_weight=0 7660.89 5713.8 4762.5 2898.4 1215.2 1131.51 1683.2 3657.54 3577.51 1697.73 935.151 762.577 1879.78
internal_count=91586 66692 24894 34008 32684 11384 9836 21300 15980 15646 7588 4049 3539 8058
is_linear=0
shrinkage=0.05


Tree=41
num_leaves=15
num_cat=0
split_feature=0 0 14 39 16 34 17 23 9 14 19 0 14 41
split_gain=260.408 71.8382 39.7642 17.6853 17.353 16.2025 18.5093 14.8681 14.1798 13.1287 12.4944 12.2995 11.9953 12.1505
threshold=27.500000000000004 61.500000000000007 1.5000000000000002 6.0278814878629134 16.500000000000004 8.958851139958762 28.500000000000004 1.652729687514676 93.160000000000011 3.5000000000000004 175.50000000000003 109.50000000000001 5.5000000000000009 1.0677784013012654
decision_type=2 2 2 2 2 2 2 2 2 2 2 2 2 2
left_child=2 4 3 8 -2 6 -3 9 -1 -4 -8 -12 -6 -14
right_child=1 5 7 -5 12 -7 10 -9 -10 -11 11 -13 13 -15
leaf_value=-0.0032334031472778797 -0.00089439537294410017 0.00042162405721973156 -0.0092349320800424999 0.026117231707656063 0.0016146656746227667 0.015698604617819356 0.013239732277418309 0.00087306423586988385 -0.015860105846848643 -0.0015508840329614159 -0.029544503394011351 0.0051217253503149963 -0.016670470078888375 0.010888785958790535
leaf_weight=253.22064873576164 2641.1914425492287 516.1203036904335 1821.0468807742 27.394820287823677 998.19583990424871 1329.899452984333 1246.0520660579205 806.74392884969711 1823.6679625213146 800.12205436080694 31.037149041891098 145.70413435995579 41.96816511452198 850.38950958848
leaf_count=2410 14415 2104 16806 169 5056 5855 5126 5692 23153 6022 129 632 212 3805
internal_value=0 0.00579848 -0.00838377 -0.0137942 0.0017233 0.0114481 0.00853276 -0.0050625 -0.0143206 -0.00688935 0.0114751 -0.000965935 0.00538035 0.00959266
internal_weight=0 7800.56 5532.2 2104.28 4531.74 3268.81 1938.91 3427.91 2076.89 2621.17 1422.79 176.741 1890.55 892.358
internal_count=91586 37334 54252 25732 23488 13846 7991 28520 25563 22828 5887 761 9073 4017
is_linear=0
shrinkage=0.05


Tree=42
num_leaves=15
num_cat=0
split_feature=0 0 14 23 14 0 21 23 23 26 3 0 14 20
split_gain=236.109 65.1965 36.7591 16.0596 15.2142 15.11 17.3491 16.1924 13.533 12.3833 12.023 11.4519 11.0627 18.836
threshold=27.500000000000004 59.500000000000007 1.5000000000000002 2.317877463486369 5.5000000000000009 99.500000000000014 4.2414480316820145 2.8391305458158418 1.652729687514676 2.8926730284969868 1.5000000000000002 5.5000000000000009 6.5000000000000009 8.5000000000000018
decision_type=2 2 2 2 2 2 2 2 2 2 2 2 2 2
left_child=2 4 3 -1 -2 7 -7 -3 10 12 -4 -5 13 -6
right_child=1 5 8 11 9 6 -8 -9 -10 -11 -12 -13 -14 -15
leaf_value=-0.01580819629119122 -0.00087527453638992087 0.026659084356102161 -0.012308113523203225 -0.016885913520904763 0.029757820054187312 0.039150420186261296 0.013533644363038439 0.0070454822588640669 0.00082893371449265559 -0.0028423019819974736 -0.0045675649017754604 -0.00080729331685960848 0.0046903495698316523 0.0059643377710029612
leaf_weight=1556.5203931629658 2686.2723846435547 111.02689597010612 677.86728841811419 159.00234155356884 134.65921376645565 69.83145971596241 1235.265124052763 2015.0679922103882 807.19677931070328 372.90979453921318 1929.8910486698151 364.87597621232271 952.89139461517334 217.57336150109768
leaf_count=20277 14769 451 6199 1805 684 343 5525 8219 5692 1944 16629 3650 4354 1045
internal_value=0 0.00551237 -0.00802028 -0.0132596 0.00145798 0.0106693 0.0149043 0.00806973 -0.00482848 0.00519317 -0.00657966 -0.00568732 0.00748913 0.0150606
internal_weight=0 7795.5 5495.35 2080.4 4364.31 3431.19 1305.1 2126.09 3414.96 1678.03 2607.76 523.878 1305.12 352.233
internal_count=91586 37334 54252 25732 22796 14538 5868 8670 28520 8027 22828 5455 6083 1729
is_linear=0
shrinkage=0.05


Tree=43
num_leaves=15
num_cat=0
split_feature=0 14 0 23 23 39 3 33 16 14 0 29 7 3
split_gain=214.678 66.3397 28.1957 26.3497 15.6414 14.1099 12.6548 12.1736 14.2658 13.4297 11.8397 11.7242 11.2094 17.5185
threshold=43.500000000000007 1.5000000000000002 94.500000000000014 1.652729687514676 1.1970051908259931 6.6877351818043556 1.5000000000000002 12.717119645889026 16.500000000000004 5.5000000000000009 5.5000000000000009 5.7862050179438382 31.275000000000002 6.5000000000000009
decision_type=2 2 2 2 2 2 2 2 2 2 2 2 2 2
left_child=1 4 7 6 -1 -4 -3 8 -2 -10 -6 -12 13 -11
right_child=2 3 5 -5 10 -7 -8 -9 9 12 11 -13 -14 -15
leaf_value=-0.018020473850977482 8.6687565473640384e-05 -0.01125841981359994 0.029962734893866246 0.0012921458210425833 -0.019208588943880639 0.012297733164697282 -0.003644016462967201 0.013063125612993718 -0.00014478353558535081 0.0078595692567352115 -0.0082249424850644112 0.022452098232189042 0.0026971883678406951 0.021632109957023971
leaf_weight=768.31733833998442 1174.0929874479771 721.87815320491791 123.50483080744743 2756.8488355353475 256.89846608787775 1334.2170575112104 2235.3503140956163 473.74468992650509 496.89945474267006 758.23446920514107 1334.1054222583771 31.890105865895748 453.19260516762733 331.98554277420044
leaf_count=10654 5052 6547 601 16292 3176 5945 18757 2014 2133 3171 13783 241 1861 1359
internal_value=0 -0.00515067 0.00790733 -0.00222444 -0.0121432 0.0137944 -0.00550274 0.0055805 0.0044777 0.00700449 -0.00936081 -0.00750877 0.00930619 0.0120535
internal_weight=0 8105.29 5145.87 5714.08 2391.21 1457.72 2957.23 3688.15 3214.41 2040.31 1622.89 1366 1543.41 1090.22
internal_count=91586 69450 22136 41596 27854 6546 25304 15590 13576 8524 17200 14024 6391 4530
is_linear=0
shrinkage=0.05


Tree=44
num_leaves=15
num_cat=0
split_feature=0 0 0 16 10 35 0 41 9 0 3 8 12 11
split_gain=194.975 54.0673 28.0184 15.5872 14.6282 12.5434 14.803 22.1959 17.8207 11.574 11.3777 11.1797 11.6766 11.1036
threshold=27.500000000000004 62.500000000000007 16.500000000000004 16.500000000000004 0.28500000000000009 4.1535727095490484 109.50000000000001 4.91533211853318 97610.925000000003 68.500000000000014 9.5000000000000018 36.805000000000007 53.500000000000007 3041.6150000000002
decision_type=2 2 2 2 2 2 2 2 2 2 2 2 2 2
left_child=2 3 -1 -2 -4 9 8 -8 -7 -3 -9 13 -13 -5
right_child=1 5 4 11 -6 6 7 10 -10 -11 -12 12 -14 -15
leaf_value=-0.010833884839787675 -0.00094246252116652837 0.057178581766539616 -0.0039258971945149114 0.0029679592140706549 0.046091132199961894 0.0079406055764016225 0.039978784041435428 0.0052251552046626007 -0.015047288434817117 0.017323051436963454 0.016255850343442145 0.011481255960243056 -0.03510408442298215 -0.030882748304486569
leaf_weight=2797.1153889596462 2668.0764855444431 25.110498294234276 2617.0208410397172 1292.7200379148126 14.700384795665739 1911.616640612483 77.439159765839577 369.7953043282032 88.19715578854084 66.341179326176643 635.52081459760666 610.83447274565697 13.753944665193556 24.687811881303787
leaf_count=32684 14528 102 21487 6456 81 7884 375 1612 369 274 2930 2641 56 107
internal_value=0 0.00499563 -0.00734968 0.00153795 -0.00364651 0.0100177 0.0094763 0.0141852 0.00692678 0.0282665 0.0121983 0.00494576 0.0104554 0.00233361
internal_weight=0 7784.09 5428.84 4610.07 2631.72 3174.02 3082.57 1082.76 1999.81 91.4517 1005.32 1942 624.588 1317.41
internal_count=91586 37334 54252 23788 21568 13546 13170 4917 8253 376 4542 9260 2697 6563
is_linear=0
shrinkage=0.05


Tree=45
num_leaves=15
num_cat=0
split_feature=0 14 26 17 17 11 23 14 28 0 33 1 34 5
split_gain=176.735 58.3995 24.4194 24.0528 17.1554 17.1479 14.4728 13.0671 10.9038 10.7835 10.7298 10.5462 16.9645 19.5917
threshold=43.500000000000007 1.5000000000000002 4.5092104367467494 16.500000000000004 22.500000000000004 6832.7850000000008 1.1970051908259931 5.5000000000000009 11.886196744461738 5.5000000000000009 14.642954719681253 1.5000000000000002 10.014262264179898 95.955000000000013
decision_type=2 2 2 2 2 2 2 2 2 2 2 2 2 2
left_child=1 6 4 8 -2 7 -1 -6 11 -8 -11 -3 -13 -14
right_child=2 3 -4 -5 5 -7 9 -9 -10 10 -12 12 13 -15
leaf_value=-0.01705586498763462 -0.0025997573198993183 -0.011588709757349717 0.011155872875124821 0.0022767403468994369 -0.00065543993150323659 -0.052513283371135734 -0.018167141335361393 0.0086807904960550086 0.024961600029529588 -0.0075783927280797733 0.021350600820794201 -0.0042971727329446582 0.0078668622305247665 0.072615334293192349
leaf_weight=750.7006963789463 706.71598823368549 482.0673681423068 2199.9128452837467 2107.8986304178834 477.80376705527306 12.308110043406485 250.6435185521841 1738.1780448406935 31.227376654744148 1317.9923873618245 32.851659290492535 2973.8580289185047 81.114765971899033 13.648787930607794
leaf_count=10654 3166 4303 9704 12014 2031 51 3176 7184 191 13738 286 24244 733 111
internal_value=0 -0.00470058 0.00717322 -0.00196102 0.00418805 0.00634085 -0.0113274 0.00666774 -0.00445488 -0.00864218 -0.00687486 -0.00471359 -0.00363354 0.0171926
internal_weight=0 8042 5134.92 5689.81 2935.01 2228.29 2352.19 2215.98 3581.92 1601.49 1350.84 3550.69 3068.62 94.7636
internal_count=91586 69450 22136 41596 12432 9266 27854 9215 29582 17200 14024 29391 25088 844
is_linear=0
shrinkage=0.05


Tree=46
num_leaves=15
num_cat=0
split_feature=0 0 0 16 7 7 30 41 34 35 0 38 13 0
split_gain=161.024 44.7171 24.5092 13.1709 15.7599 13.0858 12.9869 12.7636 12.2305 10.89 10.6077 10.4651 11.8108 11.2427
threshold=27.500000000000004 73.500000000000014 16.500000000000004 16.500000000000004 16.885000000000002 24.035000000000004 1.3553707437815039 2.7521139040670755 8.1023820813669278 7.1393937264310994 62.500000000000007 3.1074796503920545 2.5000000000000004 32.500000000000007
decision_type=2 2 2 2 2 2 2 2 2 2 2 2 2 2
left_child=2 3 -1 4 8 9 -7 -4 -2 -5 11 12 13 -10
right_child=1 -3 7 5 -6 6 -8 -9 10 -11 -12 -13 -14 -15
leaf_value=-0.010023369908362292 0.015783700454223133 0.010070898290351434 -0.0051641741803748311 0.007502119408288494 -0.005604617242000203 -0.018118216193053812 0.0022435606971032171 0.0031565104816947058 -0.001893378630972864 0.042970428130883837 0.012992406237470281 -0.0075733653817011961 -0.0060271846730422483 0.0091129924253637324
leaf_weight=2752.8635779991746 153.53468106687069 2479.0188309103251 2019.0681777894497 1268.5028069168329 946.81042218208313 85.20617963373661 967.48903459310532 597.21303677558899 382.31419645994902 22.01702669262886 170.20632284879684 366.84097707271576 341.08819752186537 590.20065646618605
leaf_count=32684 755 10784 16640 6092 4802 448 4239 4928 2571 90 689 1844 1921 3099
internal_value=0 0.0045289 -0.00673006 0.00193385 -0.000288434 0.00473255 0.000595459 -0.00326483 0.00222302 0.00810723 0.00109799 -0.000106754 0.0019784 0.00478618
internal_weight=0 7773.23 5369.14 5294.21 2951 2343.22 1052.7 2616.28 2004.19 1290.52 1850.65 1680.44 1313.6 972.515
internal_count=91586 37334 54252 26550 15681 10869 4687 21568 10879 6182 10124 9435 7591 5670
is_linear=0
shrinkage=0.05


Tree=47
num_leaves=15
num_cat=0
split_feature=0 14 0 0 31 0 19 22 25 26 34 19 12 38
split_gain=145.938 52.0654 21.4558 19.3369 15.2354 11.9836 12.0868 11.1117 10.3425 9.87732 14.5446 11.6552 14.9619 9.23192
threshold=43.500000000000007 3.5000000000000004 96.500000000000014 16.500000000000004 5.5310550079427276 163.50000000000003 207.50000000000003 27.664111550167906 4.6158445232321377 2.1934179016845428 8.6204660205264574 26.500000000000004 16.500000000000004 9.1141846483781261
decision_type=2 2 2 2 2 2 2 2 2 2 2 2 2 2
left_child=1 3 7 8 -4 6 -6 -2 -1 -5 11 12 -11 -8
right_child=2 -3 4 9 5 -7 13 -9 -10 10 -12 -13 -14 -15
leaf_value=-0.011335026133438638 0.0040832655368184543 0.0012513069669531883 0.023907696754948679 -0.022704577282172993 0.0089921846682576821 0.01617001266493728 -0.036444752300882684 0.019471753606477588 -0.0010276053488546273 0.0028834957563085052 -0.0052150731434217907 0.002596516878668311 0.066892659915420691 -0.0017830926095927146
leaf_weight=2347.3171751871705 3649.6698930859566 2766.1406768038869 221.50646796822548 70.015204697847366 553.11958487331867 427.92360669374466 22.566124305129051 121.20371609926224 271.5192811563611 19.864455737173557 2168.2230276614428 324.98047422617674 16.893318675458431 129.1769000440836
leaf_count=29034 15409 17171 1091 364 2450 1991 96 527 2691 148 18058 1862 122 572
internal_value=0 -0.0042944 0.00651664 -0.00723381 0.0119149 0.0095698 0.00556279 0.00457788 -0.0102664 -0.00417926 -0.00366658 0.00561493 0.0323011 -0.00693772
internal_weight=0 7984.95 5125.17 5218.81 1354.29 1132.79 704.863 3770.87 2618.84 2599.98 2529.96 361.738 36.7578 151.743
internal_count=91586 69450 22136 52279 6200 5109 3118 15936 31725 20554 20190 2132 270 668
is_linear=0
shrinkage=0.05


Tree=48
num_leaves=15
num_cat=0
split_feature=0 0 14 39 14 0 22 25 0 7 0 24 33 14
split_gain=132.749 37.6893 25.7471 14.5762 12.5366 14.9889 12.9277 12.3397 11.3501 12.4583 11.2854 12.2429 12.5312 11.1693
threshold=27.500000000000004 59.500000000000007 1.5000000000000002 6.0278814878629134 1.0000000180025095e-35 5.5000000000000009 27.983721045381845 3.0206227843401856 193.50000000000003 39.265000000000008 96.500000000000014 6.8699400432172775 11.25842836295187 5.5000000000000009
decision_type=2 2 2 2 2 2 2 2 2 2 2 2 2 2
left_child=2 13 3 4 5 -1 -6 -4 9 10 -3 -12 -13 -2
right_child=1 8 7 -5 6 -7 -8 -9 -10 -11 11 12 -14 -15
leaf_value=-0.017210084267382963 -0.00096948212246775851 0.0067677153660865314 -0.01148870877031645 0.025432540372626117 -0.015614454482148599 -0.0025502316291135521 0.020634738837366447 -0.0023280870914557435 0.017345170892791952 0.00082851712331453759 0.01855472888632808 0.010634355654952354 -0.021729330086148729 0.0042222202788400045
leaf_weight=242.96727507561445 2684.8633380681276 1839.2204945385456 420.52067045867443 27.545786783099174 1058.9573927745223 617.50644768774509 25.180801913142204 2922.1518969535828 299.84991830587387 621.47236384451389 472.49827092885971 119.37974360585213 39.908881217241287 1686.8371731936932
leaf_count=3194 14769 7502 4113 169 14258 7866 245 24407 1409 2679 2207 560 181 8027
internal_value=0 0.00410249 -0.00615361 -0.0106843 -0.0111959 -0.00668965 -0.0147725 -0.00348053 0.00805717 0.0071566 0.00874815 0.0145135 0.00252581 0.00103376
internal_weight=0 7764.03 5314.83 1972.16 1944.61 860.474 1084.14 3342.67 3392.33 3092.48 2471.01 631.787 159.289 4371.7
internal_count=91586 37334 54252 25732 25563 11060 14503 28520 14538 13129 10450 2948 741 22796
is_linear=0
shrinkage=0.05


Tree=49
num_leaves=15
num_cat=0
split_feature=40 14 20 25 41 3 1 29 37 36 14 12 16 40
split_gain=110.783 29.6617 28.0558 11.5295 10.8616 11.5719 10.8114 15.9184 13.9448 11.7558 10.8088 11.3811 10.4168 10.8078
threshold=2.8063272873639957 1.5000000000000002 22.500000000000004 3.0206227843401856 1.6445815140045263 1.5000000000000002 1.5000000000000002 3.5875889814807951 3.4442274610039223 7.9936473381026429 1.0000000180025095e-35 3.5000000000000004 16.500000000000004 2.8359726595406465
decision_type=2 2 2 2 2 2 2 2 2 2 2 2 2 2
left_child=1 10 4 -3 12 -6 9 -8 -9 -5 11 -1 13 -2
right_child=2 3 -4 6 5 -7 7 8 -10 -11 -12 -13 -14 -15
leaf_value=-0.014579103900150596 0.02663024738765149 -0.010690242536751264 0.0088613995122486956 -0.024674645025973406 -0.0044632293366684188 0.0042383728633298744 -0.0012390291312864496 0.090703610766049936 0.015882559686637262 -0.0050262237937979681 -0.014155872890415398 -0.0017081294122183951 0.001070245727338664 -0.0097696532252689056
leaf_weight=265.84241719543934 21.417646400630474 424.36335919797421 2027.070208594203 92.491804711520672 426.49405223876238 3668.3227269500494 2632.0747439339757 7.0102571099996558 55.760799191892147 430.25007829070091 1026.9684511274099 485.26987972855568 1058.5063709020615 426.21860208362341
leaf_count=3454 141 4171 9130 919 2468 16828 21270 55 493 3660 14157 6687 5681 2472
internal_value=0 -0.00552825 0.00382092 -0.00294376 0.00199669 0.00333206 -0.00192208 -0.00064558 0.0242386 -0.00850273 -0.0108219 -0.00626357 -0.00163384 -0.00802806
internal_weight=0 5420.03 7628.03 3641.95 5600.96 4094.82 3217.59 2694.85 62.7711 522.742 1778.08 751.112 1506.14 447.636
internal_count=91586 54866 36720 30568 27590 19296 26397 21818 548 4579 24298 10141 8294 2613
is_linear=0
shrinkage=0.05


Tree=50
num_leaves=15
num_cat=0
split_feature=0 0 14 23 14 19 8 25 33 16 18 4 1 30
split_gain=109.957 32.1619 21.8233 13.0317 10.994 12.3395 12.2223 10.3176 10.1117 10.0362 10.313 9.88304 12.5697 14.806
threshold=27.500000000000004 73.500000000000014 1.5000000000000002 2.317877463486369 5.5000000000000009 103.50000000000001 27.335000000000004 3.0206227843401856 14.002827595467661 14.500000000000002 133.50000000000003 11.500000000000002 1.5000000000000002 2.2161936271534457
decision_type=2 2 2 2 2 2 2 2 2 2 2 2 2 2
left_child=2 4 3 -1 5 8 -6 -4 -2 -8 -11 -9 -13 -14
right_child=1 -3 7 -5 6 -7 9 11 -10 10 -12 12 13 -15
leaf_value=-0.012265483674692792 -0.00023926945120434346 0.0084560653256020996 -0.010570613487584849 -0.0028890911035049883 -0.0039906830990730207 -0.022734904010762971 -0.00029915158298395245 0.031268019630197888 0.036110023700556541 0.0093819869765417487 -0.0045425915233631578 -0.0096587630338356573 -0.0026474422510468602 0.0078905058933515636
leaf_weight=1440.031455360353 2915.8376035243273 2455.4737508445978 413.44300548732281 498.97249134629965 385.74510544538498 60.926010876893997 503.54466693103313 21.983447074890137 19.258946493268013 1266.6274667680264 148.56877267360687 492.62930451333523 1998.8305557221174 400.03318500518799
leaf_count=20277 15672 10784 4113 5455 1939 255 2454 145 109 5519 602 4402 16398 3462
internal_value=0 0.00372549 -0.00563638 -0.00985261 0.00153404 -0.000463073 0.00413045 -0.00317906 -7.59719e-07 0.00576313 0.00792017 -0.00213015 -0.00238407 -0.00089014
internal_weight=0 7755.98 5265.92 1939 5300.51 2996.02 2304.49 3326.92 2935.1 1918.74 1415.2 2913.48 2891.49 2398.86
internal_count=91586 37334 54252 25732 26550 16036 10514 28520 15781 8575 6121 24407 24262 19860
is_linear=0
shrinkage=0.05


Tree=51
num_leaves=15
num_cat=0
split_feature=0 14 15 24 34 14 19 6 14 25 18 19 29 1
split_gain=99.6671 40.2548 21.7209 17.5596 16.1824 16.6202 13.6209 12.6227 11.4589 11.4791 10.9294 10.8858 10.7445 12.4299
threshold=43.500000000000007 3.5000000000000004 1.0000000180025095e-35 5.3150086093178208 8.169372579661184 5.5000000000000009 125.50000000000001 0.045000000000000005 1.5000000000000002 3.5861914070587 63.500000000000007 49.500000000000007 3.5875889814807951 1.5000000000000002
decision_type=2 2 2 2 2 2 2 2 2 2 2 2 2 2
left_child=1 2 8 4 5 6 -2 -6 9 -1 -9 -12 -10 -14
right_child=3 -3 -4 -5 7 -7 -8 10 12 -11 11 -13 13 -15
leaf_value=-0.01218872401737587 -0.00095489046509362584 0.0012813989623782086 0.0083323735082623668 0.0093334859605330375 -0.0088173075353535652 0.0076379377603743963 -0.036710250310394779 -0.012680076616890926 -0.0057060372972512572 -0.0045500468301844918 0.01771817903818531 0.0011935347331353337 -0.0026585515074041247 0.02204815089648236
leaf_weight=1456.794944383204 391.3116804510355 2763.31858715415 244.63549639284611 1813.7397178113461 407.42687846720219 1836.0289744436741 28.581006571650505 100.15488903224468 2450.3835344687104 742.49610752612352 132.90229807794094 398.4913467913866 151.6425919085741 76.633030012249947
leaf_count=18675 1648 17171 1801 8164 1802 7614 119 469 21238 8655 602 1718 1299 611
internal_value=0 -0.00358248 -0.00620624 0.00538248 0.00320757 0.00558557 -0.00338867 -0.00195575 -0.00693537 -0.00960985 0.0024708 0.00532637 -0.0047395 0.00563559
internal_weight=0 7885.9 5122.59 5108.64 3294.9 2255.92 419.893 1038.98 4877.95 2199.29 631.549 531.394 2678.66 228.276
internal_count=91586 69450 52279 22136 13972 9381 1767 4591 50478 27330 2789 2320 23148 1910
is_linear=0
shrinkage=0.05


Tree=52
num_leaves=15
num_cat=0
split_feature=0 0 14 5 38 24 16 7 7 34 24 26 14 15
split_gain=91.1056 27.367 18.7274 18.9617 12.2805 11.955 11.2614 13.7895 13.586 11.8813 12.9919 13.3266 11.0032 10.6984
threshold=27.500000000000004 85.500000000000014 3.5000000000000004 848.62000000000012 4.3870566698869089 6.6185243137267351 16.500000000000004 24.035000000000004 16.885000000000002 8.1243695240959681 3.479461480739789 1.9302972984502451 9.5000000000000018 1.0000000180025095e-35
decision_type=2 2 2 2 2 2 2 2 2 2 2 2 2 2
left_child=2 5 3 13 -3 6 8 12 -2 -9 11 -11 -8 -1
right_child=1 4 -4 -5 -6 -7 7 9 -10 10 -12 -13 -14 -15
leaf_value=-0.0073535880296845355 0.0016970313678609543 0.021907952466854952 0.00080506288221641174 0.046311342868224581 0.0075149494083190304 0.020379658757727993 0.0056948644099834821 0.0034116543734862442 -0.0053382269765638061 -0.043059138972686178 -0.025057274542076936 -4.8897513864124052e-05 0.019212638502646588 0.0066589123705443941
leaf_weight=4012.8709727749228 2175.2456039488316 163.23018410801888 1050.8685444816947 16.823856562376022 1609.674851551652 85.034562133252621 1196.7043505683541 926.86819757521152 1002.498380728066 19.093422070145607 78.682961910963058 317.41326321661472 172.20151880383492 141.00158368051052
leaf_count=45219 11546 761 7729 92 7291 374 5761 3844 5034 81 397 1532 713 1212
internal_value=0 0.00338494 -0.00516032 -0.00666338 0.0088401 0.00176594 0.00149716 0.00386446 -0.000522416 0.000262959 -0.00676618 -0.0024893 0.00739533 -0.00687794
internal_weight=0 7746.65 5221.56 4170.7 1772.91 5973.74 5888.71 2710.96 3177.74 1342.06 415.19 336.507 1368.91 4153.87
internal_count=91586 37334 54252 46523 8052 29282 28908 12328 16580 5854 2010 1613 6474 46431
is_linear=0
shrinkage=0.05


Tree=53
num_leaves=15
num_cat=0
split_feature=0 0 8 21 39 23 0 19 0 41 9 17 26 22
split_gain=83.0221 30.5913 11.9031 12.7186 12.9595 10.1451 11.4292 11.1484 10.497 18.864 10.8304 10.6643 10.0176 9.40103
threshold=22.500000000000004 59.500000000000007 42.225000000000001 1.4156779788281528 2.1075134939228923 2.8391305458158418 163.50000000000003 207.50000000000003 109.50000000000001 4.91533211853318 132565.75000000003 29.500000000000004 6.0246321231565689 24.745874709401608
decision_type=2 2 2 2 2 2 2 2 2 2 2 2 2 2
left_child=2 -2 13 -4 -5 -3 7 8 10 -10 11 -7 -9 -1
right_child=1 5 3 4 -6 6 -8 12 9 -11 -12 -13 -14 -15
leaf_value=0.045449256120205977 0.00036416233567482861 0.021294918919459893 0.061907378015200701 0.057591738943229914 -0.0017244481441280324 0.0010351365377575265 0.013559026901825616 -0.035378577109123295 0.035530111022080937 0.0080254443984172589 -0.030876750409864168 0.0080656700059141533 -0.0023311942191114794 -0.0065129910243766813
leaf_weight=8.7235778272151929 5498.9063577800989 110.7941250950098 10.84090608358383 10.334435328841208 84.51030708104372 1124.275556832552 424.62902694940567 27.68015268445015 73.40520703792572 413.51820610463619 21.96860945224762 1036.7830096334219 133.66231362521648 3963.1399992480874
leaf_count=44 31070 458 97 89 682 4702 2027 117 377 1904 92 4265 596 45066
internal_value=0 0.00266232 -0.0059582 0.0106029 0.00473874 0.00641593 0.00590962 0.00476238 0.00553365 0.0121719 0.004053 0.00440808 -0.00800085 -0.00639886
internal_weight=0 8865.62 4077.55 105.686 94.8447 3366.72 3255.92 2831.29 2669.95 486.923 2183.03 2161.06 161.342 3971.86
internal_count=91586 45608 45978 868 771 14538 14080 12053 11340 2281 9059 8967 713 45110
is_linear=0
shrinkage=0.05


Tree=54
num_leaves=15
num_cat=0
split_feature=3 38 31 17 1 4 14 11 14 12 13 19 11 37
split_gain=70.214 23.1606 18.931 17.8457 14.2207 14.1506 11.8344 17.4117 12.1811 16.3604 11.8018 10.9994 10.8903 14.0775
threshold=2.5000000000000004 2.7952047160384974 2.2672003615337286 16.500000000000004 1.5000000000000002 10.500000000000002 1.5000000000000002 380.92000000000002 1.0000000180025095e-35 3.5000000000000004 30.500000000000004 11.500000000000002 19.195000000000004 3.5988516317444881
decision_type=2 2 2 2 2 2 2 2 2 2 2 2 2 2
left_child=3 -2 -3 5 -5 -1 7 8 9 -7 -4 -8 13 -11
right_child=1 2 10 4 -6 6 11 -9 -10 12 -12 -13 -14 -15
leaf_value=0.0033053285025554401 -0.00019863336379121778 0.043730619534521398 0.0047191597297319655 -0.011746480368294971 0.0035863117426881714 -0.018713884916442589 0.0018161641462089925 0.02748028383373918 -0.015321529224081067 0.10440228409670188 0.02041797017860645 -0.0063652896235227435 -0.0072944587055432074 0.0068605089267711507
leaf_weight=385.13016598671675 3109.2738237008452 32.058813035488129 4203.5320603102446 179.31785336881876 965.19298709928989 175.1072528026998 517.58600588142872 29.69903788715601 782.76138989627361 3.7800414264202109 123.22615386545658 1991.4936019033194 248.56593364477158 172.55078824609518
leaf_count=2992 20424 162 18748 1012 5294 2529 5048 236 11566 52 573 16955 3694 2301
internal_value=0 0.00309818 0.0054499 -0.00436546 0.00118402 -0.00584025 -0.00673843 -0.0103993 -0.0112129 -0.00585273 0.00516626 -0.00467758 -0.000552423 0.00895153
internal_weight=0 7468.09 4358.82 5451.19 1144.51 4306.67 3921.54 1412.46 1382.77 600.004 4326.76 2509.08 424.897 176.331
internal_count=91586 39907 19483 51679 6306 45373 42381 20378 20142 8576 19321 22003 6047 2353
is_linear=0
shrinkage=0.05


Tree=55
num_leaves=15
num_cat=0
split_feature=0 14 15 0 40 9 28 1 16 7 26 23 40 18
split_gain=68.9837 29.5474 16.5405 12.4801 13.8044 10.8141 10.7795 10.2205 10.168 9.73701 22.798 9.68042 9.27702 10.4366
threshold=44.500000000000007 3.5000000000000004 1.0000000180025095e-35 99.500000000000014 4.586858509108632 51974.020000000011 5.7793025483499099 22.500000000000004 18.500000000000004 19.915000000000003 3.0059145088461574 7.441706083674684 1.228182552829973 17.500000000000004
decision_type=2 2 2 2 2 2 2 2 2 2 2 2 2 2
left_child=1 2 7 5 -5 11 -7 -1 -3 10 -10 -2 -4 -14
right_child=3 8 12 4 -6 6 -8 -9 9 -11 -12 -13 13 -15
leaf_value=-0.0059468096522520266 0.0036818714669986617 4.1270887837817855e-05 0.059347980873375998 0.031749342232659288 0.0076946228376916122 0.0042436668826447707 -0.011338074429746443 0.06452398514157219 0.011605781782818375 0.0040610043265449985 0.07667338228643733 0.020971222268867367 -0.031599399337045551 0.0084668021197485364
leaf_weight=4831.4268371090293 3187.1127799004316 2514.2516331151128 8.2892784029245359 62.812051013112068 1182.0287949293852 205.52116142213345 241.33430100977421 5.1505747586488715 76.152855679392815 244.28868706524372 16.352712981402874 83.071416199207306 17.529460594058037 223.26814370602369
leaf_count=50641 13463 15892 101 343 5525 851 996 25 377 1225 90 344 180 1533
internal_value=0 -0.00294044 -0.00522466 0.00457529 0.00890837 0.00312414 -0.0041716 -0.00587176 0.00113413 0.00929258 0.0231081 0.00412107 0.00734041 0.00555008
internal_weight=0 7936.71 5085.66 4961.88 1244.84 3717.04 446.855 4836.58 2851.05 336.794 92.5056 3270.18 249.087 240.798
internal_count=91586 70064 52480 21522 5868 15654 1847 50666 17584 1692 467 13807 1814 1713
is_linear=0
shrinkage=0.05


Tree=56
num_leaves=15
num_cat=0
split_feature=0 0 8 11 0 0 35 16 41 31 41 36 35 16
split_gain=62.944 23.6873 10.6712 9.72013 9.55976 17.2409 14.8889 9.50203 11.3251 9.44946 9.24116 9.4745 9.21991 10.2561
