tree
version=v4
num_class=1
num_tree_per_iteration=1
label_index=0
max_feature_idx=42
objective=binary sigmoid:1
feature_names=Column_0 Column_1 Column_2 Column_3 Column_4 Column_5 Column_6 Column_7 Column_8 Column_9 Column_10 Column_11 Column_12 Column_13 Column_14 Column_15 Column_16 Column_17 Column_18 Column_19 Column_20 Column_21 Column_22 Column_23 Column_24 Column_25 Column_26 Column_27 Column_28 Column_29 Column_30 Column_31 Column_32 Column_33 Column_34 Column_35 Column_36 Column_37 Column_38 Column_39 Column_40 Column_41 Column_42
feature_infos=[1:3442] [1:404] [1:165] [1:385] [0:8441] [0:80843.080000000002] [0:1] [0:418.19999999999999] [0:569.77999999999997] [0:16846621.120000001] [0:26.949999999999999] [0:935923.39000000001] [0:2824] [0:344] [0:219] [0:43] [0:410] [0:1026] [0:5420] [0:3021] [1:503] [0.16193054893294959:182.7910798679292] [0.87134007861289675:178.39011611343039] [0.21718020639357488:183.51026064445125] [0.72249495060158098:179.48077161084279] [1.206389682591924:176.04041283115527] [0.058268559493933343:182.99923277011337] [6.2182826670901585:157.72788736185058] [0.17183864248851022:182.64786063126263] [0.32093971333194821:181.5134202707959] [0.16070928699921005:181.99576095732795] [0.33435044841415457:181.51880532707537] [1.2205794722248875:172.06122254721893] [0.52655349113748573:180.50695718925252] [1.031727894158933:178.77414571728221] [0.12498517050278531:183.35213816739889] [0.27373674275610016:181.83477065674933] [0.35937752228118525:181.57916525386034] [1.8706736936244182:172.45524293209192] [0.80379561548912415:179.57478305279432] [0.30320747152119876:181.96068482933592] [0.11513212595004318:183.16643676006049] [0:20]
tree_sizes=1695 1725 1739 1731 1731 1734 1742 1729 1726 1735 1742 1744 1730 1730 1738 1739 1742 1740 1744 1741 1742 1734 1740 1756 1738 1742 1747 1751 1739 1742 1742 1745 1744 1744 1744 1749 1761 1746 1754 1743 1753 1750 1759 1738 1750 1754 1752 1756 1766 1755 1759 1754 1752 1756 1763 1751 1749 1764 1753 1745 1750 1743 1749 1740 1749 1744 1749 1742 1747 1733 1740 1764 1748 1747 1748 1735 1754 1746 1747 1748 1742 1749 1737 1740 1742 1737 1735 1746 1746 1741 1744 1725 1729 1735 1760 1729 1761 1737 1730 1753 1735 1748 1717 1729 1754 1725 1723 1725 1725 1737 1745 1743 1700 1738 1751 1724 1730

Tree=0
num_leaves=15
num_cat=0
split_feature=0 0 0 14 0 0 0 26 10 39 26 27 23 14
split_gain=16145.3 1625.84 1573.17 267.183 246.544 191.802 132.761 106.013 88.8376 73.0658 61.2173 59.2229 51.8551 48.7881
threshold=47.500000000000007 27.500000000000004 73.500000000000014 1.5000000000000002 99.500000000000014 35.500000000000007 56.500000000000007 4.3878725616863337 0.10500000000000002 8.3200079806660217 3.5246381082327702 29.690801596407763 5.3878882869312354 3.5000000000000004
decision_type=2 2 2 2 2 2 2 2 2 2 2 2 2 2
left_child=1 3 6 12 -4 10 -2 -7 13 -6 -3 -8 -1 -5
right_child=2 5 4 8 9 7 11 -9 -10 -11 -12 -13 -14 -15
leaf_value=-1.2738440626344405 -1.1848985470974971 -1.2460405238038175 -1.1206929929926577 -1.2622917236898759 -1.0626927025560899 -1.2185330992677283 -1.1586936832309629 -1.1902358864606395 -1.2427234696277509 -1.0925942971783027 -1.2260613956877697 -1.1008034758590031 -1.2477987105110113 -1.249149559217908
leaf_weight=4303.1190380305052 705.99826830625534 657.44774191081524 863.39311560988426 3069.5500677376986 279.91043557226658 1039.1915920525789 789.603326395154 485.68053661286831 1018.6846910119057 756.30152128636837 919.83091163635254 46.797799810767174 199.98610331118107 917.20182175934315
leaf_count=24551 4028 3751 4926 17513 1597 5929 4505 2771 5812 4315 5248 267 1141 5233
internal_value=-1.2274 -1.2536 -1.13142 -1.26385 -1.10096 -1.22216 -1.16893 -1.20952 -1.2559 -1.08452 -1.23439 -1.15545 -1.27269 -1.25927
internal_weight=0 12610.7 3442 9508.54 1899.61 3102.15 1542.4 1524.87 5005.44 1036.21 1577.28 836.401 4503.11 3986.75
internal_count=91587 71949 19638 54250 10838 17699 8800 8700 28558 5912 8999 4772 25692 22746
is_linear=0
shrinkage=1


Tree=1
num_leaves=15
num_cat=0
split_feature=0 0 0 32 0 0 14 6 17 23 21 14 0 41
split_gain=14041.3 1660.23 1148.57 220.797 186.892 182.534 156.89 55.93 46.2237 45.9632 42.2185 38.3169 36.1968 34.8698
threshold=43.500000000000007 73.500000000000014 22.500000000000004 12.227846577003012 94.500000000000014 56.500000000000007 1.5000000000000002 1.0000000180025095e-35 36.500000000000007 5.7032147245194782 2.182133568804733 3.5000000000000004 35.500000000000007 1.9931308204425757
decision_type=2 2 2 2 2 2 2 2 2 2 2 2 2 2
left_child=2 5 6 12 -3 -2 13 -6 -9 -7 -8 -5 -4 -1
right_child=1 4 3 11 7 9 10 8 -10 -11 -12 -13 -14 -15
leaf_value=-0.047107918626374617 0.035458004169936587 0.09318097614474935 0.0013004071116748043 -0.019717835881871794 0.14103699548846813 0.10617963185836195 -0.03216871826043273 0.092106353652055287 0.12270126683120064 0.062435706317281729 -0.0065146434888055452 -0.0077932470965466523 0.017555121197773013 -0.034481355272499327
leaf_weight=3507.152896463871 1171.1310130357742 788.79553440213203 612.76025094091892 1439.2699410021305 356.18964293599129 64.89577317237854 3563.1447368860245 148.32033409178257 736.38008873164654 804.25267268717289 167.9308395832777 1266.428959235549 776.51156106591225 647.78134858608246
leaf_count=20532 6558 4254 3499 8294 1874 349 20681 791 3919 4423 972 7271 4386 3784
internal_value=0 0.0801932 -0.0273005 -0.00581696 0.112211 0.0483417 -0.0384563 0.124307 0.117572 0.0657019 -0.0310141 -0.0141364 0.0103857 -0.0451394
internal_weight=0 4069.97 11981 4094.97 2029.69 2040.28 7886.01 1240.89 884.7 869.148 3731.08 2705.7 1389.27 4154.93
internal_count=91587 22168 69419 23450 10838 11330 45969 6584 4710 4772 21653 15565 7885 24316
is_linear=0
shrinkage=0.05


Tree=2
num_leaves=15
num_cat=0
split_feature=35 37 35 27 14 20 36 24 33 14 14 12 24 7
split_gain=10518.7 1608.07 1031.49 299.939 272.574 170.888 164.48 152.227 111.272 90.2584 83.7533 82.2454 65.3738 63.3538
threshold=4.0358359024622503 3.6650029553309476 3.2539203860567292 26.807710906154156 1.5000000000000002 15.500000000000002 3.6635105605202498 5.9978813243737461 5.3775944687117105 3.5000000000000004 5.5000000000000009 49.500000000000007 1.9335741498670156 21.095000000000002
decision_type=2 2 2 2 2 2 2 2 2 2 2 2 2 2
left_child=2 3 4 12 -1 11 10 -8 -7 -6 -4 -3 -2 -5
right_child=1 5 6 13 9 8 7 -9 -10 -11 -12 -13 -14 -15
leaf_value=-0.044461397564116656 0.072216593485871602 0.042458496531136522 -0.0080391133083845528 0.028216805848216526 -0.031271122731242704 0.085371339735622775 0.06782768856110033 -0.0032662177562349792 0.11001052047514429 -0.01630731708779647 0.016264913278491316 0.083331996649635129 0.045311536992386353 0.0066894830078940374
leaf_weight=3954.4791926294565 317.74909169971943 217.70880047976971 1779.1492931991816 722.08214361965656 3286.14842492342 859.61008393764496 168.12885817885399 136.36560387909412 981.3054032176733 1453.4399735033512 442.67236728966236 283.13629181683064 780.00192427635193 648.90053249895573
leaf_count=23749 1693 1175 10231 4000 19410 4449 887 786 4938 8464 2500 1449 4213 3643
internal_value=0 0.0617781 -0.0265971 0.0336227 -0.0347691 0.0914602 0.00152619 0.0359888 0.0985053 -0.0266823 -0.00319682 0.065565 0.0530993 0.0180277
internal_weight=0 4810.49 11220.4 2468.73 8694.07 2341.76 2526.32 304.494 1840.92 4739.59 2221.82 500.845 1097.75 1370.98
internal_count=91587 25560 66027 13549 51623 12011 14404 1673 9387 27874 12731 2624 5906 7643
is_linear=0
shrinkage=0.05


Tree=3
num_leaves=15
num_cat=0
split_feature=0 0 0 26 0 0 0 0 30 41 26 3 26 26
split_gain=11019.3 1126.72 1016.95 210.366 174.847 79.8434 73.8711 56.8051 43.2166 39.5172 36.0333 30.3595 30.1072 23.6797
threshold=43.500000000000007 67.500000000000014 22.500000000000004 3.5363918034595789 94.500000000000014 14.500000000000002 56.500000000000007 32.500000000000007 5.9255390882982217 2.8093624240556134 3.8209860905196558 12.500000000000002 4.4149138835720718 4.4149138835720718
decision_type=2 2 2 2 2 2 2 2 2 2 2 2 2 2
left_child=2 6 5 -4 -3 13 12 -5 -6 -8 -7 -10 -2 -1
right_child=1 4 3 7 8 10 9 -9 11 -11 -12 -13 -14 -15
leaf_value=-0.041766136056454961 0.021797648383753913 0.074991113749731261 -0.01754154205507804 -0.0039110614458237316 0.11664327718437061 -0.031216868868271616 0.11534958429541105 0.01237544746881724 0.089496316541339827 0.049435516683210348 -0.0031695737279064207 0.10720432082294709 0.037745429034860424 -0.029395024694341323
leaf_weight=4082.7851411402225 513.23356913030148 1120.2273007929325 1897.6142510771751 952.93605402112007 354.56599655747414 2932.1758468002081 23.583313167095184 1221.8888777643442 623.00419522821903 635.09010976552963 119.16889058053493 395.82924269139767 699.01314903795719 427.29428055882454
leaf_count=25004 2807 5619 11113 5490 1679 17668 118 6847 3010 3289 698 1895 3751 2599
internal_value=0 0.067646 -0.0255191 -0.00537581 0.089651 -0.036368 0.0383171 0.00523924 0.101608 0.0517955 -0.0301215 0.0963761 0.0309936 -0.0405941
internal_weight=0 4364.55 11633.9 4072.44 2493.63 7561.42 1870.92 2174.82 1373.4 658.673 3051.34 1018.83 1212.25 4510.08
internal_count=91587 22168 69419 23450 12203 45969 9965 12337 6584 3407 18366 4905 6558 27603
is_linear=0
shrinkage=0.05


Tree=4
num_leaves=15
num_cat=0
split_feature=0 0 0 26 0 0 0 0 17 30 30 27 0 26
split_gain=9781.78 997.352 907.792 176.932 145.305 77.0864 68.88 47.6493 36.3436 35.2771 33.9544 32.9883 24.69 22.9039
threshold=42.500000000000007 67.500000000000014 22.500000000000004 3.5246381082327702 94.500000000000014 14.500000000000002 56.500000000000007 32.500000000000007 23.500000000000004 5.9255390882982217 5.3070448282905121 29.690801596407763 163.50000000000003 4.4149138835720718
decision_type=2 2 2 2 2 2 2 2 2 2 2 2 2 2
left_child=2 6 5 -4 -3 13 8 -5 -2 -6 -7 -8 -11 -1
right_child=1 4 3 7 9 10 11 -9 -10 12 -12 -13 -14 -15
leaf_value=-0.040703537445578808 0.020818030140402916 0.068897818540593445 -0.01712200794485005 -0.0040878385773250175 0.10602157243248073 -0.030196131099956669 0.045355862684128924 0.010877592573671569 0.037483894736058461 0.082637882440063745 -0.0023925190126336082 0.094148552987800421 0.098794273797613116 -0.028426451297781402
leaf_weight=3982.4753931313753 722.23111097514629 1157.319191545248 1826.5865913033485 977.57020911574364 370.14827927947044 2883.9393036812544 638.06637674570084 1166.6450945585966 597.96064873039722 701.05153830349445 114.15450331568718 36.629613891243935 356.82664731144905 419.95068319141865
leaf_count=25004 3886 5619 10809 5647 1679 17689 3231 6502 3164 3262 677 176 1643 2599
internal_value=0 0.0615699 -0.024973 -0.00568668 0.082065 -0.0353212 0.0350085 0.0040547 0.0283666 0.0927361 -0.0291375 0.0480048 0.0880875 -0.0395324
internal_weight=0 4580.23 11371.3 3970.8 2585.35 7400.52 1994.89 2144.22 1320.19 1428.03 2998.09 674.696 1057.88 4402.43
internal_count=91587 22660 68927 22958 12203 45969 10457 12149 7050 6584 18366 3407 4905 27603
is_linear=0
shrinkage=0.05


Tree=5
num_leaves=15
num_cat=0
split_feature=0 0 0 26 14 0 0 0 26 26 37 23 41 3
split_gain=8711.34 853.77 853.663 182.717 126.607 100.352 83.0169 47.7297 38.8783 33.3922 30.8499 30.2787 28.8589 28.4625
threshold=42.500000000000007 21.500000000000004 73.500000000000014 3.5246381082327702 1.5000000000000002 57.500000000000007 99.500000000000014 32.500000000000007 4.0719643083997621 3.9324319191529136 1.5180932934447793 5.7032147245194782 2.3679189590401881 12.500000000000002
decision_type=2 2 2 2 2 2 2 2 2 2 2 2 2 2
left_child=1 4 5 -3 12 10 -4 -5 -6 -8 -2 -7 -1 -11
right_child=2 3 6 7 8 11 9 -9 -10 13 -12 -13 -14 -15
leaf_value=-0.042758877278219004 -0.0012381583128666237 -0.017203940994929525 0.067600252325229468 -0.004446155077722262 -0.028729263472867535 0.081288036658699214 0.10539475644727181 0.010272863271016286 0.0016403292103486563 0.076180669286687541 0.029055883912773795 0.04595032465248805 -0.028077216877980395 0.092214235494003996
leaf_weight=3346.6265984773636 89.71416349709034 2110.1695017665625 1055.2782464176416 1037.9950402975082 3052.7976682782173 65.411619186401367 196.88741280138493 1173.3773760199547 109.15060544013977 643.22097808122635 1328.4521319121122 827.13260874152184 371.90664066374302 485.87404228746891
leaf_count=21640 482 12679 4926 6024 19099 307 863 6502 656 2893 6961 4072 2327 2156
internal_value=0 -0.0240965 0.0570562 -0.00667918 -0.0350362 0.0354058 0.0780652 0.00336391 -0.0276809 0.0863936 0.0271395 0.0485401 -0.0412905 0.0830803
internal_weight=0 11202 4691.97 4321.54 6880.48 2310.71 2381.26 2211.37 3161.95 1325.98 1418.17 892.544 3718.53 1129.1
internal_count=91587 68927 22660 25205 43722 11822 10838 12526 19755 5912 7443 4379 23967 5049
is_linear=0
shrinkage=0.05


Tree=6
num_leaves=15
num_cat=0
split_feature=35 37 35 25 14 3 41 14 37 23 37 14 24 8
split_gain=6725.84 1056.05 539.02 238.559 220.042 126.145 80.9249 69.2767 55.8974 58.6343 54.4324 51.6553 51.468 48.0578
threshold=3.8427629803691343 3.6650029553309476 3.0931674527667448 5.9414180929249865 1.5000000000000002 5.5000000000000009 2.4364094248592854 3.5000000000000004 3.5053937395832633 5.4155682876866571 1.5472698425892653 8.5000000000000018 5.9750093581105856 37.815000000000005
decision_type=2 2 2 2 2 2 2 2 2 2 2 2 2 2
left_child=2 3 4 13 -1 11 -4 -6 -8 -10 -5 -3 -7 -2
right_child=1 5 6 10 7 12 8 -9 9 -11 -12 -13 -14 -15
leaf_value=-0.040736488403139572 0.028323984221474436 0.033184183780545849 -0.015321134516888739 -0.0020775191138614271 -0.02786698883306675 0.062057432885407972 -0.0011571463607378605 -0.013553828893912288 -0.0058615531037596522 0.043974545640030754 0.016939166746464607 0.059602368236035978 0.078663847754625274 0.048689739080067462
leaf_weight=3527.5236260294914 491.02393394708633 331.52710691094398 961.75792878866196 507.74961031973362 2904.0684964954853 774.73907274007797 1134.9225817471743 1192.5433307737112 95.445072904229164 154.65483868122101 1453.4439752548933 418.74355068802834 1173.0169040858746 706.39165705442429
leaf_count=23354 2454 1624 5821 2858 18447 3520 6507 7295 576 787 7781 1919 5173 3471
internal_value=0 0.0423757 -0.0251328 0.0227528 -0.0315826 0.0653485 -0.00417895 -0.0237004 0.00355817 0.0249557 0.0120158 0.0479288 0.0720585 0.0403384
internal_weight=0 5856.64 9970.92 3158.61 7624.14 2698.03 2346.78 4096.61 1385.02 250.1 1961.19 750.271 1947.76 1197.42
internal_count=91587 28800 62787 16564 49096 12236 13691 25742 7870 1363 10639 3543 8693 5925
is_linear=0
shrinkage=0.05


Tree=7
num_leaves=15
num_cat=0
split_feature=0 32 0 14 0 11 0 0 14 14 35 17 37 9
split_gain=7029.8 760.52 655.326 108.325 94.3046 85.7387 77.3223 64.6018 35.4048 33.541 31.2484 29.8483 26.6322 26.3998
threshold=42.500000000000007 13.006922897377956 73.500000000000014 1.5000000000000002 32.500000000000007 3.9300000000000002 59.500000000000007 99.500000000000014 3.5000000000000004 3.5000000000000004 3.905891944905409 23.500000000000004 4.4062401385903831 65380.490000000005
decision_type=2 2 2 2 2 2 2 2 2 2 2 2 2 2
left_child=1 4 6 5 8 -3 11 13 -1 -5 -8 -2 -9 -4
right_child=2 3 7 9 -6 -7 10 12 -10 -11 -12 -13 -14 -15
leaf_value=-0.016200974645812077 0.018136320191317161 -0.018292058276316608 0.061891579484627382 -0.027898006633333545 0.0070141221578395837 -0.040287930078935615 0.079841705532270768 0.095905863282233383 -0.0033275127653026233 -0.016280746765596023 0.04101836915400079 0.031886983491011184 0.07262403681917011 0.039971034021543762
leaf_weight=1078.8433213680983 834.78478182852268 510.68484805524349 940.96841286122799 2735.2257088571787 1360.3670538663864 3344.2376069575548 55.727192208170891 136.21767441928387 1057.7125769853592 803.92381097376347 741.14840625226498 748.51420910656452 1250.0475838631392 160.82922795414925
leaf_count=6537 4313 3133 4211 17694 7561 22722 250 574 6278 5002 3510 3749 5338 715
internal_value=0 -0.0224888 0.0497864 -0.0315753 -0.00327605 -0.037374 0.0310304 0.067729 -0.0098279 -0.0252591 0.0437334 0.024637 0.0749118 0.0586918
internal_weight=0 10891 4868.24 7394.07 3496.92 3854.92 2380.17 2488.06 2136.56 3539.15 796.876 1583.3 1386.27 1101.8
internal_count=91587 68927 22660 48551 20376 25855 11822 10838 12815 22696 3760 8062 5912 4926
is_linear=0
shrinkage=0.05


Tree=8
num_leaves=15
num_cat=0
split_feature=0 0 0 34 0 0 0 0 30 8 30 41 0 30
split_gain=6305 715.058 575.124 123.196 86.3083 50 39.7837 30.982 29.69 27.7514 24.9988 24.2895 22.9923 21.9983
threshold=42.500000000000007 21.500000000000004 67.500000000000014 7.8455790335534932 94.500000000000014 14.500000000000002 56.500000000000007 32.500000000000007 5.3070448282905121 32.300000000000004 5.9255390882982217 2.8093624240556134 35.500000000000007 5.0151307076939409
decision_type=2 2 2 2 2 2 2 2 2 2 2 2 2 2
left_child=1 5 6 12 -4 -1 9 13 -7 -2 -6 -8 -3 -5
right_child=2 3 4 7 10 8 11 -9 -10 -11 -12 -13 -14 -15
leaf_value=-0.035607557774161629 0.013365869535602424 -0.00061823185356709278 0.051570350485470574 -0.018216029822630056 0.079815003914027266 -0.027634924557247392 0.082780908378955215 -0.0013819003859865246 0.0012483662136619142 0.027745197586033332 0.065399223453543015 0.034507821308052793 0.011031255098619238 -0.0059110634884430987
leaf_weight=4012.5764853805304 568.09165014326572 953.3203626871109 1263.6427549123764 1601.8570829033852 405.87429012358189 2360.786481320858 27.068917438387871 484.5643408447504 92.457265943288803 819.69160552322865 1160.9214245527983 698.07143798470497 762.18818747997284 469.72961464524269
leaf_count=27603 2928 5507 5619 9937 1679 15554 118 2809 565 4122 4905 3289 4140 2812
internal_value=0 -0.021682 0.0465574 -0.00580739 0.0612925 -0.0321696 0.0268184 -0.0127636 -0.0265464 0.021859 0.0691336 0.0363098 0.00455755 -0.0154259
internal_weight=0 10737.5 4943.36 4271.66 2830.44 6465.82 2112.92 2556.15 2453.24 1387.78 1566.8 725.14 1715.51 2071.59
internal_count=91587 68927 22660 25205 12203 43722 10457 15558 16119 7050 6584 3407 9647 12749
is_linear=0
shrinkage=0.05


Tree=9
num_leaves=15
num_cat=0
split_feature=0 0 32 0 0 26 0 26 36 6 17 17 25 26
split_gain=5673.6 644.07 555.938 82.7173 77.773 61.5665 53.8419 33.2815 23.5176 22.5367 29.0745 21.7072 26.8443 20.7776
threshold=39.500000000000007 67.500000000000014 13.006922897377956 16.500000000000004 94.500000000000014 3.5363918034595789 47.500000000000007 4.329621986337453 2.2187992706571076 1.0000000180025095e-35 17.500000000000004 25.500000000000004 7.8147879663624504 4.4149138835720718
decision_type=2 2 2 2 2 2 2 2 2 2 2 2 2 2
left_child=2 6 5 13 -3 -1 7 -2 -5 -6 -11 12 -8 -4
right_child=1 4 3 8 9 -7 11 -9 -10 10 -12 -13 -14 -15
leaf_value=-0.013263845791228144 0.0056431896057878121 0.048210981311147004 -0.034893996868151658 -0.025562795417590375 0.074107079332339565 0.0010839274810162888 0.017714612272496245 0.023915217445685727 -0.014600721649334226 -0.025120698454669528 0.061712830134128427 0.035177041851676735 0.03763055236644347 -0.022768747182903379
leaf_weight=1241.7663166373968 554.72007156908512 1283.5710121393204 4246.5663910508156 1739.6525911688805 458.69844426214695 1879.1088847666979 605.43852952122688 452.5025540292263 680.71765623986721 9.7237093299627286 1119.9552871286869 705.2646009773016 234.81844013929367 385.37146811187267
leaf_count=7713 2988 5619 29781 11493 1874 10729 2964 2304 4315 41 4669 3343 1128 2626
internal_value=0 0.041121 -0.0221953 -0.0299708 0.057364 -0.00462491 0.022847 0.013852 -0.0224798 0.0647605 0.0609654 0.0287091 0.0232803 -0.0338852
internal_weight=0 5424.69 10173.2 7052.31 2871.95 3120.88 2552.74 1007.22 2420.37 1588.38 1129.68 1545.52 840.257 4631.94
internal_count=91587 24930 66657 48215 12203 18442 12727 5292 15808 6584 4710 7435 4092 32407
is_linear=0
shrinkage=0.05


Tree=10
num_leaves=15
num_cat=0
split_feature=0 0 32 14 0 41 14 0 26 26 41 14 26 26
split_gain=5110.9 571.308 521.296 114.365 70.7019 60.2581 57.0357 47.5587 35.0937 34.5057 30.9297 30.0157 24.6223 20.9432
threshold=39.500000000000007 67.500000000000014 13.006922897377956 1.5000000000000002 94.500000000000014 2.3538642808761669 3.5000000000000004 56.500000000000007 4.4149138835720718 3.5246381082327702 4.3825699687476325 3.5000000000000004 4.0719643083997621 3.9324319191529136
decision_type=2 2 2 2 2 2 2 2 2 2 2 2 2 2
left_child=2 7 6 5 -3 -4 10 8 -2 -8 -1 12 -5 -6
right_child=1 4 3 11 13 -7 9 -9 -10 -11 -12 -13 -14 -15
leaf_value=-0.013625481867706669 0.010090261060020193 0.04516849528045952 -0.038115883486225216 -0.025880711147676063 0.073973337698645808 -0.020258446840332275 -0.0081825682118528073 0.032167139882271524 0.023926918318115799 0.0064185960794797981 0.031940078630521319 -0.01378215848922344 0.0024646590505051384 0.058366001150811676
leaf_weight=1280.460866138339 895.44483467936516 1301.0573546141386 2994.7350256145 2509.4982578754425 255.65581098198891 560.88516221940517 616.69571280479431 742.89115709066391 938.59075543284416 1176.6599756330252 38.358453929424286 772.04527945816517 79.02592796087265 1349.7689926475286
leaf_count=7797 4698 5619 21863 17185 1035 3664 3798 3407 4622 6636 211 4996 507 5549
internal_value=0 0.0386345 -0.0214011 -0.0290482 0.0538311 -0.0352989 -0.00440701 0.0214944 0.0171713 0.00139758 -0.0123002 -0.0224347 -0.0250153 0.0608514
internal_weight=0 5483.41 10028.4 6916.19 2906.48 3555.62 3112.18 2576.93 1834.04 1793.36 1318.82 3360.57 2588.52 1605.42
internal_count=91587 24930 66657 48215 12203 25527 18442 12727 9320 10434 8008 22688 17692 6584
is_linear=0
shrinkage=0.05


Tree=11
num_leaves=15
num_cat=0
split_feature=35 28 14 28 14 26 32 8 17 36 14 24 26 24
split_gain=4027.53 695.006 260.474 143.87 94.0613 101.781 91.045 89.3684 73.2948 60.1657 43.1417 36.5158 61.9803 45.3588
threshold=3.5844394590957189 3.2120982230635327 3.5000000000000004 6.4174005130677765 1.5000000000000002 1.6561793572007333 14.500774131217533 8.0050000000000008 24.500000000000004 1.5423585576633985 5.5000000000000009 5.9978813243737461 2.1293774433953767 2.7013964277621887
decision_type=2 2 2 2 2 2 2 2 2 2 2 2 2 2
left_child=2 9 4 6 5 -1 7 -3 -9 -2 -10 12 -11 -14
right_child=1 3 -4 -5 -6 -7 -8 8 10 11 -12 -13 13 -15
leaf_value=0.0031443730887209171 -0.00023771019670111002 0.053788614505399734 -0.0067810978976266291 0.053141793736783717 -0.021958277921357291 -0.035926543904817115 0.00012966562199405693 0.015960671107416956 0.020455270601045936 0.038358586969948177 0.041994339605647135 -0.0096957688184914174 0.020057059014986223 0.0014495815327375812
leaf_weight=175.56520712375641 1132.1493939757347 563.81063494086266 1789.2809066623449 1483.1685013622046 3090.82152543962 3296.0435846894979 187.35933102667332 562.30806578695774 295.92803929746151 273.77945029735565 1084.2885197252035 142.87947632372379 781.57710130512714 563.74114613234997
leaf_count=1048 6399 2367 11128 6120 21124 24447 1048 2698 1379 1281 4778 827 3874 3069
internal_value=0 0.0275876 -0.0236916 0.040636 -0.0283024 -0.0339507 0.0337503 0.0362636 0.031177 0.0087559 0.0373762 0.0145347 0.0166729 0.0122598
internal_weight=0 7070.99 8351.71 4176.86 6562.43 3471.61 2693.69 2506.34 1942.52 2894.13 1380.22 1761.98 1619.1 1345.32
internal_count=91587 33840 57747 18390 46619 25495 12270 11222 8855 15450 6157 9051 8224 6943
is_linear=0
shrinkage=0.05


Tree=12
num_leaves=15
num_cat=0
split_feature=0 0 0 14 17 0 0 14 28 41 30 23 9 28
split_gain=4187 465.118 464.803 105.61 68.576 58.7718 41.7886 34.028 33.2319 26.0537 25.7303 22.1982 22.1162 21.0872
threshold=39.500000000000007 21.500000000000004 73.500000000000014 1.5000000000000002 16.500000000000004 56.500000000000007 99.500000000000014 3.5000000000000004 2.9355738387931947 1.3846631358952191 5.1628174173027856 5.7032147245194782 65380.490000000005 5.4262645668786531
decision_type=2 2 2 2 2 2 2 2 2 2 2 2 2 2
left_child=1 3 5 9 -3 10 12 -6 -5 -1 -2 -7 -4 -8
right_child=2 4 6 8 7 11 13 -9 -10 -11 -12 -13 -14 -15
leaf_value=-0.037905353810137411 0.0081366430533712699 -0.012390946213301295 0.045414638510718974 -0.022554102480795039 -0.0079207299468447272 0.054965273170610729 0.06992580192787981 0.0065552130240745235 0.0091760366303466033 -0.028001931384630585 0.020130985660515584 0.027929370115694192 0.025970985385301733 0.052789147130386085
leaf_weight=2196.1512685716152 747.63514238595963 2051.8911564350128 1006.7555002272129 2744.7870724052191 649.94654595851898 82.21454319357872 209.51273754239082 1081.4149066358805 85.076193064451218 951.98363484442234 1112.4105899333954 992.21618263423443 171.10587887465954 1253.9044704139233
leaf_count=16947 3861 12857 4211 19218 3913 349 840 6165 537 7020 5459 4423 715 5072
internal_value=0 -0.019927 0.0343839 -0.0286097 -0.00620736 0.0206879 0.0496003 0.001121 -0.0216002 -0.0349106 0.0153099 0.0299981 0.0425901 0.0552425
internal_weight=0 9761.25 5575.76 5978 3783.25 2934.48 2641.28 1731.36 2829.86 3148.13 1860.05 1074.43 1177.86 1463.42
internal_count=91587 66657 24930 43722 22935 14092 10838 10078 19755 23967 9320 4772 4926 5912
is_linear=0
shrinkage=0.05


Tree=13
num_leaves=15
num_cat=0
split_feature=0 0 32 0 0 0 30 34 16 8 17 31 31 40
split_gain=3788.92 543.685 314.693 63.857 60.9185 57.0604 30.7014 29.0848 24.3514 19.2177 18.9467 20.2259 18.5236 25.7381
threshold=35.500000000000007 67.500000000000014 13.006922897377956 16.500000000000004 47.500000000000007 85.500000000000014 5.0151307076939409 9.0632169111510734 17.500000000000004 35.82500000000001 28.500000000000004 3.578454139934363 3.8480317538397855 2.094988266928373
decision_type=2 2 2 2 2 2 2 2 2 2 2 2 2 2
left_child=2 4 6 -4 8 10 -1 -7 12 -10 11 -3 13 -2
right_child=1 5 3 -5 -6 7 -8 -9 9 -11 -12 -13 -14 -15
leaf_value=-0.010434823928298635 0.0029815549354540987 0.011762920948017038 -0.030324076567594661 -0.019885656888907539 0.022612865526757519 0.043623279021275899 0.0008156731418026234 0.055722726498952262 0.011855553670511278 0.033223603928502009 0.042695271322940494 0.034536147494064383 -0.011526855636807137 0.02245189809011677
leaf_weight=1513.6767119318247 761.52827346324921 130.61209540069103 4255.7927334457636 2234.3624587953091 1605.4647181779146 927.99992087483406 1011.6841338127851 1068.6120379269123 372.05845528841019 146.71715632081032 463.56744858622551 384.56987473368645 150.35706995427608 218.4166212528944
leaf_count=9448 4090 558 32407 15444 7435 3781 5950 4305 1923 728 1946 1613 821 1138
internal_value=0 0.0298029 -0.0209034 -0.0267304 0.0156799 0.0452511 -0.00592777 0.0500991 0.00893026 0.0178987 0.0353615 0.0287625 0.00481399 0.00732123
internal_weight=0 6229.9 9015.52 6490.16 3254.54 2975.36 2525.36 1996.61 1649.08 518.776 978.749 515.182 1130.3 979.945
internal_count=91587 28338 63249 47851 16135 12203 15398 8086 8700 2651 4117 2171 6049 5228
is_linear=0
shrinkage=0.05


Tree=14
num_leaves=15
num_cat=0
split_feature=0 0 0 14 0 26 26 28 21 30 16 23 17 0
split_gain=3429.36 490.262 296.525 101.91 70.3987 49.6672 48.898 31.0249 25.354 23.3734 25.328 23.1563 26.2721 22.3344
threshold=35.500000000000007 63.500000000000007 21.500000000000004 1.5000000000000002 85.500000000000014 4.3878725616863337 3.4997905712516482 2.9355738387931947 2.8214304724759249 5.9255390882982217 20.500000000000004 5.7032147245194782 28.500000000000004 47.500000000000007
decision_type=2 2 2 2 2 2 2 2 2 2 2 2 2 2
left_child=2 5 3 8 11 13 -4 -5 -1 -6 -11 -3 -13 -2
right_child=1 4 6 7 9 -7 -8 -9 -10 10 -12 12 -14 -15
leaf_value=-0.034613780749825379 0.0034135454002796094 0.059243068274829502 -0.013492815317781827 -0.02086489223517498 0.056369682026195633 0.019837598193058109 -0.0009535130122279164 0.0099372800896256313 -0.017926395030343434 0.034136645130918131 0.048454249948822171 0.023145647387295454 0.038089923075035531 0.017699153387631315
leaf_weight=2763.1911409571767 1094.7211788743734 74.941609442234039 1704.6917812526226 2659.8990741074085 533.93694493174553 1549.3734047114849 1429.3776801228523 84.342310816049576 248.05276744067669 441.41523294150829 1028.8264733552933 591.33761365711689 585.06785619258881 364.76528948545456
leaf_count=22152 5929 310 11159 19218 2150 7300 8368 537 1815 1788 4148 2512 2461 1740
internal_value=0 0.0281525 -0.020149 -0.0268877 0.0415998 0.0136027 -0.00777393 -0.0199182 -0.0332391 0.0474096 0.0441556 0.0322947 0.030578 0.00698391
internal_weight=0 6264.39 8889.55 5755.49 3255.53 3008.86 3134.07 2744.24 3011.24 2004.18 1470.24 1251.35 1176.41 1459.49
internal_count=91587 28338 63249 43722 13369 14969 19527 19755 23967 8086 5936 5283 4973 7669
is_linear=0
shrinkage=0.05


Tree=15
num_leaves=15
num_cat=0
split_feature=0 0 32 14 0 0 41 14 26 14 23 26 7 26
split_gain=3105.57 442.144 279.151 102.273 51.2748 48.3689 39.2383 32.7636 28.7942 25.1613 23.4855 20.6742 20.1766 19.4638
threshold=35.500000000000007 67.500000000000014 13.006922897377956 1.5000000000000002 99.500000000000014 47.500000000000007 2.3538642808761669 3.5000000000000004 4.3878725616863337 3.5000000000000004 6.7310572278361995 4.0719643083997621 32.590000000000011 3.9324319191529136
decision_type=2 2 2 2 2 2 2 2 2 2 2 2 2 2
left_child=2 5 7 6 12 8 -4 10 -2 11 -1 -5 -3 -6
right_child=1 4 3 9 13 -7 -8 -9 -10 -11 -12 -13 -14 -15
leaf_value=-0.012576591730248853 0.003237113586687876 0.037398122310515959 -0.033813964259442136 -0.021992795058033143 0.061052468518767257 0.020084651971761208 -0.018156204832728191 -3.9201992914354983e-05 0.017124098172131542 -0.010570111918931497 0.036489939087014332 0.0044433459989455968 0.024132001154042695 0.04477423168900297
leaf_weight=1125.7623229175806 1096.6172260344028 1143.752764865756 2656.8194534555078 2325.3247112184763 214.96695540845394 1630.2485652565956 471.06335864961147 1354.303409576416 565.90032529830933 733.26125417649746 24.927615910768509 76.385440424084663 382.45542755723 1259.8394246101379
leaf_count=7157 5929 4715 21860 17179 863 7435 3327 8104 2771 4984 137 501 1576 5049
internal_value=0 0.0266167 -0.0194168 -0.0250592 0.0404984 0.013965 -0.0314559 -0.00531009 0.00796407 -0.0186769 -0.0115137 -0.021152 0.0340737 0.0471469
internal_weight=0 6293.78 8767.85 6262.85 3001.01 3292.77 3127.88 2504.99 1662.52 3134.97 1150.69 2401.71 1526.21 1474.81
internal_count=91587 28338 63249 47851 12203 16135 25187 15398 8700 22664 7294 17680 6291 5912
is_linear=0
shrinkage=0.05


Tree=16
num_leaves=15
num_cat=0
split_feature=0 0 0 14 0 14 17 14 34 41 17 30 15 7
split_gain=2813.4 401.201 263.612 93.5585 67.8349 40.6767 30.1358 27.3549 26.8564 25.3801 24.522 24.468 20.8804 19.988
threshold=35.500000000000007 61.500000000000007 21.500000000000004 1.5000000000000002 81.500000000000014 3.5000000000000004 23.500000000000004 5.5000000000000009 9.0632169111510734 1.3846631358952191 15.500000000000002 5.725098011340112 1.0000000180025095e-35 30.900000000000002
decision_type=2 2 2 2 2 2 2 2 2 2 2 2 2 2
left_child=2 6 3 9 13 12 -2 -8 -6 -1 -7 -5 -4 -3
right_child=1 4 5 11 8 10 7 -9 -10 -11 -12 -13 -14 -15
leaf_value=-0.034615155238733 0.0073266509198354332 0.030767502242491546 -0.014642529227631576 -0.019353721660108531 0.036299308828642143 -0.0084808779928941553 0.0086149595848745222 0.023924486601202732 0.047280792342427713 -0.024423795515243953 0.0040511217554888629 0.0082669679860802904 0.0067293720873245607 0.015435254741049032
leaf_weight=1993.901433236897 1713.5339000076056 890.58069230616093 1391.6759355217218 2591.3156233131886 1077.1952462047338 694.16660083830357 494.75422513484955 711.20370563864708 1152.3707563877106 880.74318296462297 891.88582190871239 82.740699842572212 124.51093561947346 279.21056365966797
leaf_count=16947 8752 3740 9109 19229 4346 4393 2389 3300 4633 7020 5247 526 778 1178
internal_value=0 0.0251832 -0.0187045 -0.0252307 0.036859 -0.00703162 0.0115883 0.0176436 0.0419752 -0.0314927 -0.00143375 -0.0184991 -0.0128874 0.0271079
internal_weight=0 6318.85 8650.94 5548.7 3399.36 3102.24 2919.49 1205.96 2229.57 2874.64 1586.05 2674.06 1516.19 1169.79
internal_count=91587 28338 63249 43722 13897 19527 14441 5689 8979 23967 9640 19755 9887 4918
is_linear=0
shrinkage=0.05


Tree=17
num_leaves=15
num_cat=0
split_feature=0 0 0 14 0 26 0 26 26 41 26 3 9 7
split_gain=2549.34 364.078 247.144 89.5575 53.4166 41.1105 30.9904 26.4228 24.7399 24.5991 18.1198 21.6025 18.0897 17.7913
threshold=35.500000000000007 73.500000000000014 21.500000000000004 1.5000000000000002 47.500000000000007 3.4997905712516482 99.500000000000014 3.43967408546678 4.3878725616863337 1.3846631358952191 3.9324319191529136 12.500000000000002 65380.490000000005 30.900000000000002
decision_type=2 2 2 2 2 2 2 2 2 2 2 2 2 2
left_child=2 4 3 9 8 -4 12 -5 -2 -1 -8 -12 -3 -6
right_child=1 6 5 7 13 -7 10 -9 -10 -11 11 -13 -14 -15
leaf_value=-0.033750033096635282 0.0026213484513863514 0.034407595310559563 -0.012036592297543898 -0.019747629036453825 0.021207009233092211 -0.00046262116692288033 0.056173229159741912 -0.0049370412940160828 0.015428059952258044 -0.023617199327828187 0.034758002009407353 0.047992772374823918 0.017063013868007442 0.0082928400611280203
leaf_weight=1944.0425597652793 1103.1947640478611 1037.7606200575829 1667.5262069404125 2293.9097785949707 1659.684664696455 1421.0763958841562 213.00014537572861 346.65206602215767 572.9606781154871 865.67219843715429 722.53007210791111 537.84145013988018 175.79512237012386 317.75457420945168
leaf_count=16947 5929 4211 11159 17314 7399 8368 863 2441 2771 7020 2893 2156 715 1401
internal_value=0 0.0238405 -0.0180112 -0.0244147 0.0135657 -0.00671137 0.0378118 -0.0178033 0.00699907 -0.0306281 0.0426852 0.0404057 0.0318951 0.0191318
internal_weight=0 6340.52 8538.88 5450.28 3653.59 3088.6 2686.93 2640.56 1676.16 2809.71 1473.37 1260.37 1213.56 1977.44
internal_count=91587 28338 63249 43722 17500 19527 10838 19755 8700 23967 5912 5049 4926 8800
is_linear=0
shrinkage=0.05


Tree=18
num_leaves=15
num_cat=0
split_feature=0 0 32 14 0 41 16 14 14 23 32 7 11 6
split_gain=2310.73 332.17 232.203 88.7369 58.073 36.2207 28.1398 26.5411 23.214 20.6586 19.2946 18.8081 17.6092 16.2586
threshold=35.500000000000007 61.500000000000007 13.006922897377956 1.5000000000000002 94.500000000000014 2.3538642808761669 16.500000000000004 3.5000000000000004 3.5000000000000004 6.7310572278361995 14.64600160837472 32.590000000000011 22.685000000000006 1.0000000180025095e-35
decision_type=2 2 2 2 2 2 2 2 2 2 2 2 2 2
left_child=2 6 7 5 11 -4 10 9 12 -1 -2 -3 -5 -6
right_child=1 4 3 8 13 -7 -8 -9 -10 -11 -12 -13 -14 -15
leaf_value=-0.011157869005683274 0.0043785416136898842 0.029728021906546626 -0.031271060525708452 -0.0067047292940239922 0.047939093537379227 -0.015893324134953639 0.015493626250367347 0.00025892801595814638 -0.0088045370666635578 0.034545250380320185 0.028976747365458612 0.017438690284869784 -0.020652686369549811 0.036870687903571252
leaf_weight=1102.7922005653381 1482.3023243099451 1370.87899979949 2475.8969796970487 254.2619896531105 462.23222188651562 452.98226037621498 1379.9653308093548 1349.2788617312908 714.2264042198658 25.292840272188187 84.251271322369576 402.81894195079803 2056.6837350577116 1175.6338954418898
leaf_count=7157 7417 5648 21860 1924 1874 3327 6576 8104 4984 137 448 1665 15756 4710
internal_value=0 0.0225848 -0.0173369 -0.0226892 0.0332058 -0.0288927 0.0102875 -0.00447318 -0.0166831 -0.0101332 0.00570146 0.026937 -0.0191181 0.0399944
internal_weight=0 6358.08 8431.42 5954.05 3411.56 2928.88 2946.52 2477.36 3025.17 1128.09 1566.55 1773.7 2310.95 1637.87
internal_count=91587 28338 63249 47851 13897 25187 14441 15398 22664 7294 7865 7313 17680 6584
is_linear=0
shrinkage=0.05


Tree=19
num_leaves=15
num_cat=0
split_feature=41 41 14 3 26 14 14 32 24 24 22 17 17 24
split_gain=1862.79 354.028 171.38 92.9721 58.5125 67.9025 52.4794 50.1033 49.4775 38.4756 36.4581 32.3419 30.5878 28.0009
threshold=2.4364094248592854 4.0888609475346476 1.5000000000000002 6.5000000000000009 2.1293774433953767 3.5000000000000004 3.5000000000000004 14.534644401785014 5.9978813243737461 5.8359336748699002 7.1243326854539637 15.500000000000002 24.500000000000004 1.9335741498670156
decision_type=2 2 2 2 2 2 2 2 2 2 2 2 2 2
left_child=2 4 -1 13 7 -6 -4 -2 -9 12 -10 -7 -5 -3
right_child=1 3 6 9 5 11 -8 8 10 -11 -12 -13 -14 -15
leaf_value=-0.029412419226296262 0.028769243167295656 0.032176041626327666 -0.017271047391451275 0.0061077832238627663 -0.0079015596109094522 -0.0074158136579103168 -0.0054922444339847165 0.022970459755263292 -0.014207126197398143 0.040750399697905074 0.086220478655863672 0.010325321274479219 0.030719276115064611 0.015737707256009547
leaf_weight=2634.5257931947708 454.23258167505264 313.9408660531044 2665.6249417662621 146.89196170866489 1029.572975628078 299.85714475810528 1465.5522767156363 209.70199438929558 230.66430997848511 1069.3416195809841 9.4055599868297559 1792.6557379215956 898.12887021899223 1481.8578837886453
leaf_count=23435 1924 1312 20308 658 6368 1678 9684 1031 1425 4344 43 9131 3705 6541
internal_value=0 0.0162615 -0.0194474 0.0269773 0.00585421 0.0026107 -0.0130925 0.0170561 0.00522671 0.0340827 -0.0102725 0.00778302 0.0272598 0.0186115
internal_weight=0 7936.25 6765.7 3910.16 4026.09 3122.09 4131.18 904.004 449.772 2114.36 240.07 2092.51 1045.02 1795.8
internal_count=91587 38160 53427 16560 21600 17177 29992 4423 2499 8707 1468 10809 4363 7853
is_linear=0
shrinkage=0.05


Tree=20
num_leaves=15
num_cat=0
split_feature=35 37 32 17 6 37 1 41 12 17 7 17 6 32
split_gain=1727.6 317.988 119.864 79.3827 60.0551 30.2512 30.2306 24.0946 22.8853 20.5652 17.4728 26.8449 13.8015 14.2066
threshold=3.4589976996034655 3.7077938001618711 13.107654601249807 26.500000000000004 0.095000000000000015 1.5472698425892653 22.500000000000004 1.3395354160068476 36.500000000000007 16.500000000000004 38.635000000000012 36.500000000000007 0.045000000000000005 14.434070582845758
decision_type=2 2 2 2 2 2 2 2 2 2 2 2 2 2
left_child=2 3 9 5 6 -2 10 -4 -5 -1 12 -12 13 -3
right_child=1 4 7 8 -6 -7 -8 -9 -10 -11 11 -13 -14 -15
leaf_value=-0.011877379822291504 -0.0033450370030888455 0.03416553892332122 -0.024177637696661151 0.009571628021677013 -0.010637877038164691 0.007128171960561782 0.040146770444313813 -0.016732170194882157 0.024536838183534537 -0.00080776947998992526 0.0072348643177380725 0.029189435279247024 0.019227735000175928 0.020937082889252126
leaf_weight=891.13418984413147 934.55754487216473 1217.0384634286165 3710.1040000841022 384.5861053019762 92.89167532324791 2629.2312583327293 604.68076047301292 1536.6786715239286 760.90032465755939 792.89025343954563 239.267414316535 333.04228919744492 249.16926474869251 243.58114276826382
leaf_count=6067 5465 4959 31760 1895 549 13327 2455 12337 3255 5063 984 1340 1055 1076
internal_value=0 0.0161503 -0.0182718 0.00806211 0.0289333 0.00438171 0.0302067 -0.021997 0.0195124 -0.00666547 0.0275729 0.0200108 0.0301041 0.0319595
internal_weight=0 7688.95 6930.81 4709.28 2979.67 3563.79 2886.78 5246.78 1145.49 1684.02 2282.1 572.31 1709.79 1460.62
internal_count=91587 36360 55227 23942 12418 18792 11869 44097 5150 11130 9414 2324 7090 6035
is_linear=0
shrinkage=0.05


Tree=21
num_leaves=15
num_cat=0
split_feature=35 37 14 17 6 26 14 20 37 7 14 12 8 7
split_gain=1569.74 288.03 168.441 71.0591 54.2447 51.4283 31.0976 28.8473 27.2062 18.9362 16.7047 16.2092 15.7397 15.5642
threshold=3.4589976996034655 3.7077938001618711 1.5000000000000002 26.500000000000004 0.115 3.181787813814108 5.5000000000000009 41.500000000000007 1.5472698425892653 3.4850000000000008 3.5000000000000004 27.500000000000004 45.685000000000009 38.635000000000012
decision_type=2 2 2 2 2 2 2 2 2 2 2 2 2 2
left_child=2 3 9 8 7 10 -5 13 -2 -1 -4 -7 -13 -3
right_child=1 4 5 6 -6 11 -8 -9 -10 -11 -12 12 -14 -15
leaf_value=-0.018898985161809538 -0.0031838181324367492 0.028247837626041539 -0.018257086730888224 0.0068848135393848918 -0.014121154325756042 -0.0055404735080842836 0.024283826676382861 0.037828683000442336 0.0067512541621635724 -0.029436762698725995 -0.0088896267158786093 0.0069553159584367311 0.06518595800793818 0.018529843434325736
leaf_weight=531.48291961848736 932.83198757469654 1704.998596817255 1845.4318944811821 386.68693491816521 76.29855290055275 1596.0179911926389 764.63838101923466 654.25518479943275 2637.0128947496414 2154.5347078815103 641.31089790165424 57.521045178174973 14.537566646933554 543.30757886171341
leaf_count=4591 5465 7069 14717 1835 476 10937 3315 2665 13327 20048 4516 337 81 2208
internal_value=0 0.0153202 -0.0175936 0.00763874 0.0274945 -0.0112853 0.0184402 0.0285884 0.00415513 -0.0273517 -0.0158413 -0.00449318 0.0187031 0.0258995
internal_weight=0 7700.03 6840.84 4721.17 2978.86 4154.82 1151.33 2902.56 3569.84 2686.02 2486.74 1668.08 72.0586 2248.31
internal_count=91587 36360 55227 23942 12418 30588 5150 11942 18792 24639 19233 11355 418 9277
is_linear=0
shrinkage=0.05


Tree=22
num_leaves=15
num_cat=0
split_feature=0 0 14 26 0 41 14 0 31 37 1 38 34 7
split_gain=1600.16 282.311 175.019 54.565 43.8114 30.9167 25.6615 23.7464 23.3775 17.7707 17.0938 16.4433 16.3116 15.5628
threshold=32.500000000000007 73.500000000000014 1.5000000000000002 3.4158079668665651 47.500000000000007 1.4414095463242405 3.5000000000000004 99.500000000000014 3.8480317538397855 4.4062401385903831 12.500000000000002 10.185810408788816 6.6711741153697277 30.900000000000002
decision_type=2 2 2 2 2 2 2 2 2 2 2 2 2 2
left_child=2 4 5 6 8 -1 -4 -3 12 -9 -11 -5 -2 -6
right_child=1 7 3 11 13 -7 -8 9 -10 10 -12 -13 -14 -15
leaf_value=-0.029704769059466521 0.023471382483525035 0.024825202427989128 -0.016629210563096488 0.060175525887595262 0.016425283286680355 -0.019050555749054419 -0.0069046149870389366 0.051357307086649484 -0.01156246987055715 0.021408127260624264 0.035419705293565709 -0.0024594877855418041 0.0048148864833840281 0.0044672396101636484
leaf_weight=1807.0674972757697 125.0134319216013 1225.4981901347637 2239.3637324273586 10.555143937468527 1698.1994643509388 1092.6119419112802 973.21417486667633 137.81531228125095 209.7665927708149 275.33841936290264 1039.3349413871765 1441.6007411181927 1864.8108342513442 323.99695205688477
leaf_count=17556 618 4926 17869 55 7399 8897 6784 574 1132 1106 4232 9188 9850 1401
internal_value=0 0.0172523 -0.0160439 -0.0100475 0.00919716 -0.0256902 -0.0136833 0.029951 0.00431338 0.0342758 0.0324852 -0.00200422 0.00598701 0.0145094
internal_weight=0 6899.77 7564.41 4664.73 4221.79 2899.68 3212.58 2677.99 2199.59 1452.49 1314.67 1452.16 1989.82 2022.2
internal_count=91587 31238 60349 33896 20400 26453 24653 10838 11600 5912 5338 9243 10468 8800
is_linear=0
shrinkage=0.05


Tree=23
num_leaves=15
num_cat=0
split_feature=23 37 41 17 17 3 37 42 28 12 24 26 29 3
split_gain=1287.97 214.13 138.717 55.3363 45.9441 30.2226 18.5045 17.3634 15.5053 14.9223 14.7968 14.6593 13.5511 12.8908
threshold=5.4582613705172935 3.7077938001618711 1.3395354160068476 26.500000000000004 16.500000000000004 7.5000000000000009 1.5472698425892653 6.5000000000000009 3.2120982230635327 36.500000000000007 3.858425565673357 1.8777343796865751 2.6754944814769108 1.5000000000000002
decision_type=2 2 2 2 2 2 2 2 2 2 2 2 2 2
left_child=2 3 13 6 7 11 12 -4 -7 -5 -9 -3 -2 -1
right_child=1 5 4 9 -6 8 -8 10 -10 -11 -12 -13 -14 -15
leaf_value=-0.025511556413019099 -0.00025197859663639944 0.034426388582831084 -0.0039158154913131364 0.0085957553451944547 -0.00013322933546062267 -0.023566397808493601 0.0065223988921684489 -0.0079800778562022986 0.030713577533485605 0.021225885435670274 -0.01697781644887867 0.018146758637045436 -0.022274936140122444 -0.019387645362151013
leaf_weight=1479.9243087172508 656.98462011665106 156.40214394032955 536.04725050926208 336.14413611590862 1206.6853733733296 13.269426599144934 2293.5706027671695 681.40132709592581 1546.0893756598234 768.57243871688843 1386.9792401641607 1193.5389192402363 78.159056231379509 2049.2437742203474
leaf_count=13607 3759 646 3930 1605 7525 61 11310 4528 6332 3245 11436 4969 473 18161
internal_value=0 0.0151181 -0.0148129 0.00780371 -0.00819848 0.0255101 0.00430977 -0.0119353 0.0302517 0.0173828 -0.0140136 0.0200329 -0.00259342 -0.0219557
internal_weight=0 7042.73 7340.28 4133.43 3811.11 2909.3 3028.71 2604.43 1559.36 1104.72 2068.38 1349.94 735.144 3529.17
internal_count=91587 32400 59187 20392 27419 12008 15542 19894 6393 4850 15964 5615 4232 31768
is_linear=0
shrinkage=0.05


Tree=24
num_leaves=15
num_cat=0
split_feature=0 0 0 0 30 8 34 23 11 28 28 27 0 34
split_gain=1329.99 238.764 124.859 46.7526 26.4656 23.7993 19.4534 18.9613 16.4127 16.72 15.3471 15.3281 13.2444 13.0522
threshold=32.500000000000007 59.500000000000007 16.500000000000004 81.500000000000014 5.0151307076939409 37.015000000000008 9.0632169111510734 5.7032147245194782 5007.0700000000006 3.2120982230635327 2.8164655834123131 29.902016871816432 11.500000000000002 7.908361375456562
decision_type=2 2 2 2 2 2 2 2 2 2 2 2 2 2
left_child=2 5 10 7 13 11 -5 -3 9 -9 12 -2 -1 -4
right_child=1 3 4 6 -6 -7 -8 8 -10 -11 -12 -13 -14 -15
leaf_value=-0.025876391254671727 0.0017282172659837847 0.039683607444044137 -0.0035833680891489274 0.024313518881691656 -0.0013626904320402098 0.011385400218134528 0.03370959856647749 -0.0014209708700570064 -0.032121712801043249 0.018314632726117219 -0.012189864240831958 0.021963387319899053 -0.01936179602793343 -0.012510163164084976
leaf_weight=1683.3684493973851 1967.5667487829924 88.827758222818375 491.22547741234303 1079.3983662128448 932.68100424855947 1271.4234654456377 1124.9922588169575 118.42619954049587 17.625061497092247 1144.2151275575161 377.78197039663792 98.260325834155083 1454.129624247551 2460.6767689138651
leaf_count=16437 10051 358 3143 4346 5895 6057 4633 496 72 4693 3153 532 12987 18734
internal_value=0 0.0156203 -0.0148832 0.0246016 -0.00870484 0.0060032 0.0291087 0.0173446 0.0157947 0.0164636 -0.0217107 0.0026907 -0.0228571 -0.0110247
internal_weight=0 6910.74 7399.86 3573.48 3884.58 3337.25 2204.39 1369.09 1280.27 1262.64 3515.28 2065.83 3137.5 2951.9
internal_count=91587 31238 60349 14598 27772 16640 8979 5619 5261 5189 32577 10583 29424 21877
is_linear=0
shrinkage=0.05


Tree=25
num_leaves=15
num_cat=0
split_feature=0 0 14 14 0 41 28 31 0 26 9 18 31 0
split_gain=1206.92 217.382 159.367 42.1682 32.9449 27.2609 25.5866 21.7525 20.6719 17.1556 15.2035 14.6802 14.4107 14.3523
threshold=32.500000000000007 73.500000000000014 1.5000000000000002 3.5000000000000004 47.500000000000007 3.123623329332498 1.400956991184773 3.8480317538397855 99.500000000000014 3.9324319191529136 65380.490000000005 138.50000000000003 2.2143351497504669 167.50000000000003
decision_type=2 2 2 2 2 2 2 2 2 2 2 2 2 2
left_child=2 4 5 6 7 -1 -4 12 10 -10 -3 -6 -2 -11
right_child=1 8 3 -5 11 -7 -8 -9 9 13 -12 -13 -14 -15
leaf_value=-0.025199595905384738 0.003148587679202227 0.023572537030093786 -0.015278256006217086 -0.0022894167338630891 0.013902492868141348 -0.0065949777902395874 -0.0048740433093812704 -0.011714230099105681 0.043658244914258154 0.02376770638624514 0.007774363868383408 0.00041386513321210933 0.013966833187988621 0.034941190197562033
leaf_weight=2552.8686361834407 1623.2584213763475 1049.1832654476166 2028.4891894906759 1691.3223894238472 1813.9435787647963 213.35197982937098 833.83720552921295 210.00898788869381 201.17579656839371 775.22389629483223 178.14787723124027 226.95086418092251 379.86650200933218 456.71677857637405
leaf_count=24835 8552 4211 16685 11239 7852 1618 5972 1132 863 3159 715 948 1916 1890
internal_value=0 0.0148315 -0.0142989 -0.00854877 0.00782051 -0.0237647 -0.0122474 0.00359509 0.026042 0.0301207 0.0212794 0.0124025 0.00520013 0.02791
internal_weight=0 6914.48 7319.87 4553.65 4254.03 2766.22 2862.33 2213.13 2660.45 1433.12 1227.33 2040.89 2003.12 1231.94
internal_count=91587 31238 60349 33896 20400 26453 22657 11600 10838 5912 4926 8800 10468 5049
is_linear=0
shrinkage=0.05


Tree=26
num_leaves=15
num_cat=0
split_feature=35 37 14 26 3 26 6 41 24 7 14 26 33 32
split_gain=982.093 176.892 136.642 59.7541 40.063 36.8989 22.2861 19.8106 19.1304 17.9603 18.0093 15.3827 14.3326 20.0932
threshold=3.4589976996034655 3.5053937395832633 1.5000000000000002 4.4149138835720718 7.5000000000000009 3.181787813814108 0.095000000000000015 1.3395354160068476 1.9335741498670156 20.840000000000003 3.5000000000000004 0.51015455944844579 5.194570764542612 14.489857079750001
decision_type=2 2 2 2 2 2 2 2 2 2 2 2 2 2
left_child=2 3 7 9 6 -4 -3 -1 -5 10 11 -2 13 -6
right_child=1 4 5 8 12 -7 -8 -9 -10 -11 -12 -13 -14 -15
leaf_value=-0.02712010164219408 0.021397550292406638 0.016561814610977218 -0.012835832608989045 0.021684586280101004 0.021627582377700197 -0.0030588378108134043 -0.0078849089440781381 -0.017712599583554995 0.0091262172346798908 -0.0070011643830142512 0.0069317514537718828 -0.0058969605982904967 0.029431849091790779 -0.022850669584237364
leaf_weight=1595.2982417792082 56.237780064344406 1794.6692518740892 2357.2188574597239 381.42247845232487 517.77796290814877 1633.9785667061806 98.333131194114685 861.98992378264666 1479.5803533345461 699.99344842135906 970.88920412957668 628.74950035661459 1056.9367155730724 26.701294049620628
leaf_count=16787 286 7654 19233 1585 2110 11355 588 7852 6727 3962 5138 3772 4397 141
internal_value=0 0.0118971 -0.0145441 0.00500342 0.0202161 -0.00883317 0.0152919 -0.0238201 0.0117001 -0.000286589 0.00255188 -0.00365607 0.0260368 0.0194464
internal_weight=0 7711.29 6448.49 4216.87 3494.42 3991.2 1893 2457.29 1861 2355.87 1655.88 684.987 1601.42 544.479
internal_count=91587 36360 55227 21470 14890 30588 8242 24639 8312 13158 9196 4058 6648 2251
is_linear=0
shrinkage=0.05


Tree=27
num_leaves=15
num_cat=0
split_feature=35 37 14 24 14 6 16 20 41 37 8 14 28 12
split_gain=892.053 160.934 128.215 45.3363 35.1647 34.303 33.498 20.9818 18.9714 18.8921 21.8015 17.8013 17.1968 19.4947
threshold=3.4589976996034655 3.7077938001618711 1.5000000000000002 2.4411406422804336 3.5000000000000004 0.095000000000000015 16.500000000000004 48.500000000000007 1.3395354160068476 3.4881990470364177 26.065000000000001 1.5000000000000002 1.301817186968609 27.500000000000004
decision_type=2 2 2 2 2 2 2 2 2 2 2 2 2 2
left_child=2 3 8 6 12 7 -2 -3 -1 10 -5 -12 -4 -14
right_child=1 5 4 9 -6 -7 -8 -9 -10 -11 11 -13 13 -15
leaf_value=-0.026336570402240418 0.0014006900586470308 0.019573205190643955 -0.0144292073297362 -0.0042767183130893536 -0.0023593648547974343 -0.009769026303243283 0.019139454066391288 0.03126608092351997 -0.017056154162238112 0.011596400479968452 -0.015278307205996926 0.005724632107606817 -0.0062922510746581672 0.046287630091124445
leaf_weight=1561.4939131587744 382.12014445662498 2401.7641492336988 1884.8309863805771 1136.232932202518 1484.9005779325962 90.838568583130836 876.86369808018208 456.58922870457172 850.70078491419554 509.26154597103596 107.05213601887226 1751.5986993610859 578.63440145552158 18.182505413889885
leaf_count=16787 1671 9951 15838 6548 10070 549 3750 1918 7852 2397 613 8963 4571 109
internal_value=0 0.0113007 -0.0139735 0.00561729 -0.00844546 0.0204797 0.0137555 0.021441 -0.0230637 0.00269336 0.00117946 0.00451493 -0.0120871 -0.00469036
internal_weight=0 7712.32 6378.74 4763.13 3966.55 2949.19 1258.98 2858.35 2412.19 3504.15 2994.88 1858.65 2481.65 596.817
internal_count=91587 36360 55227 23942 30588 12418 5421 11869 24639 18521 16124 9576 20518 4680
is_linear=0
shrinkage=0.05


Tree=28
num_leaves=15
num_cat=0
split_feature=0 0 0 0 26 8 41 16 34 11 19 26 0 28
split_gain=914.352 171.81 98.533 35.5492 25.1962 17.771 17.4907 16.4667 16.1884 15.9998 15.7862 14.7707 14.6681 16.8943
threshold=32.500000000000007 81.500000000000014 16.500000000000004 56.500000000000007 3.4997905712516482 33.015000000000008 2.7861703770170521 16.500000000000004 9.0632169111510734 5007.0700000000006 45.500000000000007 2.8471204188796464 5.5000000000000009 2.8427113159296189
decision_type=2 2 2 2 2 2 2 2 2 2 2 2 2 2
left_child=2 3 11 5 -4 -2 -5 10 -3 -8 -7 -1 -13 -14
right_child=1 8 4 6 -6 7 9 -9 -10 -11 -12 12 13 -15
leaf_value=-0.02355768406707107 0.0005815334982344594 0.020065220341021952 -0.0099763041312474574 0.042645685971009692 -0.001182910471834523 0.014669559867376039 0.013114249229471431 0.014404549884094271 0.028692926001256315 -0.033240500508019889 1.2085672877129388e-05 -0.026762347943338906 -0.016663720895664039 -0.0019424572209562536
leaf_weight=1168.6439104452729 1562.2615427672863 1072.6894775182009 2612.0607054382563 49.835025012493134 1183.8441731184721 250.72809982299805 1548.849380761385 625.58879046142101 1102.4875372052193 18.841575413942337 687.10126416385174 303.03686429560184 1617.8312141224742 221.58313351869583
leaf_count=11730 8104 4346 20432 200 7340 1348 6354 2865 4633 77 3311 3043 15921 1883
internal_value=0 0.0128028 -0.0127324 0.00746692 -0.00723387 0.00435304 0.0134841 0.00812176 0.0244382 0.0125571 0.00393075 -0.019036 -0.0165696 -0.0148903
internal_weight=0 6918.38 7107 4743.21 3795.9 3125.68 1617.53 1563.42 2175.18 1567.69 937.829 3311.1 2142.45 1839.41
internal_count=91587 31238 60349 22259 27772 15628 6631 7524 8979 6431 4659 32577 20847 17804
is_linear=0
shrinkage=0.05


Tree=29
num_leaves=15
num_cat=0
split_feature=0 0 14 14 0 41 28 22 8 11 6 17 14 41
split_gain=829.52 156.738 128.878 32.914 32.0435 23.3439 19.5757 16.2709 17.4606 16.1094 15.2718 27.5905 15.5558 14.7263
threshold=32.500000000000007 81.500000000000014 1.5000000000000002 3.5000000000000004 56.500000000000007 3.123623329332498 1.400956991184773 6.9881838659101376 33.015000000000008 3986.2350000000001 1.0000000180025095e-35 21.500000000000004 5.5000000000000009 2.7861703770170521
decision_type=2 2 2 2 2 2 2 2 2 2 2 2 2 2
left_child=2 4 5 6 7 -1 -4 8 -2 13 -3 -12 -13 -6
right_child=1 10 3 -5 9 -7 -8 -9 -10 -11 11 12 -14 -15
leaf_value=-0.022471654998413065 -0.000170132222775411 0.029925865050100003 -0.013117979950700499 -0.0015099923335121339 0.040505867668078607 -0.005008320438424866 -0.0039190622932944192 0.030843904248848586 0.0073658180523643582 -0.0126930945920425 -0.016193907024152104 0.001227822324081038 0.023117950966075499 0.012883447558268228
leaf_weight=2386.204212769866 1519.6393126696348 621.74457214772701 1950.1046845838428 1673.451282851398 49.843864291906357 208.04812087118626 822.17144745588303 55.972198128700256 1555.3290807455778 59.729376569390297 49.205076083540916 86.116351738572121 1409.7205944806337 1510.3619346320629
leaf_count=24835 7872 2645 16685 11239 200 1618 5972 290 7466 244 198 351 5785 6187
internal_value=0 0.0121643 -0.0122151 -0.00704732 0.00708156 -0.0210712 -0.0103899 0.00412788 0.00364158 0.0127903 0.0233087 0.0206459 0.0218577 0.0137659
internal_weight=0 6917.66 7039.98 4445.73 4750.88 2594.25 2772.28 3130.94 3074.97 1619.94 2166.79 1545.04 1495.84 1560.21
internal_count=91587 31238 60349 33896 22259 26453 22657 15628 15338 6631 8979 6334 6136 6387
is_linear=0
shrinkage=0.05


Tree=30
num_leaves=15
num_cat=0
split_feature=0 0 14 18 28 0 31 22 0 37 34 3 19 18
split_gain=752.533 143.058 120.221 32.1048 22.626 21.3008 19.3095 16.6277 16.362 17.2496 15.1284 14.4755 13.4879 13.137
threshold=32.500000000000007 73.500000000000014 1.5000000000000002 37.500000000000007 2.5473201135239978 43.500000000000007 3.8480317538397855 6.9666665788432125 99.500000000000014 4.4062401385903831 9.7214807035671846 12.500000000000002 183.50000000000003 135.50000000000003
decision_type=2 2 2 2 2 2 2 2 2 2 2 2 2 2
left_child=2 5 4 10 -1 6 -2 13 12 -10 -4 -11 -3 -7
right_child=1 8 3 -5 -6 7 -8 -9 9 11 -12 -13 -14 -15
leaf_value=-0.022904019330709843 0.0032804642717344876 0.017242856942689008 -0.010633292989868657 -0.0014301304292429352 -0.011653034821065122 0.0093268965815316903 -0.015151313255286077 0.032360599495137983 0.041852058433148563 0.018221852569845483 0.019184834812616333 0.029080282060077612 -0.022812251812353829 -0.0025208708024898416
leaf_weight=1974.4912654384971 1537.1634889915586 1203.3119412213564 2644.2442195415497 1735.9971754103899 577.56517503410578 2266.9857120066881 156.56743687391281 72.681862950325012 129.36782582104206 746.65722826123238 43.233042635023594 521.16622914373875 21.390508607029915 260.89743742346764
leaf_count=21283 8197 4840 22181 11415 5170 9936 873 311 574 3109 300 2229 86 1083
internal_value=0 0.0115591 -0.0117159 -0.00673007 -0.0203578 0.00594013 0.00157664 0.00878205 0.0207621 0.0244601 -0.0101536 0.0226854 0.0165433 0.00810411
internal_weight=0 6916.19 6975.53 4423.47 2552.06 4294.3 1693.73 2600.57 2621.89 1397.19 2687.48 1267.82 1224.7 2527.88
internal_count=91587 31238 60349 33896 26453 20400 9070 11330 10838 5912 22481 5338 4926 11019
is_linear=0
shrinkage=0.05


Tree=31
num_leaves=15
num_cat=0
split_feature=0 14 0 14 41 16 8 7 28 11 0 40 6 17
split_gain=682.65 119.929 114.794 38.2391 26.2862 22.6241 32.1569 22.7973 17.2624 15.3679 14.1975 15.9766 13.7231 24.9172
threshold=35.500000000000007 1.5000000000000002 81.500000000000014 3.5000000000000004 1.4414095463242405 16.500000000000004 37.665000000000006 15.660000000000002 1.400956991184773 2281.4050000000002 47.500000000000007 3.3455699182581129 1.0000000180025095e-35 21.500000000000004
decision_type=2 2 2 2 2 2 2 2 2 2 2 2 2 2
left_child=1 4 5 8 -1 7 -7 10 -3 -8 11 -2 -4 -14
right_child=2 3 12 -5 -6 6 9 -9 -10 -11 -12 -13 13 -15
leaf_value=-0.023365587458284254 0.0069959240396001189 -0.012208275995782532 0.027567678343813573 -0.00050824339170225973 -0.013096100351407165 0.0051600332889039056 0.020821741283854028 -0.0026225514455769034 -0.0038580219188350585 0.0057041083603342419 0.012988231353855293 -0.012369267458467732 -0.016288014248043884 0.019881043759670404
leaf_weight=1522.7814804017544 422.25527280569077 1933.657306805253 613.75911682844162 1996.733622841537 1054.7001778483391 1186.5846503525972 751.49758709967136 901.65995642542839 910.30587137490511 216.54951153695583 640.07904969155788 142.4352570772171 49.193459391593933 1486.1847425103188
leaf_count=17558 2187 16784 2645 13088 9309 5440 3181 4205 6510 880 2699 767 198 6136
internal_value=0 -0.0104509 0.0118268 -0.00581186 -0.0191633 0.00707491 0.0106772 0.00339014 -0.0095355 0.01744 0.00789009 0.00211133 0.0212483 0.0187222
internal_weight=0 7418.18 6410.2 4840.7 2577.48 4261.06 2154.63 2106.43 2843.96 968.047 1204.77 564.691 2149.14 1535.38
internal_count=91587 63249 28338 36382 26867 19359 9501 9858 23294 4061 5653 2954 8979 6334
is_linear=0
shrinkage=0.05


Tree=32
num_leaves=15
num_cat=0
split_feature=0 0 14 18 0 41 35 37 14 0 35 16 7 24
split_gain=620.544 119.641 104.359 28.2229 27.7435 21.096 19.0378 15.938 14.2451 19.3479 14.1455 14.0306 18.6846 15.685
threshold=32.500000000000007 59.500000000000007 1.5000000000000002 37.500000000000007 99.500000000000014 3.123623329332498 3.9253540044157345 4.4062401385903831 1.0000000180025095e-35 6.5000000000000009 1.138930797428199 16.500000000000004 16.885000000000002 2.4411406422804336
decision_type=2 2 2 2 2 2 2 2 2 2 2 2 2 2
left_child=2 11 5 -4 6 8 -3 -6 9 -1 -11 12 -2 -13
right_child=1 4 3 -5 7 -7 -8 -9 -10 10 -12 13 -14 -15
leaf_value=-0.026048769457909446 0.0044555565880470714 0.033263573113553435 -0.0093834067469445899 -0.0011747640879168008 0.039342494148758241 -0.0035764495735247205 0.012225341055611818 0.020723309814275382 -0.023744801049080094 0.001403830254917857 -0.015287584986387283 0.014624124256462909 -0.0060655244554686863 0.0037749385249580079
leaf_weight=307.40138470381498 1232.0304350405931 113.55251424014568 2652.4541575759649 1730.1421656981111 126.5210960060358 203.75956303626299 2028.2459461390972 1255.0767391175032 1315.6374931186438 173.41669801622629 473.53779663145542 495.1522061675787 641.82788127660751 1018.1855955868959
leaf_count=3473 6345 457 22481 11415 574 1618 8229 5338 14443 1981 4938 2154 3183 4958
internal_value=0 0.0104537 -0.0107773 -0.00614283 0.0169042 -0.018988 0.0133407 0.0224284 -0.0203713 -0.0157208 -0.0108134 0.00374384 0.00085191 0.00732471
internal_weight=0 6910.59 6856.35 4382.6 3523.4 2473.75 2141.8 1381.6 2269.99 954.356 646.954 3387.2 1873.86 1513.34
internal_count=91587 31238 60349 33896 14598 26453 8686 5912 24835 10392 6919 16640 9528 7112
is_linear=0
shrinkage=0.05


Tree=33
num_leaves=15
num_cat=0
split_feature=0 0 14 28 1 0 41 34 11 38 14 8 16 27
split_gain=562.764 110.46 97.0618 27.5188 22.4111 22.3072 20.3842 17.1831 13.9268 13.78 13.0218 15.6127 16.9957 22.5438
threshold=32.500000000000007 81.500000000000014 1.5000000000000002 0.69602090218781643 1.5000000000000002 56.500000000000007 1.3395354160068476 9.7214807035671846 3986.2350000000001 10.185810408788816 5.5000000000000009 32.300000000000004 14.500000000000002 27.418354192478731
decision_type=2 2 2 2 2 2 2 2 2 2 2 2 2 2
left_child=2 5 6 -4 7 10 -1 -5 -7 -6 -2 -12 -13 -14
right_child=1 -3 3 4 9 8 -8 -9 -10 -11 11 12 13 -15
leaf_value=-0.022253638099415163 0.0004613862551232694 0.01939995418561654 -0.013103277681831291 -0.015317825618425216 0.054144113671149886 0.011371186515298204 -0.013004010750281453 0.018568635237393175 -0.013221241552235773 -0.0020838317662465276 -0.0002937185671818515 0.0012850756559516325 0.012024765814625846 0.040855727292044397
leaf_weight=1400.4751728028059 1793.8755386844277 2131.6852158457041 1008.7802527323365 515.27179009467363 10.93922884762287 1566.4379027336836 1036.467021651566 40.338783361017704 59.765631958842278 2788.0803446695209 479.93564535677433 300.32976035773754 496.92777898907661 78.516252189874649
leaf_count=16785 9181 8979 8800 4233 55 6387 9668 278 244 20530 2400 1456 2202 389
internal_value=0 0.00993599 -0.0103265 -0.00586233 -0.00368488 0.00571173 -0.0183196 -0.0128576 0.0104674 -0.00186408 0.00325628 0.00695448 0.0109266 0.0159586
internal_weight=0 6907.47 6800.35 4363.41 3354.63 4775.79 2436.94 555.611 1626.2 2799.02 3149.58 1355.71 875.774 575.444
internal_count=91587 31238 60349 33896 25096 22259 26453 4511 6631 20585 15628 6447 4047 2591
is_linear=0
shrinkage=0.05


Tree=34
num_leaves=15
num_cat=0
split_feature=0 0 14 14 34 21 27 28 0 24 7 18 34 38
split_gain=510.276 100.671 90.1686 25.854 20.2234 19.7214 15.2794 15.1185 13.1683 17.0401 16.5655 14.9529 12.8518 13.1269
threshold=32.500000000000007 81.500000000000014 1.5000000000000002 3.5000000000000004 7.0664487949237715 2.8214304724759249 30.127066222027999 1.400956991184773 42.500000000000007 6.0099669359421766 30.900000000000002 81.500000000000014 9.0632169111510734 11.327213545155514
decision_type=2 2 2 2 2 2 2 2 2 2 2 2 2 2
left_child=2 4 5 7 -2 -1 8 -4 9 11 -10 -6 13 -3
right_child=1 12 3 -5 6 -7 -8 -9 10 -11 -12 -13 -14 -15
leaf_value=-0.0193487649696082 0.012026473434291765 0.015536278513964982 -0.011079560910333359 -0.00067662524885574681 0.0039196241204656297 -0.0054646292512808047 0.050467091167767722 -0.0029089513449770364 0.0074552227367974001 -0.021247574500698307 -0.0049986502226722629 -0.0091237889231308537 0.022378544479852172 -0.0184949045822729
leaf_weight=2110.6597782298923 932.42062845826149 1028.81674939394 1880.082577034831 1654.8992472365499 1062.5747807472944 291.0312107950449 17.474543482065201 810.11567761003971 2095.3630147278309 90.045214951038361 306.01016676425934 277.00786955654621 1065.5626049041748 29.139112904667854
leaf_count=24051 4024 4226 16685 11239 5803 2402 95 5972 9123 536 1299 1379 4633 120
internal_value=0 0.00944359 -0.0098915 -0.00559408 0.00541984 -0.0176663 0.00381916 -0.0086191 0.00360638 -0.000192854 0.00586821 0.00122242 0.0185027 0.014599
internal_weight=0 6904.41 6746.79 4345.1 4780.9 2401.69 3848.48 2690.2 3831 1429.63 2401.37 1339.58 2123.52 1057.96
internal_count=91587 31238 60349 33896 22259 26453 18235 22657 18140 7718 10422 7182 8979 4346
is_linear=0
shrinkage=0.05


Tree=35
num_leaves=15
num_cat=0
split_feature=0 14 0 17 21 22 8 16 26 11 4 1 34 14
split_gain=463.055 102.608 65.2407 38.0534 23.1976 16.2538 16.4351 20.617 14.013 13.6362 13.2028 15.1792 18.0891 13.5902
threshold=39.500000000000007 1.5000000000000002 81.500000000000014 16.500000000000004 2.2915392055238182 6.9666665788432125 37.015000000000008 16.500000000000004 0.735661296837263 2281.4050000000002 11.500000000000002 1.5000000000000002 9.0868021917448178 3.5000000000000004
decision_type=2 2 2 2 2 2 2 2 2 2 2 2 2 2
left_child=1 4 5 10 -1 6 8 -8 -2 -9 -3 -12 13 -13
right_child=2 3 -4 -5 -6 -7 7 9 -10 -11 11 12 -14 -15
leaf_value=-0.019102608328420537 0.017216226921627185 0.030147113667094091 0.017651218435435385 0.0020722912317646543 -0.0080169640016993747 0.026483961228607428 0.0033295919988534715 0.017753112365616452 0.0014897333392724298 0.0034627675937626773 -0.015216757130365533 -0.0090808835801874776 0.02028656093470475 -0.0021678280296828201
leaf_weight=1887.0014475733042 154.51822736859322 23.786499075591564 2114.9095223098993 1708.055296190083 629.28806885331869 100.02118021249771 733.34319096803665 731.94861508905888 1700.4593859612942 216.2576357126236 510.13526222854853 1879.3606753796339 64.536694183945656 1143.49304933846
leaf_count=22247 704 172 8979 10107 5094 430 3231 3054 7655 877 4353 16256 558 7870
internal_value=0 -0.0080087 0.0106683 -0.00407963 -0.0163302 0.00660719 0.00604503 0.00962502 0.00279974 0.0144939 -0.00698129 -0.00722678 -0.00590658 -0.00646579
internal_weight=0 7845.66 5751.46 5329.37 2516.29 3636.55 3536.53 1681.55 1854.98 948.206 3621.31 3597.53 3087.39 3022.85
internal_count=91587 66657 24930 39316 27341 15951 15521 7162 8359 3931 29209 29037 24684 24126
is_linear=0
shrinkage=0.05


Tree=36
num_leaves=15
num_cat=0
split_feature=41 20 14 24 1 37 14 17 14 12 26 25 4 39
split_gain=385.952 83.7019 69.7937 29.7299 17.6805 18.349 17.207 15.3761 13.0574 18.6058 17.0266 12.3522 12.2653 11.6759
threshold=2.3679189590401881 22.500000000000004 1.5000000000000002 1.9335741498670156 1.5000000000000002 1.6212658175378298 3.5000000000000004 58.500000000000007 1.0000000180025095e-35 3.5000000000000004 2.8911223506089758 7.2355647356516668 10.500000000000002 6.176361430198539
decision_type=2 2 2 2 2 2 2 2 2 2 2 2 2 2
left_child=2 3 8 -2 -5 -6 11 13 9 -1 -11 -4 -10 -3
right_child=1 7 6 4 5 -7 -8 -9 12 10 -12 -13 -14 -15
leaf_value=-0.024788873328501035 0.0152810331744634 0.021060970837328271 0.023514084548321851 -0.0080959291231955041 -0.0021516931895584298 0.0050575856231767323 -0.0016948577994730513 0.025372704131836121 0.029158500465994525 -0.018608111961619156 -0.00017501835150584254 -0.009343145122510825 -0.022043393516196663 0.011374261517136636
leaf_weight=232.05671101808548 515.21155117452145 401.50437997281551 28.977645322680473 353.57506205141544 1133.0415225401521 3993.1932430267334 1302.3593464046717 325.54560190439224 11.818302534520624 212.67423671483994 304.85211183130741 2216.3085093721747 1132.5144752189517 1381.3414803594351
leaf_count=2779 2100 1797 198 2552 6621 19174 9186 1419 134 2661 3653 19784 13589 5940
internal_value=0 0.00681147 -0.0104044 0.00379789 0.00271824 0.00346413 -0.00626704 0.0153803 -0.0181545 -0.0130249 -0.00774998 -0.00891909 -0.0215146 0.0135557
internal_weight=0 8103.41 5441.56 5995.02 5479.81 5126.23 3547.65 2108.39 1893.92 749.583 517.526 2245.29 1144.33 1782.85
internal_count=91587 39603 51984 30447 28347 25795 29168 9156 22816 9093 6314 19982 13723 7737
is_linear=0
shrinkage=0.05


Tree=37
num_leaves=15
num_cat=0
split_feature=0 0 14 0 9 14 35 35 28 16 17 39 0 26
split_gain=384.955 102.347 51.3238 20.4749 20.4595 19.3148 18.5442 15.9643 15.4306 14.9069 13.8657 17.8619 13.6698 13.5774
threshold=27.500000000000004 59.500000000000007 1.5000000000000002 109.50000000000001 90127.22500000002 5.5000000000000009 4.4808257687186108 3.9253540044157345 0.69602090218781643 6.5000000000000009 28.500000000000004 8.7781717495027074 5.5000000000000009 2.7854630183647529
decision_type=2 2 2 2 2 2 2 2 2 2 2 2 2 2
left_child=2 5 6 4 7 -2 9 -3 -4 12 11 -9 -1 -5
right_child=1 3 8 13 -6 -7 -8 10 -10 -11 -12 -13 -14 -15
leaf_value=-0.021523352854816883 -0.00066963172083758966 0.0299210926498393 -0.011572623924961292 0.042153730313088826 -0.0095295925988857031 0.0061777918899427768 0.024952106239120943 0.012599347454840329 -0.0041414677911929968 -0.019397607394617988 0.014878644426346272 -0.00053173125056291159 -0.0062038341053151586 0.017694388220177371
leaf_weight=203.9161718711257 2682.1771856248379 116.14640960097313 972.46658832579851 59.917530491948128 117.54322817921638 1671.7416906803846 27.30362693965435 586.26166401803493 2480.2397897616029 1465.1162789985538 1073.9569955319166 463.91240014135838 509.33471485227346 1068.9572173058987
leaf_count=2232 14709 471 8729 286 483 8030 170 2442 19829 17771 4351 1893 5519 4672
internal_value=0 0.00707162 -0.0100405 0.0134552 0.010804 0.00195952 -0.0159984 0.0118709 -0.00623448 -0.0165117 0.0108839 0.00679872 -0.0105836 0.0189926
internal_weight=0 7840.61 5658.38 3486.7 2357.82 4353.92 2205.67 2240.28 3452.71 2178.37 2124.13 1050.17 713.251 1128.87
internal_count=91587 37337 54250 14598 9640 22739 25692 9157 28558 25522 8686 4335 7751 4958
is_linear=0
shrinkage=0.05


Tree=38
num_leaves=15
num_cat=0
split_feature=0 0 14 0 23 14 23 26 14 0 4 28 1 4
split_gain=349.27 92.8129 47.6481 19.0623 17.8138 17.3815 15.555 15.152 14.3772 20.3745 16.2107 14.1672 13.1293 15.6517
threshold=27.500000000000004 59.500000000000007 1.5000000000000002 99.500000000000014 6.1261769041015528 5.5000000000000009 5.7032147245194782 3.9324319191529136 1.0000000180025095e-35 6.5000000000000009 10.500000000000002 0.69602090218781643 1.5000000000000002 11.500000000000002
decision_type=2 2 2 2 2 2 2 2 2 2 2 2 2 2
left_child=2 5 4 6 8 -2 -3 -5 9 -1 -10 -4 13 -13
right_child=1 3 11 7 -6 -7 -8 -9 10 -11 -12 12 -14 -15
leaf_value=-0.020911888521986822 -0.00063636021304238515 0.028166796621775514 -0.011091415037437394 0.030997964574679151 0.025342926104078584 0.0058551705585951509 0.0088886044217346763 0.015396057826695501 0.019203585500930733 -0.0057416163824838013 -0.02042171897832909 0.033077261822174159 -0.0020964135856293134 -0.012868336632986541
leaf_weight=350.00432167202234 2681.3144760802388 110.32592798769474 964.14217939972878 179.72128874063492 26.496790826320648 1675.5614909678698 2028.5293937325478 1160.2526021301746 26.391637355089188 602.03492111712694 1172.231085807085 19.268457062542439 1966.2771977335215 487.56862638145685
leaf_count=4124 14709 447 8729 863 162 8030 8239 5049 263 6926 14217 138 15526 4165
internal_value=0 0.00672269 -0.00961618 0.0128125 -0.0154038 0.00186014 0.00988301 0.0174886 -0.0159058 -0.0113188 -0.0195492 -0.00595029 -0.00394603 -0.0111216
internal_weight=0 7835.71 5614.42 3478.83 2177.16 4356.88 2138.86 1339.97 2150.66 952.039 1198.62 3437.26 2473.11 506.837
internal_count=91587 37337 54250 14598 25692 22739 8686 5912 25530 11050 14480 28558 19829 4303
is_linear=0
shrinkage=0.05


Tree=39
num_leaves=15
num_cat=0
split_feature=0 14 0 17 41 22 11 17 41 0 7 17 4 1
split_gain=317.399 76.4456 48.035 28.9765 20.3981 14.3246 13.7573 12.714 10.9564 11.9119 12.2445 11.1126 10.73 12.9932
threshold=39.500000000000007 1.5000000000000002 81.500000000000014 16.500000000000004 1.3395354160068476 6.9666665788432125 5007.0700000000006 28.500000000000004 3.3186163556449073 185.50000000000003 56.795000000000009 24.500000000000004 11.500000000000002 1.5000000000000002
decision_type=2 2 2 2 2 2 2 2 2 2 2 2 2 2
left_child=1 4 5 12 -1 6 7 -2 -4 10 -10 -12 -3 -14
right_child=2 3 8 -5 -6 -7 -8 -9 9 -11 11 -13 13 -15
leaf_value=-0.01846968369232253 0.0030612542216016648 0.027027412218334143 0.034636587715746486 0.0019745798000252602 -0.0092327261538051267 0.023983602255674679 -0.035782944444889241 0.0095672898622587276 0.013586776820874329 0.022565060261624862 -0.037241516159324792 0.0038220981874538401 -0.013679793089122805 -0.0049505263276069782
leaf_weight=1275.8365494087338 2444.7100507467985 24.502875953912735 67.774994820356369 1708.9129990562797 1124.4515315815806 100.27959752082825 20.73918505012989 1083.8205658793449 1552.0241720229387 351.25486586987972 20.04951699078083 92.425610184669495 495.79259716719389 3040.6188817247748
leaf_count=16787 10958 172 285 10107 10554 430 86 4477 6630 1583 82 399 4353 24684
internal_value=0 -0.00674624 0.00880561 -0.00337741 -0.0141425 0.00534753 0.00482099 0.00505964 0.0148628 0.014198 0.0124323 -0.00349779 -0.00594588 -0.00617434
internal_weight=0 7670.12 5733.08 5269.83 2400.29 3649.55 3549.27 3528.53 2083.53 2015.75 1664.5 112.475 3560.91 3536.41
internal_count=91587 66657 24930 39316 27341 15951 15521 15435 8979 8694 7111 481 29209 29037
is_linear=0
shrinkage=0.05


Tree=40
num_leaves=15
num_cat=0
split_feature=0 0 14 16 23 0 7 16 37 14 0 4 29 14
split_gain=289.03 76.8787 40.6558 17.3308 16.1187 15.4665 20.1397 15.497 13.6589 13.5419 19.3697 14.8602 14.0518 13.3995
threshold=27.500000000000004 61.500000000000007 1.5000000000000002 16.500000000000004 6.1261769041015528 109.50000000000001 32.590000000000011 19.500000000000004 4.4062401385903831 1.0000000180025095e-35 6.5000000000000009 10.500000000000002 3.0570490697522303 3.5000000000000004
decision_type=2 2 2 2 2 2 2 2 2 2 2 2 2 2
left_child=2 3 4 -2 9 6 -3 -8 -7 10 -1 -11 -12 -4
right_child=1 5 13 -5 -6 8 7 -9 -10 11 12 -13 -14 -15
leaf_value=-0.019770381887199061 -0.00072811810719822072 0.012260777259490919 -0.0075775606216758416 0.0055497913206344757 0.024306293864300887 0.040484856987263763 -0.015549093924098943 0.0053975656182235539 0.015418405701393044 0.018605931973479605 -0.012290685014072059 -0.019214247012417439 0.0031203312723652988 -0.00082917293949810776
leaf_weight=340.41738265007734 2656.0378345474601 1629.1878719180822 2336.4493269249797 1875.6697383821011 26.74463477730751 57.301286712288857 110.35088084638119 441.87596124410629 1053.8209838122129 26.579078897833824 304.4245278686285 1138.3903342410922 287.703578107059 1073.5648640319705
leaf_count=4124 14424 6685 20792 9016 162 282 450 1804 4676 263 3860 14217 3066 7766
internal_value=0 0.00609491 -0.0088354 0.0018703 -0.0142651 0.0119095 0.00946372 0.00121182 0.0167111 -0.0147569 -0.0102666 -0.0183514 -0.00480277 -0.00545299
internal_weight=0 7824.24 5534.27 4531.71 2124.26 3292.54 2181.41 552.227 1111.12 2097.51 932.545 1164.97 592.128 3410.01
internal_count=91587 37337 54250 23440 25692 13897 8939 2254 4958 25530 11050 14480 6926 28558
is_linear=0
shrinkage=0.05


Tree=41
num_leaves=15
num_cat=0
split_feature=0 0 14 34 41 14 16 7 28 7 27 8 22 23
split_gain=262.115 69.9641 37.6424 15.5218 15.4606 14.8369 13.4175 16.2415 12.8923 12.5436 12.6691 12.5138 14.682 10.9158
threshold=27.500000000000004 59.500000000000007 1.5000000000000002 9.3412198363563004 1.3846631358952191 5.5000000000000009 20.500000000000004 32.590000000000011 0.69602090218781643 34.765000000000008 25.966606774662765 27.335000000000004 5.0453176037572272 6.1261769041015528
decision_type=2 2 2 2 2 2 2 2 2 2 2 2 2 2
left_child=2 5 4 6 -1 -2 7 -3 -4 -8 -11 -7 -13 -6
right_child=1 3 8 -5 13 11 9 -9 -10 10 -12 12 -14 -15
leaf_value=-0.017205507812466343 -0.00072383661899151901 0.0080388344120424001 -0.010152015312167065 0.016391270737196355 -0.0094860506682476215 -0.0033917546264852268 0.018821276725370692 -0.0069165182653582388 -0.0032847747820571637 0.0091717649810052811 -0.042004726568592735 0.0089312447481901883 -0.010556990334630686 0.02276420827236611
leaf_weight=1264.3202833235264 2681.9358453527093 1158.2076478898525 948.11394713073969 991.4429632127285 807.95969744771719 334.32899072766304 512.22001850605011 215.28450256586075 2448.3334689587355 566.60002565383911 12.357043266296385 1242.5005230903625 104.79624770581722 27.118561506271362
leaf_count=17100 14709 4757 8729 4424 8430 1733 2103 887 19829 2376 51 5748 549 162
internal_value=0 0.0057939 -0.00845507 0.0111081 -0.0137184 0.00158483 0.00898292 0.0056947 -0.00520176 0.0131219 0.00807947 0.0052668 0.0074154 -0.00843875
internal_weight=0 7819.67 5495.85 3456.11 2099.4 4363.56 2464.67 1373.49 3396.45 1091.18 578.957 1681.63 1347.3 835.078
internal_count=91587 37337 54250 14598 25692 22739 10174 5644 28558 4530 2427 8030 6297 8592
is_linear=0
shrinkage=0.05


Tree=42
num_leaves=15
num_cat=0
split_feature=0 0 14 16 7 21 8 38 14 11 14 0 26 0
split_gain=237.65 64.3566 34.8121 17.5754 17.699 14.6672 13.4608 12.2889 12.6124 11.6219 11.3735 17.7006 14.4765 10.6884
threshold=27.500000000000004 73.500000000000014 1.5000000000000002 16.500000000000004 16.885000000000002 3.2017769491470229 38.07500000000001 10.319036907942598 3.5000000000000004 2281.4050000000002 1.0000000180025095e-35 6.5000000000000009 2.8911223506089758 185.50000000000003
decision_type=2 2 2 2 2 2 2 2 2 2 2 2 2 2
left_child=2 3 5 4 -2 10 -5 -4 -9 -8 11 -1 -13 -3
right_child=1 13 7 6 -6 -7 9 8 -10 -11 -12 12 -14 -15
leaf_value=-0.020552027365580715 0.0024731297397412328 0.010784529132991943 0.064591356314899248 0.0029064971928151684 -0.0058102194746695521 0.0011344341445747575 0.013460094201283624 -0.0071696561978158773 -0.00059889711186741218 -0.0036796203265634791 -0.017715436516499827 -0.013164238874219001 0.0031652741808843553 0.020258954555239038
leaf_weight=263.04704450815916 2012.4220784306526 2178.0656462013721 6.3389011472463599 1542.243626087904 948.97294552624226 164.62281376123428 672.26704348623753 2309.1982196941972 1068.1058273985982 115.9640938192606 1104.5965017229319 263.44355157017708 279.95625738054514 344.80269125103951
leaf_count=3462 10857 9255 32 7515 4804 1427 2849 20767 7759 474 14212 3163 3428 1583
internal_value=0 0.00550787 -0.00808822 0.00237493 -0.000181252 -0.013186 0.00562315 -0.00496104 -0.00509159 0.0109385 -0.0144196 -0.00990523 -0.00475137 0.0120794
internal_weight=0 7814.74 5459.31 5291.87 2961.4 2075.67 2330.47 3383.64 3377.3 788.231 1911.04 806.447 543.4 2522.87
internal_count=91587 37337 54250 26499 15661 25692 10838 28558 28526 3323 24265 10053 6591 10838
is_linear=0
shrinkage=0.05


Tree=43
num_leaves=15
num_cat=0
split_feature=0 14 0 0 16 7 29 26 14 2 40 5 40 30
split_gain=216.854 62.5263 29.986 27.1659 15.6333 13.3638 13.1658 12.8503 13.0372 12.6542 16.8971 11.4804 14.1643 11.8675
threshold=42.500000000000007 3.5000000000000004 85.500000000000014 16.500000000000004 18.500000000000004 21.095000000000002 2.0823256127953909 2.8471204188796464 2.5000000000000004 2.5000000000000004 4.8829282409271757 139.48500000000004 1.513542333988531 4.6441985662863683
decision_type=2 2 2 2 2 2 2 2 2 2 2 2 2 2
left_child=1 3 -2 7 -3 6 -6 8 -1 -4 -11 12 -10 -14
right_child=2 4 9 -5 5 -7 -8 -9 11 10 -12 -13 13 -15
leaf_value=-0.018788843549790341 0.005037155506686603 -0.00043171714364678921 0.006149136840788395 -0.0047806641891005083 0.015283008889958483 0.0031494121339339987 0.054264248111170255 -0.009436850381087155 0.082699294019895314 0.02778118771108444 0.012920831702971012 -0.017608671368338054 0.027447156638141141 -0.021798500684509472
leaf_weight=834.19503723084927 3424.2871605455875 2427.2720980718732 497.36331896483898 2566.9702213332057 86.224793583154678 175.26214331388474 28.927944287657738 1750.1748642399907 6.8357151374220839 231.28074145317078 1106.3109639883041 50.358110465109348 28.009555548429489 21.721184238791466
leaf_count=10381 14574 15372 2135 20436 443 907 152 20167 69 1029 4922 505 277 218
internal_value=0 -0.00527787 0.00780088 -0.00846052 0.000880015 0.0118434 0.0250756 -0.0119704 -0.0166819 0.0129584 0.0154903 -0.000244445 0.015214 0.00593784
internal_weight=0 7975.95 5259.24 5258.26 2717.69 290.415 115.153 2691.29 941.12 1834.96 1337.59 106.925 56.5665 49.7307
internal_count=91587 68927 22660 52053 16874 1502 595 31617 11450 8086 5951 1069 564 495
is_linear=0
shrinkage=0.05


Tree=44
num_leaves=15
num_cat=0
split_feature=0 0 0 8 22 26 30 16 3 8 7 16 1 38
split_gain=196.321 50.5105 31.9549 17.1806 15.6338 11.8734 11.7468 18.3048 11.6912 11.9379 11.4071 10.9789 15.2227 10.6491
threshold=39.500000000000007 16.500000000000004 85.500000000000014 26.065000000000001 6.9666665788432125 2.8471204188796464 5.9255390882982217 20.500000000000004 1.5000000000000002 37.015000000000008 56.795000000000009 16.500000000000004 3.5000000000000004 12.96011204172448
decision_type=2 2 2 2 2 2 2 2 2 2 2 2 2 2
left_child=1 5 4 -3 8 -1 -4 10 -2 13 -8 -11 -13 -10
right_child=2 3 6 -5 -6 -7 7 -9 9 11 -12 12 -14 -15
leaf_value=-0.015237459981197091 -0.0081464331313375448 -0.0054038192257250955 0.019291468286722249 0.00064286898829184972 0.023275390924500053 -0.0083688611116258128 0.0035865797920214986 0.013881868645059315 -0.00023223425717095725 0.002513659700597054 -0.028973522229977906 0.040339685082482979 0.0094785395703630947 0.0090388685469331622
leaf_weight=961.66992542147636 194.0195709913969 2249.0689494609833 457.84110708534718 2459.3072662651539 106.02460479736328 1819.8483261615038 390.99821208417416 950.45186452567577 1483.9469626396894 672.58831200003624 28.886786684393883 41.638382017612457 990.28431391716003 391.43494357168674
leaf_count=11730 870 17709 2150 16371 453 20847 1664 4148 6612 2938 124 174 4068 1729
internal_value=0 -0.00540141 0.0069076 -0.00224548 0.00433963 -0.0107436 0.0123576 0.0100409 0.00380765 0.00445552 0.00134655 0.00748413 0.0107238 0.00170286
internal_weight=0 7489.89 5708.12 4708.38 3879.94 2781.52 1828.18 1370.34 3773.91 3579.89 419.885 1704.51 1031.92 1875.38
internal_count=91587 66657 24930 34080 16844 32577 8086 5936 16391 15521 1788 7180 4242 8341
is_linear=0
shrinkage=0.05


Tree=45
num_leaves=15
num_cat=0
split_feature=0 0 14 28 0 23 14 0 7 28 1 34 34 27
split_gain=178.869 48.719 29.5095 13.4906 12.9438 12.5709 12.2646 11.5952 11.4296 11.2779 10.7132 14.545 12.9306 10.8488
threshold=27.500000000000004 59.500000000000007 1.5000000000000002 2.5473201135239978 163.50000000000003 5.7032147245194782 5.5000000000000009 5.5000000000000009 56.795000000000009 0.69602090218781643 1.5000000000000002 9.7214807035671846 9.0868021917448178 29.572355950230076
decision_type=2 2 2 2 2 2 2 2 2 2 2 2 2 2
left_child=2 6 3 -1 5 -3 -2 -5 -7 -4 11 -11 -12 -14
right_child=1 4 9 7 -6 8 -8 -9 -10 10 12 -13 13 -15
leaf_value=-0.014116252886295269 -0.00084212499604942738 0.024447016350745948 -0.0089079741038582284 -0.015822141216097815 0.017251972378598202 0.008005457247012222 0.0045985675791351049 0.001022195905381504 -0.0091336556406627998 -0.011599751671876275 -0.0015241670231776435 0.019960653309489193 0.079356261981401263 0.013904872048050191
leaf_weight=1552.6687768548727 2682.3225629553199 112.43894499540329 927.35506507009268 150.9815600886941 437.69808350503445 2777.4088765978813 1687.458035081625 316.00180551409721 100.80430194735527 448.98325781524181 1860.2700928375125 39.73733951151371 7.0749423727393141 60.221927851438522
leaf_count=20864 14709 463 8729 1717 2033 11671 8030 3111 431 4025 14937 278 50 539
internal_value=0 0.00475944 -0.0071031 -0.0118752 0.00922125 0.00804591 0.00125888 -0.00442379 0.00740519 -0.00422064 -0.00242167 -0.00903361 -0.000745262 0.0207858
internal_weight=0 7798.13 5363.29 2019.65 3428.35 2990.65 4369.78 466.983 2878.21 3343.64 2416.29 488.721 1927.57 67.2969
internal_count=91587 37337 54250 25692 14598 12565 22739 4828 12102 28558 19829 4303 15526 589
is_linear=0
shrinkage=0.05


Tree=46
num_leaves=15
num_cat=0
split_feature=0 0 38 8 26 1 11 31 16 0 11 37 35 41
split_gain=163.123 55.9497 14.2191 13.5468 12.8848 13.7073 14.7343 12.3578 12.3433 12.3251 17.9596 12.7873 12.1575 11.7623
threshold=22.500000000000004 59.500000000000007 10.319036907942598 26.065000000000001 2.8356834846295231 1.5000000000000002 4.6250000000000009 2.4577267029649366 15.500000000000002 109.50000000000001 6893.0050000000001 4.4062401385903831 3.8633314544022794 0.43707538498230403
decision_type=2 2 2 2 2 2 2 2 2 2 2 2 2 2
left_child=2 3 -1 -2 -4 6 -6 -7 -5 10 12 -11 -3 -9
right_child=1 9 4 8 5 7 -8 13 -10 11 -12 -13 -14 -15
leaf_value=0.079049855527765098 -0.0028499292148725084 0.02527825747858424 -0.012534485648929023 -0.00050148323191350071 0.0047936170758266713 -0.0068871905702608946 -0.013379440933147259 -0.015180409381998859 0.0053186503049047909 0.036805216336232842 -0.023655097724733481 0.011937403923841711 0.0066265851003879861 0.004215379280214154
leaf_weight=4.665949970483779 1852.3341186493635 90.976099118590355 1251.4916118010879 1826.3949671909213 127.2564445734024 1261.4499509260058 902.83863990753889 90.592258036136627 1817.521967895329 54.433295503258705 47.624862417578697 1027.4010706096888 2202.325671300292 569.85706980526447
leaf_count=23 11503 376 14690 10749 1256 12128 10319 1155 8768 282 198 4676 9066 6398
internal_value=0 0.00375679 -0.00818609 0.000631674 -0.00828293 -0.00648049 -0.0111344 -0.00398611 0.0024015 0.00877507 0.00673539 0.0131886 0.0073665 0.00155491
internal_weight=0 8919.01 4208.15 5496.25 4203.49 2951.99 1030.1 1921.9 3643.92 3422.76 2340.93 1081.83 2293.3 660.449
internal_count=91587 45618 45969 31020 45946 31256 11575 19681 19517 14598 9640 4958 9442 7553
is_linear=0
shrinkage=0.05


Tree=47
num_leaves=15
num_cat=0
split_feature=0 0 14 14 26 0 9 19 14 39 27 26 40 26
split_gain=147.975 50.6492 19.8671 14.4265 12.1931 14.3998 12.1878 12.0876 15.2592 14.0461 13.956 12.7989 11.6512 17.1838
threshold=22.500000000000004 59.500000000000007 1.5000000000000002 5.5000000000000009 3.2684745598182086 7.5000000000000009 6925.795000000001 13.500000000000002 2.5000000000000004 9.8640852335260458 29.088960458311046 3.1991061602301074 1.1938472552633363 4.3008122268129751
decision_type=2 2 2 2 2 2 2 2 2 2 2 2 2 2
left_child=2 3 4 -2 6 -6 -1 8 11 -10 -9 -4 -5 -14
right_child=1 -3 7 12 5 -7 -8 10 9 -11 -12 -13 13 -15
leaf_value=-0.015295287297724136 -0.0011588232820721248 0.0083523493193526401 -0.0098315136288426412 0.012867707039332149 -0.012415800930713686 0.0023238160191641345 0.057961883155589568 -0.0036517805548407743 0.019231731873572855 -0.0024821379093401714 -0.013424203092795543 0.00824441029510453 -0.0058368374211234964 0.0060302543491009362
leaf_weight=1130.4945074543357 3735.4618386104703 3416.5013438314199 375.13580319285393 325.7471419274807 412.81373007595539 276.81082517653704 5.706284523010253 957.37006038427353 159.94248299300671 139.37721767276525 590.78651740401983 132.52506294101477 439.85753990709782 995.32487533986568
leaf_count=15839 22532 14598 3825 1836 5123 3293 61 8173 1495 1278 5710 1172 2287 4365
internal_value=0 0.00357161 -0.00782957 0.000599951 -0.0117441 -0.00649941 -0.0149274 -0.00479483 0.000166616 0.00912074 -0.007381 -0.00511279 0.00433084 0.0023932
internal_weight=0 8912.89 4180.96 5496.39 1825.83 689.625 1136.2 2355.14 806.981 299.32 1548.16 507.661 1760.93 1435.18
internal_count=91587 45618 45969 31020 24316 8416 15900 21653 7770 2773 13883 4997 8488 6652
is_linear=0
shrinkage=0.05


Tree=48
num_leaves=15
num_cat=0
split_feature=0 0 14 16 7 34 26 26 0 23 1 30 9 14
split_gain=134.222 46.8558 18.3238 15.9892 18.7709 12.1348 11.8282 11.3291 13.1791 11.0559 13.0382 10.9514 10.7547 10.6336
threshold=22.500000000000004 73.500000000000014 1.5000000000000002 17.500000000000004 18.320000000000004 7.5224973455397786 0.51015455944844579 3.2684745598182086 7.5000000000000009 2.8444722987058824 1.5000000000000002 5.0714461073344781 6925.795000000001 1.0000000180025095e-35
decision_type=2 2 2 2 2 2 2 2 2 2 2 2 2 2
left_child=2 3 7 4 5 -2 -7 12 -9 11 -11 -4 13 -1
right_child=1 -3 9 -5 -6 6 -8 8 -10 10 -12 -13 -14 -15
leaf_value=-0.0082853932657400431 0.0085164331298000998 0.0092269204920638857 0.051013466031340542 0.0049243919740653494 -0.0059620745025053806 0.020026433117744862 -0.00040350692778585865 -0.011918619931368168 0.0022033954916871952 -0.014546563744887765 -0.0038742415818981781 0.0039641199868725276 0.052559107433261393 -0.018423691622235679
leaf_weight=407.24851479381323 509.20580860972404 2483.623160302639 13.416027195751665 1945.894819393754 1165.3607053980231 72.733657076954842 2731.8505704402924 408.64120314270258 277.32856103777885 339.03212866932154 1835.8218565061688 158.33281134814024 5.9709558561444274 708.76185330748558
leaf_count=5544 2486 10838 124 9100 6064 352 16778 5123 3293 3233 16950 1346 61 10295
internal_value=0 0.00339461 -0.00748814 0.00114011 -0.000503907 0.00141557 0.00012632 -0.0112712 -0.00620927 -0.00457347 -0.00553792 0.00763934 -0.014366 -0.0147241
internal_weight=0 8908.67 4154.55 6425.05 4479.15 3313.79 2804.58 1807.95 685.97 2346.6 2174.85 171.749 1121.98 1116.01
internal_count=91587 45618 45969 34780 25680 19616 17130 24316 8416 21653 20183 1470 15900 15839
is_linear=0
shrinkage=0.05


Tree=49
num_leaves=15
num_cat=0
split_feature=41 3 14 24 15 20 29 26 39 3 40 14 19 28
split_gain=116.272 32.9785 27.5019 15.5863 12.6613 12.7793 10.3773 10.3402 19.8957 9.42107 10.0565 11.8709 13.1075 12.7457
threshold=2.2978351403560682 5.5000000000000009 1.5000000000000002 1.9335741498670156 1.5000000000000002 22.500000000000004 1.273199282094748 3.2684745598182086 10.126982759984122 1.5000000000000002 1.4140801666297669 2.5000000000000004 13.500000000000002 0.61191574566244056
decision_type=2 2 2 2 2 2 2 2 2 2 2 2 2 2
left_child=2 3 7 -2 5 6 -3 -1 -9 -4 -11 -12 13 -13
right_child=1 4 9 -5 -6 -7 -8 8 -10 10 11 12 -14 -15
leaf_value=-0.014341090231369464 0.011792160320747421 0.042147795021931611 -0.0079753686360688105 0.00042585135746635603 0.015911523738232233 0.0096921627115837267 0.0021625497305427276 0.0098976944711581649 -0.012535276650244197 -0.0039405705392109702 -0.0031890090508407613 0.078362857477639061 0.0019510512161006876 0.018428078844913678
leaf_weight=1098.7355245277286 321.48624901473522 16.44688369333744 901.28309741616249 4878.3128434121609 405.72124256938696 1396.1915734559298 1210.8774932175875 145.15678522735834 309.74848784506321 1720.6242788434029 325.46601883322001 9.6187499463558179 180.1903019323945 114.0230543166399
leaf_count=15865 1308 83 8288 26520 1762 6286 5449 1775 4258 14167 3228 92 1478 1028
internal_value=0 0.00354452 -0.00624428 0.00112859 0.00769155 0.00642035 0.00269838 -0.0117164 -0.00537709 -0.00362932 -0.00196245 0.0034461 0.0105537 0.0230907
internal_weight=0 8229.04 4804.85 5199.8 3029.24 2623.52 1227.32 1553.64 454.905 3251.21 2349.92 629.298 303.832 123.642
internal_count=91587 41408 50179 27828 13580 11818 5532 21898 6033 28281 19993 5826 2598 1120
is_linear=0
shrinkage=0.05


Tree=50
num_leaves=15
num_cat=0
split_feature=0 0 14 16 7 8 9 34 19 14 27 39 26 41
split_gain=112.197 39.5058 15.4835 15.4411 18.4325 14.6137 14.776 12.3919 10.3896 12.806 12.6816 11.5275 11.0424 9.85778
threshold=22.500000000000004 81.500000000000014 1.5000000000000002 16.500000000000004 16.885000000000002 27.475000000000005 50020.935000000005 7.2541096908414922 13.500000000000002 2.5000000000000004 29.088960458311046 9.8640852335260458 3.1991061602301074 3.3186163556449073
decision_type=2 2 2 2 2 2 2 2 2 2 2 2 2 2
left_child=2 3 -1 4 7 -5 -7 -2 9 12 -10 -11 -4 -3
right_child=1 13 8 5 -6 6 -8 -9 10 11 -12 -13 -14 -15
leaf_value=-0.010413103808577797 0.014017742314708901 0.02831636487877422 -0.0089585570942546395 -0.0016446978772446702 -0.0060111563327262156 0.0077501047834479132 -0.0072711241776093147 0.0006025003357513569 -0.0030771155718496328 0.0175316744722099 -0.012461570658506402 -0.0020826484395888175 0.0078345717662289174 0.0086124068570415258
leaf_weight=1775.9885725080967 183.63722370564938 65.614662781357765 369.17630656808615 782.00071351975203 1156.5157591328025 1833.7932504042983 179.76293183863163 2749.3495485335588 949.02030420303345 163.17107491195202 580.00866356492043 138.48188792914152 133.21233016997576 1947.8416465520859
leaf_count=24316 943 285 3825 4211 6147 8179 733 16426 8173 1495 5710 1278 1172 8694
internal_value=0 0.0030939 -0.00689525 0.00129229 -0.000665444 0.00415619 0.00640906 0.00144244 -0.00421738 0.000383845 -0.00663693 0.00852719 -0.00450573 0.00925452
internal_weight=0 8898.52 4109.06 6885.06 4089.5 2795.56 2013.56 2932.99 2333.07 804.042 1529.03 301.653 502.389 2013.46
internal_count=91587 45618 45969 36639 23516 13123 8912 17369 21653 7770 13883 2773 4997 8979
is_linear=0
shrinkage=0.05


Tree=51
num_leaves=15
num_cat=0
split_feature=0 14 24 38 8 14 19 6 24 12 26 14 36 36
split_gain=102.814 42.8569 19.7791 16.8178 16.4559 13.2495 12.4977 10.9115 9.61115 12.5421 9.0991 12.8538 11.925 11.3801
threshold=43.500000000000007 3.5000000000000004 5.682541132779396 10.185810408788816 26.485000000000003 1.5000000000000002 189.50000000000003 0.095000000000000015 2.7761904035386515 32.500000000000007 3.2684745598182086 1.0000000180025095e-35 1.4416960404462567 1.2647000534325821
decision_type=2 2 2 2 2 2 2 2 2 2 2 2 2 2
left_child=1 3 4 -1 -2 10 7 -6 -7 -10 11 12 13 -5
right_child=2 -3 -4 5 6 8 -8 -9 9 -11 -12 -13 -14 -15
leaf_value=0.027073843351420563 -0.0083571449111762269 0.0013448243350184588 0.0096562621298015017 -0.0029360676594115901 0.0050588838200888607 -0.0245131071702244 -0.018279800523508964 -0.020615770358962324 -0.0043885707452441768 0.019567518776070259 -0.0053812752040185265 -0.016505380758120452 -0.0077107162475461705 0.1098401432408658
leaf_weight=37.296540468931198 283.74550300836563 2777.7195213809609 1810.97037319839 4.7376713752746564 2921.358387440443 57.745416924357414 60.398140028119087 41.977024063467979 2682.2279025986791 55.771833375096321 845.57689165323973 736.12809029966593 660.88288772851229 4.2378588020801544
leaf_count=178 1266 17211 8156 53 12304 291 259 183 23665 288 9626 10831 7226 50
internal_value=0 -0.00364965 0.0054558 -0.00637813 0.00315589 -0.00662532 0.00423627 0.00469519 -0.00432634 -0.0039006 -0.00947993 -0.0119449 -0.00693326 0.050312
internal_weight=0 7862.32 5118.45 5084.61 3307.48 5047.31 3023.73 2963.34 2795.75 2738 2251.56 1405.99 669.858 8.97553
internal_count=91587 69419 22168 52208 14012 52030 12746 12487 24244 23953 27786 18160 7329 103
is_linear=0
shrinkage=0.05


Tree=52
num_leaves=15
num_cat=0
split_feature=0 0 16 7 14 14 2 40 16 3 28 22 22 26
split_gain=92.9908 33.4487 14.4426 18.0185 12.9291 12.8735 10.662 15.514 10.6535 10.631 10.515 10.4445 10.1117 9.68637
threshold=22.500000000000004 85.500000000000014 16.500000000000004 13.245000000000003 3.5000000000000004 1.5000000000000002 2.5000000000000004 4.8829282409271757 13.500000000000002 9.5000000000000018 5.9471042213393632 5.4127898856236678 5.5140047988106273 4.4149138835720718
decision_type=2 2 2 2 2 2 2 2 2 2 2 2 2 2
left_child=5 2 3 8 -4 -1 -3 -8 10 -9 -2 -5 -10 -7
right_child=1 6 4 11 -6 13 7 9 12 -11 -12 -13 -14 -15
leaf_value=-0.0095639328077634558 0.00068697184833500487 0.0026216619507593662 -0.0026216641414815822 -0.0033938417786926935 0.0056471689299285449 -0.0044871192094996506 0.023267066174539608 0.0024333261819245444 0.012612958110141573 0.012684102140623422 0.035624201319820463 -0.024678714928467089 -0.039117945265479619 0.013312098133526747
leaf_weight=1745.7617852725089 1830.4507888928056 487.74131846427917 593.22107469290495 1953.0411509722471 2327.588284060359 2241.0115377828479 223.84437561035156 407.38451652228832 306.98613631725311 667.12725512683392 21.792731121182442 59.387287877500057 9.7463026568293554 79.135398671030998
leaf_count=24316 10710 2135 3205 10791 10419 21138 1029 1800 1930 3122 94 323 60 515
internal_value=0 0.00280816 0.00126999 -0.000614471 0.00396776 -0.0063205 0.00892454 0.0112923 0.00254708 0.00879768 0.00109803 -0.00402196 0.0110211 -0.00388002
internal_weight=0 8888.31 7102.21 4181.4 2920.81 4065.91 1786.1 1298.36 2168.98 1074.51 1852.24 2012.43 316.732 2320.15
internal_count=91587 45618 37532 23908 13624 45969 8086 5951 12794 4922 10804 11114 1990 21653
is_linear=0
shrinkage=0.05


Tree=53
num_leaves=15
num_cat=0
split_feature=0 17 24 8 21 26 0 9 19 16 1 31 31 8
split_gain=85.2525 31.1836 17.0084 14.7306 13.24 12.8032 11.9903 11.6554 11.2765 11.7799 10.1626 16.6925 11.5619 11.542
threshold=43.500000000000007 15.500000000000002 5.682541132779396 26.485000000000003 0.63455710171971025 2.8356834846295231 5.5000000000000009 82.460000000000022 189.50000000000003 16.500000000000004 1.5000000000000002 2.4577267029649366 2.6505037528242634 45.685000000000009
decision_type=2 2 2 2 2 2 2 2 2 2 2 2 2 2
left_child=1 5 3 -2 -3 -1 -7 -8 9 -5 -9 -12 -13 -14
right_child=2 4 -4 8 -6 6 7 10 -10 -11 11 12 13 -15
leaf_value=-0.0094139958084607945 -0.008066262287928937 -0.040819305935271784 0.0088745603312727125 -0.00063398028191344812 0.0013917838960702698 -0.015089093865838852 0.016831677193325983 -0.00886226216757551 -0.01749480340105455 0.0063115493709830139 -0.0044872864243383189 0.018985109622736085 0.00082341149012076084 0.069754325725775362
leaf_weight=1537.9687002152205 283.20524124801159 18.709840934723616 1802.889402076602 860.13128930330276 2616.2607760578394 227.5015972815454 70.865658186376095 733.03667572885752 60.586110413074493 2103.2949906438589 1969.4956993572414 117.21097301319242 521.82546725869179 6.1443520709872237
leaf_count=17115 1266 184 8156 3712 15807 3054 628 8372 259 8775 16995 1237 5978 49
internal_value=0 -0.00333692 0.00496765 0.00283785 0.00109206 -0.00558809 -0.00397427 -0.0032346 0.00385905 0.00429562 -0.00365937 -0.00220071 0.00477934 0.00162561
internal_weight=0 7819.02 5110.11 3307.22 2634.97 5184.05 3646.08 3418.58 3024.01 2963.43 3347.71 2614.68 645.181 527.97
internal_count=91587 69419 22168 14012 15991 53428 36313 33259 12746 12487 32631 24259 7264 6027
is_linear=0
shrinkage=0.05


Tree=54
num_leaves=15
num_cat=0
split_feature=41 3 14 24 26 39 34 18 13 16 8 29 3 14
split_gain=74.5715 22.7567 19.3633 12.6296 9.10337 17.4206 9.06267 11.1589 11.007 10.2695 11.7723 9.38559 9.23159 8.37617
threshold=2.2978351403560682 7.5000000000000009 1.5000000000000002 1.9335741498670156 3.2684745598182086 10.126982759984122 6.2018926030303101 81.500000000000014 6.5000000000000009 20.500000000000004 37.815000000000005 1.4472164465537694 3.5000000000000004 1.0000000180025095e-35
decision_type=2 2 2 2 2 2 2 2 2 2 2 2 2 2
left_child=2 3 4 -2 13 -6 -5 8 -8 10 -9 -10 -11 -1
right_child=1 -3 -4 6 5 -7 7 9 11 12 -12 -13 -14 -15
leaf_value=-0.0059496040738138897 0.0092795453083870487 0.0079749782941106236 -0.0028844207928583857 0.0075599362625703844 0.010535274448525688 -0.010655944320618983 0.0026004037484483157 -0.01143699662365931 0.028025820501657774 -0.0077942185404031739 -0.0015071220764995251 -0.011142902940593287 0.0061333839983880312 -0.01544389234898942
leaf_weight=346.79591454565525 480.51569077372551 1701.0599125549197 3212.7422545105219 465.16937591135502 143.83038578182459 297.74723986536264 3458.5768721699715 497.3812211304903 16.415590882301331 161.91796919703484 746.3884955868125 223.85490475594997 448.63153399527073 703.66816329956055
leaf_count=5158 1954 7705 28281 2036 1775 4258 20349 2328 79 705 3258 1079 1915 10707
internal_value=0 0.0028265 -0.00507038 0.0014789 -0.00977731 -0.00375355 0.000856079 0.000294521 0.0018815 -0.00287105 -0.00547806 -0.00846685 0.00243978 -0.0123095
internal_weight=0 8199.91 4704.78 6498.85 1492.04 441.578 6018.34 5553.17 3698.85 1854.32 1243.77 240.27 610.55 1050.46
internal_count=91587 41408 50179 33703 21898 6033 31749 29713 21507 8206 5586 1158 2620 15865
is_linear=0
shrinkage=0.05


Tree=55
num_leaves=15
num_cat=0
split_feature=0 14 38 0 15 25 26 16 7 24 9 14 7 16
split_gain=71.4734 29.8264 15.1186 14.4018 11.3021 11.4239 10.7686 10.7199 11.057 12.2104 10.5206 9.68932 9.02276 10.2727
threshold=42.500000000000007 3.5000000000000004 10.185810408788816 94.500000000000014 1.0000000180025095e-35 6.2706056813354509 2.7854630183647529 18.500000000000004 21.095000000000002 3.4895880176061751 14241.690000000001 1.5000000000000002 30.900000000000002 21.500000000000004
decision_type=2 2 2 2 2 2 2 2 2 2 2 2 2 2
left_child=1 2 -1 12 5 -4 -5 10 9 -9 -3 -7 -2 -14
right_child=3 7 4 6 -6 11 -8 8 -10 -11 -12 -13 13 -15
leaf_value=0.027556173522710684 0.0040236924540541915 0.0009413437320866827 -0.029917288956883593 0.022514541398360882 0.005218753633402292 -0.0084060481048937371 0.0073944588636194663 0.016897129765744309 0.0022052769713096615 0.072929232474726061 -0.011704299120696014 -0.0038290824872529469 -0.0083460635216044757 0.0038020917449134248
leaf_weight=34.528232783079147 3097.7631475329399 2232.1683523729444 50.111162379384041 129.66474151611328 228.34837835282087 2125.5220444574952 1282.4081567823887 107.03542940318584 176.60762111842632 10.694374114274977 177.55839405208826 2535.8859318643808 348.2782479673624 347.8117802888155
leaf_count=164 13188 14454 257 676 1753 27160 5908 536 907 59 918 22719 1457 1431
internal_value=0 -0.00311682 -0.0054144 0.00447224 -0.00564486 -0.00617137 0.00878287 0.00110982 0.0101176 0.021987 9.56172e-06 -0.0059161 0.00286782 -0.00227606
internal_weight=0 7678.46 4974.4 5205.93 4939.87 4711.52 1412.07 2704.06 294.337 117.73 2409.73 4661.41 3793.85 696.09
internal_count=91587 68927 52053 22660 51889 50136 6584 16874 1502 595 15372 49879 16076 2888
is_linear=0
shrinkage=0.05


Tree=56
num_leaves=15
num_cat=0
