{"learner":{"attributes":{"best_iteration":"77","best_score":"0.7981302967764535"},"feature_names":[],"feature_types":[],"gradient_booster":{"model":{"gbtree_model_param":{"num_parallel_tree":"1","num_trees":"128"},"iteration_indptr":[0,1,2,3,4,5,6,7,8,9,10,11,12,13,14,15,16,17,18,19,20,21,22,23,24,25,26,27,28,29,30,31,32,33,34,35,36,37,38,39,40,41,42,43,44,45,46,47,48,49,50,51,52,53,54,55,56,57,58,59,60,61,62,63,64,65,66,67,68,69,70,71,72,73,74,75,76,77,78,79,80,81,82,83,84,85,86,87,88,89,90,91,92,93,94,95,96,97,98,99,100,101,102,103,104,105,106,107,108,109,110,111,112,113,114,115,116,117,118,119,120,121,122,123,124,125,126,127,128],"tree_info":[0,0,0,0,0,0,0,0,0,0,0,0,0,0,0,0,0,0,0,0,0,0,0,0,0,0,0,0,0,0,0,0,0,0,0,0,0,0,0,0,0,0,0,0,0,0,0,0,0,0,0,0,0,0,0,0,0,0,0,0,0,0,0,0,0,0,0,0,0,0,0,0,0,0,0,0,0,0,0,0,0,0,0,0,0,0,0,0,0,0,0,0,0,0,0,0,0,0,0,0,0,0,0,0,0,0,0,0,0,0,0,0,0,0,0,0,0,0,0,0,0,0,0,0,0,0,0,0],"trees":[{"base_weights":[-1.294243E-1,-6.144689E-1,1.6546024E0,-8.1289226E-1,-6.0269807E-2,9.5271736E-1,2.2296886E0,-9.7641605E-1,-6.616113E-1,-2.7378336E-1,1.9435565E-1,6.553217E-1,1.2050271E0,1.8127123E0,2.5014493E0,-1.0031031E0,-7.093533E-1,-7.248897E-1,-4.3123034E-1,-4.5633206E-1,-1.4846109E-1,3.957679E-2,4.165454E-1,5.161799E-1,9.3315434E-1,1.2957373E0,8.3517987E-1,1.8711227E0,1.3034626E0,2.8853433E0,2.345045E0,-8.0198467E-1,-1.0210329E0,-4.267298E-1,-8.0462253E-1,-7.7509207E-1,-5.4136044E-1,-4.5279264E-1,2.6830303E-2,-5.0979894E-1,-1.5896833E-1,-2.1303368E-1,1.108967E-1,-6.680319E-2,2.728982E-1,1.0678675E-2,5.103606E-1,5.61572E-1,5.412533E-3,1.0167307E0,1.9914204E-2,1.1206791E0,1.453365E0,4.8507768E-1,9.804001E-1,1.7725475E0,2.0574453E0,5.3603638E-2,1.2681666E-1,1.8312132E-1,2.2137241E-1,1.7714143E0,2.431364E0,-9.007927E-1,-7.0184445E-1,-1.0242893E0,-3.7516944E-2,-6.0561436E-1,-1.5980193E-2,-9.3265176E-1,-6.1723393E-1,-7.884769E-1,-1.7733914E-1,-2.6753974E-1,-5.663846E-1,-4.9802747E-1,-2.9528627E-1,-5.592547E-1,-2.998773E-1,-3.7193306E-2,3.9188233E-3,-2.7656242E-1,1.864839E-2,-1.8105865E-1,2.3573638E-1,-1.7404051E-1,1.0631327E-1,2.1831545E-1,5.0759465E-1,-2.846769E-2,1.3424921E-1,3.310787E-1,6.958313E-1,4.6455833E-1,6.9755137E-1,6.38002E-1,1.2024748E0,9.016339E-1,1.2916625E0,1.7586697E0,1.3235176E0,5.528622E-2,1.4937891E-2,4.636446E-2,1.0868087E0,1.5785002E0,1.9765759E0,2.363595E0,1.8312103E0,1.9247316E0,9.19563E-2,2.1413326E0,2.5079794E0,-6.0799707E-2,-7.3951244E-2,-6.312658E-2,-3.0180646E-2,-7.343828E-2,-7.918553E-2,-3.181404E-2,-5.8703154E-2,-7.2790965E-2,-5.4116167E-2,-2.5280386E-2,-5.591755E-2,-6.1939977E-2,-5.4933015E-2,3.7720734E-3,-3.4949817E-2,-2.799043E-2,-3.977851E-3,-4.631584E-2,-3.1924345E-2,-4.465206E-2,-3.16865E-2,-1.7398482E-2,-4.5774143E-2,-4.415421E-2,-2.3055194E-2,-2.94731E-2,2.1618975E-3,2.617176E-2,-1.4865074E-2,-2.6412558E-2,-5.5786325E-3,-1.2041735E-2,1.3831462E-2,-3.0103577E-2,5.9185666E-3,2.4790186E-2,-1.21566225E-2,-9.191894E-3,-3.0031752E-2,-2.89006E-4,3.4823954E-2,1.9828038E-2,-2.283429E-3,4.939627E-2,2.433609E-2,-1.1907744E-2,2.005298E-2,1.9911565E-2,5.8195625E-2,3.541172E-2,6.871279E-2,5.1463705E-2,1.9372389E-2,4.6790257E-2,8.34728E-2,5.9775762E-2,2.5504338E-2,1.09724194E-1,7.786622E-2,7.943286E-2,2.8647115E-2,5.3648487E-2,1.0454966E-1,1.6206628E-1,1.0400537E-1,6.277179E-2,1.1473475E-1,1.15230866E-1,6.2084362E-2,1.2923038E-1,9.909563E-2,1.532189E-1,1.2505773E-1,1.8794642E-1,1.4895763E-1,1.6216348E-1,1.2473749E-1,1.209399E-1,1.5771617E-1,1.2616247E-1,1.6740319E-1,1.5925792E-1,1.936306E-1],"categories":[],"categories_nodes":[],"categories_segments":[],"categories_sizes":[],"default_left":[0,0,0,0,0,0,0,0,0,0,0,0,0,0,0,0,0,0,0,0,0,0,0,0,0,0,0,0,0,0,0,0,0,0,0,0,0,0,0,0,0,0,0,0,0,0,0,0,0,0,0,0,0,0,0,0,0,0,0,0,0,0,0,0,0,0,0,0,0,0,0,0,0,0,0,0,0,0,0,0,0,0,0,0,0,0,0,0,0,0,0,0,0,0,0,0,0,0,0,0,0,0,0,0,0,0,0,0,0,0,0,0,0,0,0,0,0,0,0,0,0,0,0,0,0,0,0,0,0,0,0,0,0,0,0,0,0,0,0,0,0,0,0,0,0,0,0,0,0,0,0,0,0,0,0,0,0,0,0,0,0,0,0,0,0,0,0,0,0,0,0,0,0,0,0,0,0,0,0,0,0,0,0,0,0,0,0,0,0,0,0,0,0,0,0,0,0],"id":0,"left_children":[1,3,5,7,9,11,13,15,17,19,21,23,25,27,29,31,33,35,37,39,41,43,45,47,49,51,53,55,57,59,61,63,65,67,69,71,73,75,-1,77,79,81,83,85,87,89,91,93,-1,95,-1,97,99,101,103,105,107,-1,-1,-1,-1,109,111,113,115,117,-1,119,-1,121,123,125,127,129,131,133,135,137,139,-1,141,143,145,147,149,151,153,155,157,-1,159,161,163,165,167,169,171,173,175,177,179,-1,-1,-1,181,183,185,187,189,191,-1,193,195,-1,-1,-1,-1,-1,-1,-1,-1,-1,-1,-1,-1,-1,-1,-1,-1,-1,-1,-1,-1,-1,-1,-1,-1,-1,-1,-1,-1,-1,-1,-1,-1,-1,-1,-1,-1,-1,-1,-1,-1,-1,-1,-1,-1,-1,-1,-1,-1,-1,-1,-1,-1,-1,-1,-1,-1,-1,-1,-1,-1,-1,-1,-1,-1,-1,-1,-1,-1,-1,-1,-1,-1,-1,-1,-1,-1,-1,-1,-1,-1,-1,-1,-1,-1],"loss_changes":[1.4900083E4,1.488665E3,1.4836074E3,2.4595996E2,1.941539E2,1.2372449E2,2.2463965E2,3.3416016E1,7.522046E1,4.4367386E1,5.600337E1,2.9046997E1,2.8996338E1,2.1406006E1,6.6592285E1,1.4870605E1,1.1461777E1,3.7018555E1,1.9197403E1,1.2481766E1,1.9336002E1,2.3876513E1,2.5457054E1,1.0262314E1,1.38832855E1,1.8188232E1,8.645317E0,9.519287E0,1.8357788E1,3.0683594E0,3.8941406E1,2.93779E0,6.2563477E0,4.176998E0,7.264099E0,2.5368896E1,5.85141E0,7.6161957E0,0E0,6.7806854E0,6.690823E0,1.3599533E1,8.44491E0,1.228991E1,3.7478104E0,6.1547313E0,1.7830093E1,5.7920837E0,0E0,1.5066254E1,0E0,1.1743042E1,1.2519592E1,3.786375E0,4.1775513E0,1.5726807E1,1.2419861E1,0E0,0E0,0E0,0E0,7.499756E0,1.1439453E1,5.68573E-1,7.354431E0,4.604004E0,0E0,1.6207962E0,0E0,8.370514E-1,4.6239586E0,5.9283447E0,4.696491E0,1.685874E0,5.5098267E0,5.961838E0,4.755972E0,3.8305054E0,3.982442E0,0E0,5.8679037E0,1.1054962E1,5.9620786E0,4.0190306E0,6.1599503E0,4.7124224E0,9.998458E0,2.8281136E0,1.3371229E0,0E0,3.821218E0,7.9083805E0,1.2679932E1,1.2328583E1,5.153496E0,3.3386936E0,4.894882E0,1.2230133E1,1.02821045E1,1.3266785E1,2.5498566E1,0E0,0E0,0E0,9.8999405E0,6.981201E0,1.2713623E0,3.600464E-1,4.384552E0,1.6309814E0,0E0,3.114502E0,1.1326416E1,0E0,0E0,0E0,0E0,0E0,0E0,0E0,0E0,0E0,0E0,0E0,0E0,0E0,0E0,0E0,0E0,0E0,0E0,0E0,0E0,0E0,0E0,0E0,0E0,0E0,0E0,0E0,0E0,0E0,0E0,0E0,0E0,0E0,0E0,0E0,0E0,0E0,0E0,0E0,0E0,0E0,0E0,0E0,0E0,0E0,0E0,0E0,0E0,0E0,0E0,0E0,0E0,0E0,0E0,0E0,0E0,0E0,0E0,0E0,0E0,0E0,0E0,0E0,0E0,0E0,0E0,0E0,0E0,0E0,0E0,0E0,0E0,0E0,0E0,0E0,0E0,0E0,0E0,0E0,0E0,0E0,0E0,0E0,0E0],"parents":[2147483647,0,0,1,1,2,2,3,3,4,4,5,5,6,6,7,7,8,8,9,9,10,10,11,11,12,12,13,13,14,14,15,15,16,16,17,17,18,18,19,19,20,20,21,21,22,22,23,23,24,24,25,25,26,26,27,27,28,28,29,29,30,30,31,31,32,32,33,33,34,34,35,35,36,36,37,37,39,39,40,40,41,41,42,42,43,43,44,44,45,45,46,46,47,47,49,49,51,51,52,52,53,53,54,54,55,55,56,56,61,61,62,62,63,63,64,64,65,65,67,67,69,69,70,70,71,71,72,72,73,73,74,74,75,75,76,76,77,77,78,78,80,80,81,81,82,82,83,83,84,84,85,85,86,86,87,87,88,88,90,90,91,91,92,92,93,93,94,94,95,95,96,96,97,97,98,98,99,99,100,100,104,104,105,105,106,106,107,107,108,108,109,109,111,111,112,112],"right_children":[2,4,6,8,10,12,14,16,18,20,22,24,26,28,30,32,34,36,38,40,42,44,46,48,50,52,54,56,58,60,62,64,66,68,70,72,74,76,-1,78,80,82,84,86,88,90,92,94,-1,96,-1,98,100,102,104,106,108,-1,-1,-1,-1,110,112,114,116,118,-1,120,-1,122,124,126,128,130,132,134,136,138,140,-1,142,144,146,148,150,152,154,156,158,-1,160,162,164,166,168,170,172,174,176,178,180,-1,-1,-1,182,184,186,188,190,192,-1,194,196,-1,-1,-1,-1,-1,-1,-1,-1,-1,-1,-1,-1,-1,-1,-1,-1,-1,-1,-1,-1,-1,-1,-1,-1,-1,-1,-1,-1,-1,-1,-1,-1,-1,-1,-1,-1,-1,-1,-1,-1,-1,-1,-1,-1,-1,-1,-1,-1,-1,-1,-1,-1,-1,-1,-1,-1,-1,-1,-1,-1,-1,-1,-1,-1,-1,-1,-1,-1,-1,-1,-1,-1,-1,-1,-1,-1,-1,-1,-1,-1,-1,-1,-1,-1],"split_conditions":[4.8E1,2.7E1,7.4E1,2E0,3.6E1,5.7E1,9.5E1,2E1,3.8E1,1.6E1,1.7E1,2.7E1,3.117E1,3.87594E3,1E-2,5.17E0,6.92E0,4E0,1.00914E3,6E0,6E0,4.3E1,1.09E2,1.1E2,7E0,6.4E1,2E1,8.6E1,2.2E1,1.01E2,3.4E1,6E0,3.9144E2,2.4E1,4.5E1,3.5E-1,5.33E0,1.9E1,2.6830303E-2,1.7E1,4E1,1.8E1,1.3E1,7E-2,1.54E2,4.4511E2,5E-2,5.3E1,5.412533E-3,6E0,1.9914204E-2,2.6E1,7.1E1,2.55107E3,1.94E2,2.9E1,8.9E1,5.3603638E-2,1.2681666E-1,1.8312132E-1,2.2137241E-1,5.989E1,2.1E1,6E0,4.5E-1,1E0,-3.7516944E-2,2.2E1,-1.5980193E-2,1E0,5.1E1,1.7E1,8E0,1.7E1,2.3E1,1.4E1,1E0,1.1E-1,4E1,-3.7193306E-2,4.9E1,3.3E1,4E0,5.3E1,5.1E1,3E0,1.5E1,7.6271E2,1.03668E3,-2.846769E-2,1.8E1,1E0,6E0,5.1E1,1E1,1.15E2,3E1,7E0,1.5E1,6.9E1,2.8E1,5.528622E-2,1.4937891E-2,4.636446E-2,1.36E2,5.8658E2,1.67E2,2.769E1,5.5E1,9E0,9.19563E-2,1E0,1.1E1,-6.0799707E-2,-7.3951244E-2,-6.312658E-2,-3.0180646E-2,-7.343828E-2,-7.918553E-2,-3.181404E-2,-5.8703154E-2,-7.2790965E-2,-5.4116167E-2,-2.5280386E-2,-5.591755E-2,-6.1939977E-2,-5.4933015E-2,3.7720734E-3,-3.4949817E-2,-2.799043E-2,-3.977851E-3,-4.631584E-2,-3.1924345E-2,-4.465206E-2,-3.16865E-2,-1.7398482E-2,-4.5774143E-2,-4.415421E-2,-2.3055194E-2,-2.94731E-2,2.1618975E-3,2.617176E-2,-1.4865074E-2,-2.6412558E-2,-5.5786325E-3,-1.2041735E-2,1.3831462E-2,-3.0103577E-2,5.9185666E-3,2.4790186E-2,-1.21566225E-2,-9.191894E-3,-3.0031752E-2,-2.89006E-4,3.4823954E-2,1.9828038E-2,-2.283429E-3,4.939627E-2,2.433609E-2,-1.1907744E-2,2.005298E-2,1.9911565E-2,5.8195625E-2,3.541172E-2,6.871279E-2,5.1463705E-2,1.9372389E-2,4.6790257E-2,8.34728E-2,5.9775762E-2,2.5504338E-2,1.09724194E-1,7.786622E-2,7.943286E-2,2.8647115E-2,5.3648487E-2,1.0454966E-1,1.6206628E-1,1.0400537E-1,6.277179E-2,1.1473475E-1,1.15230866E-1,6.2084362E-2,1.2923038E-1,9.909563E-2,1.532189E-1,1.2505773E-1,1.8794642E-1,1.4895763E-1,1.6216348E-1,1.2473749E-1,1.209399E-1,1.5771617E-1,1.2616247E-1,1.6740319E-1,1.5925792E-1,1.936306E-1],"split_indices":[0,0,0,14,0,0,0,0,18,17,16,17,7,11,6,11,7,14,11,14,14,0,4,18,13,0,16,0,16,0,17,0,11,0,18,6,7,17,0,16,18,16,16,6,4,11,6,19,0,14,0,17,4,11,4,17,0,0,0,0,0,7,16,18,6,14,0,0,0,13,18,0,19,19,0,16,13,6,19,0,18,0,14,18,19,13,16,11,11,0,16,15,14,0,14,18,17,13,16,0,17,0,0,0,18,11,18,7,19,13,0,13,14,0,0,0,0,0,0,0,0,0,0,0,0,0,0,0,0,0,0,0,0,0,0,0,0,0,0,0,0,0,0,0,0,0,0,0,0,0,0,0,0,0,0,0,0,0,0,0,0,0,0,0,0,0,0,0,0,0,0,0,0,0,0,0,0,0,0,0,0,0,0,0,0,0,0,0,0,0,0,0,0,0,0,0,0],"split_type":[0,0,0,0,0,0,0,0,0,0,0,0,0,0,0,0,0,0,0,0,0,0,0,0,0,0,0,0,0,0,0,0,0,0,0,0,0,0,0,0,0,0,0,0,0,0,0,0,0,0,0,0,0,0,0,0,0,0,0,0,0,0,0,0,0,0,0,0,0,0,0,0,0,0,0,0,0,0,0,0,0,0,0,0,0,0,0,0,0,0,0,0,0,0,0,0,0,0,0,0,0,0,0,0,0,0,0,0,0,0,0,0,0,0,0,0,0,0,0,0,0,0,0,0,0,0,0,0,0,0,0,0,0,0,0,0,0,0,0,0,0,0,0,0,0,0,0,0,0,0,0,0,0,0,0,0,0,0,0,0,0,0,0,0,0,0,0,0,0,0,0,0,0,0,0,0,0,0,0,0,0,0,0,0,0,0,0,0,0,0,0,0,0,0,0,0,0],"sum_hessian":[1.7216736E4,1.3536942E4,3.679794E3,9.967683E3,3.569259E3,1.6583981E3,2.0213959E3,4.787398E3,5.180285E3,1.9413145E3,1.6279446E3,7.628405E2,8.955575E2,8.006254E2,1.2207705E3,4.349958E3,4.374396E2,4.062342E3,1.117943E3,7.891583E2,1.1521561E3,9.602241E2,6.6772046E2,5.1018954E2,2.5265099E2,7.1716034E2,1.7839716E2,7.158444E2,8.4780945E1,3.4833502E2,8.724354E2,3.5980206E2,3.990156E3,1.1166271E2,3.257769E2,3.187275E3,8.750672E2,1.0886174E3,2.932556E1,6.682844E2,1.2087395E2,9.2262726E2,2.295289E2,6.600131E2,3.0021103E2,1.25573555E2,5.421469E2,4.6262952E2,4.7560043E1,2.2407736E2,2.8573624E1,3.436354E2,3.7352493E2,5.3575542E1,1.2482162E2,4.7503647E2,2.4080797E2,3.4777107E1,5.000384E1,5.0191826E1,2.981432E2,1.1692627E2,7.5550916E2,1.7708127E2,1.827208E2,3.964402E3,2.5753859E1,5.9779026E1,5.1883682E1,1.911801E2,1.345968E2,3.1171567E3,7.0118164E1,7.425382E1,8.0081335E2,8.440498E2,2.4456766E2,5.3951514E2,1.2876929E2,3.8724777E1,8.214917E1,7.239278E2,1.9869948E2,6.8614296E1,1.6091461E2,4.075501E2,2.52463E2,2.451316E2,5.507942E1,2.9701529E1,9.5872025E1,2.7708896E2,2.6505795E2,2.7257733E2,1.9005219E2,7.519375E1,1.4888362E2,1.5339523E2,1.9024017E2,1.0771504E2,2.6580988E2,2.7633701E1,2.5941841E1,2.9889513E1,9.4932106E1,2.4795137E2,2.2708511E2,9.831582E1,1.4249214E2,8.929257E1,2.7633701E1,1.6392236E2,5.915868E2,9.117242E1,8.590885E1,1.2331774E2,5.9403057E1,1.6437352E3,2.320667E3,3.1205404E1,2.8573624E1,1.5903477E2,3.2145325E1,4.342439E1,9.117242E1,1.8614211E3,1.2557356E3,3.96647E1,3.0453466E1,4.9251904E1,2.500192E1,5.8481934E2,2.1599403E2,3.6581757E2,4.782322E2,2.0509094E2,3.9476715E1,4.8180392E2,5.77112E1,1.0019566E2,2.8573624E1,3.0077497E1,5.2071667E1,5.263562E2,1.9757156E2,9.5496056E1,1.03203415E2,3.6844936E1,3.1769358E1,1.3008517E2,3.0829435E1,3.3329626E2,7.425382E1,1.9381187E2,5.865112E1,2.0678279E2,3.834881E1,2.8761608E1,2.631781E1,2.9889513E1,6.598251E1,2.428758E2,3.4213154E1,1.3309293E2,1.3196503E2,1.3027316E2,1.4230417E2,1.635464E2,2.6505795E1,4.7936012E1,2.7257732E1,5.4515465E1,9.436815E1,1.1692627E2,3.6468967E1,2.9889513E1,1.6035066E2,4.9439888E1,5.8275154E1,8.0645294E1,1.851646E2,3.2897263E1,6.203484E1,1.550871E2,9.286427E1,1.8234483E2,4.4740276E1,6.72984E1,3.101742E1,4.3988342E1,9.850381E1,3.6093E1,5.3199574E1,3.0265482E1,1.3365688E2,1.0000768E2,4.915791E2],"tree_param":{"num_deleted":"0","num_feature":"21","num_nodes":"197","size_leaf_vector":"1"}},{"base_weights":[-1.21798374E-1,-6.1148816E-1,1.354713E0,-8.242777E-1,-2.145173E-1,7.7759904E-1,1.9040322E0,-8.887601E-1,-6.684382E-1,-3.9146066E-1,4.5369916E-2,5.409189E-1,1.0668423E0,1.5710188E0,2.1161988E0,-7.4716264E-1,-9.0394694E-1,-6.778502E-1,1.5651E-2,-4.2975613E-1,-1.1663077E-1,-6.713758E-2,2.3915105E-1,4.0052423E-1,7.247791E-1,1.1778432E0,8.413002E-1,1.6182189E0,1.1512907E0,2.408296E0,1.9969609E0,-8.968914E-1,-6.555904E-1,-9.585006E-1,-8.3534366E-1,-6.899889E-1,-3.5045394E-1,-5.0150794E-1,-2.9557884E-1,-2.0842372E-1,1.0190186E-1,-1.6229592E-1,1.6094308E-1,9.372339E-2,5.8945733E-1,3.748585E-1,5.3023577E-2,5.300343E-1,9.4842684E-1,1.0132451E0,1.3275255E0,2.8715862E-2,9.235158E-1,1.5060377E0,1.7285275E0,4.839724E-2,1.4732504E0,1.9473779E-1,2.3129067E0,1.5683378E0,2.0641305E0,-8.006088E-1,-9.928019E-1,-7.987641E-2,-6.0122633E-1,-7.9589605E-2,-9.430119E-1,-8.4457904E-1,-4.899802E-1,-4.953411E-1,-7.0697486E-1,-2.4911144E-1,-4.38181E-2,-5.121401E-1,-3.9880285E-3,-3.229485E-1,2.4997285E-2,-3.4285793E-1,-8.320899E-2,3.144594E-2,-1.7325995E-2,-1.181144E-1,-3.689648E-1,3.0728328E-1,1.4167682E-2,-1.5937294E-1,1.7423429E-1,2.909755E-1,8.984047E-1,4.4987848E-1,2.7030033E-1,5.99275E-1,3.478211E-4,8.688744E-1,1.05436035E-1,9.292738E-1,1.0972952E-1,1.5315174E0,1.2098095E0,1.0668728E0,6.8807405E-1,1.3132278E0,1.6851264E0,1.7598932E0,9.775187E-2,8.1197165E-2,1.3461848E-1,1.3679896E-1,1.768895E-1,1.7008815E0,7.226412E-2,1.8899282E0,2.1859179E0,-6.4092256E-2,-4.6057634E-2,-8.215542E-2,-5.6580137E-2,3.6390945E-3,-4.9673434E-2,-6.479707E-2,-7.3460266E-2,-5.5921804E-2,-6.607266E-2,-5.0327737E-2,-1.487475E-2,-4.0819645E-2,-1.394052E-2,-5.4167196E-2,-3.3411574E-2,-3.5712898E-2,-4.530455E-3,-4.2660642E-2,-3.392459E-2,-2.6486684E-2,-8.510175E-3,1.5858475E-2,-1.1282304E-2,-8.168859E-3,-3.6601197E-2,-3.0333534E-2,2.2867338E-3,-3.1796674E-4,-2.2972759E-2,-3.8452804E-2,-1.8425314E-3,1.6186232E-2,5.419813E-2,-4.5823622E-3,2.771496E-2,-2.3308754E-2,1.2117191E-2,1.0143075E-2,3.8956948E-2,3.0980123E-2,9.833177E-4,5.159699E-2,9.135286E-2,3.8647678E-2,1.9488297E-2,1.2492643E-2,5.2806564E-2,2.5006987E-2,5.458023E-2,9.592319E-2,5.8364317E-2,6.138033E-2,9.460526E-2,1.4802867E-1,8.856949E-2,7.4154966E-2,1.1590477E-1,6.0585454E-2,9.452425E-2,2.6721476E-2,6.530616E-2,1.0548773E-1,6.0258426E-2,1.1812528E-1,1.5219344E-1,1.3568784E-1,1.04960136E-1,1.4933972E-1,1.08243935E-1,1.1201443E-1,1.4764665E-1,1.2505539E-1,1.6721247E-1],"categories":[],"categories_nodes":[],"categories_segments":[],"categories_sizes":[],"default_left":[0,0,0,0,0,0,0,0,0,0,0,0,0,0,0,0,0,0,0,0,0,0,0,0,0,0,0,0,0,0,0,0,0,0,0,0,0,0,0,0,0,0,0,0,0,0,0,0,0,0,0,0,0,0,0,0,0,0,0,0,0,0,0,0,0,0,0,0,0,0,0,0,0,0,0,0,0,0,0,0,0,0,0,0,0,0,0,0,0,0,0,0,0,0,0,0,0,0,0,0,0,0,0,0,0,0,0,0,0,0,0,0,0,0,0,0,0,0,0,0,0,0,0,0,0,0,0,0,0,0,0,0,0,0,0,0,0,0,0,0,0,0,0,0,0,0,0,0,0,0,0,0,0,0,0,0,0,0,0,0,0,0,0,0,0,0,0,0,0,0,0,0,0,0,0,0,0,0,0,0,0,0,0,0,0,0,0],"id":1,"left_children":[1,3,5,7,9,11,13,15,17,19,21,23,25,27,29,31,33,35,-1,37,39,41,43,45,47,49,51,53,55,57,59,61,63,65,67,69,71,73,75,77,79,81,83,85,87,89,-1,91,93,95,97,-1,99,101,103,-1,105,-1,107,109,111,113,115,-1,117,-1,119,121,123,125,127,129,-1,131,-1,133,135,137,139,-1,-1,141,143,145,147,149,151,153,155,157,159,161,-1,163,-1,165,-1,167,169,171,173,175,177,179,-1,-1,-1,-1,-1,181,-1,183,185,-1,-1,-1,-1,-1,-1,-1,-1,-1,-1,-1,-1,-1,-1,-1,-1,-1,-1,-1,-1,-1,-1,-1,-1,-1,-1,-1,-1,-1,-1,-1,-1,-1,-1,-1,-1,-1,-1,-1,-1,-1,-1,-1,-1,-1,-1,-1,-1,-1,-1,-1,-1,-1,-1,-1,-1,-1,-1,-1,-1,-1,-1,-1,-1,-1,-1,-1,-1,-1,-1,-1,-1,-1,-1],"loss_changes":[1.2382568E4,1.0861602E3,1.3507007E3,8.35376E1,2.0645926E2,1.4193298E2,1.5102539E2,1.2052734E1,2.0403076E1,2.8060944E1,3.9680916E1,2.9314972E1,2.2437256E1,1.5056885E1,4.1566406E1,7.3518677E0,1.9187012E1,9.409424E0,0E0,2.2417786E1,6.6014853E0,2.5025166E1,3.4001324E1,4.8676605E0,2.10719E1,1.4044617E1,1.141124E1,6.866455E0,1.36783905E1,8.371582E-1,2.4153809E1,1.2094421E0,7.4404297E0,3.720459E0,7.156616E0,7.388672E0,1.9596472E0,7.24588E0,7.195137E0,3.8654823E0,1.0420036E1,7.3820705E0,7.289731E0,9.677996E0,1.7805672E1,4.6181946E0,0E0,9.712265E0,7.121872E0,1.0037018E1,5.925537E0,0E0,8.175644E0,1.1156128E1,2.7615967E0,0E0,4.8543396E0,0E0,1.5437012E0,9.0277405E0,1.3251953E1,6.1712646E-1,1.7313919E0,0E0,1.28437195E1,0E0,6.612793E0,7.6624756E0,3.2569523E0,2.7935715E0,8.2561035E0,2.7018354E0,0E0,4.794159E0,0E0,4.735939E0,2.1696687E0,3.7242813E0,4.43516E0,0E0,0E0,1.4388462E1,7.054655E0,6.302538E0,4.5853467E0,5.629386E0,4.7723064E0,3.4253893E0,5.6056824E0,4.2215805E0,1.135437E1,7.815262E0,0E0,6.36615E0,0E0,8.431229E0,0E0,1.5461395E1,1.406369E1,7.113632E0,5.9154205E0,7.9508667E0,4.2768555E0,3.687622E0,0E0,0E0,0E0,0E0,0E0,5.1914673E0,0E0,7.8063965E0,7.0351562E0,0E0,0E0,0E0,0E0,0E0,0E0,0E0,0E0,0E0,0E0,0E0,0E0,0E0,0E0,0E0,0E0,0E0,0E0,0E0,0E0,0E0,0E0,0E0,0E0,0E0,0E0,0E0,0E0,0E0,0E0,0E0,0E0,0E0,0E0,0E0,0E0,0E0,0E0,0E0,0E0,0E0,0E0,0E0,0E0,0E0,0E0,0E0,0E0,0E0,0E0,0E0,0E0,0E0,0E0,0E0,0E0,0E0,0E0,0E0,0E0,0E0,0E0,0E0,0E0,0E0,0E0,0E0,0E0,0E0,0E0,0E0,0E0,0E0,0E0],"parents":[2147483647,0,0,1,1,2,2,3,3,4,4,5,5,6,6,7,7,8,8,9,9,10,10,11,11,12,12,13,13,14,14,15,15,16,16,17,17,19,19,20,20,21,21,22,22,23,23,24,24,25,25,26,26,27,27,28,28,29,29,30,30,31,31,32,32,33,33,34,34,35,35,36,36,37,37,38,38,39,39,40,40,41,41,42,42,43,43,44,44,45,45,47,47,48,48,49,49,50,50,52,52,53,53,54,54,56,56,58,58,59,59,60,60,61,61,62,62,64,64,66,66,67,67,68,68,69,69,70,70,71,71,73,73,75,75,76,76,77,77,78,78,81,81,82,82,83,83,84,84,85,85,86,86,87,87,88,88,89,89,90,90,91,91,93,93,95,95,97,97,98,98,99,99,100,100,101,101,102,102,103,103,109,109,111,111,112,112],"right_children":[2,4,6,8,10,12,14,16,18,20,22,24,26,28,30,32,34,36,-1,38,40,42,44,46,48,50,52,54,56,58,60,62,64,66,68,70,72,74,76,78,80,82,84,86,88,90,-1,92,94,96,98,-1,100,102,104,-1,106,-1,108,110,112,114,116,-1,118,-1,120,122,124,126,128,130,-1,132,-1,134,136,138,140,-1,-1,142,144,146,148,150,152,154,156,158,160,162,-1,164,-1,166,-1,168,170,172,174,176,178,180,-1,-1,-1,-1,-1,182,-1,184,186,-1,-1,-1,-1,-1,-1,-1,-1,-1,-1,-1,-1,-1,-1,-1,-1,-1,-1,-1,-1,-1,-1,-1,-1,-1,-1,-1,-1,-1,-1,-1,-1,-1,-1,-1,-1,-1,-1,-1,-1,-1,-1,-1,-1,-1,-1,-1,-1,-1,-1,-1,-1,-1,-1,-1,-1,-1,-1,-1,-1,-1,-1,-1,-1,-1,-1,-1,-1,-1,-1,-1,-1,-1,-1],"split_conditions":[4.5E1,2.3E1,7.4E1,1.7E1,3.3E1,5.7E1,9.5E1,2.92E0,6.3487E2,1.8E1,1.7E1,3.701E1,2.738E1,3.87594E3,6.9405E2,6E0,1.2E1,4.227E1,1.5651E-2,3.101E1,2.758E1,4.01E1,3.468E1,2E0,1.7E1,6.4E1,2.557E1,8.3E1,2.2E1,1.6E1,4.526E1,3.17E1,2E0,6E0,3.1248E2,4.653E1,3.21222E3,2E0,1E0,2.8E1,3.203E1,6E0,4.6169E2,1.8E1,4E1,3.6E1,5.3023577E-2,8E0,5.255E1,1.2E1,1.5E1,2.8715862E-2,1.29954E3,1.13449E3,1.8E1,4.839724E-2,1.4E1,1.9473779E-1,1.01E2,6.681E1,2.3E1,3E0,2.109E1,-7.987641E-2,9.69E0,-7.9589605E-2,4.4E0,9E0,1.544E1,1.48E2,3.7583E2,2.6719E2,-4.38181E-2,1.4E1,-3.9880285E-3,1.6E1,4.786E3,2.5E1,1.967E1,3.144594E-2,-1.7325995E-2,1.697E1,2.059E1,1.266E1,4.3E1,4E1,1.1E1,4.162E1,4.3E1,2.25E1,2.2E1,7.3905E2,3.478211E-4,5E0,1.05436035E-1,1.25745E3,1.0972952E-1,1E1,1.9E1,2.1E1,4.197E1,2.578E1,2.3E1,3.433E1,9.775187E-2,8.1197165E-2,1.3461848E-1,1.3679896E-1,1.768895E-1,3.85E1,7.226412E-2,1E0,7.7E1,-6.4092256E-2,-4.6057634E-2,-8.215542E-2,-5.6580137E-2,3.6390945E-3,-4.9673434E-2,-6.479707E-2,-7.3460266E-2,-5.5921804E-2,-6.607266E-2,-5.0327737E-2,-1.487475E-2,-4.0819645E-2,-1.394052E-2,-5.4167196E-2,-3.3411574E-2,-3.5712898E-2,-4.530455E-3,-4.2660642E-2,-3.392459E-2,-2.6486684E-2,-8.510175E-3,1.5858475E-2,-1.1282304E-2,-8.168859E-3,-3.6601197E-2,-3.0333534E-2,2.2867338E-3,-3.1796674E-4,-2.2972759E-2,-3.8452804E-2,-1.8425314E-3,1.6186232E-2,5.419813E-2,-4.5823622E-3,2.771496E-2,-2.3308754E-2,1.2117191E-2,1.0143075E-2,3.8956948E-2,3.0980123E-2,9.833177E-4,5.159699E-2,9.135286E-2,3.8647678E-2,1.9488297E-2,1.2492643E-2,5.2806564E-2,2.5006987E-2,5.458023E-2,9.592319E-2,5.8364317E-2,6.138033E-2,9.460526E-2,1.4802867E-1,8.856949E-2,7.4154966E-2,1.1590477E-1,6.0585454E-2,9.452425E-2,2.6721476E-2,6.530616E-2,1.0548773E-1,6.0258426E-2,1.1812528E-1,1.5219344E-1,1.3568784E-1,1.04960136E-1,1.4933972E-1,1.08243935E-1,1.1201443E-1,1.4764665E-1,1.2505539E-1,1.6721247E-1],"split_indices":[0,0,0,0,0,0,0,7,5,16,16,8,7,11,11,0,0,8,0,8,8,8,8,15,16,0,8,0,16,1,8,5,12,0,5,11,9,15,15,0,8,2,11,16,0,12,0,13,8,1,12,0,5,5,13,0,1,0,0,7,16,12,8,0,8,0,7,12,7,5,11,5,0,16,0,16,9,0,8,0,0,7,8,7,0,0,1,8,0,7,16,5,0,1,0,11,0,1,16,16,8,7,16,7,0,0,0,0,0,8,0,13,12,0,0,0,0,0,0,0,0,0,0,0,0,0,0,0,0,0,0,0,0,0,0,0,0,0,0,0,0,0,0,0,0,0,0,0,0,0,0,0,0,0,0,0,0,0,0,0,0,0,0,0,0,0,0,0,0,0,0,0,0,0,0,0,0,0,0,0,0,0,0,0,0,0,0],"split_type":[0,0,0,0,0,0,0,0,0,0,0,0,0,0,0,0,0,0,0,0,0,0,0,0,0,0,0,0,0,0,0,0,0,0,0,0,0,0,0,0,0,0,0,0,0,0,0,0,0,0,0,0,0,0,0,0,0,0,0,0,0,0,0,0,0,0,0,0,0,0,0,0,0,0,0,0,0,0,0,0,0,0,0,0,0,0,0,0,0,0,0,0,0,0,0,0,0,0,0,0,0,0,0,0,0,0,0,0,0,0,0,0,0,0,0,0,0,0,0,0,0,0,0,0,0,0,0,0,0,0,0,0,0,0,0,0,0,0,0,0,0,0,0,0,0,0,0,0,0,0,0,0,0,0,0,0,0,0,0,0,0,0,0,0,0,0,0,0,0,0,0,0,0,0,0,0,0,0,0,0,0,0,0,0,0,0,0],"sum_hessian":[1.7123734E4,1.2859443E4,4.2642905E3,8.371153E3,4.488291E3,2.0807124E3,2.1835781E3,5.91781E3,2.4533428E3,2.6699546E3,1.8183363E3,1.1459124E3,9.3480005E2,8.5304987E2,1.3305282E3,5.780886E2,5.339721E3,2.4275212E3,2.5821547E1,2.3429224E3,3.270322E2,1.1508292E3,6.675071E2,6.515618E2,4.9435056E2,6.2364825E2,3.111518E2,7.642513E2,8.879856E1,3.8012906E2,9.503992E2,2.1604362E2,3.62045E2,2.9672107E3,2.3725105E3,2.339667E3,8.7854256E1,1.5247949E3,8.1812756E2,2.3033008E2,9.6702126E1,8.1224005E2,3.3858917E2,4.7258405E2,1.9492302E2,6.032619E2,4.8299934E1,2.6605173E2,2.2829883E2,3.0072528E2,3.2292294E2,4.817758E1,2.629742E2,3.8617422E2,3.7807706E2,3.5698624E1,5.3099934E1,1.1903906E2,2.6108997E2,1.3205812E2,8.1834106E2,1.1247736E2,1.0356625E2,4.025853E1,3.2178647E2,3.8002722E2,2.5871836E3,2.3093115E3,6.3199066E1,1.9020522E2,2.149462E3,6.272826E1,2.5125994E1,1.4893333E3,3.5461605E1,7.537663E2,6.4361244E1,1.10237595E2,1.2009248E2,4.9373535E1,4.732859E1,6.7047736E2,1.417627E2,1.6899834E2,1.6959084E2,1.1381439E2,3.5876965E2,1.0012834E2,9.479468E1,3.493222E2,2.5393971E2,2.349479E2,3.1103819E1,1.9694432E2,3.1354513E1,2.56001E2,4.47243E1,1.1376588E2,2.0915707E2,1.6125624E2,1.01717964E2,1.8997578E2,1.9619844E2,3.4917813E2,2.8898937E1,2.5951096E1,2.7148838E1,2.5779972E1,2.3531001E2,1.0683361E2,2.522451E1,3.435098E2,4.7483127E2,8.446156E1,2.80158E1,6.9891304E1,3.367495E1,2.7670683E1,2.9411578E2,8.2439105E2,1.7627925E3,6.266755E2,1.682636E3,3.8189945E1,2.5009119E1,1.6358664E2,2.6618576E1,2.0293158E3,1.2014606E2,2.7779316E1,3.4948944E1,7.603955E2,7.289378E2,6.581711E2,9.5595245E1,3.1101025E1,3.3260223E1,4.288061E1,6.735698E1,3.0725422E1,8.9367065E1,4.1835165E2,2.5212572E2,9.9673744E1,4.2088943E1,1.3974452E2,2.9253815E1,1.4063303E2,2.8957813E1,7.735269E1,3.64617E1,3.2360645E2,3.5163204E1,6.922467E1,3.0903667E1,5.9061356E1,3.5733326E1,2.585862E2,9.0736E1,2.0605069E2,4.788902E1,7.771454E1,1.5723337E2,3.3290367E1,1.6365395E2,1.9452875E2,6.1472244E1,4.826272E1,6.550316E1,1.2847029E2,8.068678E1,7.114945E1,9.01068E1,3.7165504E1,6.455246E1,1.5910515E2,3.087063E1,1.528586E2,4.333985E1,3.0364386E2,4.5534256E1,4.7066647E1,5.976696E1,6.020732E1,2.833025E2,3.985964E1,4.3497162E2],"tree_param":{"num_deleted":"0","num_feature":"21","num_nodes":"187","size_leaf_vector":"1"}},{"base_weights":[-1.1457954E-1,-4.9528837E-1,9.8703223E-1,-6.8722105E-1,2.6727837E-1,5.720787E-1,1.5139339E0,2.4541065E-1,-7.151557E-1,5.829591E-2,9.5535064E-1,3.4551087E-1,1.2735226E0,1.2864246E0,1.7747986E0,3.2227424E-1,-8.474539E-3,-9.214408E-1,-5.5663204E-1,-1.4844854E-1,3.8504124E-1,7.872569E-1,1.400081E0,2.4988326E-1,7.088767E-1,1.1117618E0,1.5937839E0,1.1109036E0,1.6927308E0,1.5924534E0,1.8997711E0,5.3906996E-2,5.6476897E-1,-6.2423295E-1,-9.314973E-1,-6.571405E-1,-3.5521632E-1,-2.665908E-1,5.9685234E-2,2.4750921E-1,5.5767924E-1,7.336425E-1,1.1802664E-1,1.0238335E0,1.5737181E0,5.932839E-1,7.293686E-2,5.6295043E-1,9.824331E-1,9.898773E-1,1.3436444E0,1.7814629E0,1.2846808E0,1.3190775E0,8.877112E-1,1.349846E0,1.8417913E0,1.5199133E0,1.6279247E-1,1.8628336E0,1.653747E-1,1.0306027E-1,-3.6407122E-3,5.0610173E-2,2.946784E-2,-6.8746203E-1,-3.691864E-2,-9.447073E-1,-7.4741083E-1,-6.9386536E-1,-4.5745993E-1,-4.633171E-1,-2.3062977E-1,-2.9957372E-1,1.565103E-2,3.407393E-2,2.8254278E-2,1.7910013E-1,6.8320143E-1,6.8713343E-1,3.7083045E-1,5.060255E-3,7.8663766E-1,9.165166E-2,5.8178876E-2,1.6870306E0,9.281662E-2,7.938597E-1,3.6964384E-1,-2.870544E-1,3.0068925E-1,4.669438E-1,1.00717686E-1,1.0785484E0,4.1815005E-2,1.0988535E0,6.4866E-1,1.4866908E0,5.6352302E-2,1.5495389E0,1.9614211E0,1.0764737E0,1.24542825E-1,1.1402584E0,1.4562674E0,4.7592655E-1,1.2064698E0,1.5771855E0,6.3118994E-2,1.0844337E-1,1.9316372E0,1.6516881E0,1.3371006E0,1.6382635E0,1.9341598E0,3.6189782E-3,1.3812413E-2,-4.2797662E-2,-6.0598888E-2,-6.407386E-2,-7.219177E-2,-6.1844524E-2,-4.1143585E-2,-9.07666E-3,-5.302835E-2,-3.781061E-2,3.331566E-3,-1.34162465E-2,-3.652698E-2,-1.58248E-2,-5.2502483E-2,-1.6206495E-2,-3.6770996E-2,9.635076E-3,-4.855548E-3,2.1423195E-2,-5.9003173E-3,2.3088029E-2,7.566549E-2,5.9120294E-2,4.177997E-3,2.434521E-3,5.079448E-2,6.898494E-2,3.5274234E-2,1.0115386E-1,1.4324315E-1,6.9711655E-2,5.183537E-2,3.279713E-4,4.0172942E-2,-2.9851817E-2,1.2262541E-2,-4.9860547E-3,3.0636508E-2,2.2685632E-2,4.977647E-2,6.479887E-2,9.574699E-2,4.642119E-2,9.05687E-2,2.5712634E-2,6.3592695E-2,8.440329E-2,1.1915698E-1,9.452634E-2,1.3594937E-1,1.2670438E-1,1.6581288E-1,9.048235E-2,6.837812E-2,1.0269392E-1,8.167093E-2,9.588989E-2,1.1513636E-1,2.2658527E-2,8.3474405E-2,4.9229458E-2,9.812619E-2,1.3200106E-1,9.390784E-2,1.1617979E-1,1.5096034E-1,1.1696073E-1,1.4611292E-1,6.40115E-2,1.1989824E-1,1.0985639E-1,1.3706255E-1,1.4903502E-1,1.2389429E-1],"categories":[],"categories_nodes":[],"categories_segments":[],"categories_sizes":[],"default_left":[0,0,0,0,0,0,0,0,0,0,0,0,0,0,0,0,0,0,0,0,0,0,0,0,0,0,0,0,0,0,0,0,0,0,0,0,0,0,0,0,0,0,0,0,0,0,0,0,0,0,0,0,0,0,0,0,0,0,0,0,0,0,0,0,0,0,0,0,0,0,0,0,0,0,0,0,0,0,0,0,0,0,0,0,0,0,0,0,0,0,0,0,0,0,0,0,0,0,0,0,0,0,0,0,0,0,0,0,0,0,0,0,0,0,0,0,0,0,0,0,0,0,0,0,0,0,0,0,0,0,0,0,0,0,0,0,0,0,0,0,0,0,0,0,0,0,0,0,0,0,0,0,0,0,0,0,0,0,0,0,0,0,0,0,0,0,0,0,0,0,0,0,0,0,0,0,0,0,0,0,0,0,0,0,0,0,0,0,0,0,0],"id":2,"left_children":[1,3,5,7,9,11,13,15,17,19,21,23,25,27,29,31,-1,33,35,37,39,41,43,45,47,49,51,53,55,57,59,61,63,65,67,69,71,73,75,77,79,81,-1,83,85,87,89,91,93,95,97,99,101,103,105,107,109,111,-1,113,-1,115,-1,-1,-1,117,-1,119,121,123,125,127,129,131,-1,-1,133,135,137,139,141,-1,143,-1,-1,145,-1,147,149,151,153,155,-1,157,-1,159,161,163,-1,165,167,169,-1,171,173,175,177,179,-1,-1,181,183,185,187,189,-1,-1,-1,-1,-1,-1,-1,-1,-1,-1,-1,-1,-1,-1,-1,-1,-1,-1,-1,-1,-1,-1,-1,-1,-1,-1,-1,-1,-1,-1,-1,-1,-1,-1,-1,-1,-1,-1,-1,-1,-1,-1,-1,-1,-1,-1,-1,-1,-1,-1,-1,-1,-1,-1,-1,-1,-1,-1,-1,-1,-1,-1,-1,-1,-1,-1,-1,-1,-1,-1,-1,-1,-1,-1,-1,-1],"loss_changes":[7.1295605E3,1.8492288E3,9.5374023E2,2.6313525E2,3.65338E2,3.8799463E2,1.1184424E2,8.14315E0,3.1995996E2,1.3179567E2,4.3147278E1,6.406439E1,2.9122314E1,7.1630615E1,1.7328613E1,1.5755308E1,0E0,1.2141846E1,1.1200098E2,2.9403435E1,1.7812492E1,1.705365E1,8.911835E0,8.8984825E1,1.4801315E1,9.961792E0,9.1874695E0,3.2409485E1,1.3309753E1,1.2192261E1,1.80896E0,5.903933E-1,2.1426086E0,8.49617E-1,9.30249E0,2.6795776E1,2.477864E1,1.2016342E1,5.3649845E0,1.2473246E1,7.834526E0,1.4285736E1,0E0,1.6938744E0,2.0394592E0,2.2049408E1,7.945678E1,1.8330795E1,4.8083496E0,9.166229E0,1.0308136E1,1.9899597E0,4.3420563E0,7.4628296E0,4.56091E1,9.925491E0,4.771057E0,5.7786255E0,0E0,4.4329834E0,0E0,3.4173506E-1,0E0,0E0,0E0,8.586464E-1,0E0,5.3671875E0,3.8499603E0,2.347705E1,1.354776E1,6.578003E0,7.7814865E0,1.1253883E1,0E0,0E0,3.7607222E0,1.0090693E1,6.6565228E0,1.2497368E1,1.4395184E1,0E0,1.5410385E1,0E0,0E0,3.3266907E0,0E0,3.00383E0,1.439064E1,1.8846289E1,2.3514912E1,7.1431923E0,0E0,3.4426804E0,0E0,9.684494E0,3.7767086E0,2.18013E0,0E0,2.0838318E0,6.134491E-1,4.0210724E-2,0E0,4.6020508E-1,9.371338E-1,1.6846062E1,1.0219086E1,1.7275696E0,0E0,0E0,2.171936E0,2.1132202E0,1.686612E1,1.2940369E0,2.0196533E0,0E0,0E0,0E0,0E0,0E0,0E0,0E0,0E0,0E0,0E0,0E0,0E0,0E0,0E0,0E0,0E0,0E0,0E0,0E0,0E0,0E0,0E0,0E0,0E0,0E0,0E0,0E0,0E0,0E0,0E0,0E0,0E0,0E0,0E0,0E0,0E0,0E0,0E0,0E0,0E0,0E0,0E0,0E0,0E0,0E0,0E0,0E0,0E0,0E0,0E0,0E0,0E0,0E0,0E0,0E0,0E0,0E0,0E0,0E0,0E0,0E0,0E0,0E0,0E0,0E0,0E0,0E0,0E0,0E0,0E0,0E0,0E0,0E0,0E0,0E0,0E0],"parents":[2147483647,0,0,1,1,2,2,3,3,4,4,5,5,6,6,7,7,8,8,9,9,10,10,11,11,12,12,13,13,14,14,15,15,17,17,18,18,19,19,20,20,21,21,22,22,23,23,24,24,25,25,26,26,27,27,28,28,29,29,30,30,31,31,32,32,33,33,34,34,35,35,36,36,37,37,38,38,39,39,40,40,41,41,43,43,44,44,45,45,46,46,47,47,48,48,49,49,50,50,51,51,52,52,53,53,54,54,55,55,56,56,57,57,59,59,61,61,65,65,67,67,68,68,69,69,70,70,71,71,72,72,73,73,76,76,77,77,78,78,79,79,80,80,82,82,85,85,87,87,88,88,89,89,90,90,91,91,93,93,95,95,96,96,97,97,99,99,100,100,101,101,103,103,104,104,105,105,106,106,107,107,110,110,111,111,112,112,113,113,114,114],"right_children":[2,4,6,8,10,12,14,16,18,20,22,24,26,28,30,32,-1,34,36,38,40,42,44,46,48,50,52,54,56,58,60,62,64,66,68,70,72,74,76,78,80,82,-1,84,86,88,90,92,94,96,98,100,102,104,106,108,110,112,-1,114,-1,116,-1,-1,-1,118,-1,120,122,124,126,128,130,132,-1,-1,134,136,138,140,142,-1,144,-1,-1,146,-1,148,150,152,154,156,-1,158,-1,160,162,164,-1,166,168,170,-1,172,174,176,178,180,-1,-1,182,184,186,188,190,-1,-1,-1,-1,-1,-1,-1,-1,-1,-1,-1,-1,-1,-1,-1,-1,-1,-1,-1,-1,-1,-1,-1,-1,-1,-1,-1,-1,-1,-1,-1,-1,-1,-1,-1,-1,-1,-1,-1,-1,-1,-1,-1,-1,-1,-1,-1,-1,-1,-1,-1,-1,-1,-1,-1,-1,-1,-1,-1,-1,-1,-1,-1,-1,-1,-1,-1,-1,-1,-1,-1,-1,-1,-1,-1,-1],"split_conditions":[1.2E1,1.6E-1,2.3E1,1E0,3.9E1,4.8E1,3.5E1,5E0,2E0,6E0,5.9E1,8.2482E2,1.3E1,6.4E1,4.5E1,9E0,-8.474539E-3,2.7E1,4E0,2.8E1,3.1E1,2.3E1,1E0,5E0,5E0,6.2E1,3.647E1,9E0,1.1E1,2.4E1,3.7E1,2E0,2E0,3E0,1.7E1,3.1E2,3.8E1,2E1,5E0,1E1,2.009E1,6.62E2,1.1802664E-1,1.89102E3,3.83E1,6E0,4E0,1.1E1,3.245E1,3.245E1,4.007E1,2.1E1,1.3E1,2.6E1,4.6E1,1E1,1E0,3.524E1,1.6279247E-1,1.3E1,1.653747E-1,6E0,-3.6407122E-3,5.0610173E-2,2.946784E-2,1.741E1,-3.691864E-2,3.5E0,4.5E1,2.92E0,1E0,5.33E0,4.1E1,1.92E1,1.565103E-2,3.407393E-2,5E1,1.995E1,1.6E1,7E1,7.8719E2,5.060255E-3,2.55E1,9.165166E-2,5.8178876E-2,2.578E1,9.281662E-2,2E0,1.7E1,3.3E1,1.8E-1,4.1E1,1.00717686E-1,4.2E1,4.1815005E-2,9.3317E2,2E0,1.9E1,5.6352302E-2,1.47749E3,3.06E1,8.5E1,1.24542825E-1,5E0,1E1,9E0,5E0,6.3E-1,6.3118994E-2,1.0844337E-1,2.1E1,5.6E-1,2.3E1,5.4E1,3.2E1,3.6189782E-3,1.3812413E-2,-4.2797662E-2,-6.0598888E-2,-6.407386E-2,-7.219177E-2,-6.1844524E-2,-4.1143585E-2,-9.07666E-3,-5.302835E-2,-3.781061E-2,3.331566E-3,-1.34162465E-2,-3.652698E-2,-1.58248E-2,-5.2502483E-2,-1.6206495E-2,-3.6770996E-2,9.635076E-3,-4.855548E-3,2.1423195E-2,-5.9003173E-3,2.3088029E-2,7.566549E-2,5.9120294E-2,4.177997E-3,2.434521E-3,5.079448E-2,6.898494E-2,3.5274234E-2,1.0115386E-1,1.4324315E-1,6.9711655E-2,5.183537E-2,3.279713E-4,4.0172942E-2,-2.9851817E-2,1.2262541E-2,-4.9860547E-3,3.0636508E-2,2.2685632E-2,4.977647E-2,6.479887E-2,9.574699E-2,4.642119E-2,9.05687E-2,2.5712634E-2,6.3592695E-2,8.440329E-2,1.1915698E-1,9.452634E-2,1.3594937E-1,1.2670438E-1,1.6581288E-1,9.048235E-2,6.837812E-2,1.0269392E-1,8.167093E-2,9.588989E-2,1.1513636E-1,2.2658527E-2,8.3474405E-2,4.9229458E-2,9.812619E-2,1.3200106E-1,9.390784E-2,1.1617979E-1,1.5096034E-1,1.1696073E-1,1.4611292E-1,6.40115E-2,1.1989824E-1,1.0985639E-1,1.3706255E-1,1.4903502E-1,1.2389429E-1],"split_indices":[20,10,20,16,12,12,20,2,14,14,12,5,14,12,20,20,0,5,14,12,12,16,13,18,13,12,7,12,14,14,13,2,2,12,12,5,18,16,20,14,7,5,0,5,7,2,14,14,7,7,7,16,13,20,12,2,13,7,0,2,0,20,0,0,0,5,0,7,18,7,15,7,19,7,0,0,19,7,16,19,5,0,7,0,0,7,0,2,20,12,10,12,0,12,0,5,13,16,0,5,7,12,0,2,2,14,14,10,0,0,16,10,16,20,2,0,0,0,0,0,0,0,0,0,0,0,0,0,0,0,0,0,0,0,0,0,0,0,0,0,0,0,0,0,0,0,0,0,0,0,0,0,0,0,0,0,0,0,0,0,0,0,0,0,0,0,0,0,0,0,0,0,0,0,0,0,0,0,0,0,0,0,0,0,0,0,0,0,0,0,0],"split_type":[0,0,0,0,0,0,0,0,0,0,0,0,0,0,0,0,0,0,0,0,0,0,0,0,0,0,0,0,0,0,0,0,0,0,0,0,0,0,0,0,0,0,0,0,0,0,0,0,0,0,0,0,0,0,0,0,0,0,0,0,0,0,0,0,0,0,0,0,0,0,0,0,0,0,0,0,0,0,0,0,0,0,0,0,0,0,0,0,0,0,0,0,0,0,0,0,0,0,0,0,0,0,0,0,0,0,0,0,0,0,0,0,0,0,0,0,0,0,0,0,0,0,0,0,0,0,0,0,0,0,0,0,0,0,0,0,0,0,0,0,0,0,0,0,0,0,0,0,0,0,0,0,0,0,0,0,0,0,0,0,0,0,0,0,0,0,0,0,0,0,0,0,0,0,0,0,0,0,0,0,0,0,0,0,0,0,0,0,0,0,0],"sum_hessian":[1.6997535E4,1.2632416E4,4.3651187E3,1.0092344E4,2.540073E3,2.4431433E3,1.9219753E3,2.9327396E2,9.799069E3,1.9491566E3,5.9091644E2,1.8477944E3,5.953488E2,1.0297904E3,8.9218494E2,2.41568E2,5.1705975E1,4.2559883E3,5.543081E3,1.1941299E3,7.550267E2,4.3084216E2,1.6007425E2,1.4641575E3,3.8363702E2,3.9852774E2,1.9682108E2,7.2173914E2,3.0805127E2,3.6840045E2,5.237845E2,1.1524711E2,1.26320885E2,1.4135876E2,4.11463E3,3.6963186E3,1.8467625E3,7.615647E2,4.325652E2,4.2159604E2,3.3343066E2,4.05154E2,2.5688179E1,5.27243E1,1.0734995E2,4.9709335E2,9.67064E2,2.5217453E2,1.3146248E2,2.6467526E2,1.3385248E2,1.1950037E2,7.73207E1,3.7089313E2,3.50846E2,9.63871E1,2.1166417E2,3.305527E2,3.7847748E1,4.7357675E2,5.0207737E1,7.787727E1,3.7369835E1,7.522985E1,5.1091034E1,9.2727585E1,4.8631184E1,3.835278E3,2.793515E2,3.1200164E3,5.763023E2,9.873466E2,8.5941583E2,7.12489E2,4.9075695E1,3.091795E1,4.0164725E2,3.656029E2,5.599312E1,1.9538492E2,1.3804575E2,3.0023098E1,3.751309E2,2.7129026E1,2.5595276E1,7.728167E1,3.006828E1,2.6071573E2,2.3637762E2,3.7463928E2,5.924248E2,2.2595921E2,2.6215311E1,1.0595611E2,2.5506376E1,1.9892366E2,6.5751595E1,1.0659722E2,2.7255255E1,5.6410694E1,6.3089676E1,5.2245502E1,2.5075195E1,1.6505931E2,2.058338E2,1.5417274E2,1.9667326E2,6.514517E1,3.1241928E1,4.231383E1,1.6935034E2,1.8742122E2,1.4313148E2,1.1993394E2,3.5364282E2,4.742474E1,3.0452534E1,4.999786E1,4.272973E1,6.4052893E2,3.1947493E3,1.9896786E2,8.038365E1,7.039586E1,3.0496204E3,5.2725604E2,4.904624E1,7.662637E1,9.107203E2,8.263057E2,3.3110134E1,4.970321E2,2.1545691E2,1.9313701E2,2.0851022E2,2.5860684E2,1.06996056E2,2.691584E1,2.9077278E1,1.6819615E2,2.7188765E1,6.612931E1,7.1916435E1,2.626522E2,1.124787E2,3.349305E1,4.378862E1,1.088915E2,1.5182423E2,7.417742E1,1.6220021E2,3.0069574E2,7.3943535E1,1.3454233E2,4.5788245E2,1.24456245E2,1.0150297E2,5.343535E1,5.252076E1,3.79803E1,1.6094336E2,2.7011427E1,3.8740166E1,2.6128975E1,8.046825E1,2.9632467E1,2.6778229E1,3.389505E1,2.9194622E1,2.5673565E1,2.657194E1,2.551384E1,1.3954547E2,6.8562325E1,1.3727148E2,1.2228384E2,3.1888914E1,3.1896637E1,1.6477663E2,3.8870163E1,2.6275007E1,3.3156322E1,1.3619402E2,1.4773341E2,3.968781E1,5.173408E1,9.139741E1,6.712619E1,5.280775E1,2.9266995E2,6.0972866E1],"tree_param":{"num_deleted":"0","num_feature":"21","num_nodes":"191","size_leaf_vector":"1"}},{"base_weights":[-1.0757133E-1,6.9598526E-1,-5.599615E-1,3.757709E-1,1.3607773E0,-6.8784213E-1,2.2219442E-1,1.00467384E-1,8.9244664E-1,1.165611E0,1.573733E0,-7.690482E-1,-4.4475293E-1,4.722665E-2,6.288365E-1,4.1611046E-1,-3.6261294E-2,5.747037E-1,1.0946282E0,9.985071E-1,1.4095238E0,1.4110183E0,1.6826391E0,-8.0161643E-1,-6.658299E-1,-5.353364E-1,-2.597704E-1,-7.488835E-2,2.0624265E-1,4.1341555E-1,9.716836E-1,1.04859956E-1,5.166055E-1,-3.3943817E-1,1.3072367E-1,3.0967414E-1,6.6509616E-1,9.182656E-1,1.2069671E0,1.1800579E0,6.9674915E-1,6.422724E-2,1.4456336E0,1.2514329E0,1.6668336E0,1.6031835E0,1.7623587E0,-8.114185E-1,-5.656439E-1,-6.795615E-1,-3.154206E-1,-6.31858E-1,-4.5969602E-1,-2.3242916E-1,-5.5579513E-1,3.1562526E-2,-1.1455299E-1,1.4575224E-1,5.1808804E-2,3.2394016E-1,7.747644E-1,7.924462E-1,1.2133037E0,2.2760531E-1,-8.7176174E-2,6.691677E-1,3.0224052E-1,-5.371504E-1,-2.4017982E-1,2.8508253E-2,3.2970864E-1,1.8869406E-1,5.5020105E-2,7.6395327E-1,4.8631442E-1,6.486882E-1,9.8737186E-1,1.0130407E0,1.3494703E0,1.028842E0,1.2961195E0,3.4150326E-1,1.0016305E0,1.375557E0,1.6943171E0,1.4922218E0,1.0174681E0,1.5102798E0,1.4298582E-1,1.633363E0,9.3467E-2,1.380843E-1,1.1396054E-1,-8.53862E-1,-7.73359E-1,-2.7509706E-2,-6.223475E-1,-6.8925214E-1,-4.2390803E-1,-3.4663673E-2,-1.09926015E-2,-4.133837E-1,-6.6239125E-1,-4.8816597E-1,-6.665393E-2,-4.5458425E-2,-2.0802216E-1,-3.116973E-2,-4.8133288E-2,-4.5846742E-1,-7.0624076E-2,-3.2489844E-2,1.8929121E-1,5.2879137E-1,1.3169191E-2,7.7251196E-2,3.470395E-2,1.0401442E0,3.4719575E-2,1.1016148E-1,7.566181E-2,5.886963E-3,4.3750066E-2,-1.3151365E-2,-1.8780098E-3,5.842537E-2,4.3661144E-2,-2.094495E-3,3.624749E-2,-5.465096E-2,-3.2568444E-2,-2.1876348E-2,8.96416E-3,-7.6879456E-5,3.77064E-2,1.5067001E-2,4.5031287E-2,2.7080871E-2,-1.3350594E-2,4.7004227E-2,7.657762E-2,4.2180605E-2,1.3175253E-2,7.259035E-2,2.9056966E-2,1.1534407E-1,6.88528E-2,8.637376E-2,6.2044133E-2,1.04653575E-1,6.1647717E-2,9.364691E-2,7.343749E-2,8.4325716E-2,1.0296335E-1,1.1171544E-2,3.5108656E-2,9.226905E-2,4.6243273E-2,9.366879E-2,1.1322663E-1,1.4035524E-1,1.009213E-1,1.1813409E-1,8.7691635E-2,5.4495957E-2,8.937343E-2,1.3800381E-1,8.8607825E-2,1.1785384E-1,1.3744007E-1,-6.443396E-2,-3.421611E-2,-5.869692E-2,-5.2000932E-2,-4.9723335E-2,-3.477603E-2,-5.2341312E-2,-3.0411737E-2,-2.4207454E-2,-3.6743376E-2,-4.1550048E-2,-9.291582E-3,-3.862322E-2,-5.3145036E-2,-3.307322E-2,-4.7573306E-2,-2.9126048E-2,1.7666465E-2,-1.7932963E-2,1.0915586E-3,-4.5193892E-2,-2.223365E-2,-7.7273427E-3,1.7147874E-2,4.2071387E-2,1.1962712E-2,6.9335006E-2,2.7969759E-2,-1.748388E-2,1.4815706E-2,5.4654647E-2,9.4077915E-2],"categories":[],"categories_nodes":[],"categories_segments":[],"categories_sizes":[],"default_left":[0,0,0,0,0,0,0,0,0,0,0,0,0,0,0,0,0,0,0,0,0,0,0,0,0,0,0,0,0,0,0,0,0,0,0,0,0,0,0,0,0,0,0,0,0,0,0,0,0,0,0,0,0,0,0,0,0,0,0,0,0,0,0,0,0,0,0,0,0,0,0,0,0,0,0,0,0,0,0,0,0,0,0,0,0,0,0,0,0,0,0,0,0,0,0,0,0,0,0,0,0,0,0,0,0,0,0,0,0,0,0,0,0,0,0,0,0,0,0,0,0,0,0,0,0,0,0,0,0,0,0,0,0,0,0,0,0,0,0,0,0,0,0,0,0,0,0,0,0,0,0,0,0,0,0,0,0,0,0,0,0,0,0,0,0,0,0,0,0,0,0,0,0,0,0,0,0,0,0,0,0,0,0,0,0,0,0,0,0,0,0,0,0,0,0,0,0,0,0,0,0,0,0],"id":3,"left_children":[1,3,5,7,9,11,13,15,17,19,21,23,25,27,29,31,33,35,37,39,41,43,45,47,49,51,53,55,57,59,61,63,65,67,69,71,73,75,77,79,81,-1,83,85,87,89,91,93,95,97,99,101,103,105,107,-1,109,111,-1,113,115,117,119,121,123,125,127,129,131,133,135,137,-1,139,141,143,145,147,149,151,153,155,157,159,161,163,165,167,-1,169,-1,-1,-1,171,173,-1,175,177,179,-1,-1,181,183,185,187,-1,189,-1,-1,191,193,-1,195,197,199,-1,-1,201,-1,-1,-1,-1,-1,-1,-1,-1,-1,-1,-1,-1,-1,-1,-1,-1,-1,-1,-1,-1,-1,-1,-1,-1,-1,-1,-1,-1,-1,-1,-1,-1,-1,-1,-1,-1,-1,-1,-1,-1,-1,-1,-1,-1,-1,-1,-1,-1,-1,-1,-1,-1,-1,-1,-1,-1,-1,-1,-1,-1,-1,-1,-1,-1,-1,-1,-1,-1,-1,-1,-1,-1,-1,-1,-1,-1,-1,-1,-1,-1,-1,-1,-1,-1,-1],"loss_changes":[6.1274053E3,1.2919565E3,1.078814E3,5.8297424E2,8.018237E1,1.8263086E2,1.0784507E2,1.15474525E2,9.090088E1,4.0719116E1,1.4298096E1,2.281836E1,3.8792664E1,2.0620918E1,3.327945E1,2.5240875E1,9.459441E1,1.31175995E1,1.612085E1,3.2967773E1,7.1068726E0,1.3566895E1,7.116699E-1,1.1743408E1,7.8309937E0,1.10896E1,6.068035E0,1.1864389E1,1.3416975E1,8.86026E0,6.6273346E0,4.7018957E0,1.9781693E1,1.2893677E1,2.4500069E1,7.211707E0,6.9425964E0,5.7413635E0,1.3225769E1,5.399719E0,2.5016037E1,0E0,4.4784546E0,1.2009857E1,2.533844E0,1.0965576E0,2.3422852E0,7.5180664E0,2.181305E0,3.6917725E0,1.5409975E0,4.276703E0,9.787216E0,6.2825584E0,5.050316E-1,0E0,8.385834E0,1.0448993E1,0E0,1.4481987E1,3.920967E0,7.965103E0,2.3190308E0,6.3965993E0,4.2393148E-1,2.9507294E0,1.5310591E1,4.0390587E0,8.253227E0,1.116587E1,1.4136341E1,7.1974325E0,0E0,8.699738E0,3.4493713E0,5.6969852E0,8.923279E0,4.9104767E0,6.1516113E0,6.4920044E-1,1.2664185E0,2.6034575E0,1.0287659E1,3.3826904E0,2.519455E0,1.2696838E0,5.4634094E0,7.811981E0,0E0,3.8983154E-1,0E0,0E0,0E0,4.591919E0,1.444458E0,0E0,7.553139E-1,3.5083008E0,2.5128174E-1,0E0,0E0,3.4447298E0,3.7008057E0,5.3625183E0,5.966389E0,0E0,4.577385E0,0E0,0E0,1.2907696E0,4.826905E0,0E0,4.1530657E0,8.113152E0,4.1984982E0,0E0,0E0,2.97369E0,0E0,0E0,0E0,0E0,0E0,0E0,0E0,0E0,0E0,0E0,0E0,0E0,0E0,0E0,0E0,0E0,0E0,0E0,0E0,0E0,0E0,0E0,0E0,0E0,0E0,0E0,0E0,0E0,0E0,0E0,0E0,0E0,0E0,0E0,0E0,0E0,0E0,0E0,0E0,0E0,0E0,0E0,0E0,0E0,0E0,0E0,0E0,0E0,0E0,0E0,0E0,0E0,0E0,0E0,0E0,0E0,0E0,0E0,0E0,0E0,0E0,0E0,0E0,0E0,0E0,0E0,0E0,0E0,0E0,0E0,0E0,0E0,0E0,0E0,0E0,0E0,0E0,0E0,0E0,0E0,0E0,0E0,0E0,0E0,0E0],"parents":[2147483647,0,0,1,1,2,2,3,3,4,4,5,5,6,6,7,7,8,8,9,9,10,10,11,11,12,12,13,13,14,14,15,15,16,16,17,17,18,18,19,19,20,20,21,21,22,22,23,23,24,24,25,25,26,26,27,27,28,28,29,29,30,30,31,31,32,32,33,33,34,34,35,35,36,36,37,37,38,38,39,39,40,40,42,42,43,43,44,44,45,45,46,46,47,47,48,48,49,49,50,50,51,51,52,52,53,53,54,54,56,56,57,57,59,59,60,60,61,61,62,62,63,63,64,64,65,65,66,66,67,67,68,68,69,69,70,70,71,71,73,73,74,74,75,75,76,76,77,77,78,78,79,79,80,80,81,81,82,82,83,83,84,84,85,85,86,86,87,87,89,89,93,93,94,94,96,96,97,97,98,98,101,101,102,102,103,103,104,104,106,106,109,109,110,110,112,112,113,113,114,114,117,117],"right_children":[2,4,6,8,10,12,14,16,18,20,22,24,26,28,30,32,34,36,38,40,42,44,46,48,50,52,54,56,58,60,62,64,66,68,70,72,74,76,78,80,82,-1,84,86,88,90,92,94,96,98,100,102,104,106,108,-1,110,112,-1,114,116,118,120,122,124,126,128,130,132,134,136,138,-1,140,142,144,146,148,150,152,154,156,158,160,162,164,166,168,-1,170,-1,-1,-1,172,174,-1,176,178,180,-1,-1,182,184,186,188,-1,190,-1,-1,192,194,-1,196,198,200,-1,-1,202,-1,-1,-1,-1,-1,-1,-1,-1,-1,-1,-1,-1,-1,-1,-1,-1,-1,-1,-1,-1,-1,-1,-1,-1,-1,-1,-1,-1,-1,-1,-1,-1,-1,-1,-1,-1,-1,-1,-1,-1,-1,-1,-1,-1,-1,-1,-1,-1,-1,-1,-1,-1,-1,-1,-1,-1,-1,-1,-1,-1,-1,-1,-1,-1,-1,-1,-1,-1,-1,-1,-1,-1,-1,-1,-1,-1,-1,-1,-1,-1,-1,-1,-1,-1,-1],"split_conditions":[6E-2,2.2E1,1.6E-1,2.9E-1,1.8E1,3.3E1,2.8E1,1E0,2.9E1,3E1,2.3E1,1.1E1,1.7E1,6.7E1,1.393368E4,1E1,1.8E-1,1E1,3.339905E4,1E-2,2.792499E4,4.3E1,6E1,4.5E-1,1E0,3.8E1,4E1,3.6E1,1E0,3.6E1,8E1,2E0,6E0,1.1E1,2.2E1,4.1E-1,5E0,7.3E1,5.415E1,1.4E1,2.3E1,6.422724E-2,2E0,2E-2,6E1,6.681E1,3.2E1,7E0,3.79E1,4.303E1,2.8E1,1.9E1,1E0,1E-1,4.89409E3,3.1562526E-2,1.8E1,2E0,5.1808804E-2,3.1E1,7.474E1,7E1,2.052153E4,9E0,4E0,2E0,1.7E1,4E1,1E0,2E0,3.681E1,1.13E2,5.5020105E-2,1.7E1,1.36E2,6.7E1,7.5E1,5.140064E4,7E0,5E0,1E1,2.459E1,1E1,5.584E1,9E0,1.7E1,4.106E1,1.64E2,1.4298582E-1,4.948E1,9.3467E-2,1.380843E-1,1.1396054E-1,1E0,2.08519E3,-2.7509706E-2,7E0,4E0,7.1312E2,-3.4663673E-2,-1.09926015E-2,2.82218E3,9.5E0,3.2E1,2.577E1,-4.5458425E-2,6E0,-3.116973E-2,-4.8133288E-2,1.632E1,1E0,-3.2489844E-2,6.8E1,4.568E1,9.56998E3,7.7251196E-2,3.470395E-2,2.9E-1,3.4719575E-2,1.1016148E-1,7.566181E-2,5.886963E-3,4.3750066E-2,-1.3151365E-2,-1.8780098E-3,5.842537E-2,4.3661144E-2,-2.094495E-3,3.624749E-2,-5.465096E-2,-3.2568444E-2,-2.1876348E-2,8.96416E-3,-7.6879456E-5,3.77064E-2,1.5067001E-2,4.5031287E-2,2.7080871E-2,-1.3350594E-2,4.7004227E-2,7.657762E-2,4.2180605E-2,1.3175253E-2,7.259035E-2,2.9056966E-2,1.1534407E-1,6.88528E-2,8.637376E-2,6.2044133E-2,1.04653575E-1,6.1647717E-2,9.364691E-2,7.343749E-2,8.4325716E-2,1.0296335E-1,1.1171544E-2,3.5108656E-2,9.226905E-2,4.6243273E-2,9.366879E-2,1.1322663E-1,1.4035524E-1,1.009213E-1,1.1813409E-1,8.7691635E-2,5.4495957E-2,8.937343E-2,1.3800381E-1,8.8607825E-2,1.1785384E-1,1.3744007E-1,-6.443396E-2,-3.421611E-2,-5.869692E-2,-5.2000932E-2,-4.9723335E-2,-3.477603E-2,-5.2341312E-2,-3.0411737E-2,-2.4207454E-2,-3.6743376E-2,-4.1550048E-2,-9.291582E-3,-3.862322E-2,-5.3145036E-2,-3.307322E-2,-4.7573306E-2,-2.9126048E-2,1.7666465E-2,-1.7932963E-2,1.0915586E-3,-4.5193892E-2,-2.223365E-2,-7.7273427E-3,1.7147874E-2,4.2071387E-2,1.1962712E-2,6.9335006E-2,2.7969759E-2,-1.748388E-2,1.4815706E-2,5.4654647E-2,9.4077915E-2],"split_indices":[6,20,10,10,1,18,17,17,17,17,1,17,17,18,9,20,10,20,9,6,9,17,20,6,15,18,19,19,15,17,19,2,2,17,17,10,2,19,8,1,17,0,15,6,17,7,2,17,9,8,18,19,15,10,9,0,17,1,0,17,8,19,9,20,2,2,20,18,15,15,8,18,0,20,18,19,19,9,2,2,2,8,2,8,2,2,8,19,0,7,0,0,0,15,9,0,17,2,9,0,0,9,7,19,8,0,1,0,0,7,15,0,18,8,9,0,0,10,0,0,0,0,0,0,0,0,0,0,0,0,0,0,0,0,0,0,0,0,0,0,0,0,0,0,0,0,0,0,0,0,0,0,0,0,0,0,0,0,0,0,0,0,0,0,0,0,0,0,0,0,0,0,0,0,0,0,0,0,0,0,0,0,0,0,0,0,0,0,0,0,0,0,0,0,0,0,0,0,0,0,0,0,0],"split_type":[0,0,0,0,0,0,0,0,0,0,0,0,0,0,0,0,0,0,0,0,0,0,0,0,0,0,0,0,0,0,0,0,0,0,0,0,0,0,0,0,0,0,0,0,0,0,0,0,0,0,0,0,0,0,0,0,0,0,0,0,0,0,0,0,0,0,0,0,0,0,0,0,0,0,0,0,0,0,0,0,0,0,0,0,0,0,0,0,0,0,0,0,0,0,0,0,0,0,0,0,0,0,0,0,0,0,0,0,0,0,0,0,0,0,0,0,0,0,0,0,0,0,0,0,0,0,0,0,0,0,0,0,0,0,0,0,0,0,0,0,0,0,0,0,0,0,0,0,0,0,0,0,0,0,0,0,0,0,0,0,0,0,0,0,0,0,0,0,0,0,0,0,0,0,0,0,0,0,0,0,0,0,0,0,0,0,0,0,0,0,0,0,0,0,0,0,0,0,0,0,0,0,0],"sum_hessian":[1.6853635E4,6.0704604E3,1.0783175E4,4.098079E3,1.9723813E3,9.268E3,1.5151755E3,2.6743064E3,1.4237727E3,1.0325554E3,9.39826E2,6.945598E3,2.3224014E3,1.0601403E3,4.5503528E2,8.076875E2,1.8666189E3,5.5515265E2,8.686201E2,6.1578015E2,4.1677524E2,3.8241803E2,5.5740796E2,5.2745625E3,1.6710355E3,1.5577153E3,7.6468604E2,5.999459E2,4.6019437E2,2.808038E2,1.7423149E2,1.9763165E2,6.1005585E2,6.6259064E2,1.2040282E3,1.423144E2,4.1283823E2,3.4156552E2,5.2705457E2,3.826503E2,2.331298E2,2.705404E1,3.8972122E2,2.3913222E2,1.4328581E2,2.8973874E2,2.6766922E2,5.0618604E3,2.1270238E2,1.6071174E3,6.3917995E1,6.811602E2,8.765551E2,7.0166455E2,6.302147E1,4.3735622E1,5.5621027E2,4.1027606E2,4.9918285E1,2.2659254E2,5.4211246E1,1.0248574E2,7.174575E1,1.20454506E2,7.717715E1,3.5516534E2,2.548905E2,2.1998734E2,4.426033E2,7.9618427E2,4.0784396E2,1.11842094E2,3.0472319E1,2.637339E2,1.4910434E2,7.181368E1,2.6975183E2,2.2668181E2,3.0037277E2,1.7044414E2,2.1220618E2,1.08650764E2,1.2447905E2,3.0913983E2,8.0581375E1,1.1519714E2,1.2393507E2,9.108455E1,5.2201267E1,2.6385492E2,2.5883812E1,1.9715393E2,7.051531E1,2.3829646E3,2.6788958E3,4.8853127E1,1.6384924E2,1.5467898E3,6.0327667E1,3.326652E1,3.0651472E1,8.530645E1,5.9585376E2,8.1712476E2,5.9430363E1,4.1557983E1,6.6010657E2,2.6175035E1,3.684643E1,6.19301E1,4.9428018E2,2.8070108E1,3.8220596E2,1.3614691E2,9.044564E1,2.8553637E1,2.565761E1,5.727544E1,4.5210304E1,2.9144196E1,4.2601555E1,8.573657E1,3.471793E1,3.1150446E1,4.6026703E1,1.5348341E2,2.0168193E2,9.057325E1,1.6431726E2,7.476021E1,1.4522713E2,3.873314E2,5.527191E1,7.504483E2,4.573599E1,2.7752646E2,1.3031749E2,7.608865E1,3.575344E1,1.7418936E2,8.9544525E1,1.1911595E2,2.998839E1,3.1106434E1,4.070725E1,2.7802906E1,2.4194893E2,1.2684647E2,9.9835335E1,2.7480963E2,2.5563162E1,2.6972406E1,1.4347173E2,7.035204E1,1.4185413E2,4.3965427E1,6.468533E1,7.672751E1,4.7751545E1,1.6431418E2,1.4482565E2,5.0545315E1,3.0036062E1,8.85849E1,2.6612247E1,4.8356796E1,7.557827E1,4.3183525E1,4.7901028E1,2.0801422E2,5.5840706E1,2.3507244E3,3.2240154E1,2.392978E3,2.8591766E2,1.2791527E2,3.593398E1,1.4997095E3,4.7080326E1,2.614854E1,3.4179127E1,5.6802223E1,2.8504227E1,1.4510129E2,4.5075247E2,6.2071484E2,1.9640988E2,2.8649006E1,3.0781359E1,5.7915076E2,8.095581E1,3.1336576E1,3.0593521E1,4.465761E2,4.770406E1,2.7037397E1,3.5516855E2,3.7080807E1,9.90661E1,3.860817E1,5.1837467E1,2.513672E1,3.2138718E1],"tree_param":{"num_deleted":"0","num_feature":"21","num_nodes":"203","size_leaf_vector":"1"}},{"base_weights":[-1.0102582E-1,6.32798E-1,-5.314312E-1,2.5414306E-1,1.1029905E0,-6.5614784E-1,2.042743E-1,6.0388938E-2,8.612656E-1,8.1477165E-1,1.4022027E0,-7.364016E-1,-4.1947842E-1,2.2453805E-2,5.328387E-1,-1.117754E-1,1.5877855E-1,4.1944224E-1,9.613042E-1,6.41829E-1,1.1145613E0,1.2332579E0,1.478525E0,-7.687998E-1,-6.343834E-1,-5.298114E-1,-2.7872747E-1,-7.947967E-2,2.0001586E-1,3.771386E-1,9.095132E-1,-2.2982284E-1,1.7461926E-1,4.8967233E-1,4.5915026E-2,5.1473297E-2,3.127642E-1,6.5175974E-1,1.0364008E0,9.136504E-1,4.5933753E-1,1.0503134E0,1.0395045E-1,1.372497E0,1.1658691E0,1.234871E-1,1.412191E0,-7.7855223E-1,-5.367402E-1,-6.478423E-1,-2.9641128E-1,-6.019431E-1,-4.6751958E-1,-3.5795954E-1,-1.6686109E-1,2.9774273E-2,-1.137496E-1,1.3991939E-1,4.9883697E-2,1.0804742E-1,5.9772706E-1,4.8155926E-2,1.0266973E0,-5.650668E-2,-3.5830063E-1,-1.1498997E-1,3.5404798E-1,4.2342195E-1,7.609252E-1,-1.9818398E-1,1.8696593E-1,-5.650931E-3,4.4790846E-1,8.3013755E-1,2.4949977E-2,3.3906586E-2,1.0938812E0,6.5561455E-1,1.0671097E0,3.662712E-2,6.426536E-1,9.814025E-1,1.2413995E0,1.172058E-1,1.2408903E0,8.9985347E-1,1.2491299E0,7.943518E-1,1.4966632E0,-8.168785E-1,-7.3562574E-1,-2.53259E-2,-5.953647E-1,-6.6871893E-1,-5.4156756E-1,-3.5936832E-2,-6.3888473E-3,-3.7911114E-1,-6.376792E-1,-4.234258E-1,-6.380886E-1,-3.8244027E-1,-4.3717166E-3,-2.0061953E-1,1.7457994E-2,-1.4746656E-1,1.895642E-1,7.478163E-2,5.0058927E-2,-2.408704E-2,1.9415675E-1,4.717942E-1,7.874775E-1,1.1151483E0,5.8507554E-2,-1.9769683E-2,6.118994E-3,-4.804043E-2,-1.8173618E-2,-1.7765315E-2,1.6917367E-2,2.0445134E-2,5.4347776E-2,2.0081352E-2,3.8547847E-2,4.348304E-2,7.54165E-2,-4.4345178E-2,-1.0548982E-2,-3.64493E-3,2.0667825E-2,1.5369917E-2,5.45368E-2,7.490066E-2,3.496961E-2,7.689426E-2,9.8771825E-2,5.9145812E-2,3.726054E-2,8.4221266E-2,6.9371015E-2,-2.6051298E-2,2.8804002E-2,2.4563638E-2,5.4066945E-2,6.0030486E-2,7.884476E-2,1.16873935E-1,7.201735E-2,6.408684E-2,1.0624567E-1,5.0158855E-2,9.486824E-2,8.946002E-2,1.1964864E-1,3.6844354E-2,7.01629E-2,9.596326E-2,1.2265492E-1,-6.4167336E-2,-5.6797974E-2,-5.5832647E-2,-4.537848E-2,-3.0193528E-2,-4.7193337E-2,-5.0788853E-2,-2.743102E-2,-4.2288505E-2,-2.6727404E-2,-3.8562134E-2,-8.148531E-3,-4.0049504E-2,-5.214274E-2,-3.3822265E-2,-1.070561E-3,-4.2031433E-2,-6.6028394E-2,-4.247815E-2,-2.5788873E-2,-1.259295E-2,-4.240149E-2,-1.2970332E-2,1.0032237E-2,3.0054564E-2,1.3152939E-4,-5.156116E-3,1.2764013E-2,4.245901E-2,7.50751E-3,4.8864115E-2,2.3992257E-2,3.2865796E-2,8.024395E-2,1.0132641E-1,6.937525E-2],"categories":[],"categories_nodes":[],"categories_segments":[],"categories_sizes":[],"default_left":[0,0,0,0,0,0,0,0,0,0,0,0,0,0,0,0,0,0,0,0,0,0,0,0,0,0,0,0,0,0,0,0,0,0,0,0,0,0,0,0,0,0,0,0,0,0,0,0,0,0,0,0,0,0,0,0,0,0,0,0,0,0,0,0,0,0,0,0,0,0,0,0,0,0,0,0,0,0,0,0,0,0,0,0,0,0,0,0,0,0,0,0,0,0,0,0,0,0,0,0,0,0,0,0,0,0,0,0,0,0,0,0,0,0,0,0,0,0,0,0,0,0,0,0,0,0,0,0,0,0,0,0,0,0,0,0,0,0,0,0,0,0,0,0,0,0,0,0,0,0,0,0,0,0,0,0,0,0,0,0,0,0,0,0,0,0,0,0,0,0,0,0,0,0,0,0,0,0,0,0,0,0,0,0,0,0,0,0,0,0,0,0,0,0,0],"id":4,"left_children":[1,3,5,7,9,11,13,15,17,19,21,23,25,27,29,31,33,35,37,39,41,43,45,47,49,51,53,55,57,59,61,63,65,67,69,-1,71,73,75,77,79,81,-1,83,85,-1,87,89,91,93,95,97,99,101,103,-1,105,107,-1,109,111,-1,113,115,117,119,121,123,125,127,129,-1,131,133,-1,-1,135,137,139,141,143,145,147,-1,149,151,153,155,157,159,161,-1,163,165,167,-1,-1,169,171,173,175,177,-1,179,-1,181,183,185,-1,-1,187,189,191,193,-1,-1,-1,-1,-1,-1,-1,-1,-1,-1,-1,-1,-1,-1,-1,-1,-1,-1,-1,-1,-1,-1,-1,-1,-1,-1,-1,-1,-1,-1,-1,-1,-1,-1,-1,-1,-1,-1,-1,-1,-1,-1,-1,-1,-1,-1,-1,-1,-1,-1,-1,-1,-1,-1,-1,-1,-1,-1,-1,-1,-1,-1,-1,-1,-1,-1,-1,-1,-1,-1,-1,-1,-1,-1,-1,-1,-1,-1,-1,-1,-1],"loss_changes":[5.2746807E3,1.0989526E3,9.659695E2,4.0239496E2,2.3634375E2,1.7064746E2,9.118237E1,4.396832E1,3.6176758E1,7.213251E1,1.5580566E1,2.1724121E1,3.5283844E1,1.7821444E1,3.1548096E1,3.1959852E1,6.165297E1,4.1857414E0,1.4993225E1,4.3897675E1,7.4851074E0,2.397522E0,7.9781494E0,1.1114746E1,7.201721E0,5.460327E0,8.845245E0,1.0261827E1,9.943147E0,2.2874165E1,4.30249E0,1.4876568E1,1.4390212E1,7.224106E0,4.247399E1,0E0,5.922057E0,7.3677406E0,1.7667358E1,1.3470764E1,4.1553146E1,4.2948303E0,0E0,1.3984985E0,5.3819275E0,0E0,3.3775635E1,7.440674E0,2.2348557E0,3.104309E0,2.4333076E0,4.4460754E0,4.9207306E0,4.2859116E0,5.6917744E0,0E0,6.005388E0,1.0920113E1,0E0,6.541397E0,4.6977386E0,0E0,1.4948425E0,8.20013E0,1.2415623E1,4.469453E0,4.9562206E0,4.6514473E0,3.0142403E0,1.0135704E1,1.6328638E1,0E0,5.510584E0,4.776058E0,0E0,0E0,6.17572E0,2.4816818E0,7.3010254E-1,2.1926167E1,8.989853E0,3.1097717E0,8.05542E0,0E0,4.469345E0,5.3622932E0,2.4094543E0,3.0789986E0,1.562915E1,5.282715E0,2.213501E0,0E0,7.912941E-1,3.0907593E0,8.792114E-1,0E0,0E0,3.0060492E0,2.6476746E0,6.2061005E0,2.137413E0,3.657425E0,0E0,4.5152054E0,0E0,3.7951326E0,2.3355992E0,3.9182496E0,0E0,0E0,5.073423E0,3.3408031E0,7.73201E0,2.2246628E0,0E0,0E0,0E0,0E0,0E0,0E0,0E0,0E0,0E0,0E0,0E0,0E0,0E0,0E0,0E0,0E0,0E0,0E0,0E0,0E0,0E0,0E0,0E0,0E0,0E0,0E0,0E0,0E0,0E0,0E0,0E0,0E0,0E0,0E0,0E0,0E0,0E0,0E0,0E0,0E0,0E0,0E0,0E0,0E0,0E0,0E0,0E0,0E0,0E0,0E0,0E0,0E0,0E0,0E0,0E0,0E0,0E0,0E0,0E0,0E0,0E0,0E0,0E0,0E0,0E0,0E0,0E0,0E0,0E0,0E0,0E0,0E0,0E0,0E0,0E0,0E0,0E0,0E0,0E0,0E0,0E0],"parents":[2147483647,0,0,1,1,2,2,3,3,4,4,5,5,6,6,7,7,8,8,9,9,10,10,11,11,12,12,13,13,14,14,15,15,16,16,17,17,18,18,19,19,20,20,21,21,22,22,23,23,24,24,25,25,26,26,27,27,28,28,29,29,30,30,31,31,32,32,33,33,34,34,36,36,37,37,38,38,39,39,40,40,41,41,43,43,44,44,46,46,47,47,48,48,49,49,50,50,51,51,52,52,53,53,54,54,56,56,57,57,59,59,60,60,62,62,63,63,64,64,65,65,66,66,67,67,68,68,69,69,70,70,72,72,73,73,76,76,77,77,78,78,79,79,80,80,81,81,82,82,84,84,85,85,86,86,87,87,88,88,89,89,90,90,92,92,93,93,94,94,97,97,98,98,99,99,100,100,101,101,103,103,105,105,106,106,107,107,110,110,111,111,112,112,113,113],"right_children":[2,4,6,8,10,12,14,16,18,20,22,24,26,28,30,32,34,36,38,40,42,44,46,48,50,52,54,56,58,60,62,64,66,68,70,-1,72,74,76,78,80,82,-1,84,86,-1,88,90,92,94,96,98,100,102,104,-1,106,108,-1,110,112,-1,114,116,118,120,122,124,126,128,130,-1,132,134,-1,-1,136,138,140,142,144,146,148,-1,150,152,154,156,158,160,162,-1,164,166,168,-1,-1,170,172,174,176,178,-1,180,-1,182,184,186,-1,-1,188,190,192,194,-1,-1,-1,-1,-1,-1,-1,-1,-1,-1,-1,-1,-1,-1,-1,-1,-1,-1,-1,-1,-1,-1,-1,-1,-1,-1,-1,-1,-1,-1,-1,-1,-1,-1,-1,-1,-1,-1,-1,-1,-1,-1,-1,-1,-1,-1,-1,-1,-1,-1,-1,-1,-1,-1,-1,-1,-1,-1,-1,-1,-1,-1,-1,-1,-1,-1,-1,-1,-1,-1,-1,-1,-1,-1,-1,-1,-1,-1,-1,-1,-1],"split_conditions":[6E-2,6E0,1.6E-1,3.3E-1,1.4E1,3.3E1,2.7E1,3E0,2.4E1,3.1E1,1E1,1.1E1,1.6E1,1.15E2,3.1E-1,1.9E-1,1.8E1,1.2E2,3.8E-1,2E-2,5E1,1.6E1,1E-2,4.5E-1,1E0,3.8E1,1.4E1,3.5E1,1E0,1.5E1,7.6E1,1E0,1.7E1,1.2E1,6.9E1,5.1473297E-2,1.7E1,1.15E2,1.5E1,1.8E1,2.1E1,2.3E1,1.0395045E-1,1.28E2,3.2E1,1.234871E-1,2E1,2E0,2.11E0,6E0,4.8E1,1.9E1,3.2E1,1E0,7E0,2.9774273E-2,1E0,1.8E1,4.9883697E-2,4.8E1,5E0,4.8155926E-2,6E0,2E0,4.4E1,1.13814E3,2.5E1,4E0,5E0,1.1E1,1.7E1,-5.650931E-3,8.9E1,5E0,2.4949977E-2,3.3906586E-2,2.14E2,7E0,9E0,1.8E1,1.7E1,7E0,1.05E2,1.172058E-1,3.2E1,9E0,2.3E2,1.44E2,4.8E1,7E0,2.8E-1,-2.53259E-2,4E0,3E-1,1.5E1,-3.5936832E-2,-6.3888473E-3,1.5679E2,1.5679E2,1E0,3.7583E2,6.3E1,-4.3717166E-3,9E1,1.7457994E-2,5.6122E2,4.3518E2,1.4E1,5.0058927E-2,-2.408704E-2,5.3E1,7.5E1,1.7E1,3.9E1,5.8507554E-2,-1.9769683E-2,6.118994E-3,-4.804043E-2,-1.8173618E-2,-1.7765315E-2,1.6917367E-2,2.0445134E-2,5.4347776E-2,2.0081352E-2,3.8547847E-2,4.348304E-2,7.54165E-2,-4.4345178E-2,-1.0548982E-2,-3.64493E-3,2.0667825E-2,1.5369917E-2,5.45368E-2,7.490066E-2,3.496961E-2,7.689426E-2,9.8771825E-2,5.9145812E-2,3.726054E-2,8.4221266E-2,6.9371015E-2,-2.6051298E-2,2.8804002E-2,2.4563638E-2,5.4066945E-2,6.0030486E-2,7.884476E-2,1.16873935E-1,7.201735E-2,6.408684E-2,1.0624567E-1,5.0158855E-2,9.486824E-2,8.946002E-2,1.1964864E-1,3.6844354E-2,7.01629E-2,9.596326E-2,1.2265492E-1,-6.4167336E-2,-5.6797974E-2,-5.5832647E-2,-4.537848E-2,-3.0193528E-2,-4.7193337E-2,-5.0788853E-2,-2.743102E-2,-4.2288505E-2,-2.6727404E-2,-3.8562134E-2,-8.148531E-3,-4.0049504E-2,-5.214274E-2,-3.3822265E-2,-1.070561E-3,-4.2031433E-2,-6.6028394E-2,-4.247815E-2,-2.5788873E-2,-1.259295E-2,-4.240149E-2,-1.2970332E-2,1.0032237E-2,3.0054564E-2,1.3152939E-4,-5.156116E-3,1.2764013E-2,4.245901E-2,7.50751E-3,4.8864115E-2,2.3992257E-2,3.2865796E-2,8.024395E-2,1.0132641E-1,6.937525E-2],"split_indices":[6,3,10,10,1,18,17,3,17,17,3,17,17,4,10,10,19,18,10,6,17,1,6,6,15,18,16,19,15,16,19,16,16,1,18,0,17,18,16,20,17,20,0,4,20,0,16,3,11,20,4,19,19,15,1,0,15,16,0,19,3,0,3,3,18,11,17,3,3,17,16,0,19,3,0,0,18,3,3,16,16,3,19,0,17,3,19,18,17,17,6,0,16,6,16,0,0,11,11,15,11,4,0,4,0,11,11,16,0,0,19,18,16,17,0,0,0,0,0,0,0,0,0,0,0,0,0,0,0,0,0,0,0,0,0,0,0,0,0,0,0,0,0,0,0,0,0,0,0,0,0,0,0,0,0,0,0,0,0,0,0,0,0,0,0,0,0,0,0,0,0,0,0,0,0,0,0,0,0,0,0,0,0,0,0,0,0,0,0,0,0,0,0,0,0],"split_type":[0,0,0,0,0,0,0,0,0,0,0,0,0,0,0,0,0,0,0,0,0,0,0,0,0,0,0,0,0,0,0,0,0,0,0,0,0,0,0,0,0,0,0,0,0,0,0,0,0,0,0,0,0,0,0,0,0,0,0,0,0,0,0,0,0,0,0,0,0,0,0,0,0,0,0,0,0,0,0,0,0,0,0,0,0,0,0,0,0,0,0,0,0,0,0,0,0,0,0,0,0,0,0,0,0,0,0,0,0,0,0,0,0,0,0,0,0,0,0,0,0,0,0,0,0,0,0,0,0,0,0,0,0,0,0,0,0,0,0,0,0,0,0,0,0,0,0,0,0,0,0,0,0,0,0,0,0,0,0,0,0,0,0,0,0,0,0,0,0,0,0,0,0,0,0,0,0,0,0,0,0,0,0,0,0,0,0,0,0,0,0,0,0,0,0],"sum_hessian":[1.6698328E4,6.1730522E3,1.0525275E4,3.4202227E3,2.7528296E3,8.999748E3,1.525527E3,2.59361E3,8.266126E2,1.4040701E3,1.3487596E3,6.7191846E3,2.280564E3,9.827581E2,5.427689E2,9.4314246E2,1.6504677E3,1.5356793E2,6.730447E2,8.9240216E2,5.116679E2,4.2504657E2,9.237131E2,5.094711E3,1.6244736E3,1.2768735E3,1.0036903E3,6.24692E2,3.580661E2,3.854448E2,1.5732411E2,6.680005E2,2.7514194E2,4.1892444E2,1.2315432E3,4.2304504E1,1.1126342E2,1.3329381E2,5.3975085E2,3.5685684E2,5.355453E2,4.1767755E2,9.399037E1,1.3230687E2,2.927397E2,2.5476958E2,6.689435E2,4.886977E3,2.0773347E2,1.5613787E3,6.3094963E1,5.8768835E2,6.8918524E2,5.862586E2,4.174317E2,4.120577E1,5.8348627E2,3.182458E2,3.9820305E1,1.7430438E2,2.1114043E2,4.9907005E1,1.0741711E2,2.8498984E2,3.8301068E2,1.05391914E2,1.6975003E2,3.387497E2,8.017476E1,4.5087158E2,7.806717E2,2.885101E1,8.2412415E1,8.447148E1,4.882232E1,4.9135223E1,4.9061566E2,1.3504918E2,2.2180768E2,1.6235925E2,3.7318604E2,3.1148395E2,1.0619358E2,4.965402E1,8.265285E1,7.2598274E1,2.2014142E2,8.171017E1,5.8723334E2,2.5723044E3,2.3146729E3,4.879804E1,1.5893542E2,1.3005966E3,2.6078207E2,3.3147964E1,2.9946999E1,8.282748E1,5.0486084E2,5.503871E2,1.3879814E2,5.417275E2,4.4531155E1,3.8537573E2,3.2055977E1,5.25576E2,5.791023E1,2.842851E2,3.3960682E1,2.8670069E1,1.4563431E2,1.2900757E2,8.213286E1,7.646716E1,3.0949942E1,1.1364913E2,1.713407E2,1.1023747E2,2.727732E2,7.783873E1,2.7553185E1,1.4058792E2,2.916212E1,1.2603311E2,2.1271658E2,4.7999973E1,3.2174786E1,5.637908E1,3.944925E2,2.1350362E2,5.671681E2,4.4995453E1,3.741696E1,5.6539383E1,2.79321E1,3.7947476E2,1.111409E2,7.133909E1,6.3710087E1,1.5430057E2,6.75071E1,7.712282E1,8.5236435E1,7.5254555E1,2.979315E2,9.0214035E1,2.2126993E2,4.7787487E1,5.8406097E1,2.7670086E1,5.498276E1,4.6192158E1,2.640612E1,1.9315735E2,2.6984068E1,2.738584E1,5.4324326E1,2.3290536E2,3.5432794E2,1.5514426E3,1.02086176E3,2.1639795E3,1.506934E2,2.5681866E1,1.3325357E2,1.2640411E3,3.6555412E1,2.3095459E2,2.9827501E1,5.464206E1,2.8185413E1,1.8388373E2,3.209771E2,5.155838E2,3.4803265E1,1.0761396E2,3.1184181E1,9.157105E1,4.501564E2,3.549959E2,3.0379805E1,4.8228055E2,4.3295467E1,2.6726646E1,3.1183584E1,1.1362475E2,1.7066035E2,2.8380342E1,1.1725397E2,5.758404E1,7.142352E1,3.7863037E1,4.4269825E1,3.1404907E1,4.5062256E1],"tree_param":{"num_deleted":"0","num_feature":"21","num_nodes":"195","size_leaf_vector":"1"}},{"base_weights":[-9.4925314E-2,-5.1681703E-1,8.8171047E-1,-7.101813E-1,-2.1821542E-1,5.1082975E-1,1.2446129E0,-8.397339E-1,-5.596088E-1,-3.3262247E-1,-1.2868019E-2,3.566269E-1,7.238506E-1,1.0519235E0,1.3644366E0,-6.596982E-1,-8.571134E-1,-5.994351E-1,-3.751906E-1,-4.4634587E-1,-2.0482706E-1,-2.73747E-1,5.3368147E-2,2.0690256E-1,4.5639303E-1,8.003566E-1,4.3412843E-1,1.0940349E0,6.842061E-1,1.6194415E0,1.2617644E0,-6.883274E-1,-2.3906553E-2,-8.6353225E-1,-2.8959382E-2,-6.1018044E-1,4.4610375E-3,-7.664406E-2,-4.194857E-1,-5.984835E-1,-3.8432646E-1,-2.579506E-1,3.2987524E-2,-1.2323512E-1,-5.5527955E-1,-1.0087599E-2,1.8531227E-1,-2.0108964E-2,2.4506287E-1,3.0536935E-1,5.982055E-1,1.0058284E0,7.3870546E-1,2.1375866E-1,5.4398793E-1,1.039976E0,1.194908E0,2.2403818E-2,9.3019664E-1,1.8943007E0,1.4870762E0,1.001611E0,1.3018929E0,-7.175809E-1,-3.48255E-2,-8.1033E-1,-9.000646E-1,-3.664597E-1,-6.350114E-1,1.2040328E-2,-1.4820788E-2,-4.4020185E-1,-1.9262602E-3,-6.3682777E-1,-1.4116803E-2,-4.1067296E-1,-2.4398239E-1,-3.392645E-1,-1.5371913E-1,-3.1053413E-2,1.3004394E-1,9.150534E-2,-2.5946027E-1,-4.518717E-1,-5.0263423E-2,3.0018818E-1,-7.155215E-2,1.3158305E-1,4.024598E-1,-1.3968338E-2,2.803132E-1,-1.2481549E-1,3.6708903E-1,8.705654E-1,5.2601796E-1,1.1229371E-1,8.217945E-1,1.6036636E-1,7.983013E-1,5.086485E-2,-5.694677E-3,6.440683E-2,4.5371163E-1,9.450888E-1,1.128261E0,1.434436E0,1.0216893E0,5.045145E-2,8.548596E-2,1.2001623E-1,1.4806218E-1,1.3113198E0,1.5604267E0,4.186407E-2,1.1069295E0,1.0950823E0,1.3378748E0,-7.906021E-2,-4.7839202E-2,-7.076001E-2,-5.724504E-2,-5.0882902E-2,-6.808542E-2,-1.766318E-3,-3.26858E-2,-4.8382193E-2,-2.3269955E-2,-3.650753E-2,-1.5163857E-2,-5.1011786E-2,-2.855997E-2,-6.424692E-3,-3.1652767E-2,-4.3639123E-2,-1.2221995E-2,-4.299614E-2,-2.2736553E-2,-6.016219E-3,-2.2276603E-2,2.8509574E-4,2.4077667E-2,1.8926423E-2,-1.5107869E-2,-4.241683E-2,-1.0864226E-2,-4.079081E-2,-2.4922872E-2,1.3527486E-2,4.9909998E-2,-2.6115952E-3,-2.2918712E-2,1.3093877E-2,-2.6148703E-2,-2.4458442E-3,4.429375E-2,3.2251485E-2,1.475668E-2,-2.9149668E-3,-1.5172002E-2,1.2046919E-2,3.380213E-2,3.3575848E-2,7.82938E-2,4.406523E-2,1.1574363E-2,6.7327075E-2,4.1711926E-2,-8.249899E-3,3.091204E-2,4.2445455E-2,6.789211E-2,4.3620817E-2,1.7272787E-2,7.909163E-2,5.4751154E-2,9.409827E-2,7.83192E-2,1.151004E-1,9.213418E-2,8.859204E-2,5.2150764E-2,8.4424295E-2,1.1587178E-1,1.2099089E-1,8.5510604E-2,1.04023546E-1,6.28538E-2,6.7071915E-2,9.897008E-2,9.6319854E-2,1.1161162E-1],"categories":[],"categories_nodes":[],"categories_segments":[],"categories_sizes":[],"default_left":[0,0,0,0,0,0,0,0,0,0,0,0,0,0,0,0,0,0,0,0,0,0,0,0,0,0,0,0,0,0,0,0,0,0,0,0,0,0,0,0,0,0,0,0,0,0,0,0,0,0,0,0,0,0,0,0,0,0,0,0,0,0,0,0,0,0,0,0,0,0,0,0,0,0,0,0,0,0,0,0,0,0,0,0,0,0,0,0,0,0,0,0,0,0,0,0,0,0,0,0,0,0,0,0,0,0,0,0,0,0,0,0,0,0,0,0,0,0,0,0,0,0,0,0,0,0,0,0,0,0,0,0,0,0,0,0,0,0,0,0,0,0,0,0,0,0,0,0,0,0,0,0,0,0,0,0,0,0,0,0,0,0,0,0,0,0,0,0,0,0,0,0,0,0,0,0,0,0,0,0,0,0,0,0,0,0,0,0,0,0,0],"id":5,"left_children":[1,3,5,7,9,11,13,15,17,19,21,23,25,27,29,31,33,35,37,39,41,43,45,47,49,51,53,55,57,59,61,63,-1,65,-1,67,-1,69,71,73,75,77,79,81,83,85,87,-1,89,91,93,95,97,99,101,103,105,-1,107,109,111,113,115,117,-1,119,121,123,125,-1,-1,127,-1,129,-1,131,133,135,137,-1,139,141,143,145,-1,147,149,151,153,-1,155,157,159,161,163,-1,165,167,169,-1,-1,-1,171,173,175,177,179,-1,-1,-1,-1,181,183,-1,185,187,189,-1,-1,-1,-1,-1,-1,-1,-1,-1,-1,-1,-1,-1,-1,-1,-1,-1,-1,-1,-1,-1,-1,-1,-1,-1,-1,-1,-1,-1,-1,-1,-1,-1,-1,-1,-1,-1,-1,-1,-1,-1,-1,-1,-1,-1,-1,-1,-1,-1,-1,-1,-1,-1,-1,-1,-1,-1,-1,-1,-1,-1,-1,-1,-1,-1,-1,-1,-1,-1,-1,-1,-1,-1,-1],"loss_changes":[6.8129907E3,6.665425E2,6.7073364E2,1.3623438E2,1.0665088E2,8.0832825E1,5.675952E1,1.1214355E1,2.3601562E1,4.2279846E1,2.810051E1,2.1325714E1,2.2608276E1,1.4283936E1,3.8557373E1,3.0581665E0,1.0036377E1,1.8914001E1,7.622261E0,1.431778E1,1.737513E1,1.388443E1,1.0861969E1,1.0493311E1,1.8230362E1,9.620483E0,5.1743927E0,3.4979248E0,9.434231E0,1.3249512E1,1.0284912E1,1.6909332E0,0E0,5.8461914E0,0E0,1.5644287E1,0E0,2.2124474E0,4.0988464E0,6.875931E0,3.9601135E0,9.472183E0,1.0982614E1,6.3380938E0,1.0567207E0,1.6743208E1,4.8622084E0,0E0,8.155792E0,1.1154449E1,8.239075E0,1.5595871E1,2.1691437E1,1.00545635E1,3.7360268E0,3.7399292E0,1.0841492E1,0E0,2.5825844E0,1.2637329E-1,1.8564453E0,6.512665E0,5.66687E0,6.609619E0,0E0,7.9729004E0,2.8099365E0,5.8147125E0,7.5927734E0,0E0,0E0,5.205742E0,0E0,4.2480774E0,0E0,3.3731384E0,4.723935E0,5.153801E0,5.1827555E0,0E0,5.007089E0,4.0333953E0,4.5602627E0,5.155592E-1,0E0,6.2337103E0,6.287318E0,7.0657716E0,6.8188496E0,0E0,6.083992E0,3.466853E-1,6.2479095E0,6.214813E0,7.962654E0,0E0,2.2745361E0,4.156595E0,1.3740906E1,0E0,0E0,0E0,3.150526E0,5.8854675E0,1.7903748E0,6.338043E-1,8.321808E0,0E0,0E0,0E0,0E0,2.39917E0,2.782196E0,0E0,8.051605E0,5.4715576E0,4.6297607E0,0E0,0E0,0E0,0E0,0E0,0E0,0E0,0E0,0E0,0E0,0E0,0E0,0E0,0E0,0E0,0E0,0E0,0E0,0E0,0E0,0E0,0E0,0E0,0E0,0E0,0E0,0E0,0E0,0E0,0E0,0E0,0E0,0E0,0E0,0E0,0E0,0E0,0E0,0E0,0E0,0E0,0E0,0E0,0E0,0E0,0E0,0E0,0E0,0E0,0E0,0E0,0E0,0E0,0E0,0E0,0E0,0E0,0E0,0E0,0E0,0E0,0E0,0E0,0E0,0E0,0E0,0E0,0E0,0E0,0E0,0E0,0E0,0E0,0E0],"parents":[2147483647,0,0,1,1,2,2,3,3,4,4,5,5,6,6,7,7,8,8,9,9,10,10,11,11,12,12,13,13,14,14,15,15,16,16,17,17,18,18,19,19,20,20,21,21,22,22,23,23,24,24,25,25,26,26,27,27,28,28,29,29,30,30,31,31,33,33,35,35,37,37,38,38,39,39,40,40,41,41,42,42,43,43,44,44,45,45,46,46,48,48,49,49,50,50,51,51,52,52,53,53,54,54,55,55,56,56,58,58,59,59,60,60,61,61,62,62,63,63,65,65,66,66,67,67,68,68,71,71,73,73,75,75,76,76,77,77,78,78,80,80,81,81,82,82,83,83,85,85,86,86,87,87,88,88,90,90,91,91,92,92,93,93,94,94,96,96,97,97,98,98,102,102,103,103,104,104,105,105,106,106,111,111,112,112,114,114,115,115,116,116],"right_children":[2,4,6,8,10,12,14,16,18,20,22,24,26,28,30,32,34,36,38,40,42,44,46,48,50,52,54,56,58,60,62,64,-1,66,-1,68,-1,70,72,74,76,78,80,82,84,86,88,-1,90,92,94,96,98,100,102,104,106,-1,108,110,112,114,116,118,-1,120,122,124,126,-1,-1,128,-1,130,-1,132,134,136,138,-1,140,142,144,146,-1,148,150,152,154,-1,156,158,160,162,164,-1,166,168,170,-1,-1,-1,172,174,176,178,180,-1,-1,-1,-1,182,184,-1,186,188,190,-1,-1,-1,-1,-1,-1,-1,-1,-1,-1,-1,-1,-1,-1,-1,-1,-1,-1,-1,-1,-1,-1,-1,-1,-1,-1,-1,-1,-1,-1,-1,-1,-1,-1,-1,-1,-1,-1,-1,-1,-1,-1,-1,-1,-1,-1,-1,-1,-1,-1,-1,-1,-1,-1,-1,-1,-1,-1,-1,-1,-1,-1,-1,-1,-1,-1,-1,-1,-1,-1,-1,-1,-1,-1],"split_conditions":[4.3E1,2.2E1,7.4E1,2E0,3.3E1,5.7E1,9.5E1,5.17E0,4E0,4E0,3.8842E2,3.218E1,1.32E2,3.87594E3,6.9405E2,1.929E1,3.4367E2,4.6169E2,1.2744E2,2E0,1.7E1,1.4E1,1.8E1,4.4E1,1.7E1,1.6E1,4.197E1,8.6E1,2.2E1,3E1,4.526E1,1.8E1,-2.3906553E-2,1E0,-2.8959382E-2,1.882E1,4.4610375E-3,1.448E1,4.162E1,1.8E1,6.3E1,3.037E1,1.8E1,9E0,5E0,3.4995E2,3.661E1,-2.0108964E-2,2E0,4E0,3.4E1,1.4E1,2.676E1,3.138E1,4.65E1,1.13449E3,8.9E1,2.2403818E-2,2.6E1,1.01E2,1E1,1.9E1,1E0,2E0,-3.48255E-2,6E0,7.77E0,6.97E0,4E0,1.2040328E-2,-1.4820788E-2,1.4E1,-1.9262602E-3,1.7E1,-1.4116803E-2,7.601E1,5.3576E2,1.1E1,6E0,-3.1053413E-2,2.758E1,4E0,1.2E1,2E1,-5.0263423E-2,5.1522E2,8.7759E2,8.748E2,4E0,-1.3968338E-2,4.6E1,4.434E1,3.3E1,3E1,1.78294E3,1.1229371E-1,8E0,1.6E1,1.7E1,5.086485E-2,-5.694677E-3,6.440683E-2,1.61094E3,2.014E1,7.8E1,2.1084E3,6.6E1,5.045145E-2,8.548596E-2,1.2001623E-1,1.4806218E-1,1.29E2,2.44E2,4.186407E-2,2E2,3.2E1,1.47E2,-7.906021E-2,-4.7839202E-2,-7.076001E-2,-5.724504E-2,-5.0882902E-2,-6.808542E-2,-1.766318E-3,-3.26858E-2,-4.8382193E-2,-2.3269955E-2,-3.650753E-2,-1.5163857E-2,-5.1011786E-2,-2.855997E-2,-6.424692E-3,-3.1652767E-2,-4.3639123E-2,-1.2221995E-2,-4.299614E-2,-2.2736553E-2,-6.016219E-3,-2.2276603E-2,2.8509574E-4,2.4077667E-2,1.8926423E-2,-1.5107869E-2,-4.241683E-2,-1.0864226E-2,-4.079081E-2,-2.4922872E-2,1.3527486E-2,4.9909998E-2,-2.6115952E-3,-2.2918712E-2,1.3093877E-2,-2.6148703E-2,-2.4458442E-3,4.429375E-2,3.2251485E-2,1.475668E-2,-2.9149668E-3,-1.5172002E-2,1.2046919E-2,3.380213E-2,3.3575848E-2,7.82938E-2,4.406523E-2,1.1574363E-2,6.7327075E-2,4.1711926E-2,-8.249899E-3,3.091204E-2,4.2445455E-2,6.789211E-2,4.3620817E-2,1.7272787E-2,7.909163E-2,5.4751154E-2,9.409827E-2,7.83192E-2,1.151004E-1,9.213418E-2,8.859204E-2,5.2150764E-2,8.4424295E-2,1.1587178E-1,1.2099089E-1,8.5510604E-2,1.04023546E-1,6.28538E-2,6.7071915E-2,9.897008E-2,9.6319854E-2,1.1161162E-1],"split_indices":[0,0,0,14,0,0,0,11,14,14,5,8,18,11,11,8,11,11,5,14,16,20,16,0,16,12,8,0,16,20,8,0,0,14,0,11,0,8,8,16,18,8,12,16,3,11,8,0,3,14,12,20,8,8,8,5,0,0,20,0,3,20,13,12,0,0,11,11,3,0,0,16,0,20,0,11,5,16,20,0,8,3,16,20,0,5,11,5,14,0,18,8,12,12,11,0,3,20,16,0,0,0,5,8,0,11,12,0,0,0,0,0,0,0,18,20,12,0,0,0,0,0,0,0,0,0,0,0,0,0,0,0,0,0,0,0,0,0,0,0,0,0,0,0,0,0,0,0,0,0,0,0,0,0,0,0,0,0,0,0,0,0,0,0,0,0,0,0,0,0,0,0,0,0,0,0,0,0,0,0,0,0,0,0,0,0,0,0,0,0,0],"split_type":[0,0,0,0,0,0,0,0,0,0,0,0,0,0,0,0,0,0,0,0,0,0,0,0,0,0,0,0,0,0,0,0,0,0,0,0,0,0,0,0,0,0,0,0,0,0,0,0,0,0,0,0,0,0,0,0,0,0,0,0,0,0,0,0,0,0,0,0,0,0,0,0,0,0,0,0,0,0,0,0,0,0,0,0,0,0,0,0,0,0,0,0,0,0,0,0,0,0,0,0,0,0,0,0,0,0,0,0,0,0,0,0,0,0,0,0,0,0,0,0,0,0,0,0,0,0,0,0,0,0,0,0,0,0,0,0,0,0,0,0,0,0,0,0,0,0,0,0,0,0,0,0,0,0,0,0,0,0,0,0,0,0,0,0,0,0,0,0,0,0,0,0,0,0,0,0,0,0,0,0,0,0,0,0,0,0,0,0,0,0,0],"sum_hessian":[1.6532893E4,1.1545769E4,4.9871245E3,7.006936E3,4.538833E3,2.4676409E3,2.5194834E3,3.7638994E3,3.2430366E3,2.914456E3,1.624377E3,1.4329918E3,1.034649E3,9.6976886E2,1.5497146E3,3.3478638E2,3.429113E3,2.6652158E3,5.778208E2,1.5408142E3,1.3736418E3,3.2827884E2,1.296098E3,5.7425323E2,8.587386E2,8.1711383E2,2.175353E2,8.6834924E2,1.014196E2,4.406094E2,1.1091051E3,3.0791208E2,2.6874321E1,3.3821858E3,4.692721E1,2.6225225E3,4.2693264E1,7.500714E1,5.0281363E2,4.4371136E2,1.0971028E3,1.1227539E3,2.5088795E2,2.1485278E2,1.1342607E2,8.758162E2,4.2028183E2,4.225344E1,5.319998E2,4.173905E2,4.4134808E2,1.8505293E2,6.320609E2,7.334885E1,1.4418645E2,5.727283E2,2.9562097E2,4.0370255E1,6.1049347E1,1.388901E2,3.017193E2,1.5168546E2,9.574197E2,2.7039395E2,3.751813E1,1.3863772E3,1.9958087E3,2.4394167E2,2.3785808E3,2.5223566E1,4.9783573E1,4.7757285E2,2.5240784E1,4.052802E2,3.8431137E1,9.2207697E2,1.7502583E2,6.2944855E2,4.933054E2,4.4171593E1,2.0671637E2,8.352121E1,1.3133157E2,6.2294575E1,5.1131493E1,1.4416763E2,7.3164856E2,3.382051E2,8.207674E1,3.987111E1,4.921287E2,5.224207E1,3.6514844E2,9.0151436E1,3.5119666E2,4.8475166E1,1.3657776E2,5.9391888E1,5.72669E2,2.766079E1,4.568806E1,3.023888E1,1.1394756E2,2.8168393E2,2.9104434E2,1.2100855E2,1.7461241E2,2.9283756E1,3.1765589E1,3.415486E1,1.04735245E2,9.440098E1,2.0731833E2,3.0321716E1,1.2136373E2,1.4654863E2,8.108711E2,4.9444386E1,2.2094955E2,3.5710593E2,1.0292712E3,7.034867E1,1.92546E3,4.1261604E1,2.0268005E2,2.305985E3,7.259567E1,3.9855527E2,7.901759E1,3.4520267E2,6.0077553E1,3.1439522E1,8.9063745E2,3.2657803E1,1.4236804E2,8.2155624E1,5.472929E2,3.2709232E2,1.6621309E2,1.25068085E2,8.164828E1,5.40064E1,2.951481E1,3.4704334E1,9.6627235E1,3.319925E1,2.9095325E1,1.0968246E2,3.4485184E1,6.3338776E2,9.826079E1,3.109939E2,2.72112E1,2.5026012E1,5.7050724E1,1.7480003E2,3.1732864E2,2.547893E1,2.6763142E1,1.0608779E2,2.5906064E2,2.7252398E1,6.289904E1,3.0082654E2,5.0370117E1,1.04375275E2,3.2202484E1,2.891135E1,3.048054E1,1.8245975E2,3.9020926E2,7.144342E1,4.2504147E1,1.8408609E2,9.759784E1,1.1064608E2,1.8039827E2,7.705888E1,4.3949665E1,1.1551972E2,5.9092693E1,5.5842785E1,3.8558197E1,1.8166415E2,2.5654167E1,5.740996E1,6.3953773E1,7.999296E1,6.6555664E1,6.046995E2,2.0617151E2],"tree_param":{"num_deleted":"0","num_feature":"21","num_nodes":"191","size_leaf_vector":"1"}},{"base_weights":[-8.932064E-2,4.453437E-1,-5.3784424E-1,2.2280027E-1,9.9960774E-1,-6.469673E-1,-6.9370925E-2,4.878657E-2,7.2859305E-1,9.002418E-1,1.2245942E0,-6.9879156E-1,-5.195008E-1,-1.7241564E-1,3.564687E-1,2.9399338E-1,-7.465706E-2,4.8314157E-1,8.4383464E-1,8.202463E-1,1.2006986E0,1.1899098E0,1.4919093E0,-7.2156614E-1,-6.035218E-1,-5.526126E-1,-2.3087133E-1,-2.626894E-1,-4.656033E-2,1.3612397E-1,5.5613786E-1,5.481549E-2,3.6770806E-1,-3.4193456E-1,1.0983684E-1,2.2644202E-1,6.104193E-1,6.9975114E-1,1.0048959E0,7.743682E-1,1.0976136E0,1.1161981E0,1.0119084E-1,1.324612E0,1.1208978E0,1.21926285E-1,9.3317166E-2,-7.321077E-1,-4.4570443E-1,-6.215323E-1,-2.9209733E-1,-5.7975966E-1,-3.8980708E-1,-8.206856E-2,-3.9397195E-1,-3.9385942E-1,-8.9776166E-2,-1.0305325E-1,3.0121619E-1,2.8223747E-2,4.37709E-2,2.8836322E-1,7.0898426E-1,9.693781E-3,2.9791186E-2,3.1545752E-1,5.6857204E-1,-6.233374E-1,-2.522265E-1,4.436539E-2,3.7801242E-1,-2.0816274E-2,3.9372423E-1,1.4973763E-2,6.5589607E-1,5.919577E-1,8.621329E-1,9.2709816E-1,1.1858766E0,9.1715807E-1,6.2643635E-1,1.2018505E0,5.645236E-2,1.3037516E0,9.229136E-1,9.237002E-2,1.4258255E0,3.586859E-2,1.1849029E0,-7.946616E-1,-7.04106E-1,-2.1528354E-2,-5.1741755E-1,-2.7923724E-2,-6.337228E-1,-3.0992871E-2,-1.3307424E-2,-5.907476E-1,-1.7252926E-2,-8.339725E-3,-4.4845822E-1,-2.4968617E-1,1.08867E-2,-4.73413E-2,-1.7598483E-1,-5.7618576E-1,-3.0780345E-1,-3.1643015E-1,-3.647409E-2,3.242385E-2,-1.3548364E-1,4.7118347E-2,-1.0288039E-2,3.6231264E-2,-1.2339746E-1,-4.347928E-3,4.1235186E-2,8.7848437E-1,5.0758195E-1,5.5581345E-3,-3.1175366E-2,2.9286558E-2,8.514517E-4,5.2521978E-2,2.1272507E-2,-3.629503E-2,-5.0342705E-2,-2.4220416E-2,-2.325647E-3,-4.936465E-3,1.5045107E-2,2.3965612E-2,6.3419916E-2,9.922598E-3,4.1864358E-2,4.1373964E-2,6.318386E-2,-4.7925245E-3,4.9184367E-2,7.1967244E-2,4.168277E-2,7.523526E-2,4.5189023E-2,6.342875E-2,9.491503E-2,5.735797E-2,7.483245E-2,1.9215964E-2,5.9721727E-2,8.0616914E-2,1.0349202E-1,7.260735E-2,1.05671905E-1,3.6832593E-2,7.939633E-2,1.2430348E-1,9.0914845E-2,5.586252E-2,9.171487E-2,-3.0095993E-2,-6.0260303E-2,-5.320107E-2,-3.213447E-2,-4.306026E-2,-2.4245514E-2,-5.412896E-2,-4.3701895E-2,-6.438007E-2,-4.3678757E-2,-2.7597109E-2,-4.3107286E-2,-4.0300414E-3,-3.4881305E-2,-2.801077E-2,2.40493E-3,-3.197139E-2,-5.4782767E-2,-2.7021157E-2,5.798251E-3,-1.0228922E-2,-3.602955E-2,1.1298083E-2,-9.885713E-3,-2.0228598E-2,-6.2539093E-3,-1.9105468E-2,5.503187E-3,8.2593024E-2,4.9424607E-2,2.0312004E-2,5.4832634E-2],"categories":[],"categories_nodes":[],"categories_segments":[],"categories_sizes":[],"default_left":[0,0,0,0,0,0,0,0,0,0,0,0,0,0,0,0,0,0,0,0,0,0,0,0,0,0,0,0,0,0,0,0,0,0,0,0,0,0,0,0,0,0,0,0,0,0,0,0,0,0,0,0,0,0,0,0,0,0,0,0,0,0,0,0,0,0,0,0,0,0,0,0,0,0,0,0,0,0,0,0,0,0,0,0,0,0,0,0,0,0,0,0,0,0,0,0,0,0,0,0,0,0,0,0,0,0,0,0,0,0,0,0,0,0,0,0,0,0,0,0,0,0,0,0,0,0,0,0,0,0,0,0,0,0,0,0,0,0,0,0,0,0,0,0,0,0,0,0,0,0,0,0,0,0,0,0,0,0,0,0,0,0,0,0,0,0,0,0,0,0,0,0,0,0,0,0,0,0,0,0,0,0,0,0,0,0,0,0,0,0,0],"id":6,"left_children":[1,3,5,7,9,11,13,15,17,19,21,23,25,27,29,31,33,35,37,39,41,43,45,47,49,51,53,55,57,59,61,63,65,67,69,71,73,75,77,79,81,83,-1,85,87,-1,-1,89,91,93,95,97,99,101,103,105,107,109,111,113,-1,115,117,119,-1,121,123,125,127,129,131,-1,133,-1,135,137,139,141,143,145,147,149,-1,151,153,-1,155,-1,157,159,161,-1,163,-1,165,-1,-1,167,-1,-1,169,171,-1,-1,173,175,177,179,181,-1,183,-1,-1,-1,185,-1,-1,187,189,-1,-1,-1,-1,-1,-1,-1,-1,-1,-1,-1,-1,-1,-1,-1,-1,-1,-1,-1,-1,-1,-1,-1,-1,-1,-1,-1,-1,-1,-1,-1,-1,-1,-1,-1,-1,-1,-1,-1,-1,-1,-1,-1,-1,-1,-1,-1,-1,-1,-1,-1,-1,-1,-1,-1,-1,-1,-1,-1,-1,-1,-1,-1,-1,-1,-1,-1,-1,-1,-1,-1,-1],"loss_changes":[3.9218591E3,9.2003845E2,4.5459497E2,4.6860934E2,4.6674316E1,4.72854E1,7.383814E1,1.1997019E2,3.8143555E1,3.473535E1,4.269226E0,1.0684814E1,1.9835571E1,1.5375759E1,1.4350689E1,2.3378334E1,1.3005038E2,1.41651535E1,2.078833E1,1.4125305E1,2.3885193E0,3.925476E0,3.275299E-1,1.16875E1,5.3989563E0,8.052795E0,5.2266808E0,1.7848095E1,1.1169458E1,7.5740004E0,6.8228645E0,4.844795E0,1.0465897E1,2.70299E1,2.7384285E1,1.2477691E1,5.325302E0,8.103439E0,5.025299E0,2.0827454E1,5.0143585E0,6.1768494E0,0E0,4.827881E-2,1.5530029E1,0E0,0E0,6.407959E0,1.6106777E0,2.6187744E0,7.0844936E-1,6.0254517E0,4.3744698E0,4.400021E0,5.2216587E0,6.852867E0,4.113124E0,8.539214E0,1.1480637E1,8.867571E0,0E0,5.833818E0,3.2621422E0,7.656647E0,0E0,1.8412476E1,7.613159E0,1.4089432E0,1.2790756E1,2.162663E1,8.098808E0,0E0,4.679659E0,0E0,4.640724E0,1.255825E1,5.2618866E0,7.01709E0,2.3761597E0,5.543335E0,3.1287811E1,1.3366089E0,0E0,2.1990356E0,5.5557785E0,0E0,2.2174072E0,0E0,5.023285E0,3.9128418E0,3.678711E0,0E0,9.7324944E-1,0E0,3.5958252E0,0E0,0E0,2.9788818E0,0E0,0E0,2.0592308E0,2.7735138E0,0E0,0E0,2.276978E0,2.984085E0,6.223074E0,1.8495836E0,4.970826E0,0E0,3.2035723E0,0E0,0E0,0E0,2.514808E0,0E0,0E0,2.091133E0,2.5541945E0,0E0,0E0,0E0,0E0,0E0,0E0,0E0,0E0,0E0,0E0,0E0,0E0,0E0,0E0,0E0,0E0,0E0,0E0,0E0,0E0,0E0,0E0,0E0,0E0,0E0,0E0,0E0,0E0,0E0,0E0,0E0,0E0,0E0,0E0,0E0,0E0,0E0,0E0,0E0,0E0,0E0,0E0,0E0,0E0,0E0,0E0,0E0,0E0,0E0,0E0,0E0,0E0,0E0,0E0,0E0,0E0,0E0,0E0,0E0,0E0,0E0,0E0,0E0,0E0,0E0,0E0,0E0,0E0,0E0,0E0,0E0,0E0],"parents":[2147483647,0,0,1,1,2,2,3,3,4,4,5,5,6,6,7,7,8,8,9,9,10,10,11,11,12,12,13,13,14,14,15,15,16,16,17,17,18,18,19,19,20,20,21,21,22,22,23,23,24,24,25,25,26,26,27,27,28,28,29,29,30,30,31,31,32,32,33,33,34,34,35,35,36,36,37,37,38,38,39,39,40,40,41,41,43,43,44,44,47,47,48,48,49,49,50,50,51,51,52,52,53,53,54,54,55,55,56,56,57,57,58,58,59,59,61,61,62,62,63,63,65,65,66,66,67,67,68,68,69,69,70,70,72,72,74,74,75,75,76,76,77,77,78,78,79,79,80,80,81,81,83,83,84,84,86,86,88,88,89,89,90,90,92,92,94,94,97,97,100,100,101,101,104,104,105,105,106,106,107,107,108,108,110,110,114,114,117,117,118,118],"right_children":[2,4,6,8,10,12,14,16,18,20,22,24,26,28,30,32,34,36,38,40,42,44,46,48,50,52,54,56,58,60,62,64,66,68,70,72,74,76,78,80,82,84,-1,86,88,-1,-1,90,92,94,96,98,100,102,104,106,108,110,112,114,-1,116,118,120,-1,122,124,126,128,130,132,-1,134,-1,136,138,140,142,144,146,148,150,-1,152,154,-1,156,-1,158,160,162,-1,164,-1,166,-1,-1,168,-1,-1,170,172,-1,-1,174,176,178,180,182,-1,184,-1,-1,-1,186,-1,-1,188,190,-1,-1,-1,-1,-1,-1,-1,-1,-1,-1,-1,-1,-1,-1,-1,-1,-1,-1,-1,-1,-1,-1,-1,-1,-1,-1,-1,-1,-1,-1,-1,-1,-1,-1,-1,-1,-1,-1,-1,-1,-1,-1,-1,-1,-1,-1,-1,-1,-1,-1,-1,-1,-1,-1,-1,-1,-1,-1,-1,-1,-1,-1,-1,-1,-1,-1,-1,-1,-1,-1,-1,-1],"split_conditions":[7E-2,2.2E1,3.2433E2,2.7E1,4.2E1,1.9451E2,6.2423E2,4E-2,1E0,4.4E1,3.3E1,2.293E1,3E0,1.4E1,1E0,1.1E1,1.7E1,2.108671E4,3.6E1,1E1,6E1,1.984198E4,5.6E1,5E-1,4.01E1,3.8E1,1.015E1,4.047E1,4.197E1,8.9737E2,1.3E1,1.9E1,1E2,4.2E1,5E0,4.106E1,3E-2,1.13449E3,5.1E1,1E-2,2E1,1.53E2,1.0119084E-1,5.8E1,2E1,1.21926285E-1,9.3317166E-2,3E0,4E0,8E0,4.389E1,4.272E1,9.23E0,3.3E1,1.2E1,3.101E1,7.9E1,3.3284E2,4.615E1,1.25E2,4.37709E-2,1.43E2,5.9E1,1.7E1,2.9791186E-2,3E-2,1.36E2,8E0,1.8E1,1.8E1,2.263674E4,-2.0816274E-2,6.5E1,1.4973763E-2,1.53E2,3.542E1,1.56E2,6.732E1,2.514E1,2.6E1,2.5E1,4.65E1,5.645236E-2,2.82E2,2.2E1,9.237002E-2,7.1E1,3.586859E-2,3.2E1,6E0,4E0,-2.1528354E-2,1.77E1,-2.7923724E-2,2E0,-3.0992871E-2,-1.3307424E-2,1.563E1,-1.7252926E-2,-8.339725E-3,4.1E1,2.864E1,1.08867E-2,-4.73413E-2,2.031E1,3.2E1,4E0,2.73123E3,4E1,3.242385E-2,5.04018E3,4.7118347E-2,-1.0288039E-2,3.6231264E-2,1.4E1,-4.347928E-3,4.1235186E-2,1.5E1,3.6E1,5.5581345E-3,-3.1175366E-2,2.9286558E-2,8.514517E-4,5.2521978E-2,2.1272507E-2,-3.629503E-2,-5.0342705E-2,-2.4220416E-2,-2.325647E-3,-4.936465E-3,1.5045107E-2,2.3965612E-2,6.3419916E-2,9.922598E-3,4.1864358E-2,4.1373964E-2,6.318386E-2,-4.7925245E-3,4.9184367E-2,7.1967244E-2,4.168277E-2,7.523526E-2,4.5189023E-2,6.342875E-2,9.491503E-2,5.735797E-2,7.483245E-2,1.9215964E-2,5.9721727E-2,8.0616914E-2,1.0349202E-1,7.260735E-2,1.05671905E-1,3.6832593E-2,7.939633E-2,1.2430348E-1,9.0914845E-2,5.586252E-2,9.171487E-2,-3.0095993E-2,-6.0260303E-2,-5.320107E-2,-3.213447E-2,-4.306026E-2,-2.4245514E-2,-5.412896E-2,-4.3701895E-2,-6.438007E-2,-4.3678757E-2,-2.7597109E-2,-4.3107286E-2,-4.0300414E-3,-3.4881305E-2,-2.801077E-2,2.40493E-3,-3.197139E-2,-5.4782767E-2,-2.7021157E-2,5.798251E-3,-1.0228922E-2,-3.602955E-2,1.1298083E-2,-9.885713E-3,-2.0228598E-2,-6.2539093E-3,-1.9105468E-2,5.503187E-3,8.2593024E-2,4.9424607E-2,2.0312004E-2,5.4832634E-2],"split_indices":[6,20,5,17,20,5,5,6,13,17,13,8,13,16,13,20,17,9,17,13,17,9,13,6,8,18,7,8,8,5,16,17,18,18,13,8,6,5,17,6,13,19,0,20,16,0,0,20,16,19,8,8,7,18,7,8,4,5,8,4,0,4,19,16,0,6,18,17,16,16,9,0,19,0,18,8,18,8,7,20,17,8,0,4,16,0,20,0,17,18,13,0,8,0,20,0,0,8,0,0,18,8,0,0,8,19,13,9,19,0,9,0,0,0,16,0,0,16,17,0,0,0,0,0,0,0,0,0,0,0,0,0,0,0,0,0,0,0,0,0,0,0,0,0,0,0,0,0,0,0,0,0,0,0,0,0,0,0,0,0,0,0,0,0,0,0,0,0,0,0,0,0,0,0,0,0,0,0,0,0,0,0,0,0,0,0,0,0,0,0,0],"split_type":[0,0,0,0,0,0,0,0,0,0,0,0,0,0,0,0,0,0,0,0,0,0,0,0,0,0,0,0,0,0,0,0,0,0,0,0,0,0,0,0,0,0,0,0,0,0,0,0,0,0,0,0,0,0,0,0,0,0,0,0,0,0,0,0,0,0,0,0,0,0,0,0,0,0,0,0,0,0,0,0,0,0,0,0,0,0,0,0,0,0,0,0,0,0,0,0,0,0,0,0,0,0,0,0,0,0,0,0,0,0,0,0,0,0,0,0,0,0,0,0,0,0,0,0,0,0,0,0,0,0,0,0,0,0,0,0,0,0,0,0,0,0,0,0,0,0,0,0,0,0,0,0,0,0,0,0,0,0,0,0,0,0,0,0,0,0,0,0,0,0,0,0,0,0,0,0,0,0,0,0,0,0,0,0,0,0,0,0,0,0,0],"sum_hessian":[1.6352058E4,7.4596997E3,8.892358E3,5.3236104E3,2.1360894E3,7.21205E3,1.680308E3,3.9617131E3,1.3618972E3,1.4851633E3,6.509259E2,5.1242085E3,2.0878413E3,1.3534058E3,3.2690216E2,1.326128E3,2.6355852E3,4.3678577E2,9.251115E2,1.1758324E3,3.0933093E2,5.809928E2,6.9933105E1,4.1302764E3,9.939323E2,1.8721519E3,2.1568945E2,7.874761E2,5.659297E2,1.5620451E2,1.7069765E2,3.1283456E2,1.0132935E3,1.0759689E3,1.5596163E3,1.4570343E2,2.9108237E2,4.9111273E2,4.3399878E2,1.0122007E3,1.6363171E2,2.025819E2,1.0674904E2,1.906587E2,3.903341E2,4.1795395E1,2.813771E1,3.976662E3,1.5361429E2,9.386518E2,5.528051E1,1.6023984E3,2.697534E2,1.1357444E2,1.0211501E2,4.4706213E2,3.4041394E2,4.8745163E2,7.84781E1,1.2671381E2,2.94907E1,6.307752E1,1.0762013E2,2.7731778E2,3.5516785E1,8.0615875E2,2.0713472E2,2.5865433E2,8.173145E2,1.2545101E3,3.0510626E2,3.6145157E1,1.09558266E2,2.9551224E1,2.6153113E2,2.9796255E2,1.9315018E2,3.0780557E2,1.2619321E2,5.124058E2,4.997949E2,1.2374902E2,3.988269E1,9.9899345E1,1.0268255E2,1.06217064E2,8.4441635E1,3.6121784E1,3.5421234E2,1.2212017E3,2.7554604E3,4.9376118E1,1.0423817E2,4.524408E1,8.934077E2,2.5614988E1,2.9665522E1,1.5529178E3,4.9480644E1,4.7414753E1,2.2233862E2,6.530316E1,4.8271282E1,4.7989826E1,5.4125183E1,1.4152286E2,3.0553928E2,6.387303E1,2.7654092E2,2.7136871E1,4.6031476E2,4.4699947E1,3.3778152E1,3.1132122E1,9.558169E1,2.7468079E1,3.560944E1,5.6612896E1,5.1007236E1,2.4156279E2,3.5754986E1,6.463939E2,1.5976485E2,1.4065517E2,6.647955E1,6.898483E1,1.8966951E2,6.189933E2,1.9832121E2,7.3601605E2,5.18494E2,2.7269016E2,3.2416084E1,4.300525E1,6.655302E1,1.7031807E2,9.1213066E1,2.6427998E1,2.7153455E2,1.4492775E2,4.8222435E1,2.4768906E2,6.01165E1,2.6148441E1,1.0004476E2,1.8090385E2,3.3150195E2,1.5797359E2,3.418213E2,7.634584E1,4.740318E1,2.6274576E1,7.362477E1,2.5657845E1,7.7024704E1,3.7277596E1,4.7164043E1,2.9766693E1,3.2444565E2,2.7767408E1,1.1934343E3,2.7024976E3,5.2962856E1,7.915558E1,2.5082592E1,3.2310648E2,5.703013E2,4.3978783E1,1.5089391E3,1.3818448E2,8.415416E1,3.484937E1,3.045379E1,2.7359262E1,2.676592E1,7.36823E1,6.784057E1,2.6895395E2,3.6585316E1,3.131673E1,3.25563E1,9.314491E1,1.83396E2,1.27537445E2,3.327773E2,5.71444E1,3.8437286E1,2.6103579E1,3.0509317E1,2.584427E1,2.5162964E1],"tree_param":{"num_deleted":"0","num_feature":"21","num_nodes":"191","size_leaf_vector":"1"}},{"base_weights":[-8.390056E-2,-4.243071E-1,5.247025E-1,-5.601247E-1,1.5287718E-1,2.9485244E-1,9.110945E-1,-7.352518E-1,-4.215583E-1,-9.6719824E-2,4.1577038E-1,9.9506E-2,6.5358466E-1,4.865136E-1,1.0031416E0,1.3260749E-1,-7.797908E-1,-5.108079E-1,-2.4556616E-1,-2.3712453E-1,1.2211783E-1,2.9707035E-1,7.3799765E-1,3.480961E-1,3.7463857E-3,5.2235556E-1,8.918631E-1,3.0360764E-1,9.537109E-1,7.881927E-1,1.0586675E0,2.9149464E-1,-8.4021725E-2,-5.627651E-1,-7.95663E-1,-5.5128485E-1,-4.0565374E-1,-3.0507806E-1,-1.6019973E-1,-5.1220787E-1,-2.0261134E-1,7.39693E-2,4.9328465E-2,1.9133405E-1,4.770805E-1,4.4475222E-1,8.6763114E-1,-3.3883575E-2,5.4216164E-1,-2.8212884E-1,1.8744047E-1,4.018209E-1,7.1934366E-1,7.8755635E-1,1.0082793E0,7.1775116E-2,4.385375E-1,4.2539645E-2,1.1205869E0,6.268277E-1,9.551857E-1,9.251233E-1,1.1195084E0,8.023862E-3,4.279776E-1,-3.475997E-2,2.194115E-2,-5.980487E-1,-2.1576319E-2,-8.0749774E-1,-6.252452E-1,-2.975542E-1,-5.805303E-1,-4.3153328E-1,-2.1653357E-1,-8.2787685E-2,-3.2650018E-1,-1.1471999E-1,-4.2637372E-1,-2.5173025E-2,-5.1508218E-2,1.1767617E-2,-2.2915564E-1,1.1303856E-1,-2.01087E-2,2.5532383E-1,6.2006707E-3,3.6817828E-1,6.8865515E-2,3.2650068E-1,4.9349442E-2,3.718361E-2,9.4797146E-1,1.6870663E-1,-2.6922616E-1,4.3010056E-1,6.3970715E-1,-4.1936606E-1,-1.2633127E-1,1.5068406E-2,3.0302015E-1,3.568206E-1,7.901437E-1,3.9288828E-1,8.028465E-1,3.6879722E-2,8.488077E-1,1.3167526E0,8.454345E-1,-4.0257152E-2,2.6523575E-2,3.4742117E-1,5.785177E-2,1.0043899E-1,6.653589E-2,8.429424E-1,2.6900938E-1,1.1323099E0,7.6539934E-1,8.864683E-1,9.182076E-2,1.2569916E0,1.0672419E0,2.3581965E-2,3.7592676E-2,-2.7299674E-2,-5.0425492E-2,-5.647513E-2,-6.3404225E-2,-5.2135892E-2,-3.2374553E-2,1.3837584E-2,-2.6876407E-2,-4.4074893E-2,-1.7064044E-2,-2.8713778E-2,-4.2107664E-2,-2.870051E-3,-2.180004E-2,-1.6317278E-2,8.253999E-3,-2.5816632E-2,4.8410794E-4,-1.024338E-2,2.3889212E-2,-5.0589796E-2,-1.631751E-2,-2.2929493E-2,-5.5970596E-3,4.240091E-3,4.706958E-2,4.420677E-3,2.6271883E-2,-1.0730204E-2,1.8201426E-2,7.146139E-3,3.3632506E-2,3.228884E-2,1.6238667E-2,7.674862E-2,4.8798002E-2,-1.9470912E-3,3.4502216E-2,-3.7166532E-2,-1.217679E-2,3.6836054E-2,-6.566046E-5,5.513164E-2,2.3715215E-2,-5.2750506E-2,-2.2912156E-2,-2.2205269E-2,1.1333812E-2,-7.988914E-3,1.6855491E-2,1.6620252E-2,3.6216684E-2,-3.5266406E-3,3.000565E-2,4.412855E-2,7.3082425E-2,1.4675478E-2,4.5507997E-2,6.705201E-2,4.0621616E-2,6.831905E-2,3.151802E-2,8.110677E-2,1.1570385E-1,1.4157759E-2,7.464355E-2,3.8903134E-3,-8.35988E-3,4.1459933E-2,-1.1306301E-2,7.2186545E-2,5.5776834E-2,-1.2785737E-2,4.0371954E-2,6.5337054E-2,9.3504936E-2,3.8946673E-2,6.81183E-2,7.0170484E-2,4.126572E-2,7.732203E-2,9.622998E-2,4.8207738E-2,8.580536E-2],"categories":[],"categories_nodes":[],"categories_segments":[],"categories_sizes":[],"default_left":[0,0,0,0,0,0,0,0,0,0,0,0,0,0,0,0,0,0,0,0,0,0,0,0,0,0,0,0,0,0,0,0,0,0,0,0,0,0,0,0,0,0,0,0,0,0,0,0,0,0,0,0,0,0,0,0,0,0,0,0,0,0,0,0,0,0,0,0,0,0,0,0,0,0,0,0,0,0,0,0,0,0,0,0,0,0,0,0,0,0,0,0,0,0,0,0,0,0,0,0,0,0,0,0,0,0,0,0,0,0,0,0,0,0,0,0,0,0,0,0,0,0,0,0,0,0,0,0,0,0,0,0,0,0,0,0,0,0,0,0,0,0,0,0,0,0,0,0,0,0,0,0,0,0,0,0,0,0,0,0,0,0,0,0,0,0,0,0,0,0,0,0,0,0,0,0,0,0,0,0,0,0,0,0,0,0,0,0,0,0,0,0,0,0,0,0,0,0,0,0,0,0,0,0,0,0,0,0,0],"id":7,"left_children":[1,3,5,7,9,11,13,15,17,19,21,23,25,27,29,31,33,35,37,39,41,43,45,47,49,51,53,55,57,59,61,63,65,67,69,71,73,75,77,79,81,83,-1,85,87,89,91,93,95,97,99,101,103,105,107,109,111,-1,113,115,117,119,121,-1,123,-1,-1,125,-1,127,129,131,133,135,137,139,141,143,145,-1,-1,-1,147,149,-1,151,153,155,-1,157,-1,-1,159,161,163,165,167,169,171,173,175,177,179,181,183,-1,185,187,189,191,-1,193,-1,-1,-1,195,197,199,201,203,-1,205,207,-1,-1,-1,-1,-1,-1,-1,-1,-1,-1,-1,-1,-1,-1,-1,-1,-1,-1,-1,-1,-1,-1,-1,-1,-1,-1,-1,-1,-1,-1,-1,-1,-1,-1,-1,-1,-1,-1,-1,-1,-1,-1,-1,-1,-1,-1,-1,-1,-1,-1,-1,-1,-1,-1,-1,-1,-1,-1,-1,-1,-1,-1,-1,-1,-1,-1,-1,-1,-1,-1,-1,-1,-1,-1,-1,-1,-1,-1,-1,-1,-1,-1,-1,-1,-1,-1],"loss_changes":[3.352215E3,8.135305E2,5.152029E2,2.0353687E2,1.2979228E2,2.5506454E2,8.4098145E1,1.4347974E2,7.3572754E1,3.1220747E1,3.662314E1,5.6138046E1,3.966449E1,3.2828987E1,2.0383911E1,6.2862263E0,1.1706055E1,1.3023315E1,7.981621E0,5.770561E0,1.020013E1,1.3338909E1,9.446014E0,4.8632805E1,8.9509964E1,1.941867E1,4.723419E0,8.726927E0,6.3674316E0,9.34137E0,1.04198E1,2.6027126E0,1.1245249E1,2.1949768E0,6.121338E0,1.6482239E1,4.1588593E0,4.402954E0,7.8368053E0,1.8753738E0,5.298174E0,4.918818E0,0E0,5.2840977E0,1.2172855E1,1.8361435E0,4.8566284E0,1.0624151E1,4.4791107E0,1.4204117E1,2.0669205E1,8.755882E0,8.239136E0,4.007843E0,9.493851E0,3.3048277E0,5.0931435E0,0E0,2.629425E0,1.4505295E1,5.162964E0,4.08432E0,5.584717E0,0E0,3.4251785E-1,0E0,0E0,3.4976044E0,0E0,5.7003174E0,2.6467667E0,6.9246407E0,4.932434E0,4.6117554E0,1.397481E0,2.18404E0,5.0068893E0,5.325129E0,4.759947E0,0E0,0E0,0E0,6.0579834E0,9.529446E0,0E0,6.1626625E0,4.116456E0,4.5682697E0,0E0,5.2807236E-1,0E0,0E0,2.5942078E0,6.80883E0,2.4115071E0,5.405945E0,6.8790894E0,1.1235039E1,1.4818855E1,1.0669202E1,8.989029E0,8.146889E0,1.3931465E0,2.660099E0,5.4450836E0,0E0,4.9664307E0,2.1158295E0,1.3682587E1,5.008411E-1,0E0,1.4469652E1,0E0,0E0,0E0,6.8788147E-1,8.755314E0,1.6239319E0,2.6809425E0,6.086548E0,0E0,2.0883179E-1,2.2255798E1,0E0,0E0,0E0,0E0,0E0,0E0,0E0,0E0,0E0,0E0,0E0,0E0,0E0,0E0,0E0,0E0,0E0,0E0,0E0,0E0,0E0,0E0,0E0,0E0,0E0,0E0,0E0,0E0,0E0,0E0,0E0,0E0,0E0,0E0,0E0,0E0,0E0,0E0,0E0,0E0,0E0,0E0,0E0,0E0,0E0,0E0,0E0,0E0,0E0,0E0,0E0,0E0,0E0,0E0,0E0,0E0,0E0,0E0,0E0,0E0,0E0,0E0,0E0,0E0,0E0,0E0,0E0,0E0,0E0,0E0,0E0,0E0,0E0,0E0,0E0,0E0,0E0,0E0,0E0,0E0,0E0,0E0,0E0,0E0,0E0,0E0],"parents":[2147483647,0,0,1,1,2,2,3,3,4,4,5,5,6,6,7,7,8,8,9,9,10,10,11,11,12,12,13,13,14,14,15,15,16,16,17,17,18,18,19,19,20,20,21,21,22,22,23,23,24,24,25,25,26,26,27,27,28,28,29,29,30,30,31,31,32,32,33,33,34,34,35,35,36,36,37,37,38,38,39,39,40,40,41,41,43,43,44,44,45,45,46,46,47,47,48,48,49,49,50,50,51,51,52,52,53,53,54,54,55,55,56,56,58,58,59,59,60,60,61,61,62,62,64,64,67,67,69,69,70,70,71,71,72,72,73,73,74,74,75,75,76,76,77,77,78,78,82,82,83,83,85,85,86,86,87,87,89,89,92,92,93,93,94,94,95,95,96,96,97,97,98,98,99,99,100,100,101,101,102,102,103,103,104,104,106,106,107,107,108,108,109,109,111,111,115,115,116,116,117,117,118,118,119,119,121,121,122,122],"right_children":[2,4,6,8,10,12,14,16,18,20,22,24,26,28,30,32,34,36,38,40,42,44,46,48,50,52,54,56,58,60,62,64,66,68,70,72,74,76,78,80,82,84,-1,86,88,90,92,94,96,98,100,102,104,106,108,110,112,-1,114,116,118,120,122,-1,124,-1,-1,126,-1,128,130,132,134,136,138,140,142,144,146,-1,-1,-1,148,150,-1,152,154,156,-1,158,-1,-1,160,162,164,166,168,170,172,174,176,178,180,182,184,-1,186,188,190,192,-1,194,-1,-1,-1,196,198,200,202,204,-1,206,208,-1,-1,-1,-1,-1,-1,-1,-1,-1,-1,-1,-1,-1,-1,-1,-1,-1,-1,-1,-1,-1,-1,-1,-1,-1,-1,-1,-1,-1,-1,-1,-1,-1,-1,-1,-1,-1,-1,-1,-1,-1,-1,-1,-1,-1,-1,-1,-1,-1,-1,-1,-1,-1,-1,-1,-1,-1,-1,-1,-1,-1,-1,-1,-1,-1,-1,-1,-1,-1,-1,-1,-1,-1,-1,-1,-1,-1,-1,-1,-1,-1,-1,-1,-1,-1,-1],"split_conditions":[6E0,4.5983E2,2.3E1,2E0,6E0,3.9E1,6E0,1E0,4E0,2.8E1,4.4E1,7.293E1,5.7E1,6.1E1,2.7E1,2E0,5.17E0,1.5E1,3.1248E2,2E0,1.19817E3,1.7E1,1E0,4E0,4E0,5E0,1.3E1,3E0,1E1,1E0,1E1,6E0,3E0,1.3E1,1.7E1,1.882E1,2.3E1,1.2966E2,8.8E1,4.9692E2,9.2E1,1.222E3,4.9328465E-2,7.9092E2,1E1,4E0,9E0,6E0,1.6E1,1.7E1,2.8E1,1.2E1,2.9E-1,5E0,2.98597E3,4E0,3.9E-1,4.2539645E-2,3.3E1,1E0,2.5E1,1.9E1,1E0,8.023862E-3,9E0,-3.475997E-2,2.194115E-2,2.11E0,-2.1576319E-2,1E0,2.7214E2,1.2E1,4E0,2.4517E2,4E0,3.894E1,7E0,2.8E1,2.1E1,-2.5173025E-2,-5.1508218E-2,1.1767617E-2,1.15E2,4E1,-2.01087E-2,1.3E1,9.3317E2,2E-1,6.8865515E-2,2.03504E3,4.9349442E-2,3.718361E-2,5.62E2,3E0,2E0,7E0,9E0,2E0,2.8E1,1.8E1,6E0,6.6969E2,4.9E1,9E0,4.3E-1,3.6879722E-2,8E0,2.1E1,7.1E1,1E1,2.6523575E-2,1.37E2,5.785177E-2,1.0043899E-1,6.653589E-2,7E0,8E0,2.08E2,9E0,4.05E2,9.182076E-2,1E1,8E0,2.3581965E-2,3.7592676E-2,-2.7299674E-2,-5.0425492E-2,-5.647513E-2,-6.3404225E-2,-5.2135892E-2,-3.2374553E-2,1.3837584E-2,-2.6876407E-2,-4.4074893E-2,-1.7064044E-2,-2.8713778E-2,-4.2107664E-2,-2.870051E-3,-2.180004E-2,-1.6317278E-2,8.253999E-3,-2.5816632E-2,4.8410794E-4,-1.024338E-2,2.3889212E-2,-5.0589796E-2,-1.631751E-2,-2.2929493E-2,-5.5970596E-3,4.240091E-3,4.706958E-2,4.420677E-3,2.6271883E-2,-1.0730204E-2,1.8201426E-2,7.146139E-3,3.3632506E-2,3.228884E-2,1.6238667E-2,7.674862E-2,4.8798002E-2,-1.9470912E-3,3.4502216E-2,-3.7166532E-2,-1.217679E-2,3.6836054E-2,-6.566046E-5,5.513164E-2,2.3715215E-2,-5.2750506E-2,-2.2912156E-2,-2.2205269E-2,1.1333812E-2,-7.988914E-3,1.6855491E-2,1.6620252E-2,3.6216684E-2,-3.5266406E-3,3.000565E-2,4.412855E-2,7.3082425E-2,1.4675478E-2,4.5507997E-2,6.705201E-2,4.0621616E-2,6.831905E-2,3.151802E-2,8.110677E-2,1.1570385E-1,1.4157759E-2,7.464355E-2,3.8903134E-3,-8.35988E-3,4.1459933E-2,-1.1306301E-2,7.2186545E-2,5.5776834E-2,-1.2785737E-2,4.0371954E-2,6.5337054E-2,9.3504936E-2,3.8946673E-2,6.81183E-2,7.0170484E-2,4.126572E-2,7.732203E-2,9.622998E-2,4.8207738E-2,8.580536E-2],"split_indices":[1,5,20,14,14,12,3,16,14,12,12,11,12,12,20,2,11,12,5,14,5,16,13,3,14,13,14,3,14,13,3,20,3,4,12,11,12,5,4,11,4,11,0,11,14,3,14,2,20,16,12,14,10,3,11,14,10,0,20,14,20,14,16,0,20,0,0,11,0,14,11,4,3,11,1,11,14,12,12,0,0,0,4,12,0,16,5,10,0,11,0,0,4,3,3,2,2,14,12,16,3,5,12,14,10,0,2,16,12,2,0,4,0,0,0,2,3,4,14,4,0,2,14,0,0,0,0,0,0,0,0,0,0,0,0,0,0,0,0,0,0,0,0,0,0,0,0,0,0,0,0,0,0,0,0,0,0,0,0,0,0,0,0,0,0,0,0,0,0,0,0,0,0,0,0,0,0,0,0,0,0,0,0,0,0,0,0,0,0,0,0,0,0,0,0,0,0,0,0,0,0,0,0,0,0,0,0,0,0],"split_type":[0,0,0,0,0,0,0,0,0,0,0,0,0,0,0,0,0,0,0,0,0,0,0,0,0,0,0,0,0,0,0,0,0,0,0,0,0,0,0,0,0,0,0,0,0,0,0,0,0,0,0,0,0,0,0,0,0,0,0,0,0,0,0,0,0,0,0,0,0,0,0,0,0,0,0,0,0,0,0,0,0,0,0,0,0,0,0,0,0,0,0,0,0,0,0,0,0,0,0,0,0,0,0,0,0,0,0,0,0,0,0,0,0,0,0,0,0,0,0,0,0,0,0,0,0,0,0,0,0,0,0,0,0,0,0,0,0,0,0,0,0,0,0,0,0,0,0,0,0,0,0,0,0,0,0,0,0,0,0,0,0,0,0,0,0,0,0,0,0,0,0,0,0,0,0,0,0,0,0,0,0,0,0,0,0,0,0,0,0,0,0,0,0,0,0,0,0,0,0,0,0,0,0,0,0,0,0,0,0],"sum_hessian":[1.617872E4,1.0375661E4,5.803058E3,8.399257E3,1.9764049E3,3.6397E3,2.163358E3,3.7082637E3,4.690993E3,1.0141649E3,9.6224E2,2.3573115E3,1.2823884E3,3.8656363E2,1.7767944E3,1.8092354E2,3.5273403E3,3.1112866E3,1.5797063E3,6.1774225E2,3.9642267E2,7.0460425E2,2.576357E2,6.5480786E2,1.7025035E3,8.290119E2,4.5337662E2,2.7898996E2,1.07573654E2,3.6787836E2,1.408916E3,1.0417245E2,7.675108E1,2.4287604E2,3.284464E3,2.2434666E3,8.6782007E2,9.292914E2,6.504149E2,6.732168E1,5.504206E2,3.64769E2,3.165364E1,4.451753E2,2.59429E2,8.033645E1,1.7729926E2,2.2087819E2,4.3392966E2,6.6580457E2,1.036699E3,5.16197E2,3.1281482E2,2.4322055E2,2.1015607E2,1.0320246E2,1.757875E2,3.3765465E1,7.380819E1,1.8950943E2,1.7836893E2,4.460505E2,9.6286554E2,4.5051582E1,5.9120865E1,3.811471E1,3.863637E1,2.1422426E2,2.8651773E1,3.0676892E3,2.1677502E2,2.33016E2,2.0104506E3,7.62233E2,1.0558709E2,8.21115E1,8.471799E2,5.567218E2,9.36931E1,3.492221E1,3.239947E1,3.750784E1,5.129127E2,3.2798022E2,3.678878E1,3.305458E2,1.1462948E2,2.0953505E2,4.989392E1,5.3306625E1,2.7029825E1,3.2774727E1,1.4452452E2,1.18850845E2,1.0202734E2,2.0445703E2,2.2947263E2,3.5308835E2,3.1271625E2,4.1656976E2,6.201292E2,4.6430997E2,5.188708E1,6.487811E1,2.4793672E2,4.3269455E1,1.999511E2,7.016267E1,1.399934E2,7.446356E1,2.8738897E1,1.3961015E2,3.617735E1,3.5669674E1,3.8138515E1,1.1730432E2,7.220512E1,8.969344E1,8.8675476E1,3.9851926E2,4.7531242E1,2.58872E2,7.039935E2,2.5259773E1,3.386109E1,5.303572E1,1.6118854E2,1.266739E3,1.8009502E3,1.5736308E2,5.9411938E1,2.5869186E1,2.0714682E2,1.9699696E3,4.048093E1,5.573168E2,2.0491623E2,3.1457838E1,7.412925E1,4.8256775E1,3.3854725E1,8.043352E2,4.284463E1,5.3063446E2,2.6087364E1,4.1793346E1,5.1899757E1,3.423132E2,1.7059953E2,2.9652798E2,3.145224E1,1.0827261E2,2.2227321E2,7.051513E1,4.411435E1,4.8114754E1,1.614203E2,2.5898808E1,2.7407816E1,1.1335809E2,3.116643E1,7.179013E1,4.706072E1,3.1557571E1,7.046977E1,1.7896712E2,2.5489916E1,1.7623854E2,5.3234097E1,9.957888E1,2.5350946E2,1.9397694E2,1.187393E2,2.639808E2,1.5258896E2,4.284331E2,1.916961E2,4.4911533E1,4.1939844E2,2.6770681E1,2.5116398E1,3.4750683E1,3.0127434E1,1.819907E2,6.5946014E1,1.7365718E2,2.629391E1,3.7203392E1,3.295927E1,2.6425285E1,1.13568115E2,3.258152E1,4.1882042E1,9.877797E1,4.083218E1,4.9266735E1,6.803759E1,2.757236E1,4.463275E1,2.9950453E1,5.9742992E1,3.4268616E1,5.440686E1,3.4615286E2,5.2366398E1,3.096733E1,2.2790468E2,1.09329506E2,5.94664E2],"tree_param":{"num_deleted":"0","num_feature":"21","num_nodes":"209","size_leaf_vector":"1"}},{"base_weights":[-7.882331E-2,-4.4449937E-1,6.86155E-1,-6.2414336E-1,-1.8606584E-1,3.9531967E-1,9.693523E-1,-6.917738E-1,-5.152356E-1,-2.8133103E-1,-2.161502E-2,2.7577326E-1,5.5799115E-1,8.174167E-1,1.0648583E0,-7.136566E-1,-5.102283E-1,-5.2335805E-1,1.6487002E-2,-3.42061E-1,-1.836087E-1,-3.6885163E-1,3.544572E-2,3.2894337E-1,9.123255E-2,6.481439E-1,3.7580496E-1,8.5499954E-1,4.898139E-1,1.2995399E0,9.6952397E-1,-8.4015805E-1,-6.95721E-1,-6.1130655E-1,-2.5906923E-1,-5.5959195E-1,-3.775213E-1,-3.677701E-1,-7.348398E-2,-2.3240301E-1,-9.7067736E-2,-1.4004596E-1,-5.8063674E-1,-1.5388687E-2,1.4941868E-1,2.391979E-1,4.2566288E-1,-3.7308257E-2,2.6437625E-1,8.0833906E-1,5.87068E-1,-7.7068717E-3,4.1391975E-1,9.3897474E-1,8.108644E-1,4.0998855E-3,6.668419E-1,1.5771612E0,1.1692022E0,2.9228443E-2,9.8497736E-1,-8.4700085E-2,-8.185215E-1,-5.947735E-1,-7.137031E-1,-4.254667E-1,-6.8188417E-1,5.005921E-3,-3.7176862E-1,-5.90078E-1,-4.5294788E-1,6.374001E-3,-4.0336886E-1,-5.9120756E-1,-3.4445566E-1,-1.5631928E-1,2.2900583E-2,-1.3420859E-1,-3.475153E-1,2.5805915E-2,-1.6117612E-1,-1.3967658E-2,-3.9251056E-2,-5.064311E-1,-5.7393424E-2,1.1206103E-1,-1.2684552E-1,1.8894784E-1,-1.3538358E-1,3.294599E-1,1.2747088E-1,5.993143E-1,2.9595506E-1,-3.277407E-1,7.2043486E-2,3.6942247E-1,2.773108E-3,9.61458E-2,6.258958E-1,4.1014808E-1,7.0092666E-1,5.116544E-1,2.4908331E-1,1.0389624E-1,8.8646543E-1,4.6861202E-1,8.49357E-1,6.592215E-2,3.967186E-2,9.765456E-2,1.6528897E0,6.508863E-2,1.1984292E0,9.4064015E-1,1.1426013E0,-4.508827E-2,-6.365039E-2,-4.6486154E-2,-3.0810235E-2,-5.7456456E-2,-4.8503533E-2,-5.682321E-2,-1.3493918E-2,-4.1088145E-2,-5.4529212E-2,-3.895715E-2,-1.5526049E-2,-4.345785E-2,-6.150565E-2,-3.872307E-2,-1.9873196E-2,-3.37074E-2,-1.9926537E-2,-3.2208145E-2,-5.597999E-2,-2.242969E-2,-3.2197103E-2,-7.866334E-4,-2.7373638E-2,-1.46058155E-2,4.7243275E-3,-7.7707047E-4,-2.8639248E-2,-1.3973676E-2,1.1998423E-2,-2.701809E-2,-4.67086E-3,1.3780029E-2,-1.4496707E-2,-4.2286262E-2,-2.7172549E-2,-2.8567607E-4,2.0005377E-2,-6.6035767E-3,-3.337146E-2,9.564722E-3,2.8645488E-2,-2.6877258E-2,6.096128E-3,4.785947E-2,1.7893296E-2,2.3825647E-2,1.866883E-3,6.367803E-2,3.451018E-2,7.420648E-3,3.0480223E-2,-1.6803779E-2,-3.1628557E-2,1.7108511E-2,-7.868637E-3,4.394538E-3,3.8103126E-2,3.326678E-2,5.2887682E-2,3.505243E-2,7.408129E-3,1.49468975E-2,5.5851545E-2,2.5225636E-2,5.2395754E-2,3.6323883E-2,2.6749251E-3,3.48619E-2,7.033653E-2,5.36507E-2,1.5326741E-2,6.797723E-2,4.8363194E-2,1.0166193E-1,1.3250642E-1,9.26096E-2,6.894332E-2,7.298398E-2,5.1174004E-2,6.0228143E-2,9.234948E-2],"categories":[],"categories_nodes":[],"categories_segments":[],"categories_sizes":[],"default_left":[0,0,0,0,0,0,0,0,0,0,0,0,0,0,0,0,0,0,0,0,0,0,0,0,0,0,0,0,0,0,0,0,0,0,0,0,0,0,0,0,0,0,0,0,0,0,0,0,0,0,0,0,0,0,0,0,0,0,0,0,0,0,0,0,0,0,0,0,0,0,0,0,0,0,0,0,0,0,0,0,0,0,0,0,0,0,0,0,0,0,0,0,0,0,0,0,0,0,0,0,0,0,0,0,0,0,0,0,0,0,0,0,0,0,0,0,0,0,0,0,0,0,0,0,0,0,0,0,0,0,0,0,0,0,0,0,0,0,0,0,0,0,0,0,0,0,0,0,0,0,0,0,0,0,0,0,0,0,0,0,0,0,0,0,0,0,0,0,0,0,0,0,0,0,0,0,0,0,0,0,0,0,0,0,0,0,0,0,0,0,0,0,0,0,0,0,0],"id":8,"left_children":[1,3,5,7,9,11,13,15,17,19,21,23,25,27,29,31,33,35,-1,37,39,41,43,45,47,49,51,53,55,57,59,61,63,65,67,69,71,73,75,77,79,81,83,85,87,89,91,93,95,97,99,-1,101,103,105,-1,107,109,111,-1,113,-1,115,117,119,121,123,-1,125,127,129,-1,131,133,135,137,-1,139,141,143,145,147,-1,149,-1,151,153,155,157,159,161,163,165,167,169,171,-1,-1,173,175,177,179,181,-1,183,185,187,-1,-1,-1,189,-1,191,193,195,-1,-1,-1,-1,-1,-1,-1,-1,-1,-1,-1,-1,-1,-1,-1,-1,-1,-1,-1,-1,-1,-1,-1,-1,-1,-1,-1,-1,-1,-1,-1,-1,-1,-1,-1,-1,-1,-1,-1,-1,-1,-1,-1,-1,-1,-1,-1,-1,-1,-1,-1,-1,-1,-1,-1,-1,-1,-1,-1,-1,-1,-1,-1,-1,-1,-1,-1,-1,-1,-1,-1,-1,-1,-1,-1,-1,-1,-1,-1,-1,-1,-1],"loss_changes":[4.476482E3,5.0253516E2,4.258994E2,4.6684326E1,6.957266E1,4.9533752E1,3.7170166E1,1.5276978E1,1.4746338E1,1.6626099E1,3.2312393E1,1.4440033E1,1.7516937E1,1.2092346E1,3.4680176E1,7.381592E0,1.0682236E1,1.2598389E1,0E0,1.19401245E1,4.5377655E0,1.107176E1,8.119337E0,9.832428E0,7.3820257E0,6.589508E0,6.6151886E0,2.6121216E0,8.199799E0,1.4841187E1,9.886841E0,1.7733765E0,5.1679688E0,3.6938553E0,4.5880194E0,6.0386963E0,5.838249E0,8.034851E0,4.8381853E0,7.7511635E0,3.084844E0,5.4029217E0,1.2454987E0,1.3789956E1,4.8916025E0,5.9677277E0,1.2200752E1,6.089145E0,3.3606844E0,1.6188126E1,1.0315552E1,0E0,5.2526207E0,5.972595E0,7.55896E0,0E0,1.7552834E0,8.5723877E-1,1.757782E0,0E0,6.723755E0,0E0,2.142395E0,1.9190674E0,8.663452E0,6.899802E0,9.2459106E-1,0E0,2.1424599E0,3.2080688E0,5.050026E0,0E0,2.7977753E0,3.3957672E0,5.395874E0,3.828119E0,0E0,4.4759593E0,3.665741E0,3.870607E0,5.0398707E0,3.0585346E0,0E0,5.23468E-1,0E0,8.119131E0,6.351619E0,4.4551134E0,2.602325E0,9.07687E0,5.2196655E0,7.742302E0,6.84795E0,4.162984E-1,3.8784268E0,4.128664E0,0E0,0E0,1.7673187E0,3.6687698E0,6.850891E0,6.605316E0,6.3210616E0,0E0,5.576935E0,3.9804516E0,5.7308655E0,0E0,0E0,0E0,1.315155E0,0E0,1.7782593E0,6.6903076E0,6.25119E0,0E0,0E0,0E0,0E0,0E0,0E0,0E0,0E0,0E0,0E0,0E0,0E0,0E0,0E0,0E0,0E0,0E0,0E0,0E0,0E0,0E0,0E0,0E0,0E0,0E0,0E0,0E0,0E0,0E0,0E0,0E0,0E0,0E0,0E0,0E0,0E0,0E0,0E0,0E0,0E0,0E0,0E0,0E0,0E0,0E0,0E0,0E0,0E0,0E0,0E0,0E0,0E0,0E0,0E0,0E0,0E0,0E0,0E0,0E0,0E0,0E0,0E0,0E0,0E0,0E0,0E0,0E0,0E0,0E0,0E0,0E0,0E0,0E0,0E0,0E0,0E0,0E0,0E0,0E0,0E0,0E0,0E0],"parents":[2147483647,0,0,1,1,2,2,3,3,4,4,5,5,6,6,7,7,8,8,9,9,10,10,11,11,12,12,13,13,14,14,15,15,16,16,17,17,19,19,20,20,21,21,22,22,23,23,24,24,25,25,26,26,27,27,28,28,29,29,30,30,31,31,32,32,33,33,34,34,35,35,36,36,37,37,38,38,39,39,40,40,41,41,42,42,43,43,44,44,45,45,46,46,47,47,48,48,49,49,50,50,52,52,53,53,54,54,56,56,57,57,58,58,60,60,62,62,63,63,64,64,65,65,66,66,68,68,69,69,70,70,72,72,73,73,74,74,75,75,77,77,78,78,79,79,80,80,81,81,83,83,85,85,86,86,87,87,88,88,89,89,90,90,91,91,92,92,93,93,94,94,95,95,98,98,99,99,100,100,101,101,102,102,104,104,105,105,106,106,110,110,112,112,113,113,114,114],"right_children":[2,4,6,8,10,12,14,16,18,20,22,24,26,28,30,32,34,36,-1,38,40,42,44,46,48,50,52,54,56,58,60,62,64,66,68,70,